{"learner":{"attributes":{"best_iteration":"2","best_score":"0.0455299541285324","scikit_learn":"{\"_estimator_type\": \"regressor\"}"},"feature_names":[],"feature_types":[],"gradient_booster":{"model":{"cats":{"enc":[],"feature_segments":[],"sorted_idx":[]},"gbtree_model_param":{"num_parallel_tree":"1","num_trees":"43"},"iteration_indptr":[0,1,2,3,4,5,6,7,8,9,10,11,12,13,14,15,16,17,18,19,20,21,22,23,24,25,26,27,28,29,30,31,32,33,34,35,36,37,38,39,40,41,42,43],"tree_info":[0,0,0,0,0,0,0,0,0,0,0,0,0,0,0,0,0,0,0,0,0,0,0,0,0,0,0,0,0,0,0,0,0,0,0,0,0,0,0,0,0,0,0],"trees":[{"base_weights":[-1.6818035E-6,4.229366E-2,-1.3440251E-3,3.6224816E-2,4.999185E-3,-1.3103274E-4,-1.9465227E-3,1.9470148E-2,6.109914E-2,1.9643728E-3,-1.7541694E-2,-6.8158977E-4,1.8691187E-3,6.0901674E-3,1.7181097E-3,3.2239838E-3,-2.1304969E-2,1.1576407E-2,-2.966551E-2,-3.540454E-5,7.713732E-4,-1.7024182E-3,1.2596503E-4,-1.6327937E-4,1.3204049E-3,-3.2591708E-3,-5.563267E-4],"categories":[],"categories_nodes":[],"categories_segments":[],"categories_sizes":[],"default_left":[0,0,0,0,0,0,0,0,0,0,0,0,0,0,0,0,0,0,0,0,0,0,0,0,0,0,0],"id":0,"left_children":[1,3,5,7,-1,9,-1,11,13,15,17,-1,-1,-1,-1,19,21,23,25,-1,-1,-1,-1,-1,-1,-1,-1],"loss_changes":[1.0803903E-1,1.1860162E-2,8.378023E-2,1.809021E-2,0E0,6.732175E-2,0E0,2.1898389E-2,2.3371443E-2,4.677422E-2,7.115114E-2,0E0,0E0,0E0,0E0,7.4854255E-2,2.6362907E-2,1.3857829E-2,8.899476E-2,0E0,0E0,0E0,0E0,0E0,0E0,0E0,0E0],"parents":[2147483647,0,0,1,1,2,2,3,3,5,5,7,7,8,8,9,9,10,10,15,15,16,16,17,17,18,18],"right_children":[2,4,6,8,-1,10,-1,12,14,16,18,-1,-1,-1,-1,20,22,24,26,-1,-1,-1,-1,-1,-1,-1,-1],"split_conditions":[-1.6436334E0,4.1447577E0,2.409317E0,-1.5965625E0,4.999185E-3,1.060507E0,-1.9465227E-3,-8.048706E-2,-1.2881979E0,1.4918574E0,-4.8358938E-1,-6.8158977E-4,1.8691187E-3,6.0901674E-3,1.7181097E-3,6.9073044E-2,1.0057325E0,-1.1341639E-1,-1.19047716E-1,-3.540454E-5,7.713732E-4,-1.7024182E-3,1.2596503E-4,-1.6327937E-4,1.3204049E-3,-3.2591708E-3,-5.563267E-4],"split_indices":[2,19,16,12,0,19,0,0,12,15,10,0,0,0,0,7,1,15,10,0,0,0,0,0,0,0,0],"split_type":[0,0,0,0,0,0,0,0,0,0,0,0,0,0,0,0,0,0,0,0,0,0,0,0,0,0,0],"sum_hessian":[1.938E3,5.8E1,1.88E3,5.4E1,4E0,1.823E3,5.7E1,3.4E1,2E1,1.625E3,1.98E2,1.1E1,2.3E1,5E0,1.5E1,1.544E3,8.1E1,5.7E1,1.41E2,1.165E3,3.79E2,5.4E1,2.7E1,2.7E1,3E1,4.7E1,9.4E1],"tree_param":{"num_deleted":"0","num_feature":"20","num_nodes":"27","size_leaf_vector":"1"}},{"base_weights":[1.1131452E-4,4.0227875E-2,-1.2260119E-3,7.399178E-2,2.7991697E-2,-1.2069657E-5,-1.8328608E-3,5.2526314E-3,7.605591E-4,2.5053571E-3,-6.6934794E-4,-1.437463E-2,2.1175845E-3,1.8786397E-3,-2.3136552E-2,3.5825914E-3,-2.0020023E-2,-1.856007E-3,-2.459405E-4,9.068156E-5,1.2288872E-3,-2.112668E-3,2.947003E-4],"categories":[],"categories_nodes":[],"categories_segments":[],"categories_sizes":[],"default_left":[0,0,0,0,0,0,0,0,0,0,0,0,0,0,0,0,0,0,0,0,0,0,0],"id":1,"left_children":[1,3,5,7,9,11,-1,-1,-1,-1,-1,13,15,-1,17,19,21,-1,-1,-1,-1,-1,-1],"loss_changes":[1.0554402E-1,2.0099714E-2,7.849016E-2,2.1487333E-2,4.6554107E-2,5.591459E-2,0E0,0E0,0E0,0E0,0E0,1.0735802E-1,5.018048E-2,0E0,4.9648277E-2,5.3494744E-2,5.696532E-2,0E0,0E0,0E0,0E0,0E0,0E0],"parents":[2147483647,0,0,1,1,2,2,3,3,4,4,5,5,11,11,12,12,14,14,15,15,16,16],"right_children":[2,4,6,8,10,12,-1,-1,-1,-1,-1,14,16,-1,18,20,22,-1,-1,-1,-1,-1,-1],"split_conditions":[-1.6436334E0,-1.7099795E0,2.409317E0,-1.2881979E0,2.2607923E0,-9.8443055E-1,-1.8328608E-3,5.2526314E-3,7.605591E-4,2.5053571E-3,-6.6934794E-4,-1.716679E0,1.4918574E0,1.8786397E-3,8.47182E-1,1.4612924E0,1.1125844E0,-1.856007E-3,-2.459405E-4,9.068156E-5,1.2288872E-3,-2.112668E-3,2.947003E-4],"split_indices":[2,2,16,12,9,5,0,0,0,0,0,5,15,0,0,6,1,0,0,0,0,0,0],"split_type":[0,0,0,0,0,0,0,0,0,0,0,0,0,0,0,0,0,0,0,0,0,0,0],"sum_hessian":[1.93E3,6.3E1,1.867E3,1.5E1,4.8E1,1.807E3,6E1,9E0,6E0,3.2E1,1.6E1,2.36E2,1.571E3,3.3E1,2.03E2,1.476E3,9.5E1,1.13E2,9E1,1.364E3,1.12E2,5.2E1,4.3E1],"tree_param":{"num_deleted":"0","num_feature":"20","num_nodes":"23","size_leaf_vector":"1"}},{"base_weights":[2.3021517E-5,4.009807E-2,-1.146205E-3,6.687911E-2,2.8118934E-2,-1.6523588E-2,1.3945203E-3,-0E0,5.2570603E-3,2.309879E-3,-0E0,1.8326072E-3,-2.38135E-2,3.005592E-3,-2.2565428E-2,-3.740822E-2,-7.5428193E-3,1.4531714E-3,2.3608472E-2,-1.5840061E-2,-3.9737327E-3,-2.545672E-3,5.159031E-4,-6.3615874E-4,1.4582834E-3,2.13559E-4,-3.662662E-4,6.7339145E-4,2.397395E-3,-1.5192862E-3,4.91872E-4],"categories":[],"categories_nodes":[],"categories_segments":[],"categories_sizes":[],"default_left":[0,0,0,0,0,0,0,0,0,0,0,0,0,0,0,0,0,0,0,0,0,0,0,0,0,0,0,0,0,0,0],"id":2,"left_children":[1,3,5,7,9,11,13,-1,-1,-1,-1,-1,15,17,19,21,23,25,27,29,-1,-1,-1,-1,-1,-1,-1,-1,-1,-1,-1],"loss_changes":[9.167795E-2,1.2114972E-2,7.3418096E-2,3.5690755E-2,2.2400204E-2,1.0310221E-1,6.0566917E-2,0E0,0E0,0E0,0E0,0E0,4.9702883E-2,4.6562333E-2,3.2304257E-2,8.3828464E-2,2.0186264E-2,3.4335166E-2,2.1905128E-2,3.4604788E-2,0E0,0E0,0E0,0E0,0E0,0E0,0E0,0E0,0E0,0E0,0E0],"parents":[2147483647,0,0,1,1,2,2,3,3,4,4,5,5,6,6,12,12,13,13,14,14,15,15,16,16,17,17,18,18,19,19],"right_children":[2,4,6,8,10,12,14,-1,-1,-1,-1,-1,16,18,20,22,24,26,28,30,-1,-1,-1,-1,-1,-1,-1,-1,-1,-1,-1],"split_conditions":[-1.6436334E0,-1.7099795E0,-9.8443055E-1,-2.5884E-1,2.2607923E0,-1.8561974E0,1.4918574E0,-0E0,5.2570603E-3,2.309879E-3,-0E0,1.8326072E-3,-6.5495545E-1,1.4612924E0,1.4485373E0,3.090251E0,3.0959494E0,3.6548454E-1,7.900201E-1,1.3289596E0,-3.9737327E-3,-2.545672E-3,5.159031E-4,-6.3615874E-4,1.4582834E-3,2.13559E-4,-3.662662E-4,6.7339145E-4,2.397395E-3,-1.5192862E-3,4.91872E-4],"split_indices":[2,2,5,16,9,5,15,0,0,0,0,0,4,6,12,19,0,6,19,1,0,0,0,0,0,0,0,0,0,0,0],"split_type":[0,0,0,0,0,0,0,0,0,0,0,0,0,0,0,0,0,0,0,0,0,0,0,0,0,0,0,0,0,0,0],"sum_hessian":[1.914E3,5.5E1,1.859E3,1.5E1,4E1,2.66E2,1.593E3,6E0,9E0,2.5E1,1.5E1,3.1E1,2.35E2,1.495E3,9.8E1,1.26E2,1.09E2,1.393E3,1.02E2,8.9E1,9E0,9.9E1,2.7E1,9.7E1,1.2E1,1.059E3,3.34E2,7.4E1,2.8E1,5.8E1,3.1E1],"tree_param":{"num_deleted":"0","num_feature":"20","num_nodes":"31","size_leaf_vector":"1"}},{"base_weights":[-7.4742675E-5,2.1029569E-3,-1.156949E-3,-2.189731E-2,1.6554954E-3,-3.1096756E-2,-2.0011617E-3,3.4750384E-4,3.1455565E-2,-4.08884E-2,4.695681E-4,-6.537129E-3,2.3203995E-3,1.9008014E-3,-2.0754546E-2,6.1121527E-2,1.7561132E-2,-4.2138333E-3,-1.614131E-3,1.0678874E-4,-2.1478138E-3,8.157497E-6,1.1385413E-3,-7.062761E-4,-3.8279784E-3,4.0379567E-3,-1.575622E-3,-1.0235988E-3,1.3280577E-3],"categories":[],"categories_nodes":[],"categories_segments":[],"categories_sizes":[],"default_left":[0,0,0,0,0,0,0,0,0,0,0,0,0,0,0,0,0,0,0,0,0,0,0,0,0,0,0,0,0],"id":3,"left_children":[1,-1,3,5,7,9,11,13,15,17,-1,19,-1,21,23,25,27,-1,-1,-1,-1,-1,-1,-1,-1,-1,-1,-1,-1],"loss_changes":[8.655246E-2,0E0,1.1159684E-1,4.0137157E-2,6.34006E-2,6.301762E-2,1.4517027E-2,5.150507E-2,2.376432E-2,3.967212E-2,0E0,2.4039151E-2,0E0,5.2976698E-2,3.469281E-2,4.1026533E-2,1.7177831E-2,0E0,0E0,0E0,0E0,0E0,0E0,0E0,0E0,0E0,0E0,0E0,0E0],"parents":[2147483647,0,0,2,2,3,3,4,4,5,5,6,6,7,7,8,8,9,9,11,11,13,13,14,14,15,15,16,16],"right_children":[2,-1,4,6,8,10,12,14,16,18,-1,20,-1,22,24,26,28,-1,-1,-1,-1,-1,-1,-1,-1,-1,-1,-1,-1],"split_conditions":[-1.8561974E0,2.1029569E-3,-9.8443055E-1,7.932627E-1,6.838077E-1,3.090251E0,3.2760983E0,1.4918574E0,-4.221509E-1,-1.2496524E0,4.695681E-4,2.0606053E0,2.3203995E-3,1.4612924E0,1.487083E0,-8.6419666E-1,-1.4467788E-1,-4.2138333E-3,-1.614131E-3,1.0678874E-4,-2.1478138E-3,8.157497E-6,1.1385413E-3,-7.062761E-4,-3.8279784E-3,4.0379567E-3,-1.575622E-3,-1.0235988E-3,1.3280577E-3],"split_indices":[5,0,5,12,7,19,0,15,0,12,0,0,0,6,12,12,0,0,0,0,0,0,0,0,0,0,0,0,0],"split_type":[0,0,0,0,0,0,0,0,0,0,0,0,0,0,0,0,0,0,0,0,0,0,0,0,0,0,0,0,0],"sum_hessian":[1.942E3,4.7E1,1.895E3,2.28E2,1.667E3,1.54E2,7.4E1,1.599E3,6.8E1,1.25E2,2.9E1,6.9E1,5E0,1.492E3,1.07E2,2E1,4.8E1,1.9E1,1.06E2,5.5E1,1.4E1,1.38E3,1.12E2,9.7E1,1E1,1.7E1,3E0,8E0,4E1],"tree_param":{"num_deleted":"0","num_feature":"20","num_nodes":"29","size_leaf_vector":"1"}},{"base_weights":[3.862812E-4,4.1744065E-2,-8.958146E-4,4.9576774E-2,-0E0,7.455888E-5,-1.7162947E-3,8.243367E-2,3.169483E-2,-5.8518145E-3,4.059299E-3,1.8918766E-3,6.337994E-3,-4.7040716E-4,2.1133765E-3,-1.0635414E-2,8.556527E-3,6.6955495E-3,-2.2803236E-2,-3.6334115E-4,-1.6777763E-3,1.0599274E-3,-0E0,-5.163652E-5,6.895994E-4,-0E0,-1.9007393E-3],"categories":[],"categories_nodes":[],"categories_segments":[],"categories_sizes":[],"default_left":[0,0,0,0,0,0,0,0,0,0,0,0,0,0,0,0,0,0,0,0,0,0,0,0,0,0,0],"id":4,"left_children":[1,3,5,7,-1,9,-1,11,13,15,17,-1,-1,-1,-1,19,21,23,25,-1,-1,-1,-1,-1,-1,-1,-1],"loss_changes":[1.0490241E-1,2.0439029E-2,6.271663E-2,2.2658251E-2,0E0,4.3055154E-2,0E0,2.1988817E-2,1.6834438E-2,5.0429307E-2,7.699193E-2,0E0,0E0,0E0,0E0,4.034024E-2,1.9437991E-2,5.5570602E-2,3.4360938E-2,0E0,0E0,0E0,0E0,0E0,0E0,0E0,0E0],"parents":[2147483647,0,0,1,1,2,2,3,3,5,5,7,7,8,8,9,9,10,10,15,15,16,16,17,17,18,18],"right_children":[2,4,6,8,-1,10,-1,12,14,16,18,-1,-1,-1,-1,20,22,24,26,-1,-1,-1,-1,-1,-1,-1,-1],"split_conditions":[-1.6436334E0,-1.6329257E-1,2.409317E0,-4.221509E-1,-0E0,2.4541087E-2,-1.7162947E-3,4.156158E-1,-7.220411E-2,1.3270783E-1,1.4918574E0,1.8918766E-3,6.337994E-3,-4.7040716E-4,2.1133765E-3,1.9309378E-1,-2.773556E-2,-4.6977586E-1,-4.8358938E-1,-3.6334115E-4,-1.6777763E-3,1.0599274E-3,-0E0,-5.163652E-5,6.895994E-4,-0E0,-1.9007393E-3],"split_indices":[2,15,16,0,0,7,0,4,0,16,15,0,0,0,0,8,7,0,10,0,0,0,0,0,0,0,0],"split_type":[0,0,0,0,0,0,0,0,0,0,0,0,0,0,0,0,0,0,0,0,0,0,0,0,0,0,0],"sum_hessian":[1.939E3,5.9E1,1.88E3,5E1,9E0,1.826E3,5.4E1,1.6E1,3.4E1,7.29E2,1.097E3,9E0,7E0,6E0,2.8E1,5.5E2,1.79E2,1.001E3,9.6E1,4.82E2,6.8E1,7.2E1,1.07E2,4.76E2,5.25E2,3.8E1,5.8E1],"tree_param":{"num_deleted":"0","num_feature":"20","num_nodes":"27","size_leaf_vector":"1"}},{"base_weights":[-3.4707732E-4,-1.2944515E-2,1.718473E-3,1.6389398E-3,-2.108307E-2,2.685371E-2,8.60965E-4,-3.3014987E-2,-6.418918E-3,-1.0501415E-4,3.385677E-2,1.644692E-2,-4.8679125E-4,-5.977959E-2,-1.7313648E-2,-1.2252828E-2,1.1902058E-3,3.5286283E-3,1.5996717E-2,1.2979367E-3,2.3930093E-4,-1.3506675E-2,8.791003E-4,-4.7258004E-3,-2.313827E-3,-2.2710073E-3,-3.6580834E-4,-1.09251756E-4,-2.0033924E-3,-7.776925E-4,1.3684704E-3,1.5081419E-4,-2.2332622E-3,2.5028564E-4,-2.8152313E-4],"categories":[],"categories_nodes":[],"categories_segments":[],"categories_sizes":[],"default_left":[0,0,0,0,0,0,0,0,0,0,0,0,0,0,0,0,0,0,0,0,0,0,0,0,0,0,0,0,0,0,0,0,0,0,0],"id":5,"left_children":[1,3,5,-1,7,9,11,13,15,-1,17,19,21,23,25,27,-1,-1,29,-1,-1,31,33,-1,-1,-1,-1,-1,-1,-1,-1,-1,-1,-1,-1],"loss_changes":[5.1559877E-2,1.0376875E-1,3.4823645E-2,0E0,3.9653018E-2,1.2471389E-2,3.4989387E-2,5.0048918E-2,1.887514E-2,0E0,2.4287764E-2,1.3097055E-2,2.7232911E-2,1.2584165E-2,2.0660046E-2,2.4026938E-2,0E0,0E0,1.2106296E-2,0E0,0E0,7.705783E-2,3.6260583E-2,0E0,0E0,0E0,0E0,0E0,0E0,0E0,0E0,0E0,0E0,0E0,0E0],"parents":[2147483647,0,0,1,1,2,2,4,4,5,5,6,6,7,7,8,8,10,10,11,11,12,12,13,13,14,14,15,15,18,18,21,21,22,22],"right_children":[2,4,6,-1,8,10,12,14,16,-1,18,20,22,24,26,28,-1,-1,30,-1,-1,32,34,-1,-1,-1,-1,-1,-1,-1,-1,-1,-1,-1,-1],"split_conditions":[-9.8443055E-1,-1.8561974E0,-7.2414674E-2,1.6389398E-3,8.47182E-1,-1.0495692E0,-8.2551557E-1,-1.19047716E-1,1.5854043E0,-1.0501415E-4,-4.221509E-1,-3.938311E-1,-6.0335547E-1,-1.2072E0,-1.2580658E0,5.6363285E-1,1.1902058E-3,3.5286283E-3,-1.4467788E-1,1.2979367E-3,2.3930093E-4,1.20759524E-1,3.6548454E-1,-4.7258004E-3,-2.313827E-3,-2.2710073E-3,-3.6580834E-4,-1.09251756E-4,-2.0033924E-3,-7.776925E-4,1.3684704E-3,1.5081419E-4,-2.2332622E-3,2.5028564E-4,-2.8152313E-4],"split_indices":[5,5,17,0,0,0,6,10,1,0,0,16,4,2,15,1,0,0,0,0,0,2,6,0,0,0,0,0,0,0,0,0,0,0,0],"split_type":[0,0,0,0,0,0,0,0,0,0,0,0,0,0,0,0,0,0,0,0,0,0,0,0,0,0,0,0,0,0,0,0,0,0,0],"sum_hessian":[1.959E3,2.79E2,1.68E3,4.1E1,2.38E2,5.3E1,1.627E3,1.29E2,1.09E2,9E0,4.4E1,1.32E2,1.495E3,4.6E1,8.3E1,9.3E1,1.6E1,1.3E1,3.1E1,7E1,6.2E1,1.45E2,1.35E3,1.1E1,3.5E1,2E1,6.3E1,7E1,2.3E1,7E0,2.4E1,9.4E1,5.1E1,8.31E2,5.19E2],"tree_param":{"num_deleted":"0","num_feature":"20","num_nodes":"35","size_leaf_vector":"1"}},{"base_weights":[-0E0,3.671853E-2,-1.1392519E-3,4.7887642E-8,4.738624E-2,-1.557186E-2,1.2228753E-3,5.1181507E-3,3.0111678E-2,1.435961E-3,-2.2079173E-2,2.9072962E-3,-2.313433E-2,-0E0,2.0413506E-3,-3.527737E-2,-6.913103E-3,1.3036E-3,2.2781743E-2,1.3593026E-2,-2.863184E-2,-2.276062E-3,1.5115042E-4,-5.595642E-4,1.5004971E-3,8.6750084E-4,-1.0392316E-5,7.458722E-4,2.3371396E-3,2.9105376E-3,-6.6830876E-4,-1.6193778E-3,4.2119413E-4],"categories":[],"categories_nodes":[],"categories_segments":[],"categories_sizes":[],"default_left":[0,0,0,0,0,0,0,0,0,0,0,0,0,0,0,0,0,0,0,0,0,0,0,0,0,0,0,0,0,0,0,0,0],"id":6,"left_children":[1,3,5,-1,7,9,11,-1,13,-1,15,17,19,-1,-1,21,23,25,27,29,31,-1,-1,-1,-1,-1,-1,-1,-1,-1,-1,-1,-1],"loss_changes":[7.9965085E-2,2.0152934E-2,6.483632E-2,0E0,3.314703E-2,7.708282E-2,6.522061E-2,0E0,1.1222936E-2,0E0,4.4707194E-2,4.695628E-2,2.1642208E-2,0E0,0E0,5.0648198E-2,1.6839921E-2,3.484991E-2,1.7390616E-2,1.7666986E-2,1.3929538E-2,0E0,0E0,0E0,0E0,0E0,0E0,0E0,0E0,0E0,0E0,0E0,0E0],"parents":[2147483647,0,0,1,1,2,2,4,4,5,5,6,6,8,8,10,10,11,11,12,12,15,15,16,16,17,17,18,18,19,19,20,20],"right_children":[2,4,6,-1,8,10,12,-1,14,-1,16,18,20,-1,-1,22,24,26,28,30,32,-1,-1,-1,-1,-1,-1,-1,-1,-1,-1,-1,-1],"split_conditions":[-1.7310785E0,-2.5884E-1,-9.8443055E-1,4.7887642E-8,-1.7099795E0,-1.8561974E0,1.4918574E0,5.1181507E-3,-8.048706E-2,1.435961E-3,-6.5495545E-1,1.4612924E0,9.9442504E-2,-0E0,2.0413506E-3,3.090251E0,3.0959494E0,-7.3398554E-1,8.291179E-1,1.5230365E0,2.0171342E0,-2.276062E-3,1.5115042E-4,-5.595642E-4,1.5004971E-3,8.6750084E-4,-1.0392316E-5,7.458722E-4,2.3371396E-3,2.9105376E-3,-6.6830876E-4,-1.6193778E-3,4.2119413E-4],"split_indices":[11,16,5,0,2,5,15,0,0,0,4,6,12,0,0,19,0,5,19,3,19,0,0,0,0,0,0,0,0,0,0,0,0],"split_type":[0,0,0,0,0,0,0,0,0,0,0,0,0,0,0,0,0,0,0,0,0,0,0,0,0,0,0,0,0,0,0,0,0],"sum_hessian":[1.937E3,5.7E1,1.88E3,1.4E1,4.3E1,2.67E2,1.613E3,9E0,3.4E1,3.3E1,2.34E2,1.511E3,1.02E2,9E0,2.5E1,1.23E2,1.11E2,1.401E3,1.1E2,1.2E1,9E1,9.8E1,2.5E1,1.01E2,1E1,1.23E2,1.278E3,8.5E1,2.5E1,5E0,7E0,8.3E1,7E0],"tree_param":{"num_deleted":"0","num_feature":"20","num_nodes":"33","size_leaf_vector":"1"}},{"base_weights":[-1.21201185E-4,7.5333077E-4,-1.5476032E-3,2.7726296E-2,-1.3711117E-4,3.2807466E-2,-2.528048E-4,-6.0767396E-3,3.753297E-3,2.0371675E-2,5.63717E-2,-2.8341033E-2,-3.054909E-3,5.8475477E-3,-1.6720789E-2,-7.898562E-4,1.9467426E-3,5.1610786E-3,1.4751445E-3,-2.7552192E-4,-2.45858E-3,-3.5216226E-4,4.6326194E-4,-1.2719126E-3,3.7751652E-4,5.5431656E-4,-1.4113102E-3],"categories":[],"categories_nodes":[],"categories_segments":[],"categories_sizes":[],"default_left":[0,0,0,0,0,0,0,0,0,0,0,0,0,0,0,0,0,0,0,0,0,0,0,0,0,0,0],"id":7,"left_children":[1,3,-1,5,7,9,-1,11,13,15,17,19,21,23,25,-1,-1,-1,-1,-1,-1,-1,-1,-1,-1,-1,-1],"loss_changes":[5.4219946E-2,4.7003288E-2,0E0,1.1881307E-2,4.2587753E-2,1.185235E-2,0E0,4.7668718E-2,4.690671E-2,2.7313616E-2,1.3870116E-2,3.779202E-2,3.1737663E-2,5.276756E-2,3.316666E-2,0E0,0E0,0E0,0E0,0E0,0E0,0E0,0E0,0E0,0E0,0E0,0E0],"parents":[2147483647,0,0,1,1,3,3,4,4,5,5,7,7,8,8,9,9,10,10,11,11,12,12,13,13,14,14],"right_children":[2,4,-1,6,8,10,-1,12,14,16,18,20,22,24,26,-1,-1,-1,-1,-1,-1,-1,-1,-1,-1,-1,-1],"split_conditions":[2.409317E0,-1.6436334E0,-1.5476032E-3,2.312568E0,2.4541087E-2,-1.5965625E0,-2.528048E-4,-2.9337531E-2,1.8817647E0,-1.3595885E-1,-1.2881979E0,7.203664E-2,3.407275E-1,-1.5292841E0,-4.3802166E-1,-7.898562E-4,1.9467426E-3,5.1610786E-3,1.4751445E-3,-2.7552192E-4,-2.45858E-3,-3.5216226E-4,4.6326194E-4,-1.2719126E-3,3.7751652E-4,5.5431656E-4,-1.4113102E-3],"split_indices":[16,2,0,9,7,12,0,17,5,16,12,2,16,16,10,0,0,0,0,0,0,0,0,0,0,0,0],"split_type":[0,0,0,0,0,0,0,0,0,0,0,0,0,0,0,0,0,0,0,0,0,0,0,0,0,0,0],"sum_hessian":[1.954E3,1.899E3,5.5E1,6.2E1,1.837E3,5.5E1,7E0,7.32E2,1.105E3,3.8E1,1.7E1,8.5E1,6.47E2,1.005E3,1E2,1.2E1,2.6E1,5E0,1.2E1,4.2E1,4.3E1,4.92E2,1.55E2,5E1,9.55E2,2.8E1,7.2E1],"tree_param":{"num_deleted":"0","num_feature":"20","num_nodes":"27","size_leaf_vector":"1"}},{"base_weights":[-1.1343849E-4,3.047123E-2,-1.1978003E-3,3.6381494E-2,-2.7100203E-4,-1.3095289E-2,6.6929153E-4,6.497294E-2,2.1264216E-2,1.4964937E-3,-1.9405004E-2,1.9445196E-3,-1.6631346E-2,5.8737053E-3,1.5536709E-3,-4.6168268E-4,1.7475853E-3,-3.0611185E-2,-7.0603513E-3,-3.0004203E-3,6.863207E-3,1.3129625E-3,-2.940917E-2,-2.027341E-3,3.9331857E-4,-5.372623E-4,1.2067303E-3,-1.370576E-3,6.109967E-6,4.8017834E-4,-6.598817E-4,-9.85701E-4,-3.637695E-3],"categories":[],"categories_nodes":[],"categories_segments":[],"categories_sizes":[],"default_left":[0,0,0,0,0,0,0,0,0,0,0,0,0,0,0,0,0,0,0,0,0,0,0,0,0,0,0,0,0,0,0,0,0],"id":8,"left_children":[1,3,5,7,-1,9,11,13,15,-1,17,19,21,-1,-1,-1,-1,23,25,27,29,-1,31,-1,-1,-1,-1,-1,-1,-1,-1,-1,-1],"loss_changes":[6.350792E-2,1.55409835E-2,4.2687327E-2,1.9850262E-2,0E0,7.04838E-2,3.5320528E-2,2.3673102E-2,1.7936118E-2,0E0,2.9618226E-2,3.7283264E-2,6.0554937E-2,0E0,0E0,0E0,0E0,4.6713598E-2,1.22771375E-2,5.8955327E-2,4.21861E-2,0E0,3.0589439E-2,0E0,0E0,0E0,0E0,0E0,0E0,0E0,0E0,0E0,0E0],"parents":[2147483647,0,0,1,1,2,2,3,3,5,5,6,6,7,7,8,8,10,10,11,11,12,12,17,17,18,18,19,19,20,20,22,22],"right_children":[2,4,6,8,-1,10,12,14,16,-1,18,20,22,-1,-1,-1,-1,24,26,28,30,-1,32,-1,-1,-1,-1,-1,-1,-1,-1,-1,-1],"split_conditions":[-1.6436334E0,2.312568E0,-9.8443055E-1,-4.8427063E-1,-2.7100203E-4,-1.8561974E0,1.8817647E0,-2.9370005E0,-7.220411E-2,1.4964937E-3,-6.5495545E-1,3.2285776E-2,-4.8358938E-1,5.8737053E-3,1.5536709E-3,-4.6168268E-4,1.7475853E-3,3.090251E0,3.0959494E0,-2.9337531E-2,1.1986341E0,1.3129625E-3,6.463457E-1,-2.027341E-3,3.9331857E-4,-5.372623E-4,1.2067303E-3,-1.370576E-3,6.109967E-6,4.8017834E-4,-6.598817E-4,-9.85701E-4,-3.637695E-3],"split_indices":[2,9,5,0,0,5,5,15,0,0,4,7,10,0,0,0,0,19,0,17,15,0,2,0,0,0,0,0,0,0,0,0,0],"split_type":[0,0,0,0,0,0,0,0,0,0,0,0,0,0,0,0,0,0,0,0,0,0,0,0,0,0,0,0,0,0,0,0,0],"sum_hessian":[1.958E3,6.5E1,1.893E3,5.7E1,8E0,2.6E2,1.633E3,1.8E1,3.9E1,3.2E1,2.28E2,1.524E3,1.09E2,6E0,1.2E1,1.1E1,2.8E1,1.17E2,1.11E2,7.55E2,7.69E2,2.4E1,8.5E1,9.4E1,2.3E1,1.01E2,1E1,8.7E1,6.68E2,6.79E2,9E1,7.1E1,1.4E1],"tree_param":{"num_deleted":"0","num_feature":"20","num_nodes":"33","size_leaf_vector":"1"}},{"base_weights":[-1.3159688E-4,5.872012E-2,-7.923354E-4,4.6479055E-3,1.1767842E-3,-1.2029921E-2,1.0244309E-3,1.1936991E-3,-1.785563E-2,2.2548188E-3,-1.5653547E-2,-2.241438E-2,5.532426E-4,-3.011215E-3,6.982074E-3,-1.4705434E-3,7.832987E-3,-3.538347E-3,-7.871557E-4,1.778624E-4,-6.191364E-4,1.7238678E-3,2.5210713E-4,-5.5563776E-4,1.4051262E-3],"categories":[],"categories_nodes":[],"categories_segments":[],"categories_sizes":[],"default_left":[0,0,0,0,0,0,0,0,0,0,0,0,0,0,0,0,0,0,0,0,0,0,0,0,0],"id":9,"left_children":[1,3,5,-1,-1,7,9,-1,11,13,15,17,-1,19,21,-1,23,-1,-1,-1,-1,-1,-1,-1,-1],"loss_changes":[7.1845554E-2,1.7776601E-2,3.9377585E-2,0E0,0E0,5.607321E-2,3.2867756E-2,0E0,3.134457E-2,3.8159788E-2,3.6574826E-2,6.0438447E-2,0E0,4.456848E-2,4.1061662E-2,0E0,1.6174482E-2,0E0,0E0,0E0,0E0,0E0,0E0,0E0,0E0],"parents":[2147483647,0,0,1,1,2,2,5,5,6,6,8,8,9,9,10,10,11,11,13,13,14,14,16,16],"right_children":[2,4,6,-1,-1,8,10,-1,12,14,16,18,-1,20,22,-1,24,-1,-1,-1,-1,-1,-1,-1,-1],"split_conditions":[-1.7840811E0,-8.040967E-3,-9.8443055E-1,4.6479055E-3,1.1767842E-3,-1.8561974E0,1.4918574E0,1.1936991E-3,2.815794E0,3.2285776E-2,1.3289596E0,-2.8219603E-2,5.532426E-4,-2.9043777E-2,-8.707907E-1,-1.4705434E-3,2.3440804E0,-3.538347E-3,-7.871557E-4,1.778624E-4,-6.191364E-4,1.7238678E-3,2.5210713E-4,-5.5563776E-4,1.4051262E-3],"split_indices":[11,17,5,0,0,5,15,0,19,7,1,7,0,5,19,0,15,0,0,0,0,0,0,0,0],"split_type":[0,0,0,0,0,0,0,0,0,0,0,0,0,0,0,0,0,0,0,0,0,0,0,0,0],"sum_hessian":[1.921E3,2E1,1.901E3,9E0,1.1E1,2.68E2,1.633E3,3.6E1,2.32E2,1.524E3,1.09E2,2.02E2,3E1,7.16E2,8.08E2,7E1,3.9E1,2.3E1,1.79E2,4.18E2,2.98E2,5.1E1,7.57E2,1.9E1,2E1],"tree_param":{"num_deleted":"0","num_feature":"20","num_nodes":"25","size_leaf_vector":"1"}},{"base_weights":[-8.9323503E-4,2.835481E-2,-1.8414799E-3,2.3002835E-2,4.0050442E-3,-1.5581517E-4,-1.4687668E-2,3.0659428E-2,-0E0,9.459665E-4,-3.2562047E-2,5.0096596E-3,-2.4729295E-2,2.721624E-3,1.4884448E-2,-3.016585E-3,8.442107E-3,-5.552058E-4,-2.4516338E-3,-4.20807E-3,1.7116823E-3,-3.5878032E-2,7.123389E-4,-9.692313E-4,1.600235E-3,2.1615243E-4,-3.9728064E-4,-1.8815768E-4,7.783062E-4,-5.382386E-4,1.816884E-3,-4.7410447E-3,-1.5242555E-3],"categories":[],"categories_nodes":[],"categories_segments":[],"categories_sizes":[],"default_left":[0,0,0,0,0,0,0,0,0,0,0,0,0,0,0,0,0,0,0,0,0,0,0,0,0,0,0,0,0,0,0,0,0],"id":10,"left_children":[1,3,5,7,-1,9,11,13,-1,15,17,19,21,-1,23,25,27,-1,-1,29,-1,31,-1,-1,-1,-1,-1,-1,-1,-1,-1,-1,-1],"loss_changes":[5.2685276E-2,1.0401692E-2,4.0129296E-2,1.0583287E-2,0E0,6.1312143E-2,4.3672364E-2,1.2067381E-2,0E0,4.8300274E-2,1.6689476E-2,2.083389E-2,6.412729E-2,0E0,1.7075319E-2,3.8311042E-2,4.961603E-2,0E0,0E0,1.313972E-2,0E0,2.836813E-2,0E0,0E0,0E0,0E0,0E0,0E0,0E0,0E0,0E0,0E0,0E0],"parents":[2147483647,0,0,1,1,2,2,3,3,5,5,6,6,7,7,9,9,10,10,11,11,12,12,14,14,15,15,16,16,19,19,21,21],"right_children":[2,4,6,8,-1,10,12,14,-1,16,18,20,22,-1,24,26,28,-1,-1,30,-1,32,-1,-1,-1,-1,-1,-1,-1,-1,-1,-1,-1],"split_conditions":[-1.6436334E0,4.1447577E0,1.0347676E0,1.5235995E0,4.0050442E-3,2.054108E0,-4.8358938E-1,-4.221509E-1,-0E0,-1.5200524E-1,1.9641183E-1,-7.163168E-1,3.2222688E0,2.721624E-3,-7.220411E-2,-7.311759E-1,2.0668743E-2,-5.552058E-4,-2.4516338E-3,1.9411324E0,1.7116823E-3,-1.6353045E0,7.123389E-4,-9.692313E-4,1.600235E-3,2.1615243E-4,-3.9728064E-4,-1.8815768E-4,7.783062E-4,-5.382386E-4,1.816884E-3,-4.7410447E-3,-1.5242555E-3],"split_indices":[2,19,19,19,0,16,10,0,0,19,19,5,19,0,0,19,7,0,0,2,0,4,0,0,0,0,0,0,0,0,0,0,0],"split_type":[0,0,0,0,0,0,0,0,0,0,0,0,0,0,0,0,0,0,0,0,0,0,0,0,0,0,0,0,0,0,0,0,0],"sum_hessian":[1.946E3,5.9E1,1.887E3,5.5E1,4E0,1.672E3,2.15E2,4.2E1,1.3E1,1.616E3,5.6E1,7.1E1,1.44E2,1.5E1,2.7E1,1.053E3,5.63E2,2.6E1,3E1,5.3E1,1.8E1,1.13E2,3.1E1,8E0,1.9E1,4.19E2,6.34E2,2.05E2,3.58E2,4.7E1,6E0,8E0,1.05E2],"tree_param":{"num_deleted":"0","num_feature":"20","num_nodes":"33","size_leaf_vector":"1"}},{"base_weights":[-3.8309634E-4,1.4850871E-3,-1.1889298E-3,-1.7067213E-2,9.434748E-4,-2.5204906E-2,-3.1053189E-3,1.825322E-3,-3.2021374E-2,-3.2747027E-2,6.2598067E-4,3.3363511E-3,-2.3438359E-2,-2.5162105E-2,2.7857046E-3,-2.1334842E-3,4.1461255E-5,-4.1123796E-3,-1.2023106E-3,-1.7719474E-4,1.2189983E-3,-2.850443E-3,1.4662667E-3,-1.9187558E-3,1.020739E-3,1.1349943E-3,8.032089E-5],"categories":[],"categories_nodes":[],"categories_segments":[],"categories_sizes":[],"default_left":[0,0,0,0,0,0,0,0,0,0,0,0,0,0,0,0,0,0,0,0,0,0,0,0,0,0,0],"id":11,"left_children":[1,-1,3,5,7,9,11,13,15,17,-1,19,21,23,25,-1,-1,-1,-1,-1,-1,-1,-1,-1,-1,-1,-1],"loss_changes":[4.51514E-2,0E0,6.421507E-2,2.4052508E-2,4.6441257E-2,4.0907316E-2,1.2242881E-2,4.057982E-2,1.6626548E-2,4.4303134E-2,0E0,1.0278868E-2,4.2074405E-2,3.3507857E-2,3.5273153E-2,0E0,0E0,0E0,0E0,0E0,0E0,0E0,0E0,0E0,0E0,0E0,0E0],"parents":[2147483647,0,0,2,2,3,3,4,4,5,5,6,6,7,7,8,8,9,9,11,11,12,12,13,13,14,14],"right_children":[2,-1,4,6,8,10,12,14,16,18,-1,20,22,24,26,-1,-1,-1,-1,-1,-1,-1,-1,-1,-1,-1,-1],"split_conditions":[-1.8561974E0,1.4850871E-3,-9.8443055E-1,7.547172E-1,1.6027197E0,3.2222688E0,2.0606053E0,-1.5292841E0,2.0126617E0,-1.2496524E0,6.2598067E-4,-1.3493758E0,3.0959494E0,3.2222688E0,-1.402092E0,-2.1334842E-3,4.1461255E-5,-4.1123796E-3,-1.2023106E-3,-1.7719474E-4,1.2189983E-3,-2.850443E-3,1.4662667E-3,-1.9187558E-3,1.020739E-3,1.1349943E-3,8.032089E-5],"split_indices":[5,0,5,12,12,19,0,16,2,12,0,10,0,19,2,0,0,0,0,0,0,0,0,0,0,0,0],"split_type":[0,0,0,0,0,0,0,0,0,0,0,0,0,0,0,0,0,0,0,0,0,0,0,0,0,0,0],"sum_hessian":[1.92E3,4.8E1,1.872E3,2.24E2,1.648E3,1.39E2,8.5E1,1.607E3,4.1E1,1.17E2,2.2E1,6.3E1,2.2E1,5.3E1,1.554E3,3.2E1,9E0,1.6E1,1.01E2,4.6E1,1.7E1,1.4E1,8E0,4.2E1,1.1E1,8.4E1,1.47E3],"tree_param":{"num_deleted":"0","num_feature":"20","num_nodes":"27","size_leaf_vector":"1"}},{"base_weights":[-0E0,2.6578207E-2,-9.404038E-4,3.294962E-2,-4.2450294E-4,-9.442544E-3,1.2226417E-3,5.8111705E-2,1.8375006E-2,-2.9554868E-3,8.9413114E-4,3.2166373E-3,-2.2139458E-2,2.656898E-3,-1.6696421E-2,4.8428993E-3,1.2983985E-3,-7.208773E-4,1.6454188E-3,-1.7065884E-3,7.50265E-3,-6.3138083E-3,-3.4836143E-2,1.1652038E-3,1.8980548E-2,-1.3764631E-3,1.7770993E-3,-4.0262315E-4,1.0456749E-3,-9.4651134E-4,5.274861E-4,-2.5485316E-3,-9.4702345E-4,8.109058E-5,-2.7012676E-3,5.863125E-4,2.1378335E-3,-2.673325E-4,2.2475729E-3],"categories":[],"categories_nodes":[],"categories_segments":[],"categories_sizes":[],"default_left":[0,0,0,0,0,0,0,0,0,0,0,0,0,0,0,0,0,0,0,0,0,0,0,0,0,0,0,0,0,0,0,0,0,0,0,0,0,0,0],"id":12,"left_children":[1,3,5,7,9,11,13,15,17,-1,-1,19,21,23,25,-1,-1,-1,-1,-1,27,29,31,33,35,-1,37,-1,-1,-1,-1,-1,-1,-1,-1,-1,-1,-1,-1],"loss_changes":[4.792081E-2,1.2902223E-2,3.4761056E-2,1.562842E-2,1.4944991E-2,6.2622674E-2,3.7472643E-2,1.5641931E-2,1.8557169E-2,0E0,0E0,2.9291013E-2,3.6713123E-2,3.2523632E-2,2.2825042E-2,0E0,0E0,0E0,0E0,0E0,3.6712002E-2,1.9347902E-2,2.3079172E-2,2.9314786E-2,1.642906E-2,0E0,1.3941598E-2,0E0,0E0,0E0,0E0,0E0,0E0,0E0,0E0,0E0,0E0,0E0,0E0],"parents":[2147483647,0,0,1,1,2,2,3,3,4,4,5,5,6,6,7,7,8,8,11,11,12,12,13,13,14,14,20,20,21,21,22,22,23,23,24,24,26,26],"right_children":[2,4,6,8,10,12,14,16,18,-1,-1,20,22,24,26,-1,-1,-1,-1,-1,28,30,32,34,36,-1,38,-1,-1,-1,-1,-1,-1,-1,-1,-1,-1,-1,-1],"split_conditions":[-1.6436334E0,-1.6329257E-1,-6.0335547E-1,-4.221509E-1,2.240499E0,-8.2551557E-1,1.4918574E0,-2.9370005E0,-7.220411E-2,-2.9554868E-3,8.9413114E-4,-9.678764E-1,9.795321E-2,1.4612924E0,1.3289596E0,4.8428993E-3,1.2983985E-3,-7.208773E-4,1.6454188E-3,-1.7065884E-3,-1.113193E-3,-4.0871972E-1,-6.157841E-1,2.1690488E0,8.291179E-1,-1.3764631E-3,2.8793783E0,-4.0262315E-4,1.0456749E-3,-9.4651134E-4,5.274861E-4,-2.5485316E-3,-9.4702345E-4,8.109058E-5,-2.7012676E-3,5.863125E-4,2.1378335E-3,-2.673325E-4,2.2475729E-3],"split_indices":[2,15,4,0,19,6,15,15,0,0,0,15,2,6,1,0,0,0,0,0,7,1,6,17,19,0,3,0,0,0,0,0,0,0,0,0,0,0,0],"split_type":[0,0,0,0,0,0,0,0,0,0,0,0,0,0,0,0,0,0,0,0,0,0,0,0,0,0,0,0,0,0,0,0,0,0,0,0,0,0,0],"sum_hessian":[1.932E3,6.5E1,1.867E3,5.4E1,1.1E1,3.83E2,1.484E3,1.8E1,3.6E1,3E0,8E0,1.9E2,1.93E2,1.377E3,1.07E2,7E0,1.1E1,1E1,2.6E1,1.8E1,1.72E2,8.8E1,1.05E2,1.265E3,1.12E2,6.9E1,3.8E1,7.8E1,9.4E1,5.2E1,3.6E1,5E1,5.5E1,1.256E3,9E0,8.8E1,2.4E1,3.2E1,6E0],"tree_param":{"num_deleted":"0","num_feature":"20","num_nodes":"39","size_leaf_vector":"1"}},{"base_weights":[-9.446759E-5,1.0206407E-3,-1.6926749E-2,-3.5042814E-3,5.3580226E-3,-1.1469368E-2,-2.7241898E-3,-3.0545192E-3,-2.6279856E-3,1.4172298E-3,3.6665522E-3,-9.904188E-4,3.6552685E-4,-3.556303E-3,2.3033514E-3,-2.2669945E-2,5.3935684E-3,-0E0,-1.1075309E-3,5.335655E-4,-2.244514E-3,-9.09921E-5,6.025891E-4],"categories":[],"categories_nodes":[],"categories_segments":[],"categories_sizes":[],"default_left":[0,0,0,0,0,0,0,0,0,0,0,0,0,0,0,0,0,0,0,0,0,0,0],"id":13,"left_children":[1,3,5,7,9,11,-1,-1,13,-1,15,-1,-1,17,-1,19,21,-1,-1,-1,-1,-1,-1],"loss_changes":[3.7564624E-2,3.6106553E-2,2.1907799E-2,4.1771546E-2,3.4992922E-2,1.800224E-2,0E0,0E0,3.7758883E-2,0E0,3.924559E-2,0E0,0E0,5.7990074E-2,0E0,4.0845282E-2,4.0314108E-2,0E0,0E0,0E0,0E0,0E0,0E0],"parents":[2147483647,0,0,1,1,2,2,3,3,4,4,5,5,8,8,10,10,13,13,15,15,16,16],"right_children":[2,4,6,8,10,12,-1,-1,14,-1,16,-1,-1,18,-1,20,22,-1,-1,-1,-1,-1,-1],"split_conditions":[1.4918574E0,3.2285776E-2,1.487083E0,-1.5009793E0,-8.707907E-1,1.3289596E0,-2.7241898E-3,-3.0545192E-3,4.1447577E0,1.4172298E-3,-1.5292841E0,-9.904188E-4,3.6552685E-4,4.0572345E-1,2.3033514E-3,-7.8710556E-1,-1.3344614E-1,-0E0,-1.1075309E-3,5.335655E-4,-2.244514E-3,-9.09921E-5,6.025891E-4],"split_indices":[15,7,12,0,19,1,0,0,19,0,16,0,0,19,0,12,19,0,0,0,0,0,0],"split_type":[0,0,0,0,0,0,0,0,0,0,0,0,0,0,0,0,0,0,0,0,0,0,0],"sum_hessian":[1.958E3,1.834E3,1.24E2,8.92E2,9.42E2,1.1E2,1.4E1,1.2E1,8.8E2,6.2E1,8.8E2,7.8E1,3.2E1,8.65E2,1.5E1,5.2E1,8.28E2,7.25E2,1.4E2,2E1,3.2E1,3.94E2,4.34E2],"tree_param":{"num_deleted":"0","num_feature":"20","num_nodes":"23","size_leaf_vector":"1"}},{"base_weights":[-2.5827973E-4,2.7195562E-2,-1.1042575E-3,2.1099504E-2,4.209169E-3,-1.1968272E-4,-1.7638987E-2,5.3012483E-2,5.895211E-4,-5.508715E-3,3.2913103E-3,-4.201152E-2,5.48492E-3,3.999566E-3,-0E0,-1.1769105E-3,-2.3004813E-2,-3.3149105E-3,8.993386E-3,-0E0,-2.384184E-3,1.0910244E-3,-5.7944E-4,-2.8329424E-3,-0E0,-2.2380936E-3,-1.400112E-4,9.087121E-4,-2.886246E-4,5.69498E-4,-4.7513927E-4],"categories":[],"categories_nodes":[],"categories_segments":[],"categories_sizes":[],"default_left":[0,0,0,0,0,0,0,0,0,0,0,0,0,0,0,0,0,0,0,0,0,0,0,0,0,0,0,0,0,0,0],"id":14,"left_children":[1,3,5,7,-1,9,11,13,-1,15,17,19,21,-1,-1,23,25,27,29,-1,-1,-1,-1,-1,-1,-1,-1,-1,-1,-1,-1],"loss_changes":[4.396502E-2,1.3475906E-2,2.99203E-2,1.2044067E-2,0E0,3.3014435E-2,6.027292E-2,1.2082584E-2,0E0,5.179226E-2,4.1377064E-2,1.2559019E-2,1.5280737E-2,0E0,0E0,3.9347302E-2,5.7563588E-2,2.5917254E-2,2.6279494E-2,0E0,0E0,0E0,0E0,0E0,0E0,0E0,0E0,0E0,0E0,0E0,0E0],"parents":[2147483647,0,0,1,1,2,2,3,3,5,5,6,6,7,7,9,9,10,10,11,11,12,12,15,15,16,16,17,17,18,18],"right_children":[2,4,6,8,-1,10,12,14,-1,16,18,20,22,-1,-1,24,26,28,30,-1,-1,-1,-1,-1,-1,-1,-1,-1,-1,-1,-1],"split_conditions":[-1.7310785E0,4.1447577E0,1.4485373E0,-1.805282E0,4.209169E-3,2.4541087E-2,1.9366958E0,-1.2881979E0,5.895211E-4,4.0572345E-1,-4.3871522E-1,5.4802984E-1,1.3790864E0,3.999566E-3,-0E0,-1.5009793E0,-1.19047716E-1,-6.902658E-2,2.0032706E0,-0E0,-2.384184E-3,1.0910244E-3,-5.7944E-4,-2.8329424E-3,-0E0,-2.2380936E-3,-1.400112E-4,9.087121E-4,-2.886246E-4,5.69498E-4,-4.7513927E-4],"split_indices":[11,19,12,11,0,7,11,12,0,19,0,11,3,0,0,0,10,17,15,0,0,0,0,0,0,0,0,0,0,0,0],"split_type":[0,0,0,0,0,0,0,0,0,0,0,0,0,0,0,0,0,0,0,0,0,0,0,0,0,0,0,0,0,0,0],"sum_hessian":[1.948E3,5.6E1,1.892E3,5.2E1,4E0,1.789E3,1.03E2,1E1,4.2E1,6.99E2,1.09E3,5.1E1,5.2E1,6E0,4E0,5.63E2,1.36E2,5.01E2,5.89E2,6E0,4.5E1,2.8E1,2.4E1,1.2E1,5.51E2,6.4E1,7.2E1,4.9E1,4.52E2,5.24E2,6.5E1],"tree_param":{"num_deleted":"0","num_feature":"20","num_nodes":"31","size_leaf_vector":"1"}},{"base_weights":[2.4119232E-4,1.2680045E-3,-1.8332593E-2,-2.049439E-3,5.7592327E-3,-2.7039163E-2,9.143385E-4,-1.0721989E-2,2.6597225E-3,9.979102E-3,-1.0134345E-2,-1.07824E-3,-3.1353594E-3,-2.6154611E-2,-2.3326506E-3,-1.3319418E-2,5.6974315E-3,1.05763255E-2,-4.2458414E-3,-2.1078864E-2,2.3778288E-2,-2.4173984E-3,-8.8273146E-4,1.2786136E-3,-2.5922363E-4,3.472869E-4,-2.2785685E-3,4.805937E-4,-3.1906733E-4,-2.641099E-4,6.794045E-4,6.0575764E-4,-1.532484E-3,2.2760783E-3,3.7481255E-4],"categories":[],"categories_nodes":[],"categories_segments":[],"categories_sizes":[],"default_left":[0,0,0,0,0,0,0,0,0,0,0,0,0,0,0,0,0,0,0,0,0,0,0,0,0,0,0,0,0,0,0,0,0,0,0],"id":15,"left_children":[1,3,5,7,9,11,-1,13,15,17,19,-1,-1,21,23,25,27,29,-1,31,33,-1,-1,-1,-1,-1,-1,-1,-1,-1,-1,-1,-1,-1,-1],"loss_changes":[3.6663067E-2,2.8001111E-2,3.2727163E-2,4.4014543E-2,5.3664323E-2,1.1219196E-2,0E0,4.76788E-2,3.3076618E-2,3.2691695E-2,6.1542213E-2,0E0,0E0,2.107966E-2,1.8822497E-2,7.235056E-2,2.7686495E-2,3.0612968E-2,0E0,4.1300658E-2,1.1162471E-2,0E0,0E0,0E0,0E0,0E0,0E0,0E0,0E0,0E0,0E0,0E0,0E0,0E0,0E0],"parents":[2147483647,0,0,1,1,2,2,3,3,4,4,5,5,7,7,8,8,9,9,10,10,13,13,14,14,15,15,16,16,17,17,19,19,20,20],"right_children":[2,4,6,8,10,12,-1,14,16,18,20,-1,-1,22,24,26,28,30,-1,32,34,-1,-1,-1,-1,-1,-1,-1,-1,-1,-1,-1,-1,-1,-1],"split_conditions":[2.054108E0,-1.5200524E-1,1.5235995E0,-7.141171E-1,1.0912553E0,5.841562E-1,9.143385E-4,3.0913274E-3,-6.3413626E-1,2.1690488E0,3.2222688E0,-1.07824E-3,-3.1353594E-3,-9.234666E-1,-4.3996033E-1,-7.9060405E-1,1.5886682E0,-4.7884092E-1,-4.2458414E-3,-5.139679E-1,-1.678076E0,-2.4173984E-3,-8.8273146E-4,1.2786136E-3,-2.5922363E-4,3.472869E-4,-2.2785685E-3,4.805937E-4,-3.1906733E-4,-2.641099E-4,6.794045E-4,6.0575764E-4,-1.532484E-3,2.2760783E-3,3.7481255E-4],"split_indices":[16,19,19,0,19,4,0,17,4,17,19,0,0,15,8,6,2,9,0,10,11,0,0,0,0,0,0,0,0,0,0,0,0,0,0],"split_type":[0,0,0,0,0,0,0,0,0,0,0,0,0,0,0,0,0,0,0,0,0,0,0,0,0,0,0,0,0,0,0,0,0,0,0],"sum_hessian":[1.966E3,1.866E3,1E2,1.067E3,7.99E2,8.2E1,1.8E1,3.79E2,6.88E2,6.34E2,1.65E2,7.3E1,9E0,1.31E2,2.48E2,1.07E2,5.81E2,6.31E2,3E0,1.26E2,3.9E1,3.4E1,9.7E1,2.1E1,2.27E2,6.5E1,4.2E1,4.42E2,1.39E2,9.8E1,5.33E2,2.7E1,9.9E1,1.5E1,2.4E1],"tree_param":{"num_deleted":"0","num_feature":"20","num_nodes":"35","size_leaf_vector":"1"}},{"base_weights":[2.5038913E-4,2.0256368E-2,-6.776591E-4,1.2697448E-3,-1.4790463E-3,-0E0,-1.0691382E-3,1.3242657E-3,-1.1522179E-2,-2.0470219E-3,7.645865E-3,-1.6990185E-2,5.6164037E-4,2.5334928E-4,-3.3443616E-4,-1.5674227E-4,6.8699906E-4,-2.5395614E-3,-5.070115E-4],"categories":[],"categories_nodes":[],"categories_segments":[],"categories_sizes":[],"default_left":[0,0,0,0,0,0,0,0,0,0,0,0,0,0,0,0,0,0,0],"id":16,"left_children":[1,3,5,-1,-1,7,-1,9,11,13,15,17,-1,-1,-1,-1,-1,-1,-1],"loss_changes":[3.6624223E-2,2.2574209E-2,2.636322E-2,0E0,0E0,2.6757777E-2,0E0,3.4248326E-2,2.2841899E-2,3.4258354E-2,3.7310325E-2,3.0847415E-2,0E0,0E0,0E0,0E0,0E0,0E0,0E0],"parents":[2147483647,0,0,1,1,2,2,5,5,7,7,8,8,9,9,10,10,11,11],"right_children":[2,4,6,-1,-1,8,-1,10,12,14,16,18,-1,-1,-1,-1,-1,-1,-1],"split_conditions":[-1.699277E0,-8.6419666E-1,2.409317E0,1.2697448E-3,-1.4790463E-3,1.060507E0,-1.0691382E-3,-1.5200524E-1,2.815794E0,-7.311759E-1,2.0668743E-2,-2.8219603E-2,5.6164037E-4,2.5334928E-4,-3.3443616E-4,-1.5674227E-4,6.8699906E-4,-2.5395614E-3,-5.070115E-4],"split_indices":[11,12,16,0,0,19,0,19,19,19,7,7,0,0,0,0,0,0,0],"split_type":[0,0,0,0,0,0,0,0,0,0,0,0,0,0,0,0,0,0,0],"sum_hessian":[1.919E3,8.7E1,1.832E3,8E1,7E0,1.773E3,5.9E1,1.593E3,1.8E2,1.034E3,5.59E2,1.47E2,3.3E1,4.04E2,6.3E2,1.99E2,3.6E2,2.3E1,1.24E2],"tree_param":{"num_deleted":"0","num_feature":"20","num_nodes":"19","size_leaf_vector":"1"}},{"base_weights":[-1.1721301E-4,1.3654075E-3,-8.088172E-4,-2.4360765E-2,-1.3004486E-4,4.3486143E-4,-3.9859876E-2,9.032402E-4,-1.4294773E-2,-3.897223E-3,-1.2772687E-3,-3.264088E-3,5.3884364E-3,-1.7173698E-2,2.1017673E-3,-1.8576045E-5,-8.116294E-4,3.889581E-4,-7.110666E-4,4.967589E-5,-1.3817585E-3],"categories":[],"categories_nodes":[],"categories_segments":[],"categories_sizes":[],"default_left":[0,0,0,0,0,0,0,0,0,0,0,0,0,0,0,0,0,0,0,0,0],"id":17,"left_children":[1,-1,3,5,7,-1,9,11,13,-1,-1,15,17,19,-1,-1,-1,-1,-1,-1,-1],"loss_changes":[3.513212E-2,0E0,2.8772376E-2,2.760613E-2,2.7409056E-2,0E0,1.3183191E-2,3.1880848E-2,1.9794563E-2,0E0,0E0,3.2008756E-2,3.8387075E-2,2.4627648E-2,0E0,0E0,0E0,0E0,0E0,0E0,0E0],"parents":[2147483647,0,0,2,2,3,3,4,4,6,6,7,7,8,8,11,11,12,12,13,13],"right_children":[2,-1,4,6,8,-1,10,12,14,-1,-1,16,18,20,-1,-1,-1,-1,-1,-1,-1],"split_conditions":[-1.7522795E0,1.3654075E-3,-1.5292841E0,-7.8710556E-1,1.5106987E0,4.3486143E-4,-8.383581E-1,3.2285776E-2,1.8730928E0,-3.897223E-3,-1.2772687E-3,2.914533E-1,1.8817647E0,5.692308E-1,2.1017673E-3,-1.8576045E-5,-8.116294E-4,3.889581E-4,-7.110666E-4,4.967589E-5,-1.3817585E-3],"split_indices":[11,0,16,12,16,0,0,7,11,0,0,6,5,11,0,0,0,0,0,0,0],"split_type":[0,0,0,0,0,0,0,0,0,0,0,0,0,0,0,0,0,0,0,0,0],"sum_hessian":[1.921E3,4.5E1,1.876E3,5E1,1.826E3,1.5E1,3.5E1,1.699E3,1.27E2,8E0,2.7E1,8.75E2,8.24E2,1.22E2,5E0,7.19E2,1.56E2,7.37E2,8.7E1,4.3E1,7.9E1],"tree_param":{"num_deleted":"0","num_feature":"20","num_nodes":"21","size_leaf_vector":"1"}},{"base_weights":[-0E0,1.2296654E-3,-5.92918E-4,-1.2708084E-2,1.0098703E-3,3.3086198E-4,-1.7035142E-2,1.4330088E-3,-1.9248305E-3,-2.165251E-2,2.2208189E-4,-2.347316E-3,5.7984763E-3,-2.9423514E-3,-8.7055954E-4,-1.9733484E-3,-6.8076995E-5,-8.1522914E-4,3.7337313E-4],"categories":[],"categories_nodes":[],"categories_segments":[],"categories_sizes":[],"default_left":[0,0,0,0,0,0,0,0,0,0,0,0,0,0,0,0,0,0,0],"id":18,"left_children":[1,-1,3,5,7,-1,9,11,-1,13,-1,15,17,-1,-1,-1,-1,-1,-1],"loss_changes":[2.8792052E-2,0E0,3.745649E-2,1.9433975E-2,2.6149819E-2,0E0,1.9403126E-2,2.7532894E-2,0E0,2.020552E-2,0E0,3.0223846E-2,2.822698E-2,0E0,0E0,0E0,0E0,0E0,0E0],"parents":[2147483647,0,0,2,2,3,3,4,4,6,6,7,7,9,9,11,11,12,12],"right_children":[2,-1,4,6,8,-1,10,12,-1,14,-1,16,18,-1,-1,-1,-1,-1,-1],"split_conditions":[-1.8561974E0,1.2296654E-3,-9.8443055E-1,-1.4222813E0,2.7672977E0,3.3086198E-4,2.240499E0,3.615812E-2,-1.9248305E-3,-1.2881979E0,2.2208189E-4,-1.5009793E0,-1.5292841E0,-2.9423514E-3,-8.7055954E-4,-1.9733484E-3,-6.8076995E-5,-8.1522914E-4,3.7337313E-4],"split_indices":[5,0,5,9,9,0,19,7,0,12,0,0,16,0,0,0,0,0,0],"split_type":[0,0,0,0,0,0,0,0,0,0,0,0,0,0,0,0,0,0,0],"sum_hessian":[1.944E3,4.6E1,1.898E3,2.25E2,1.673E3,3.9E1,1.86E2,1.657E3,1.6E1,1.55E2,3.1E1,8.82E2,7.75E2,1.4E1,1.41E2,2.1E1,8.61E2,5.2E1,7.23E2],"tree_param":{"num_deleted":"0","num_feature":"20","num_nodes":"19","size_leaf_vector":"1"}},{"base_weights":[6.67922E-4,1.794595E-2,-2.2281175E-4,1.1643938E-3,-1.1331373E-3,6.4052094E-4,-1.6660722E-2,1.875504E-3,-1.2373044E-2,-2.0684678E-2,2.7502796E-3,2.109163E-4,1.5574219E-2,5.5793836E-4,-1.8854182E-2,-1.2260921E-3,5.9463945E-4,5.1216888E-5,-1.1423792E-3,-1.0425017E-4,1.489614E-3,-1.3789785E-3,9.71748E-5],"categories":[],"categories_nodes":[],"categories_segments":[],"categories_sizes":[],"default_left":[0,0,0,0,0,0,0,0,0,0,0,0,0,0,0,0,0,0,0,0,0,0,0],"id":19,"left_children":[1,3,5,-1,-1,7,9,11,13,15,-1,17,19,-1,21,-1,-1,-1,-1,-1,-1,-1,-1],"loss_changes":[3.062957E-2,2.1445677E-2,2.6854632E-2,0E0,0E0,2.7475301E-2,2.6104951E-2,3.556803E-2,2.2985622E-2,1.2090232E-2,0E0,2.5657618E-2,4.397447E-2,0E0,2.2631064E-2,0E0,0E0,0E0,0E0,0E0,0E0,0E0,0E0],"parents":[2147483647,0,0,1,1,2,2,5,5,6,6,7,7,8,8,9,9,11,11,12,12,14,14],"right_children":[2,4,6,-1,-1,8,10,12,14,16,-1,18,20,-1,22,-1,-1,-1,-1,-1,-1,-1,-1],"split_conditions":[-1.678076E0,-9.0274227E-1,2.054108E0,1.1643938E-3,-1.1331373E-3,1.060507E0,1.917289E0,5.4493356E-1,-5.139679E-1,1.8060693E0,2.7502796E-3,1.4848131E0,4.6134746E-1,5.5793836E-4,2.815794E0,-1.2260921E-3,5.9463945E-4,5.1216888E-5,-1.1423792E-3,-1.0425017E-4,1.489614E-3,-1.3789785E-3,9.71748E-5],"split_indices":[11,12,16,0,0,19,2,1,10,19,0,15,16,0,19,0,0,0,0,0,0,0,0],"split_type":[0,0,0,0,0,0,0,0,0,0,0,0,0,0,0,0,0,0,0,0,0,0,0],"sum_hessian":[1.932E3,9.7E1,1.835E3,8.7E1,1E1,1.741E3,9.4E1,1.594E3,1.47E2,9E1,4E0,1.425E3,1.69E2,3E1,1.17E2,8.2E1,8E0,1.379E3,4.6E1,7.4E1,9.5E1,8.4E1,3.3E1],"tree_param":{"num_deleted":"0","num_feature":"20","num_nodes":"23","size_leaf_vector":"1"}},{"base_weights":[4.5606714E-5,1.4088311E-2,-7.0198544E-4,-1.2035372E-3,2.03241E-2,-1.5686188E-2,1.9840707E-4,4.261298E-3,8.102281E-4,-3.948405E-2,-4.8198667E-3,-4.8652682E-3,3.0498637E-3,1.0459379E-3,-4.767618E-2,6.594318E-5,-1.2030136E-3,-1.7575918E-2,-1.2062379E-3,1.838441E-2,9.374462E-4,-0E0,-2.8670384E-3,-1.1177836E-3,3.6023252E-3,-1.3503261E-3,5.3801505E-5,6.224534E-5,1.5246645E-3,-3.0979942E-4,2.6555636E-4],"categories":[],"categories_nodes":[],"categories_segments":[],"categories_sizes":[],"default_left":[0,0,0,0,0,0,0,0,0,0,0,0,0,0,0,0,0,0,0,0,0,0,0,0,0,0,0,0,0,0,0],"id":20,"left_children":[1,3,5,-1,7,9,11,-1,-1,13,15,17,19,-1,21,-1,-1,23,25,27,29,-1,-1,-1,-1,-1,-1,-1,-1,-1,-1],"loss_changes":[2.1256011E-2,2.4447337E-2,2.5850203E-2,0E0,1.8167175E-2,2.5747232E-2,2.5191858E-2,0E0,0E0,1.7918434E-2,1.0188478E-2,2.8094947E-2,3.551597E-2,0E0,1.350107E-2,0E0,0E0,5.67937E-2,3.007548E-2,2.6100725E-2,3.0968782E-2,0E0,0E0,0E0,0E0,0E0,0E0,0E0,0E0,0E0,0E0],"parents":[2147483647,0,0,1,1,2,2,4,4,5,5,6,6,9,9,10,10,11,11,12,12,14,14,17,17,18,18,19,19,20,20],"right_children":[2,4,6,-1,8,10,12,-1,-1,14,16,18,20,-1,22,-1,-1,24,26,28,30,-1,-1,-1,-1,-1,-1,-1,-1,-1,-1],"split_conditions":[-6.902658E-2,-2.3311453E-1,-2.9337531E-2,-1.2035372E-3,-1.805282E0,-6.0335547E-1,-7.141171E-1,4.261298E-3,8.102281E-4,7.203664E-2,-9.7084545E-2,3.0913274E-3,-7.8589183E-1,1.0459379E-3,-1.0119362E-1,6.594318E-5,-1.2030136E-3,6.84702E-1,-1.5292841E0,-1.0178481E0,-3.683883E-1,-0E0,-2.8670384E-3,-1.1177836E-3,3.6023252E-3,-1.3503261E-3,5.3801505E-5,6.224534E-5,1.5246645E-3,-3.0979942E-4,2.6555636E-4],"split_indices":[17,19,17,0,11,4,0,0,0,2,4,17,16,0,0,0,0,2,16,16,8,0,0,0,0,0,0,0,0,0,0],"split_type":[0,0,0,0,0,0,0,0,0,0,0,0,0,0,0,0,0,0,0,0,0,0,0,0,0,0,0,0,0,0,0],"sum_hessian":[1.96E3,1.02E2,1.858E3,1.3E1,8.9E1,1.08E2,1.75E3,4E0,8.5E1,3.2E1,7.6E1,6.24E2,1.126E3,3E0,2.9E1,5.6E1,2E1,1.36E2,4.88E2,1.33E2,9.93E2,5E0,2.4E1,1.3E2,6E0,4.1E1,4.47E2,5.7E1,7.6E1,3.73E2,6.2E2],"tree_param":{"num_deleted":"0","num_feature":"20","num_nodes":"31","size_leaf_vector":"1"}},{"base_weights":[1.453862E-4,1.1014941E-3,-1.8089266E-2,-2.135674E-3,5.572023E-3,-1.0555446E-3,2.460154E-3,-9.85673E-3,2.1062673E-3,8.80526E-3,-5.012526E-3,-1.3507921E-2,5.471137E-4,8.991512E-3,-3.2469614E-3,-9.774723E-4,1.3901564E-2,-1.3413069E-2,2.586705E-2,-4.0170443E-4,-1.252503E-3,1.4528599E-4,1.354461E-3,-1.6902251E-3,-2.28263E-5,3.0603996E-4,-1.2451528E-3,8.668098E-4,-1.0959365E-4,4.956683E-4,-1.072212E-3,5.9509574E-4,2.822437E-3],"categories":[],"categories_nodes":[],"categories_segments":[],"categories_sizes":[],"default_left":[0,0,0,0,0,0,0,0,0,0,0,0,0,0,0,0,0,0,0,0,0,0,0,0,0,0,0,0,0,0,0,0,0],"id":21,"left_children":[1,3,5,7,9,-1,-1,11,13,15,17,19,-1,21,23,25,27,29,31,-1,-1,-1,-1,-1,-1,-1,-1,-1,-1,-1,-1,-1,-1],"loss_changes":[3.3131298E-2,2.701582E-2,1.8329637E-2,3.5426453E-2,2.7093366E-2,0E0,0E0,2.9325612E-2,2.5605038E-2,3.0840676E-2,4.637342E-2,1.8999703E-2,0E0,3.199819E-2,3.0894566E-2,3.5745617E-2,2.2969142E-2,2.7565919E-2,1.22619495E-2,0E0,0E0,0E0,0E0,0E0,0E0,0E0,0E0,0E0,0E0,0E0,0E0,0E0,0E0],"parents":[2147483647,0,0,1,1,2,2,3,3,4,4,7,7,8,8,9,9,10,10,11,11,13,13,14,14,15,15,16,16,17,17,18,18],"right_children":[2,4,6,8,10,-1,-1,12,14,16,18,20,-1,22,24,26,28,30,32,-1,-1,-1,-1,-1,-1,-1,-1,-1,-1,-1,-1,-1,-1],"split_conditions":[2.054108E0,-1.5200524E-1,1.917289E0,-6.934106E-1,1.060507E0,-1.0555446E-3,2.460154E-3,1.629774E-1,-7.718763E-1,2.0668743E-2,3.2222688E0,1.2037811E0,5.471137E-4,-2.6194348E-3,-6.454931E-1,4.0572345E-1,1.3972898E0,-5.139679E-1,5.262247E-1,-4.0170443E-4,-1.252503E-3,1.4528599E-4,1.354461E-3,-1.6902251E-3,-2.28263E-5,3.0603996E-4,-1.2451528E-3,8.668098E-4,-1.0959365E-4,4.956683E-4,-1.072212E-3,5.9509574E-4,2.822437E-3],"split_indices":[16,19,2,0,19,0,0,7,19,7,19,13,0,4,4,19,4,10,0,0,0,0,0,0,0,0,0,0,0,0,0,0,0],"split_type":[0,0,0,0,0,0,0,0,0,0,0,0,0,0,0,0,0,0,0,0,0,0,0,0,0,0,0,0,0,0,0,0,0],"sum_hessian":[1.948E3,1.854E3,9.4E1,1.069E3,7.85E2,9.1E1,3E0,3.83E2,6.86E2,6.05E2,1.8E2,3.28E2,5.5E1,3.04E2,3.82E2,2.04E2,4.01E2,1.43E2,3.7E1,2.26E2,1.02E2,2.3E2,7.4E1,3E1,3.52E2,1.56E2,4.8E1,3.33E2,6.8E1,3.5E1,1.08E2,2.7E1,1E1],"tree_param":{"num_deleted":"0","num_feature":"20","num_nodes":"33","size_leaf_vector":"1"}},{"base_weights":[-6.157082E-5,1.2063597E-3,-6.695275E-4,-1.4726851E-2,9.0177404E-4,-2.2462564E-2,1.4350958E-4,7.101155E-4,-1.5426784E-4,7.736517E-4,-2.4449829E-2,4.4211154E-4,-1.3354354E-3,4.986808E-4,-2.3157543E-2,-3.015539E-3,-9.956085E-4,-1.3794286E-4,2.5181752E-4,-1.7705013E-3,3.3027076E-4],"categories":[],"categories_nodes":[],"categories_segments":[],"categories_sizes":[],"default_left":[0,0,0,0,0,0,0,0,0,0,0,0,0,0,0,0,0,0,0,0,0],"id":22,"left_children":[1,-1,3,5,7,9,11,-1,13,-1,15,-1,-1,17,19,-1,-1,-1,-1,-1,-1],"loss_changes":[2.7327528E-2,0E0,4.249999E-2,2.3376416E-2,2.4574544E-2,1.040075E-2,1.4290664E-2,0E0,2.474258E-2,0E0,1.5647635E-2,0E0,0E0,2.2684982E-2,1.814967E-2,0E0,0E0,0E0,0E0,0E0,0E0],"parents":[2147483647,0,0,2,2,3,3,4,4,5,5,6,6,8,8,10,10,13,13,14,14],"right_children":[2,-1,4,6,8,10,12,-1,14,-1,16,-1,-1,18,20,-1,-1,-1,-1,-1,-1],"split_conditions":[-1.8561974E0,1.2063597E-3,-1.0313135E0,7.932627E-1,-8.2551557E-1,-2.1542842E0,1.4318488E0,7.101155E-4,1.564174E0,7.736517E-4,-1.259033E0,4.4211154E-4,-1.3354354E-3,8.572569E-2,2.0126617E0,-3.015539E-3,-9.956085E-4,-1.3794286E-4,2.5181752E-4,-1.7705013E-3,3.3027076E-4],"split_indices":[5,0,5,12,6,3,3,0,12,0,2,0,0,16,2,0,0,0,0,0,0],"split_type":[0,0,0,0,0,0,0,0,0,0,0,0,0,0,0,0,0,0,0,0,0],"sum_hessian":[1.937E3,4.5E1,1.892E3,1.93E2,1.699E3,1.29E2,6.4E1,1.28E2,1.571E3,5E0,1.24E2,5E1,1.4E1,1.526E3,4.5E1,1.2E1,1.12E2,8.82E2,6.44E2,3.3E1,1.2E1],"tree_param":{"num_deleted":"0","num_feature":"20","num_nodes":"21","size_leaf_vector":"1"}},{"base_weights":[-1.709937E-4,1.0961733E-3,-7.334092E-4,-1.5238449E-2,1.1430231E-3,2.652169E-4,-2.0029483E-2,6.509549E-4,-0E0,-2.1828476E-2,6.0993165E-4,5.706316E-4,-2.2963967E-2,-1.8858965E-3,-7.715558E-4,-4.0953743E-4,1.098366E-4,-1.230222E-4,-2.0683014E-3],"categories":[],"categories_nodes":[],"categories_segments":[],"categories_sizes":[],"default_left":[0,0,0,0,0,0,0,0,0,0,0,0,0,0,0,0,0,0,0],"id":23,"left_children":[1,-1,3,5,7,-1,9,-1,11,13,-1,15,17,-1,-1,-1,-1,-1,-1],"loss_changes":[2.3322657E-2,0E0,5.2849036E-2,2.2688095E-2,2.3635715E-2,0E0,1.1195637E-2,0E0,2.1319322E-2,1.47895515E-2,0E0,2.111524E-2,1.2661422E-2,0E0,0E0,0E0,0E0,0E0,0E0],"parents":[2147483647,0,0,2,2,3,3,4,4,6,6,8,8,9,9,11,11,12,12],"right_children":[2,-1,4,6,8,-1,10,-1,12,14,-1,16,18,-1,-1,-1,-1,-1,-1],"split_conditions":[-1.8561974E0,1.0961733E-3,-9.966162E-1,-1.4222813E0,-7.9060405E-1,2.652169E-4,3.0959494E0,6.509549E-4,1.6027197E0,-1.9924015E-1,6.0993165E-4,-5.214161E-1,3.6972225E-2,-1.8858965E-3,-7.715558E-4,-4.0953743E-4,1.098366E-4,-1.230222E-4,-2.0683014E-3],"split_indices":[5,0,5,9,6,0,0,0,12,15,0,6,17,0,0,0,0,0,0],"split_type":[0,0,0,0,0,0,0,0,0,0,0,0,0,0,0,0,0,0,0],"sum_hessian":[1.961E3,4.6E1,1.915E3,2.22E2,1.693E3,4E1,1.82E2,1.52E2,1.541E3,1.74E2,8E0,1.502E3,3.9E1,4.7E1,1.27E2,2.3E2,1.272E3,2E1,1.9E1],"tree_param":{"num_deleted":"0","num_feature":"20","num_nodes":"19","size_leaf_vector":"1"}},{"base_weights":[-8.7755856E-5,7.0834166E-4,-1.44043155E-2,-1.2032111E-3,9.6258465E-3,9.693966E-3,-2.2975413E-2,-1.7649643E-3,-6.989588E-4,-1.7867483E-2,1.35331815E-2,1.9998986E-3,-1.788792E-3,-2.3358823E-3,-1.201205E-2,-7.6567195E-3,1.3162998E-3,-3.5167665E-3,-1.8385799E-3,1.2854206E-3,6.8759522E-3,-1.5268519E-3,8.4034365E-4,1.0780328E-2,-1.079248E-3,-3.3113774E-5,-1.2894828E-3,-1.788177E-4,4.7622374E-4,-8.533527E-4,1.0519972E-3,2.9919727E-3,2.3601964E-4,3.3393502E-3,-6.6637804E-5],"categories":[],"categories_nodes":[],"categories_segments":[],"categories_sizes":[],"default_left":[0,0,0,0,0,0,0,0,0,0,0,0,0,0,0,0,0,0,0,0,0,0,0,0,0,0,0,0,0,0,0,0,0,0,0],"id":24,"left_children":[1,3,5,7,9,11,13,-1,15,17,19,-1,21,-1,23,25,27,-1,29,-1,31,-1,-1,33,-1,-1,-1,-1,-1,-1,-1,-1,-1,-1,-1],"loss_changes":[2.2795113E-2,3.1698328E-2,2.256633E-2,2.4089046E-2,3.5193518E-2,1.1167533E-2,1.7476361E-2,0E0,2.1165298E-2,2.954623E-2,2.1747328E-2,0E0,1.0833089E-2,0E0,1.298428E-2,4.172758E-2,4.639776E-2,0E0,1.0955658E-2,0E0,1.837939E-2,0E0,0E0,1.3832629E-2,0E0,0E0,0E0,0E0,0E0,0E0,0E0,0E0,0E0,0E0,0E0],"parents":[2147483647,0,0,1,1,2,2,3,3,4,4,5,5,6,6,8,8,9,9,10,10,12,12,14,14,15,15,16,16,18,18,20,20,23,23],"right_children":[2,4,6,8,10,12,14,-1,16,18,20,-1,22,-1,24,26,28,-1,30,-1,32,-1,-1,34,-1,-1,-1,-1,-1,-1,-1,-1,-1,-1,-1],"split_conditions":[1.8817647E0,1.0634436E-1,-4.8358938E-1,-1.5009793E0,-1.5292841E0,1.0245361E0,1.7781995E-1,-1.7649643E-3,-4.7884092E-1,-8.611358E-1,-4.983692E-2,1.9998986E-3,1.346217E0,-2.3358823E-3,-3.3169702E-1,-7.9020864E-1,-1.5200524E-1,-3.5167665E-3,3.2222688E0,1.2854206E-3,-1.805282E0,-1.5268519E-3,8.4034365E-4,2.4469547E0,-1.079248E-3,-3.3113774E-5,-1.2894828E-3,-1.788177E-4,4.7622374E-4,-8.533527E-4,1.0519972E-3,2.9919727E-3,2.3601964E-4,3.3393502E-3,-6.6637804E-5],"split_indices":[5,7,10,0,16,12,17,0,9,0,8,0,0,0,10,9,19,0,19,0,11,0,0,3,0,0,0,0,0,0,0,0,0,0,0],"split_type":[0,0,0,0,0,0,0,0,0,0,0,0,0,0,0,0,0,0,0,0,0,0,0,0,0,0,0,0,0,0,0,0,0,0,0],"sum_hessian":[1.939E3,1.834E3,1.05E2,1.506E3,3.28E2,2.6E1,7.9E1,2E1,1.486E3,3.9E1,2.89E2,8E0,1.8E1,2.3E1,5.6E1,3.39E2,1.147E3,8E0,3.1E1,9.9E1,1.9E2,8E0,1E1,1.5E1,4.1E1,2.47E2,9.2E1,7.15E2,4.32E2,2E1,1.1E1,6E0,1.84E2,3E0,1.2E1],"tree_param":{"num_deleted":"0","num_feature":"20","num_nodes":"35","size_leaf_vector":"1"}},{"base_weights":[-3.6120637E-5,1.0019187E-3,-5.761338E-4,-1.0214622E-2,5.4703234E-4,-1.2656954E-2,1.5142986E-3,1.2842536E-2,-2.878632E-4,3.7092625E-4,-1.7779153E-2,9.880457E-4,-3.4155344E-4,-5.404182E-3,2.3917274E-3,-1.2593138E-3,3.557596E-4,-3.35302E-4,1.4755788E-3,-6.5467454E-4,2.1215608E-4],"categories":[],"categories_nodes":[],"categories_segments":[],"categories_sizes":[],"default_left":[0,0,0,0,0,0,0,0,0,0,0,0,0,0,0,0,0,0,0,0,0],"id":25,"left_children":[1,-1,3,5,7,9,-1,11,13,-1,15,-1,-1,17,19,-1,-1,-1,-1,-1,-1],"loss_changes":[2.0101156E-2,0E0,2.1006143E-2,1.9340683E-2,1.801414E-2,2.037887E-2,0E0,1.5890189E-2,2.185259E-2,0E0,2.9666647E-2,0E0,0E0,2.3981854E-2,2.9186253E-2,0E0,0E0,0E0,0E0,0E0,0E0],"parents":[2147483647,0,0,2,2,3,3,4,4,5,5,7,7,8,8,10,10,13,13,14,14],"right_children":[2,-1,4,6,8,10,-1,12,14,-1,16,-1,-1,18,20,-1,-1,-1,-1,-1,-1],"split_conditions":[-1.8561974E0,1.0019187E-3,-1.0313135E0,3.0959494E0,-1.0866313E0,-1.4222813E0,1.5142986E-3,7.6192796E-1,-7.141171E-1,3.7092625E-4,2.815794E0,9.880457E-4,-3.4155344E-4,6.6463536E-1,-2.9337531E-2,-1.2593138E-3,3.557596E-4,-3.35302E-4,1.4755788E-3,-6.5467454E-4,2.1215608E-4],"split_indices":[5,0,5,0,15,9,0,10,0,0,19,0,0,11,17,0,0,0,0,0,0],"split_type":[0,0,0,0,0,0,0,0,0,0,0,0,0,0,0,0,0,0,0,0,0],"sum_hessian":[1.943E3,4.8E1,1.895E3,2.02E2,1.693E3,1.92E2,1E1,1.11E2,1.582E3,3.7E1,1.55E2,8.4E1,2.7E1,5.5E2,1.032E3,1.21E2,3.4E1,5.32E2,1.8E1,1.07E2,9.25E2],"tree_param":{"num_deleted":"0","num_feature":"20","num_nodes":"21","size_leaf_vector":"1"}},{"base_weights":[1.5822504E-4,1.8848337E-2,-4.314886E-4,1.2741841E-3,-4.916037E-4,-8.953668E-3,9.272677E-4,-3.7907954E-2,-5.1863277E-3,-1.6787307E-3,1.2731713E-3,1.3335334E-4,-3.3172802E-3,2.164578E-4,-1.3936146E-2,8.8559015E-4,6.2334555E-4,-9.1135915E-4,1.0620313E-3,6.28692E-5,-1.166854E-3],"categories":[],"categories_nodes":[],"categories_segments":[],"categories_sizes":[],"default_left":[0,0,0,0,0,0,0,0,0,0,0,0,0,0,0,0,0,0,0,0,0],"id":26,"left_children":[1,3,5,-1,-1,7,9,11,13,-1,15,-1,-1,-1,17,-1,19,-1,-1,-1,-1],"loss_changes":[2.2147411E-2,1.2611577E-2,2.199557E-2,0E0,0E0,2.6271574E-2,1.7542986E-2,3.615736E-2,1.9951437E-2,0E0,1.6057149E-2,0E0,0E0,0E0,1.8835533E-2,0E0,2.2192167E-2,0E0,0E0,0E0,0E0],"parents":[2147483647,0,0,1,1,2,2,5,5,6,6,7,7,8,8,10,10,14,14,16,16],"right_children":[2,4,6,-1,-1,8,10,12,14,-1,16,-1,-1,-1,18,-1,20,-1,-1,-1,-1],"split_conditions":[-1.6436334E0,-1.6329257E-1,-9.8443055E-1,1.2741841E-3,-4.916037E-4,-1.2496524E0,-1.554816E0,-1.7235811E0,-1.182554E0,-1.6787307E-3,-8.651407E-1,1.3335334E-4,-3.3172802E-3,2.164578E-4,3.0959494E0,8.8559015E-4,1.6027197E0,-9.1135915E-4,1.0620313E-3,6.28692E-5,-1.166854E-3],"split_indices":[2,15,5,0,0,12,0,3,5,0,5,0,0,0,0,0,12,0,0,0,0],"split_type":[0,0,0,0,0,0,0,0,0,0,0,0,0,0,0,0,0,0,0,0,0],"sum_hessian":[1.925E3,6.1E1,1.864E3,5.1E1,1E1,2.61E2,1.603E3,2.8E1,2.33E2,1.4E1,1.589E3,1.1E1,1.7E1,1.09E2,1.24E2,5.7E1,1.532E3,1.12E2,1.2E1,1.495E3,3.7E1],"tree_param":{"num_deleted":"0","num_feature":"20","num_nodes":"21","size_leaf_vector":"1"}},{"base_weights":[1.90594E-4,-2.188763E-4,1.0455282E-3,1.0074948E-4,-2.891176E-3,-1.9394819E-2,7.30459E-4,4.9145153E-4,-3.524333E-2,-2.8204822E-3,3.6874742E-3,-3.132034E-3,-8.1342517E-4,-2.2663295E-3,-1.03107646E-4,1.2581504E-3,1.0941202E-4],"categories":[],"categories_nodes":[],"categories_segments":[],"categories_sizes":[],"default_left":[0,0,0,0,0,0,0,0,0,0,0,0,0,0,0,0,0],"id":27,"left_children":[1,3,-1,5,-1,7,9,-1,11,13,15,-1,-1,-1,-1,-1,-1],"loss_changes":[1.772956E-2,3.8378045E-2,0E0,2.2601863E-2,0E0,2.80753E-2,1.9573648E-2,0E0,1.5559614E-2,2.4579497E-2,3.1526178E-2,0E0,0E0,0E0,0E0,0E0,0E0],"parents":[2147483647,0,0,1,1,3,3,5,5,6,6,8,8,9,9,10,10],"right_children":[2,4,-1,6,-1,8,10,-1,12,14,16,-1,-1,-1,-1,-1,-1],"split_conditions":[3.2222688E0,2.1690488E0,1.0455282E-3,-1.2157265E0,-2.891176E-3,-1.8561974E0,3.2285776E-2,4.9145153E-4,1.0657127E0,-1.5009793E0,-8.647085E-1,-3.132034E-3,-8.1342517E-4,-2.2663295E-3,-1.03107646E-4,1.2581504E-3,1.0941202E-4],"split_indices":[19,17,0,6,0,5,7,0,10,0,19,0,0,0,0,0,0],"split_type":[0,0,0,0,0,0,0,0,0,0,0,0,0,0,0,0,0],"sum_hessian":[1.967E3,1.927E3,4E1,1.916E3,1.1E1,5.7E1,1.859E3,1.9E1,3.8E1,8.37E2,1.022E3,1.4E1,2.4E1,1.3E1,8.24E2,6.4E1,9.58E2],"tree_param":{"num_deleted":"0","num_feature":"20","num_nodes":"17","size_leaf_vector":"1"}},{"base_weights":[3.8170637E-4,1.3226286E-3,-1.2189617E-2,-4.340144E-4,8.410196E-3,2.0561586E-3,-1.5325667E-2,-2.5307339E-2,7.00277E-4,3.3838486E-3,2.4334842E-2,-1.0700807E-3,7.687809E-4,-2.2571578E-3,-1.1115504E-4,-4.8791813E-3,4.5386623E-3,1.6211864E-2,-7.2479914E-3,1.4676227E-3,-2.8508692E-3,-8.946845E-4,8.246118E-5,2.9708756E-4,-9.116993E-4,7.142966E-5,1.1654746E-3,-8.358201E-4,3.670964E-4],"categories":[],"categories_nodes":[],"categories_segments":[],"categories_sizes":[],"default_left":[0,0,0,0,0,0,0,0,0,0,0,0,0,0,0,0,0,0,0,0,0,0,0,0,0,0,0,0,0],"id":28,"left_children":[1,3,5,7,9,-1,11,13,15,17,19,-1,-1,-1,-1,21,23,25,27,-1,-1,-1,-1,-1,-1,-1,-1,-1,-1],"loss_changes":[2.2252582E-2,2.2767643E-2,2.0843748E-2,4.1711617E-2,2.7588412E-2,0E0,2.3689976E-2,2.7115721E-2,2.9344825E-2,3.8490277E-2,3.3945918E-2,0E0,0E0,0E0,0E0,4.7854546E-2,2.5560359E-2,1.2229461E-2,2.1320663E-2,0E0,0E0,0E0,0E0,0E0,0E0,0E0,0E0,0E0,0E0],"parents":[2147483647,0,0,1,1,2,2,3,3,4,4,6,6,7,7,8,8,9,9,10,10,15,15,16,16,17,17,18,18],"right_children":[2,4,6,8,10,-1,12,14,16,18,20,-1,-1,-1,-1,22,24,26,28,-1,-1,-1,-1,-1,-1,-1,-1,-1,-1],"split_conditions":[1.5106987E0,4.6134746E-1,4.9015203E-1,-1.2400721E0,6.91855E-1,2.0561586E-3,1.5235995E0,2.5688611E-2,2.4541087E-2,7.1512365E-1,1.5591139E0,-1.0700807E-3,7.687809E-4,-2.2571578E-3,-1.1115504E-4,-7.556955E-3,1.1330522E0,-5.551028E-1,1.0694375E0,1.4676227E-3,-2.8508692E-3,-8.946845E-4,8.246118E-5,2.9708756E-4,-9.116993E-4,7.142966E-5,1.1654746E-3,-8.358201E-4,3.670964E-4],"split_indices":[16,16,3,0,1,0,19,15,7,16,19,0,0,0,0,17,3,15,16,0,0,0,0,0,0,0,0,0,0],"split_type":[0,0,0,0,0,0,0,0,0,0,0,0,0,0,0,0,0,0,0,0,0,0,0,0,0,0,0,0,0],"sum_hessian":[1.926E3,1.796E3,1.3E2,1.434E3,3.62E2,6E0,1.24E2,6.4E1,1.37E3,2.78E2,8.4E1,1.05E2,1.9E1,3.3E1,3.1E1,5.53E2,8.17E2,1.28E2,1.5E2,8E1,4E0,1.87E2,3.66E2,7.72E2,4.5E1,4.4E1,8.4E1,9.3E1,5.7E1],"tree_param":{"num_deleted":"0","num_feature":"20","num_nodes":"29","size_leaf_vector":"1"}},{"base_weights":[6.8082253E-4,2.0480365E-2,7.228927E-5,3.3139873E-3,7.149719E-4,9.806734E-4,-5.612131E-4,3.3130243E-3,-4.614555E-3,1.493599E-3,1.2692124E-2,-1.8352516E-2,4.35113E-3,1.262531E-3,4.1347866E-5,1.0437008E-3,1.7512005E-4,-2.9097148E-3,-7.9423696E-4,3.9556925E-4,-1.3178305E-3],"categories":[],"categories_nodes":[],"categories_segments":[],"categories_sizes":[],"default_left":[0,0,0,0,0,0,0,0,0,0,0,0,0,0,0,0,0,0,0,0,0],"id":29,"left_children":[1,3,5,-1,-1,7,-1,9,11,13,15,17,19,-1,-1,-1,-1,-1,-1,-1,-1],"loss_changes":[2.2388237E-2,1.12082455E-2,1.8872373E-2,0E0,0E0,2.2812756E-2,0E0,2.0501029E-2,6.3495226E-2,1.5259542E-2,1.3594519E-2,1.5842102E-2,3.2690838E-2,0E0,0E0,0E0,0E0,0E0,0E0,0E0,0E0],"parents":[2147483647,0,0,1,1,2,2,5,5,7,7,8,8,9,9,10,10,11,11,12,12],"right_children":[2,4,6,-1,-1,8,-1,10,12,14,16,18,20,-1,-1,-1,-1,-1,-1,-1,-1],"split_conditions":[-7.2414674E-2,-1.7099795E0,1.3694974E0,3.3139873E-3,7.149719E-4,3.6548454E-1,-5.612131E-4,-1.0312351E-3,7.647424E-1,-2.2926433E0,3.7655827E-2,-1.0569245E0,1.3329006E0,1.262531E-3,4.1347866E-5,1.0437008E-3,1.7512005E-4,-2.9097148E-3,-7.9423696E-4,3.9556925E-4,-1.3178305E-3],"split_indices":[17,2,10,0,0,6,0,6,6,6,3,12,12,0,0,0,0,0,0,0,0],"split_type":[0,0,0,0,0,0,0,0,0,0,0,0,0,0,0,0,0,0,0,0,0],"sum_hessian":[1.943E3,5.5E1,1.888E3,5E0,5E1,1.752E3,1.36E2,1.243E3,5.09E2,1.046E3,1.97E2,2.03E2,3.06E2,2.6E1,1.02E3,1.01E2,9.6E1,1E1,1.93E2,2.76E2,3E1],"tree_param":{"num_deleted":"0","num_feature":"20","num_nodes":"21","size_leaf_vector":"1"}},{"base_weights":[-1.9440893E-5,1.3736569E-3,-3.6648128E-4,3.7111941E-4,-1.10777E-2,-1.8246323E-2,8.935305E-4,-1.5724355E-2,1.59875E-2,-2.2739961E-3,-7.874634E-5,-5.693343E-4,7.130092E-3,1.5089026E-3,-9.0189156E-4,1.8571783E-3,-4.015079E-4,6.6708853E-6,-1.1152718E-3,4.7036537E-4,-2.0393524E-3],"categories":[],"categories_nodes":[],"categories_segments":[],"categories_sizes":[],"default_left":[0,0,0,0,0,0,0,0,0,0,0,0,0,0,0,0,0,0,0,0,0],"id":30,"left_children":[1,-1,3,5,7,9,11,13,15,-1,-1,17,19,-1,-1,-1,-1,-1,-1,-1,-1],"loss_changes":[1.7240409E-2,0E0,1.5757894E-2,1.6632648E-2,1.6273046E-2,1.872347E-2,1.6318556E-2,1.1505809E-2,1.049689E-2,0E0,0E0,2.2701427E-2,3.56683E-2,0E0,0E0,0E0,0E0,0E0,0E0,0E0,0E0],"parents":[2147483647,0,0,2,2,3,3,4,4,5,5,6,6,7,7,8,8,11,11,12,12],"right_children":[2,-1,4,6,8,10,12,14,16,-1,-1,18,20,-1,-1,-1,-1,-1,-1,-1,-1],"split_conditions":[-1.7840811E0,1.3736569E-3,1.5106987E0,-1.4595646E0,1.5235995E0,-1.0285599E-1,4.6134746E-1,4.9015203E-1,-4.8358938E-1,-2.2739961E-3,-7.874634E-5,1.5723783E0,1.5256284E0,1.5089026E-3,-9.0189156E-4,1.8571783E-3,-4.015079E-4,6.6708853E-6,-1.1152718E-3,4.7036537E-4,-2.0393524E-3],"split_indices":[11,0,16,0,19,1,16,3,10,0,0,5,12,0,0,0,0,0,0,0,0],"split_type":[0,0,0,0,0,0,0,0,0,0,0,0,0,0,0,0,0,0,0,0,0],"sum_hessian":[1.948E3,2.2E1,1.926E3,1.798E3,1.28E2,4.6E1,1.752E3,1.11E2,1.7E1,1.6E1,3E1,1.413E3,3.39E2,4E0,1.07E2,1E1,7E0,1.367E3,4.6E1,3.25E2,1.4E1],"tree_param":{"num_deleted":"0","num_feature":"20","num_nodes":"21","size_leaf_vector":"1"}},{"base_weights":[3.5058317E-4,6.490084E-4,-2.6822047E-2,1.3605101E-3,-1.0810928E-2,-2.8875056E-3,5.3586095E-4,-1.538973E-4,8.123535E-3,-2.033677E-2,1.2384567E-3,-6.535956E-3,1.7894639E-3,1.8563978E-2,2.1254588E-3,4.229797E-4,-1.3701621E-3,1.2159438E-3,-6.0054555E-4,-3.9997973E-4,1.491459E-3,-7.524888E-5,3.4203698E-4,4.889813E-4,1.6015187E-3,-8.1176637E-4,3.582254E-4],"categories":[],"categories_nodes":[],"categories_segments":[],"categories_sizes":[],"default_left":[0,0,0,0,0,0,0,0,0,0,0,0,0,0,0,0,0,0,0,0,0,0,0,0,0,0,0],"id":31,"left_children":[1,3,5,7,9,-1,-1,11,13,15,17,19,21,23,25,-1,-1,-1,-1,-1,-1,-1,-1,-1,-1,-1,-1],"loss_changes":[1.4605852E-2,1.5373522E-2,2.5300931E-2,1.9177768E-2,1.3535975E-2,0E0,0E0,1.875412E-2,2.033141E-2,1.398463E-2,1.4981188E-2,1.789624E-2,1.9217864E-2,1.2125544E-2,2.0005474E-2,0E0,0E0,0E0,0E0,0E0,0E0,0E0,0E0,0E0,0E0,0E0,0E0],"parents":[2147483647,0,0,1,1,2,2,3,3,4,4,7,7,8,8,9,9,10,10,11,11,12,12,13,13,14,14],"right_children":[2,4,6,8,10,-1,-1,12,14,16,18,20,22,24,26,-1,-1,-1,-1,-1,-1,-1,-1,-1,-1,-1,-1],"split_conditions":[2.1690488E0,2.0032706E0,3.2222688E0,1.0634436E-1,1.4704596E0,-2.8875056E-3,5.3586095E-4,-4.1461092E-1,-4.983692E-2,9.9442504E-2,1.9508592E0,3.0959494E0,-1.9874153E-1,7.274228E-1,-1.0495692E0,4.229797E-4,-1.3701621E-3,1.2159438E-3,-6.0054555E-4,-3.9997973E-4,1.491459E-3,-7.524888E-5,3.4203698E-4,4.889813E-4,1.6015187E-3,-8.1176637E-4,3.582254E-4],"split_indices":[17,15,19,7,0,0,0,8,8,12,0,0,19,19,0,0,0,0,0,0,0,0,0,0,0,0,0],"split_type":[0,0,0,0,0,0,0,0,0,0,0,0,0,0,0,0,0,0,0,0,0,0,0,0,0,0,0],"sum_hessian":[1.961E3,1.942E3,1.9E1,1.833E3,1.09E2,1.1E1,8E0,1.492E3,3.41E2,6.3E1,4.6E1,3.54E2,1.138E3,1.21E2,2.2E2,1.1E1,5.2E1,1.8E1,2.8E1,3.42E2,1.2E1,6.83E2,4.55E2,7.6E1,4.5E1,4.5E1,1.75E2],"tree_param":{"num_deleted":"0","num_feature":"20","num_nodes":"27","size_leaf_vector":"1"}},{"base_weights":[4.020346E-5,1.3569074E-2,-6.493293E-4,3.315156E-3,9.202343E-3,-5.619925E-3,1.2463077E-3,-1.0381944E-3,1.4047194E-2,-2.0994604E-2,-1.2024252E-3,1.3913439E-2,-2.1329167E-4,-1.4196214E-3,8.854023E-4,-3.0006526E-2,4.338897E-3,-1.3883105E-2,3.7030154E-3,2.040834E-3,6.8932115E-3,-7.163687E-4,1.621018E-3,-1.1629645E-3,-2.8033252E-3,-1.1039636E-3,1.0959214E-3,-3.7623112E-4,-2.5718517E-3,3.7622094E-4,-7.5951783E-4,7.309409E-4,-2.5043057E-4,-0E0,-1.553793E-3],"categories":[],"categories_nodes":[],"categories_segments":[],"categories_sizes":[],"default_left":[0,0,0,0,0,0,0,0,0,0,0,0,0,0,0,0,0,0,0,0,0,0,0,0,0,0,0,0,0,0,0,0,0,0,0],"id":32,"left_children":[1,3,5,-1,7,9,11,-1,13,15,17,19,21,-1,-1,23,25,27,29,-1,31,33,-1,-1,-1,-1,-1,-1,-1,-1,-1,-1,-1,-1,-1],"loss_changes":[1.8724555E-2,1.8371504E-2,1.7564192E-2,0E0,1.3094148E-2,3.388907E-2,2.5193578E-2,0E0,1.2224067E-2,2.7032621E-2,2.5634151E-2,2.400962E-2,1.7889053E-2,0E0,0E0,1.0239549E-2,1.3469872E-2,2.4438173E-2,2.050332E-2,0E0,1.0953309E-2,2.595683E-2,0E0,0E0,0E0,0E0,0E0,0E0,0E0,0E0,0E0,0E0,0E0,0E0,0E0],"parents":[2147483647,0,0,1,1,2,2,4,4,5,5,6,6,8,8,9,9,10,10,11,11,12,12,15,15,16,16,17,17,18,18,20,20,21,21],"right_children":[2,4,6,-1,8,10,12,-1,14,16,18,20,22,-1,-1,24,26,28,30,-1,32,34,-1,-1,-1,-1,-1,-1,-1,-1,-1,-1,-1,-1,-1],"split_conditions":[-6.902658E-2,-1.805282E0,9.383494E-3,3.315156E-3,-2.3311453E-1,-6.0335547E-1,2.583993E-2,-1.0381944E-3,-1.6830264E0,1.20369956E-1,-5.1502514E-1,-9.5887417E-1,2.3495755E0,-1.4196214E-3,8.854023E-4,2.3052292E-1,-1.429256E-1,-1.4911538E-1,6.6105705E-1,2.040834E-3,-3.48768E-2,1.6027197E0,1.621018E-3,-1.1629645E-3,-2.8033252E-3,-1.1039636E-3,1.0959214E-3,-3.7623112E-4,-2.5718517E-3,3.7622094E-4,-7.5951783E-4,7.309409E-4,-2.5043057E-4,-0E0,-1.553793E-3],"split_indices":[17,11,17,0,19,4,17,0,2,0,15,19,2,0,0,8,1,9,3,0,15,12,0,0,0,0,0,0,0,0,0,0,0,0,0],"split_type":[0,0,0,0,0,0,0,0,0,0,0,0,0,0,0,0,0,0,0,0,0,0,0,0,0,0,0,0,0,0,0,0,0,0,0],"sum_hessian":[1.937E3,9.7E1,1.84E3,6E0,9.1E1,5.15E2,1.325E3,1.1E1,8E1,1.12E2,4.03E2,1.4E2,1.185E3,5E0,7.5E1,8.4E1,2.8E1,1.15E2,2.88E2,2.7E1,1.13E2,1.169E3,1.6E1,6.9E1,1.5E1,1E1,1.8E1,1E2,1.5E1,2.42E2,4.6E1,7.1E1,4.2E1,1.142E3,2.7E1],"tree_param":{"num_deleted":"0","num_feature":"20","num_nodes":"35","size_leaf_vector":"1"}},{"base_weights":[1.620349E-4,-3.1641873E-3,2.0096665E-3,-4.7008204E-3,7.5331394E-4,1.01280175E-2,-3.1250977E-4,-1.1750379E-2,-2.7299137E-4,8.972613E-4,6.1796585E-5,-6.115646E-3,3.4608576E-3,-1.8377101E-2,2.3586265E-4,3.4795734E-4,-6.888941E-3,-1.2487962E-2,8.280625E-4,1.5353036E-2,4.1980535E-4,-6.8417954E-4,-2.4579568E-3,6.796417E-4,-6.2814204E-4,1.2740649E-3,-4.7440274E-4,-4.6467865E-4,-1.9636487E-3,4.311654E-4,-5.4808613E-4,-4.208183E-4,1.1521722E-3,7.495127E-5,-1.2536141E-3],"categories":[],"categories_nodes":[],"categories_segments":[],"categories_sizes":[],"default_left":[0,0,0,0,0,0,0,0,0,0,0,0,0,0,0,0,0,0,0,0,0,0,0,0,0,0,0,0,0,0,0,0,0,0,0],"id":33,"left_children":[1,3,5,7,-1,9,11,13,15,-1,-1,17,19,21,23,-1,25,27,29,31,33,-1,-1,-1,-1,-1,-1,-1,-1,-1,-1,-1,-1,-1,-1],"loss_changes":[1.20431315E-2,1.8944528E-2,2.4538392E-2,1.9452374E-2,0E0,1.9083856E-2,2.176697E-2,2.0250313E-2,1.913552E-2,0E0,0E0,1.8043805E-2,2.0671906E-2,1.9565415E-2,1.4582318E-2,0E0,1.7199678E-2,1.5314363E-2,1.6978584E-2,2.2306906E-2,1.1949392E-2,0E0,0E0,0E0,0E0,0E0,0E0,0E0,0E0,0E0,0E0,0E0,0E0,0E0,0E0],"parents":[2147483647,0,0,1,1,2,2,3,3,5,5,6,6,7,7,8,8,11,11,12,12,13,13,14,14,16,16,17,17,18,18,19,19,20,20],"right_children":[2,4,6,8,-1,10,12,14,16,-1,-1,18,20,22,24,-1,26,28,30,32,34,-1,-1,-1,-1,-1,-1,-1,-1,-1,-1,-1,-1,-1,-1],"split_conditions":[-2.5181702E-1,1.9366958E0,-3.699911E-2,2.0668743E-2,7.5331394E-4,2.1613213E-1,-4.9820822E-1,3.916296E-1,5.2615583E-2,8.972613E-4,6.1796585E-5,2.5993217E-2,-3.8031247E-1,-1.3554302E-1,-3.4996204E-2,3.4795734E-4,-8.257097E-1,5.1130187E-2,-2.6458186E-1,2.0497417E-1,1.487083E0,-6.8417954E-4,-2.4579568E-3,6.796417E-4,-6.2814204E-4,1.2740649E-3,-4.7440274E-4,-4.6467865E-4,-1.9636487E-3,4.311654E-4,-5.4808613E-4,-4.208183E-4,1.1521722E-3,7.495127E-5,-1.2536141E-3],"split_indices":[5,11,5,7,0,2,1,0,7,0,0,7,9,3,7,0,2,8,3,5,12,0,0,0,0,0,0,0,0,0,0,0,0,0,0],"split_type":[0,0,0,0,0,0,0,0,0,0,0,0,0,0,0,0,0,0,0,0,0,0,0,0,0,0,0,0,0,0,0,0,0,0,0],"sum_hessian":[1.968E3,6.93E2,1.275E3,6.42E2,5.1E1,2.88E2,9.87E2,2.43E2,3.99E2,1.5E2,1.38E2,3.94E2,5.93E2,1.59E2,8.4E1,1.87E2,2.12E2,2.09E2,1.85E2,1.17E2,4.76E2,1.4E2,1.9E1,4.3E1,4.1E1,1.4E1,1.98E2,1.89E2,2E1,1.14E2,7.1E1,2.7E1,9E1,4.59E2,1.7E1],"tree_param":{"num_deleted":"0","num_feature":"20","num_nodes":"35","size_leaf_vector":"1"}},{"base_weights":[2.2204363E-4,5.342957E-4,-3.3439267E-2,7.68469E-4,-8.983703E-5,2.8582054E-4,-2.752992E-3,5.7338737E-4,-1.13542965E-2,-9.85589E-4,4.6071704E-4,-1.2022017E-3,2.2167333E-3,5.4268847E-5,-7.377072E-4,1.1049708E-3,-1.248993E-3],"categories":[],"categories_nodes":[],"categories_segments":[],"categories_sizes":[],"default_left":[0,0,0,0,0,0,0,0,0,0,0,0,0,0,0,0,0],"id":34,"left_children":[1,3,5,-1,7,-1,-1,9,11,13,-1,-1,15,-1,-1,-1,-1],"loss_changes":[1.8907072E-2,1.8713359E-2,1.659292E-2,0E0,1.4419432E-2,0E0,0E0,2.3997039E-2,1.963089E-2,4.28497E-2,0E0,0E0,2.7439427E-2,0E0,0E0,0E0,0E0],"parents":[2147483647,0,0,1,1,2,2,4,4,7,7,8,8,9,9,12,12],"right_children":[2,4,6,-1,8,-1,-1,10,12,14,-1,-1,16,-1,-1,-1,-1],"split_conditions":[2.1690488E0,-1.678076E0,-1.018379E0,7.68469E-4,1.8817647E0,2.8582054E-4,-2.752992E-3,7.647424E-1,1.1125844E0,3.6548454E-1,4.6071704E-4,-1.2022017E-3,-3.3169702E-1,5.4268847E-5,-7.377072E-4,1.1049708E-3,-1.248993E-3],"split_indices":[17,11,12,0,5,0,0,6,1,6,0,0,10,0,0,0,0],"split_type":[0,0,0,0,0,0,0,0,0,0,0,0,0,0,0,0,0],"sum_hessian":[1.954E3,1.938E3,1.6E1,8.1E1,1.857E3,5E0,1.1E1,1.75E3,1.07E2,1.478E3,2.72E2,5.7E1,5E1,1.282E3,1.96E2,3E1,2E1],"tree_param":{"num_deleted":"0","num_feature":"20","num_nodes":"17","size_leaf_vector":"1"}},{"base_weights":[-7.9460855E-4,1.2564822E-2,-1.5479637E-3,3.1232217E-3,4.3102354E-4,-2.0006772E-3,1.8345807E-2,-1.6520199E-3,-2.4516894E-3,1.9076577E-3,9.602625E-5,-6.2749727E-4,-1.1158471E-2,-0E0,-9.1651705E-4,6.7E-5,-9.371424E-4],"categories":[],"categories_nodes":[],"categories_segments":[],"categories_sizes":[],"default_left":[0,0,0,0,0,0,0,0,0,0,0,0,0,0,0,0,0],"id":35,"left_children":[1,3,5,-1,-1,7,9,11,-1,-1,-1,13,15,-1,-1,-1,-1],"loss_changes":[1.9441739E-2,1.6350731E-2,1.616423E-2,0E0,0E0,2.7672112E-2,1.08106565E-2,1.7254971E-2,0E0,0E0,0E0,1.8330647E-2,1.7329305E-2,0E0,0E0,0E0,0E0],"parents":[2147483647,0,0,1,1,2,2,5,5,6,6,7,7,11,11,12,12],"right_children":[2,4,6,-1,-1,8,10,12,-1,-1,-1,14,16,-1,-1,-1,-1],"split_conditions":[-6.902658E-2,-1.805282E0,3.2222688E0,3.1232217E-3,4.3102354E-4,2.1690488E0,-1.678076E0,1.0347676E0,-2.4516894E-3,1.9076577E-3,9.602625E-5,2.054108E0,-4.8358938E-1,-0E0,-9.1651705E-4,6.7E-5,-9.371424E-4],"split_indices":[17,11,19,0,0,17,11,19,0,0,0,16,10,0,0,0,0],"split_type":[0,0,0,0,0,0,0,0,0,0,0,0,0,0,0,0,0],"sum_hessian":[1.985E3,1.02E2,1.883E3,6E0,9.6E1,1.844E3,3.9E1,1.832E3,1.2E1,1.6E1,2.3E1,1.659E3,1.73E2,1.603E3,5.6E1,6.3E1,1.1E2],"tree_param":{"num_deleted":"0","num_feature":"20","num_nodes":"17","size_leaf_vector":"1"}},{"base_weights":[-5.0737173E-5,8.7921816E-4,-5.4589234E-4,-1.8690404E-2,-9.366545E-5,-2.157853E-3,-1.4686838E-5,-3.807254E-4,1.3612984E-3,-1.4956963E-4,-3.4178079E-3,2.3034274E-5,-5.589276E-4],"categories":[],"categories_nodes":[],"categories_segments":[],"categories_sizes":[],"default_left":[0,0,0,0,0,0,0,0,0,0,0,0,0],"id":36,"left_children":[1,-1,3,5,7,-1,-1,9,-1,11,-1,-1,-1],"loss_changes":[1.6176127E-2,0E0,1.4646147E-2,1.7400686E-2,1.3222284E-2,0E0,0E0,2.5473503E-2,0E0,1.2885556E-2,0E0,0E0,0E0],"parents":[2147483647,0,0,2,2,3,3,4,4,7,7,9,9],"right_children":[2,-1,4,6,8,-1,-1,10,-1,12,-1,-1,-1],"split_conditions":[-7.2414674E-2,8.7921816E-4,-1.4595646E0,-1.0285599E-1,4.1447577E0,-2.157853E-3,-1.4686838E-5,3.9067621E0,1.3612984E-3,1.8817647E0,-3.4178079E-3,2.3034274E-5,-5.589276E-4],"split_indices":[17,0,0,1,19,0,0,1,0,5,0,0,0],"split_type":[0,0,0,0,0,0,0,0,0,0,0,0,0],"sum_hessian":[1.949E3,5E1,1.899E3,4.3E1,1.856E3,1.7E1,2.6E1,1.839E3,1.7E1,1.834E3,5E0,1.734E3,1E2],"tree_param":{"num_deleted":"0","num_feature":"20","num_nodes":"13","size_leaf_vector":"1"}},{"base_weights":[-1.13395006E-4,-3.8806704E-4,1.2761365E-3,-3.3217035E-2,-0E0,-3.4635295E-3,-0E0,6.8154663E-4,-9.010112E-3,1.5654915E-3,-8.467259E-3,-9.733013E-4,-0E0,-9.288071E-5,2.5099757E-4,-1.3715347E-3,1.0928484E-4,-3.8135613E-4,1.1852856E-3],"categories":[],"categories_nodes":[],"categories_segments":[],"categories_sizes":[],"default_left":[0,0,0,0,0,0,0,0,0,0,0,0,0,0,0,0,0,0,0],"id":37,"left_children":[1,3,-1,5,7,-1,-1,9,11,13,15,-1,17,-1,-1,-1,-1,-1,-1],"loss_changes":[1.231372E-2,2.3435073E-2,0E0,2.6660867E-2,1.18142245E-2,0E0,0E0,1.3834075E-2,1.2303782E-2,1.9124137E-2,3.1493712E-2,0E0,1.3179262E-2,0E0,0E0,0E0,0E0,0E0,0E0],"parents":[2147483647,0,0,1,1,3,3,4,4,7,7,8,8,9,9,10,10,12,12],"right_children":[2,4,-1,6,8,-1,-1,10,12,14,16,-1,18,-1,-1,-1,-1,-1,-1],"split_conditions":[4.1447577E0,-1.6375165E-1,1.2761365E-3,3.916296E-1,1.3694974E0,-3.4635295E-3,-0E0,1.4831563E0,-2.3311453E-1,-6.31012E-2,6.91855E-1,-9.733013E-4,1.4910113E0,-9.288071E-5,2.5099757E-4,-1.3715347E-3,1.0928484E-4,-3.8135613E-4,1.1852856E-3],"split_indices":[19,7,0,0,10,0,0,5,19,15,1,0,10,0,0,0,0,0,0],"split_type":[0,0,0,0,0,0,0,0,0,0,0,0,0,0,0,0,0,0,0],"sum_hessian":[1.926E3,1.908E3,1.8E1,2.1E1,1.887E3,1E1,1.1E1,1.752E3,1.35E2,1.603E3,1.49E2,6.1E1,7.4E1,7.98E2,8.05E2,5.5E1,9.4E1,5.7E1,1.7E1],"tree_param":{"num_deleted":"0","num_feature":"20","num_nodes":"19","size_leaf_vector":"1"}},{"base_weights":[3.9725058E-4,1.0586101E-4,1.6659569E-3,-3.1212305E-3,2.7847584E-4,-9.920084E-3,9.588828E-4,-1.2435204E-3,4.506942E-3,-2.4477614E-3,3.2052377E-3,-1.797922E-3,4.8278153E-4,-3.9117745E-4,5.5163873E-5,7.371203E-4,4.6850004E-5],"categories":[],"categories_nodes":[],"categories_segments":[],"categories_sizes":[],"default_left":[0,0,0,0,0,0,0,0,0,0,0,0,0,0,0,0,0],"id":38,"left_children":[1,3,-1,-1,5,7,9,-1,11,13,15,-1,-1,-1,-1,-1,-1],"loss_changes":[1.69232E-2,1.766304E-2,0E0,0E0,1.2876434E-2,2.5986267E-2,1.38507895E-2,0E0,1.0838218E-2,1.3865333E-2,2.7903471E-2,0E0,0E0,0E0,0E0,0E0,0E0],"parents":[2147483647,0,0,1,1,4,4,5,5,6,6,8,8,9,9,10,10],"right_children":[2,4,-1,-1,6,8,10,-1,12,14,16,-1,-1,-1,-1,-1,-1],"split_conditions":[4.1447577E0,-2.7143838E0,1.6659569E-3,-3.1212305E-3,-1.3270407E0,2.5688611E-2,-2.449864E-1,-1.2435204E-3,-7.348E-2,2.0668743E-2,-7.750101E-2,-1.797922E-3,4.8278153E-4,-3.9117745E-4,5.5163873E-5,7.371203E-4,4.6850004E-5],"split_indices":[19,12,0,0,0,15,5,0,10,7,5,0,0,0,0,0,0],"split_type":[0,0,0,0,0,0,0,0,0,0,0,0,0,0,0,0,0],"sum_hessian":[1.938E3,1.923E3,1.5E1,4E0,1.919E3,1.15E2,1.804E3,5.8E1,5.7E1,7.08E2,1.096E3,5E0,5.2E1,2.87E2,4.21E2,1.76E2,9.2E2],"tree_param":{"num_deleted":"0","num_feature":"20","num_nodes":"17","size_leaf_vector":"1"}},{"base_weights":[-1.7712914E-4,-1.5348083E-2,2.3473061E-4,-2.99708E-3,-2.8749323E-4,-2.1958041E-3,3.0753517E-3,-2.722736E-3,1.1387457E-3,4.1987053E-3,-1.0872363E-3,-2.0854508E-3,-4.1175455E-2,-1.3210764E-3,4.996473E-3,7.562704E-5,-2.829174E-4,-2.9141144E-3,3.3146006E-4,6.2282867E-4,1.2748943E-4],"categories":[],"categories_nodes":[],"categories_segments":[],"categories_sizes":[],"default_left":[0,0,0,0,0,0,0,0,0,0,0,0,0,0,0,0,0,0,0,0,0],"id":39,"left_children":[1,3,5,-1,-1,7,9,11,-1,13,-1,15,17,-1,19,-1,-1,-1,-1,-1,-1],"loss_changes":[1.264487E-2,1.9442078E-2,1.2816723E-2,0E0,0E0,1.2021787E-2,2.3216337E-2,2.1551946E-2,0E0,1.9208789E-2,0E0,1.2494765E-2,1.4633739E-2,0E0,1.3990954E-2,0E0,0E0,0E0,0E0,0E0,0E0],"parents":[2147483647,0,0,1,1,2,2,5,5,6,6,7,7,9,9,11,11,12,12,14,14],"right_children":[2,4,6,-1,-1,8,10,12,-1,14,-1,16,18,-1,20,-1,-1,-1,-1,-1,-1],"split_conditions":[-1.5292841E0,-8.611358E-1,3.615812E-2,-2.99708E-3,-2.8749323E-4,4.1447577E0,1.4485373E0,2.5070019E0,1.1387457E-3,-1.1746575E0,-1.0872363E-3,3.3893605E-4,6.4632493E-1,-1.3210764E-3,2.245184E-2,7.562704E-5,-2.829174E-4,-2.9141144E-3,3.3146006E-4,6.2282867E-4,1.2748943E-4],"split_indices":[16,0,7,0,0,19,12,1,0,4,0,7,0,0,17,0,0,0,0,0,0],"split_type":[0,0,0,0,0,0,0,0,0,0,0,0,0,0,0,0,0,0,0,0,0],"sum_hessian":[1.902E3,5.3E1,1.849E3,8E0,4.5E1,9.87E2,8.62E2,9.69E2,1.8E1,8.27E2,3.5E1,9.55E2,1.4E1,1.9E1,8.08E2,4.69E2,4.86E2,1.1E1,3E0,1.94E2,6.14E2],"tree_param":{"num_deleted":"0","num_feature":"20","num_nodes":"21","size_leaf_vector":"1"}},{"base_weights":[2.2407014E-4,-2.252561E-3,2.8896516E-3,-8.9985095E-3,9.623972E-4,1.1354611E-2,-1.4612461E-4,-1.9525614E-2,-1.4380991E-4,6.5071965E-3,-3.2401474E-3,-2.2727181E-3,1.3046149E-2,7.9806E-3,-5.0893645E-3,-2.3458516E-3,-1.3715315E-2,1.2118176E-3,1.1308797E-3,-5.040966E-3,1.4277478E-3,9.469265E-3,3.823465E-2,2.45133E-4,1.2463445E-3,2.0637421E-3,-6.2524523E-3,-1.7314394E-3,-3.7248587E-4,2.29693E-3,-6.0890216E-6,-1.3746099E-3,-1.4569184E-4,-3.1400472E-4,6.2955834E-4,2.8262618E-3,-0E0,-9.891427E-4,-9.985666E-5],"categories":[],"categories_nodes":[],"categories_segments":[],"categories_sizes":[],"default_left":[0,0,0,0,0,0,0,0,0,0,0,0,0,0,0,0,0,0,0,0,0,0,0,0,0,0,0,0,0,0,0,0,0,0,0,0,0,0,0],"id":40,"left_children":[1,3,5,7,9,11,13,15,-1,17,19,-1,21,23,25,-1,27,29,-1,31,-1,33,35,-1,-1,-1,37,-1,-1,-1,-1,-1,-1,-1,-1,-1,-1,-1,-1],"loss_changes":[1.2680592E-2,2.1736229E-2,2.4524381E-2,1.963702E-2,1.5588344E-2,2.2747766E-2,2.7293373E-2,1.50287375E-2,0E0,2.3577575E-2,2.0167325E-2,0E0,1.9462336E-2,1.1722054E-2,2.148505E-2,0E0,1.0543039E-2,1.5505572E-2,0E0,1.5321628E-2,0E0,1.09999515E-2,2.0640664E-2,0E0,0E0,0E0,2.3044452E-2,0E0,0E0,0E0,0E0,0E0,0E0,0E0,0E0,0E0,0E0,0E0,0E0],"parents":[2147483647,0,0,1,1,2,2,3,3,4,4,5,5,6,6,7,7,9,9,10,10,12,12,13,13,14,14,16,16,17,17,19,19,21,21,22,22,26,26],"right_children":[2,4,6,8,10,12,14,16,-1,18,20,-1,22,24,26,-1,28,30,-1,32,-1,34,36,-1,-1,-1,38,-1,-1,-1,-1,-1,-1,-1,-1,-1,-1,-1,-1],"split_conditions":[-2.1277188E-1,-7.0376307E-1,-4.858867E-1,3.0913274E-3,-7.828904E-1,-1.5009793E0,2.6727593E-1,-2.5760847E-1,-1.4380991E-4,-2.6194348E-3,4.2421794E-1,-2.2727181E-3,-5.276702E-1,8.4144783E-1,-1.7099795E0,-2.3458516E-3,-1.3270407E0,-4.1288763E-2,1.1308797E-3,-6.454931E-1,1.4277478E-3,-8.217938E-1,1.3534893E0,2.45133E-4,1.2463445E-3,2.0637421E-3,8.1713796E-2,-1.7314394E-3,-3.7248587E-4,2.29693E-3,-6.0890216E-6,-1.3746099E-3,-1.4569184E-4,-3.1400472E-4,6.2955834E-4,2.8262618E-3,-0E0,-9.891427E-4,-9.985666E-5],"split_indices":[19,0,16,17,19,0,19,11,0,4,8,0,16,1,2,0,0,7,0,4,0,0,19,0,0,0,16,0,0,0,0,0,0,0,0,0,0,0,0],"split_type":[0,0,0,0,0,0,0,0,0,0,0,0,0,0,0,0,0,0,0,0,0,0,0,0,0,0,0,0,0,0,0,0,0,0,0,0,0,0,0],"sum_hessian":[1.915E3,9.83E2,9.32E2,3.22E2,6.61E2,2.5E2,6.82E2,1.15E2,2.07E2,2.9E2,3.71E2,6E0,2.44E2,2.54E2,4.28E2,1.8E1,9.7E1,2.21E2,6.9E1,3.53E2,1.8E1,2.16E2,2.8E1,2.18E2,3.6E1,9E0,4.19E2,2E1,7.7E1,7E0,2.14E2,2.8E1,3.25E2,3.3E1,1.83E2,1.9E1,9E0,9.7E1,3.22E2],"tree_param":{"num_deleted":"0","num_feature":"20","num_nodes":"39","size_leaf_vector":"1"}},{"base_weights":[-1.7469496E-4],"categories":[],"categories_nodes":[],"categories_segments":[],"categories_sizes":[],"default_left":[0],"id":41,"left_children":[-1],"loss_changes":[0E0],"parents":[2147483647],"right_children":[-1],"split_conditions":[-8.734748E-6],"split_indices":[0],"split_type":[0],"sum_hessian":[1.922E3],"tree_param":{"num_deleted":"0","num_feature":"20","num_nodes":"1","size_leaf_vector":"1"}},{"base_weights":[-0E0,5.655846E-4,-1.0124214E-2,-7.4849324E-4,6.190113E-3,-9.050388E-4,4.620148E-5,8.8711845E-4,-8.0796005E-3,8.4823504E-4,4.972967E-4,-5.974173E-4,1.2213886E-2,-2.1509906E-2,-2.7527781E-3,-9.288952E-4,3.898633E-3,-4.6061E-5,2.2168404E-3,1.2076579E-3,1.5714784E-4,5.270538E-4,-1.4530419E-3,4.939723E-4,-4.2691757E-4,2.4012604E-3,1.20337856E-4],"categories":[],"categories_nodes":[],"categories_segments":[],"categories_sizes":[],"default_left":[0,0,0,0,0,0,0,0,0,0,0,0,0,0,0,0,0,0,0,0,0,0,0,0,0,0,0],"id":42,"left_children":[1,3,5,7,9,-1,-1,11,13,-1,15,17,19,21,23,-1,25,-1,-1,-1,-1,-1,-1,-1,-1,-1,-1],"loss_changes":[1.1502729E-2,1.382592E-2,1.0252725E-2,1.8103661E-2,2.0866916E-2,0E0,0E0,2.0838127E-2,1.8466765E-2,0E0,1.4581765E-2,1.32942805E-2,1.413833E-2,1.9351274E-2,1.4628595E-2,0E0,1.0751462E-2,0E0,0E0,0E0,0E0,0E0,0E0,0E0,0E0,0E0,0E0],"parents":[2147483647,0,0,1,1,2,2,3,3,4,4,7,7,8,8,10,10,11,11,12,12,13,13,14,14,16,16],"right_children":[2,4,6,8,10,-1,-1,12,14,-1,16,18,20,22,24,-1,26,-1,-1,-1,-1,-1,-1,-1,-1,-1,-1],"split_conditions":[2.0032706E0,1.0634436E-1,1.0364524E0,3.6548454E-1,-4.983692E-2,-9.050388E-4,4.620148E-5,9.728931E-2,-5.551028E-1,8.4823504E-4,-1.2400721E0,2.3939862E0,-4.0164986E-1,-1.0605165E0,4.392591E-3,-9.288952E-4,-1.19047716E-1,-4.6061E-5,2.2168404E-3,1.2076579E-3,1.5714784E-4,5.270538E-4,-1.4530419E-3,4.939723E-4,-4.2691757E-4,2.4012604E-3,1.20337856E-4],"split_indices":[15,7,1,6,8,0,0,4,15,0,0,0,12,1,3,0,10,0,0,0,0,0,0,0,0,0,0],"split_type":[0,0,0,0,0,0,0,0,0,0,0,0,0,0,0,0,0,0,0,0,0,0,0,0,0,0,0],"sum_hessian":[1.939E3,1.833E3,1.06E2,1.479E3,3.54E2,6.4E1,4.2E1,1.204E3,2.75E2,1.19E2,2.35E2,1.061E3,1.43E2,7.5E1,2E2,3.3E1,2.02E2,1.055E3,6E0,5.9E1,8.4E1,1.3E1,6.2E1,6E1,1.4E2,5E0,1.97E2],"tree_param":{"num_deleted":"0","num_feature":"20","num_nodes":"27","size_leaf_vector":"1"}}]},"name":"gbtree"},"learner_model_param":{"base_score":"[7.1685123E-3]","boost_from_average":"1","num_class":"0","num_feature":"20","num_target":"1"},"objective":{"name":"reg:squarederror","reg_loss_param":{"scale_pos_weight":"1"}}},"version":[3,2,0]}