{"learner":{"attributes":{"best_iteration":"2","best_score":"0.0455299553274379","scikit_learn":"{\"_estimator_type\": \"regressor\"}"},"feature_names":[],"feature_types":[],"gradient_booster":{"model":{"cats":{"enc":[],"feature_segments":[],"sorted_idx":[]},"gbtree_model_param":{"num_parallel_tree":"1","num_trees":"43"},"iteration_indptr":[0,1,2,3,4,5,6,7,8,9,10,11,12,13,14,15,16,17,18,19,20,21,22,23,24,25,26,27,28,29,30,31,32,33,34,35,36,37,38,39,40,41,42,43],"tree_info":[0,0,0,0,0,0,0,0,0,0,0,0,0,0,0,0,0,0,0,0,0,0,0,0,0,0,0,0,0,0,0,0,0,0,0,0,0,0,0,0,0,0,0],"trees":[{"base_weights":[-1.6818751E-6,4.2293686E-2,-1.3440261E-3,3.6224827E-2,4.9991957E-3,-1.3103378E-4,-1.9465225E-3,1.947016E-2,6.1099146E-2,1.9643721E-3,-1.7541697E-2,-6.81583E-4,1.8691162E-3,6.090171E-3,1.7181085E-3,3.2239826E-3,-2.1304961E-2,1.1576434E-2,-2.9665526E-2,-3.540471E-5,7.713735E-4,-1.7024173E-3,1.2596429E-4,-1.6328263E-4,1.3204104E-3,-3.2591724E-3,-5.563271E-4],"categories":[],"categories_nodes":[],"categories_segments":[],"categories_sizes":[],"default_left":[0,0,0,0,0,0,0,0,0,0,0,0,0,0,0,0,0,0,0,0,0,0,0,0,0,0,0],"id":0,"left_children":[1,3,5,7,-1,9,-1,11,13,15,17,-1,-1,-1,-1,19,21,23,25,-1,-1,-1,-1,-1,-1,-1,-1],"loss_changes":[1.0803915E-1,1.1860281E-2,8.3780214E-2,1.8090196E-2,0E0,6.732177E-2,0E0,2.1898244E-2,2.337151E-2,4.6774186E-2,7.115127E-2,0E0,0E0,0E0,0E0,7.4854344E-2,2.6362862E-2,1.3857981E-2,8.8994816E-2,0E0,0E0,0E0,0E0,0E0,0E0,0E0,0E0],"parents":[2147483647,0,0,1,1,2,2,3,3,5,5,7,7,8,8,9,9,10,10,15,15,16,16,17,17,18,18],"right_children":[2,4,6,8,-1,10,-1,12,14,16,18,-1,-1,-1,-1,20,22,24,26,-1,-1,-1,-1,-1,-1,-1,-1],"split_conditions":[-1.6436334E0,4.1447577E0,2.409317E0,-1.5965625E0,4.9991957E-3,1.060507E0,-1.9465225E-3,-8.048706E-2,-1.2881979E0,1.4918574E0,-4.8358938E-1,-6.81583E-4,1.8691162E-3,6.090171E-3,1.7181085E-3,6.9073044E-2,1.0057325E0,-1.1341639E-1,-1.19047716E-1,-3.540471E-5,7.713735E-4,-1.7024173E-3,1.2596429E-4,-1.6328263E-4,1.3204104E-3,-3.2591724E-3,-5.563271E-4],"split_indices":[2,19,16,12,0,19,0,0,12,15,10,0,0,0,0,7,1,15,10,0,0,0,0,0,0,0,0],"split_type":[0,0,0,0,0,0,0,0,0,0,0,0,0,0,0,0,0,0,0,0,0,0,0,0,0,0,0],"sum_hessian":[1.938E3,5.8E1,1.88E3,5.4E1,4E0,1.823E3,5.7E1,3.4E1,2E1,1.625E3,1.98E2,1.1E1,2.3E1,5E0,1.5E1,1.544E3,8.1E1,5.7E1,1.41E2,1.165E3,3.79E2,5.4E1,2.7E1,2.7E1,3E1,4.7E1,9.4E1],"tree_param":{"num_deleted":"0","num_feature":"20","num_nodes":"27","size_leaf_vector":"1"}},{"base_weights":[1.1131687E-4,4.0227886E-2,-1.2260099E-3,7.399175E-2,2.7991723E-2,-1.20674695E-5,-1.8328608E-3,5.252631E-3,7.6055643E-4,2.505357E-3,-6.693435E-4,-1.43746305E-2,2.1175873E-3,1.8786353E-3,-2.313654E-2,3.5825933E-3,-2.0020008E-2,-1.8560066E-3,-2.459397E-4,9.0681686E-5,1.228887E-3,-2.112667E-3,2.9470064E-4],"categories":[],"categories_nodes":[],"categories_segments":[],"categories_sizes":[],"default_left":[0,0,0,0,0,0,0,0,0,0,0,0,0,0,0,0,0,0,0,0,0,0,0],"id":1,"left_children":[1,3,5,7,9,11,-1,-1,-1,-1,-1,13,15,-1,17,19,21,-1,-1,-1,-1,-1,-1],"loss_changes":[1.0554407E-1,2.0099655E-2,7.849018E-2,2.1487363E-2,4.6553973E-2,5.5914614E-2,0E0,0E0,0E0,0E0,0E0,1.0735765E-1,5.018043E-2,0E0,4.9648285E-2,5.3494714E-2,5.696529E-2,0E0,0E0,0E0,0E0,0E0,0E0],"parents":[2147483647,0,0,1,1,2,2,3,3,4,4,5,5,11,11,12,12,14,14,15,15,16,16],"right_children":[2,4,6,8,10,12,-1,-1,-1,-1,-1,14,16,-1,18,20,22,-1,-1,-1,-1,-1,-1],"split_conditions":[-1.6436334E0,-1.7099795E0,2.409317E0,-1.2881979E0,2.2607923E0,-9.8443055E-1,-1.8328608E-3,5.252631E-3,7.6055643E-4,2.505357E-3,-6.693435E-4,-1.716679E0,1.4918574E0,1.8786353E-3,8.47182E-1,1.4612924E0,1.1125844E0,-1.8560066E-3,-2.459397E-4,9.0681686E-5,1.228887E-3,-2.112667E-3,2.9470064E-4],"split_indices":[2,2,16,12,9,5,0,0,0,0,0,5,15,0,0,6,1,0,0,0,0,0,0],"split_type":[0,0,0,0,0,0,0,0,0,0,0,0,0,0,0,0,0,0,0,0,0,0,0],"sum_hessian":[1.93E3,6.3E1,1.867E3,1.5E1,4.8E1,1.807E3,6E1,9E0,6E0,3.2E1,1.6E1,2.36E2,1.571E3,3.3E1,2.03E2,1.476E3,9.5E1,1.13E2,9E1,1.364E3,1.12E2,5.2E1,4.3E1],"tree_param":{"num_deleted":"0","num_feature":"20","num_nodes":"23","size_leaf_vector":"1"}},{"base_weights":[2.3024904E-5,4.009809E-2,-1.1462021E-3,6.687908E-2,2.8118966E-2,-1.6523587E-2,1.3945235E-3,-0E0,5.2570594E-3,2.309881E-3,-0E0,1.832605E-3,-2.3813492E-2,3.0055959E-3,-2.2565434E-2,-3.740822E-2,-7.542805E-3,1.4531751E-3,2.360848E-2,-1.5840055E-2,-3.9737388E-3,-2.545671E-3,5.1590044E-4,-6.361577E-4,1.4582812E-3,2.1355921E-4,-3.662661E-4,6.7339174E-4,2.3973957E-3,-1.519285E-3,4.9187074E-4],"categories":[],"categories_nodes":[],"categories_segments":[],"categories_sizes":[],"default_left":[0,0,0,0,0,0,0,0,0,0,0,0,0,0,0,0,0,0,0,0,0,0,0,0,0,0,0,0,0,0,0],"id":2,"left_children":[1,3,5,7,9,11,13,-1,-1,-1,-1,-1,15,17,19,21,23,25,27,29,-1,-1,-1,-1,-1,-1,-1,-1,-1,-1,-1],"loss_changes":[9.1678E-2,1.211492E-2,7.341812E-2,3.5690777E-2,2.2400212E-2,1.03102036E-1,6.0566973E-2,0E0,0E0,0E0,0E0,0E0,4.9702942E-2,4.656235E-2,3.230439E-2,8.3828285E-2,2.0186203E-2,3.4335177E-2,2.1905135E-2,3.4604706E-2,0E0,0E0,0E0,0E0,0E0,0E0,0E0,0E0,0E0,0E0,0E0],"parents":[2147483647,0,0,1,1,2,2,3,3,4,4,5,5,6,6,12,12,13,13,14,14,15,15,16,16,17,17,18,18,19,19],"right_children":[2,4,6,8,10,12,14,-1,-1,-1,-1,-1,16,18,20,22,24,26,28,30,-1,-1,-1,-1,-1,-1,-1,-1,-1,-1,-1],"split_conditions":[-1.6436334E0,-1.7099795E0,-9.8443055E-1,-2.5884E-1,2.2607923E0,-1.8561974E0,1.4918574E0,-0E0,5.2570594E-3,2.309881E-3,-0E0,1.832605E-3,-6.5495545E-1,1.4612924E0,1.4485373E0,3.090251E0,3.0959494E0,3.6548454E-1,7.900201E-1,1.3289596E0,-3.9737388E-3,-2.545671E-3,5.1590044E-4,-6.361577E-4,1.4582812E-3,2.1355921E-4,-3.662661E-4,6.7339174E-4,2.3973957E-3,-1.519285E-3,4.9187074E-4],"split_indices":[2,2,5,16,9,5,15,0,0,0,0,0,4,6,12,19,0,6,19,1,0,0,0,0,0,0,0,0,0,0,0],"split_type":[0,0,0,0,0,0,0,0,0,0,0,0,0,0,0,0,0,0,0,0,0,0,0,0,0,0,0,0,0,0,0],"sum_hessian":[1.914E3,5.5E1,1.859E3,1.5E1,4E1,2.66E2,1.593E3,6E0,9E0,2.5E1,1.5E1,3.1E1,2.35E2,1.495E3,9.8E1,1.26E2,1.09E2,1.393E3,1.02E2,8.9E1,9E0,9.9E1,2.7E1,9.7E1,1.2E1,1.059E3,3.34E2,7.4E1,2.8E1,5.8E1,3.1E1],"tree_param":{"num_deleted":"0","num_feature":"20","num_nodes":"31","size_leaf_vector":"1"}},{"base_weights":[-7.474278E-5,2.1029566E-3,-1.1569489E-3,-2.18973E-2,1.6554941E-3,-3.1096736E-2,-2.001171E-3,3.475023E-4,3.145557E-2,-4.0888365E-2,4.695663E-4,-6.5371394E-3,2.3203993E-3,1.9008002E-3,-2.0754552E-2,6.1121497E-2,1.756115E-2,-4.213832E-3,-1.6141294E-3,1.06789776E-4,-2.1478203E-3,8.157485E-6,1.1385405E-3,-7.062757E-4,-3.8279842E-3,4.0379534E-3,-1.5756158E-3,-1.023594E-3,1.3280578E-3],"categories":[],"categories_nodes":[],"categories_segments":[],"categories_sizes":[],"default_left":[0,0,0,0,0,0,0,0,0,0,0,0,0,0,0,0,0,0,0,0,0,0,0,0,0,0,0,0,0],"id":3,"left_children":[1,-1,3,5,7,9,11,13,15,17,-1,19,-1,21,23,25,27,-1,-1,-1,-1,-1,-1,-1,-1,-1,-1,-1,-1],"loss_changes":[8.655243E-2,0E0,1.1159673E-1,4.0137075E-2,6.340062E-2,6.301746E-2,1.45170335E-2,5.150509E-2,2.3764253E-2,3.967215E-2,0E0,2.4039306E-2,0E0,5.297663E-2,3.4692958E-2,4.1026413E-2,1.717777E-2,0E0,0E0,0E0,0E0,0E0,0E0,0E0,0E0,0E0,0E0,0E0,0E0],"parents":[2147483647,0,0,2,2,3,3,4,4,5,5,6,6,7,7,8,8,9,9,11,11,13,13,14,14,15,15,16,16],"right_children":[2,-1,4,6,8,10,12,14,16,18,-1,20,-1,22,24,26,28,-1,-1,-1,-1,-1,-1,-1,-1,-1,-1,-1,-1],"split_conditions":[-1.8561974E0,2.1029566E-3,-9.8443055E-1,7.932627E-1,6.838077E-1,3.090251E0,3.2760983E0,1.4918574E0,-4.221509E-1,-1.2496524E0,4.695663E-4,2.0606053E0,2.3203993E-3,1.4612924E0,1.487083E0,-8.6419666E-1,-1.4467788E-1,-4.213832E-3,-1.6141294E-3,1.06789776E-4,-2.1478203E-3,8.157485E-6,1.1385405E-3,-7.062757E-4,-3.8279842E-3,4.0379534E-3,-1.5756158E-3,-1.023594E-3,1.3280578E-3],"split_indices":[5,0,5,12,7,19,0,15,0,12,0,0,0,6,12,12,0,0,0,0,0,0,0,0,0,0,0,0,0],"split_type":[0,0,0,0,0,0,0,0,0,0,0,0,0,0,0,0,0,0,0,0,0,0,0,0,0,0,0,0,0],"sum_hessian":[1.942E3,4.7E1,1.895E3,2.28E2,1.667E3,1.54E2,7.4E1,1.599E3,6.8E1,1.25E2,2.9E1,6.9E1,5E0,1.492E3,1.07E2,2E1,4.8E1,1.9E1,1.06E2,5.5E1,1.4E1,1.38E3,1.12E2,9.7E1,1E1,1.7E1,3E0,8E0,4E1],"tree_param":{"num_deleted":"0","num_feature":"20","num_nodes":"29","size_leaf_vector":"1"}},{"base_weights":[3.86281E-4,4.174408E-2,-8.958153E-4,4.9576774E-2,-0E0,7.455803E-5,-1.7162946E-3,8.2433715E-2,3.1694807E-2,-5.8518196E-3,4.0593008E-3,1.891879E-3,6.337995E-3,-4.704039E-4,2.1133746E-3,-1.063542E-2,8.556524E-3,6.695552E-3,-2.280324E-2,-3.633413E-4,-1.6777773E-3,1.0599273E-3,-0E0,-5.163661E-5,6.895996E-4,-0E0,-1.9007402E-3],"categories":[],"categories_nodes":[],"categories_segments":[],"categories_sizes":[],"default_left":[0,0,0,0,0,0,0,0,0,0,0,0,0,0,0,0,0,0,0,0,0,0,0,0,0,0,0],"id":4,"left_children":[1,3,5,7,-1,9,-1,11,13,15,17,-1,-1,-1,-1,19,21,23,25,-1,-1,-1,-1,-1,-1,-1,-1],"loss_changes":[1.0490248E-1,2.0438954E-2,6.271662E-2,2.265831E-2,0E0,4.3055207E-2,0E0,2.1988794E-2,1.6834382E-2,5.042933E-2,7.699195E-2,0E0,0E0,0E0,0E0,4.0340297E-2,1.9437991E-2,5.557066E-2,3.4361016E-2,0E0,0E0,0E0,0E0,0E0,0E0,0E0,0E0],"parents":[2147483647,0,0,1,1,2,2,3,3,5,5,7,7,8,8,9,9,10,10,15,15,16,16,17,17,18,18],"right_children":[2,4,6,8,-1,10,-1,12,14,16,18,-1,-1,-1,-1,20,22,24,26,-1,-1,-1,-1,-1,-1,-1,-1],"split_conditions":[-1.6436334E0,-1.6329257E-1,2.409317E0,-4.221509E-1,-0E0,2.4541087E-2,-1.7162946E-3,4.156158E-1,-7.220411E-2,1.3270783E-1,1.4918574E0,1.891879E-3,6.337995E-3,-4.704039E-4,2.1133746E-3,1.9309378E-1,-2.773556E-2,-4.6977586E-1,-4.8358938E-1,-3.633413E-4,-1.6777773E-3,1.0599273E-3,-0E0,-5.163661E-5,6.895996E-4,-0E0,-1.9007402E-3],"split_indices":[2,15,16,0,0,7,0,4,0,16,15,0,0,0,0,8,7,0,10,0,0,0,0,0,0,0,0],"split_type":[0,0,0,0,0,0,0,0,0,0,0,0,0,0,0,0,0,0,0,0,0,0,0,0,0,0,0],"sum_hessian":[1.939E3,5.9E1,1.88E3,5E1,9E0,1.826E3,5.4E1,1.6E1,3.4E1,7.29E2,1.097E3,9E0,7E0,6E0,2.8E1,5.5E2,1.79E2,1.001E3,9.6E1,4.82E2,6.8E1,7.2E1,1.07E2,4.76E2,5.25E2,3.8E1,5.8E1],"tree_param":{"num_deleted":"0","num_feature":"20","num_nodes":"27","size_leaf_vector":"1"}},{"base_weights":[-3.4707657E-4,-1.2944511E-2,1.7184732E-3,1.6389396E-3,-2.1083064E-2,2.6853707E-2,8.609652E-4,-3.3014987E-2,-6.4189034E-3,-1.05014864E-4,3.385677E-2,1.6446916E-2,-4.8679073E-4,-5.9779607E-2,-1.7313642E-2,-1.2252808E-2,1.1902049E-3,3.5286308E-3,1.5996695E-2,1.2979372E-3,2.3929999E-4,-1.35066565E-2,8.790989E-4,-4.7258E-3,-2.3138279E-3,-2.2710063E-3,-3.6580834E-4,-1.0925003E-4,-2.0033936E-3,-7.7768875E-4,1.3684678E-3,1.5081528E-4,-2.2332617E-3,2.5028552E-4,-2.8152313E-4],"categories":[],"categories_nodes":[],"categories_segments":[],"categories_sizes":[],"default_left":[0,0,0,0,0,0,0,0,0,0,0,0,0,0,0,0,0,0,0,0,0,0,0,0,0,0,0,0,0,0,0,0,0,0,0],"id":5,"left_children":[1,3,5,-1,7,9,11,13,15,-1,17,19,21,23,25,27,-1,-1,29,-1,-1,31,33,-1,-1,-1,-1,-1,-1,-1,-1,-1,-1,-1,-1],"loss_changes":[5.1559843E-2,1.03768714E-1,3.4823637E-2,0E0,3.9653078E-2,1.2471389E-2,3.4989372E-2,5.0048992E-2,1.88751E-2,0E0,2.4287846E-2,1.30970925E-2,2.7232839E-2,1.2584135E-2,2.0660019E-2,2.4027012E-2,0E0,0E0,1.210623E-2,0E0,0E0,7.705785E-2,3.6260568E-2,0E0,0E0,0E0,0E0,0E0,0E0,0E0,0E0,0E0,0E0,0E0,0E0],"parents":[2147483647,0,0,1,1,2,2,4,4,5,5,6,6,7,7,8,8,10,10,11,11,12,12,13,13,14,14,15,15,18,18,21,21,22,22],"right_children":[2,4,6,-1,8,10,12,14,16,-1,18,20,22,24,26,28,-1,-1,30,-1,-1,32,34,-1,-1,-1,-1,-1,-1,-1,-1,-1,-1,-1,-1],"split_conditions":[-9.8443055E-1,-1.8561974E0,-7.2414674E-2,1.6389396E-3,8.47182E-1,-1.0495692E0,-8.2551557E-1,-1.19047716E-1,1.5854043E0,-1.05014864E-4,-4.221509E-1,-3.938311E-1,-6.0335547E-1,-1.2072E0,-1.2580658E0,5.6363285E-1,1.1902049E-3,3.5286308E-3,-1.4467788E-1,1.2979372E-3,2.3929999E-4,1.20759524E-1,3.6548454E-1,-4.7258E-3,-2.3138279E-3,-2.2710063E-3,-3.6580834E-4,-1.0925003E-4,-2.0033936E-3,-7.7768875E-4,1.3684678E-3,1.5081528E-4,-2.2332617E-3,2.5028552E-4,-2.8152313E-4],"split_indices":[5,5,17,0,0,0,6,10,1,0,0,16,4,2,15,1,0,0,0,0,0,2,6,0,0,0,0,0,0,0,0,0,0,0,0],"split_type":[0,0,0,0,0,0,0,0,0,0,0,0,0,0,0,0,0,0,0,0,0,0,0,0,0,0,0,0,0,0,0,0,0,0,0],"sum_hessian":[1.959E3,2.79E2,1.68E3,4.1E1,2.38E2,5.3E1,1.627E3,1.29E2,1.09E2,9E0,4.4E1,1.32E2,1.495E3,4.6E1,8.3E1,9.3E1,1.6E1,1.3E1,3.1E1,7E1,6.2E1,1.45E2,1.35E3,1.1E1,3.5E1,2E1,6.3E1,7E1,2.3E1,7E0,2.4E1,9.4E1,5.1E1,8.31E2,5.19E2],"tree_param":{"num_deleted":"0","num_feature":"20","num_nodes":"35","size_leaf_vector":"1"}},{"base_weights":[-0E0,3.6718525E-2,-1.1392528E-3,4.697559E-8,4.7386244E-2,-1.5571854E-2,1.2228732E-3,5.118152E-3,3.011167E-2,1.4359584E-3,-2.207916E-2,2.9072943E-3,-2.3134334E-2,-0E0,2.0413483E-3,-3.5277355E-2,-6.9130906E-3,1.3035993E-3,2.2781726E-2,1.3592962E-2,-2.8631836E-2,-2.2760604E-3,1.511483E-4,-5.595633E-4,1.5004947E-3,8.675013E-4,-1.0392395E-5,7.4587064E-4,2.337141E-3,2.9105258E-3,-6.6830526E-4,-1.6193772E-3,4.2119008E-4],"categories":[],"categories_nodes":[],"categories_segments":[],"categories_sizes":[],"default_left":[0,0,0,0,0,0,0,0,0,0,0,0,0,0,0,0,0,0,0,0,0,0,0,0,0,0,0,0,0,0,0,0,0],"id":6,"left_children":[1,3,5,-1,7,9,11,-1,13,-1,15,17,19,-1,-1,21,23,25,27,29,31,-1,-1,-1,-1,-1,-1,-1,-1,-1,-1,-1,-1],"loss_changes":[7.996508E-2,2.0152964E-2,6.4836256E-2,0E0,3.3147074E-2,7.7082634E-2,6.5220624E-2,0E0,1.1222854E-2,0E0,4.4707157E-2,4.69562E-2,2.1642145E-2,0E0,0E0,5.0648063E-2,1.6839866E-2,3.4849945E-2,1.7390694E-2,1.766684E-2,1.3929494E-2,0E0,0E0,0E0,0E0,0E0,0E0,0E0,0E0,0E0,0E0,0E0,0E0],"parents":[2147483647,0,0,1,1,2,2,4,4,5,5,6,6,8,8,10,10,11,11,12,12,15,15,16,16,17,17,18,18,19,19,20,20],"right_children":[2,4,6,-1,8,10,12,-1,14,-1,16,18,20,-1,-1,22,24,26,28,30,32,-1,-1,-1,-1,-1,-1,-1,-1,-1,-1,-1,-1],"split_conditions":[-1.7310785E0,-2.5884E-1,-9.8443055E-1,4.697559E-8,-1.7099795E0,-1.8561974E0,1.4918574E0,5.118152E-3,-8.048706E-2,1.4359584E-3,-6.5495545E-1,1.4612924E0,9.9442504E-2,-0E0,2.0413483E-3,3.090251E0,3.0959494E0,-7.3398554E-1,8.291179E-1,1.5230365E0,2.0171342E0,-2.2760604E-3,1.511483E-4,-5.595633E-4,1.5004947E-3,8.675013E-4,-1.0392395E-5,7.4587064E-4,2.337141E-3,2.9105258E-3,-6.6830526E-4,-1.6193772E-3,4.2119008E-4],"split_indices":[11,16,5,0,2,5,15,0,0,0,4,6,12,0,0,19,0,5,19,3,19,0,0,0,0,0,0,0,0,0,0,0,0],"split_type":[0,0,0,0,0,0,0,0,0,0,0,0,0,0,0,0,0,0,0,0,0,0,0,0,0,0,0,0,0,0,0,0,0],"sum_hessian":[1.937E3,5.7E1,1.88E3,1.4E1,4.3E1,2.67E2,1.613E3,9E0,3.4E1,3.3E1,2.34E2,1.511E3,1.02E2,9E0,2.5E1,1.23E2,1.11E2,1.401E3,1.1E2,1.2E1,9E1,9.8E1,2.5E1,1.01E2,1E1,1.23E2,1.278E3,8.5E1,2.5E1,5E0,7E0,8.3E1,7E0],"tree_param":{"num_deleted":"0","num_feature":"20","num_nodes":"33","size_leaf_vector":"1"}},{"base_weights":[-1.2119913E-4,7.5333327E-4,-1.5476038E-3,2.772628E-2,-1.37108E-4,3.2807436E-2,-2.5280198E-4,-6.0767434E-3,3.753305E-3,2.0371662E-2,5.6371644E-2,-2.8341025E-2,-3.054914E-3,5.847557E-3,-1.6720792E-2,-7.8985246E-4,1.9467399E-3,5.1610717E-3,1.4751436E-3,-2.7552206E-4,-2.4585794E-3,-3.521627E-4,4.632622E-4,-1.271913E-3,3.7751705E-4,5.543197E-4,-1.4113117E-3],"categories":[],"categories_nodes":[],"categories_segments":[],"categories_sizes":[],"default_left":[0,0,0,0,0,0,0,0,0,0,0,0,0,0,0,0,0,0,0,0,0,0,0,0,0,0,0],"id":7,"left_children":[1,3,-1,5,7,9,-1,11,13,15,17,19,21,23,25,-1,-1,-1,-1,-1,-1,-1,-1,-1,-1,-1,-1],"loss_changes":[5.4219995E-2,4.7003213E-2,0E0,1.1881266E-2,4.258786E-2,1.1852317E-2,0E0,4.7668673E-2,4.6906758E-2,2.7313493E-2,1.3870057E-2,3.7791982E-2,3.1737722E-2,5.276762E-2,3.3166815E-2,0E0,0E0,0E0,0E0,0E0,0E0,0E0,0E0,0E0,0E0,0E0,0E0],"parents":[2147483647,0,0,1,1,3,3,4,4,5,5,7,7,8,8,9,9,10,10,11,11,12,12,13,13,14,14],"right_children":[2,4,-1,6,8,10,-1,12,14,16,18,20,22,24,26,-1,-1,-1,-1,-1,-1,-1,-1,-1,-1,-1,-1],"split_conditions":[2.409317E0,-1.6436334E0,-1.5476038E-3,2.312568E0,2.4541087E-2,-1.5965625E0,-2.5280198E-4,-2.9337531E-2,1.8817647E0,-1.3595885E-1,-1.2881979E0,7.203664E-2,3.407275E-1,-1.5292841E0,-4.3802166E-1,-7.8985246E-4,1.9467399E-3,5.1610717E-3,1.4751436E-3,-2.7552206E-4,-2.4585794E-3,-3.521627E-4,4.632622E-4,-1.271913E-3,3.7751705E-4,5.543197E-4,-1.4113117E-3],"split_indices":[16,2,0,9,7,12,0,17,5,16,12,2,16,16,10,0,0,0,0,0,0,0,0,0,0,0,0],"split_type":[0,0,0,0,0,0,0,0,0,0,0,0,0,0,0,0,0,0,0,0,0,0,0,0,0,0,0],"sum_hessian":[1.954E3,1.899E3,5.5E1,6.2E1,1.837E3,5.5E1,7E0,7.32E2,1.105E3,3.8E1,1.7E1,8.5E1,6.47E2,1.005E3,1E2,1.2E1,2.6E1,5E0,1.2E1,4.2E1,4.3E1,4.92E2,1.55E2,5E1,9.55E2,2.8E1,7.2E1],"tree_param":{"num_deleted":"0","num_feature":"20","num_nodes":"27","size_leaf_vector":"1"}},{"base_weights":[-1.1343833E-4,3.0471252E-2,-1.1978009E-3,3.6381513E-2,-2.710001E-4,-1.3095296E-2,6.692921E-4,6.497294E-2,2.1264246E-2,1.4964913E-3,-1.9405005E-2,1.9445199E-3,-1.6631342E-2,5.873704E-3,1.5536712E-3,-4.6167817E-4,1.7475855E-3,-3.0611197E-2,-7.060343E-3,-3.000423E-3,6.8632104E-3,1.3129655E-3,-2.9409181E-2,-2.0273407E-3,3.9331536E-4,-5.372617E-4,1.2067286E-3,-1.3705762E-3,6.1098576E-6,4.8017842E-4,-6.598809E-4,-9.857008E-4,-3.6376999E-3],"categories":[],"categories_nodes":[],"categories_segments":[],"categories_sizes":[],"default_left":[0,0,0,0,0,0,0,0,0,0,0,0,0,0,0,0,0,0,0,0,0,0,0,0,0,0,0,0,0,0,0,0,0],"id":8,"left_children":[1,3,5,7,-1,9,11,13,15,-1,17,19,21,-1,-1,-1,-1,23,25,27,29,-1,31,-1,-1,-1,-1,-1,-1,-1,-1,-1,-1],"loss_changes":[6.350801E-2,1.5540965E-2,4.268738E-2,1.9850224E-2,0E0,7.0483655E-2,3.5320513E-2,2.3673095E-2,1.7936058E-2,0E0,2.9618293E-2,3.7283305E-2,6.0555093E-2,0E0,0E0,0E0,0E0,4.6713464E-2,1.227711E-2,5.8955334E-2,4.218605E-2,0E0,3.0589573E-2,0E0,0E0,0E0,0E0,0E0,0E0,0E0,0E0,0E0,0E0],"parents":[2147483647,0,0,1,1,2,2,3,3,5,5,6,6,7,7,8,8,10,10,11,11,12,12,17,17,18,18,19,19,20,20,22,22],"right_children":[2,4,6,8,-1,10,12,14,16,-1,18,20,22,-1,-1,-1,-1,24,26,28,30,-1,32,-1,-1,-1,-1,-1,-1,-1,-1,-1,-1],"split_conditions":[-1.6436334E0,2.312568E0,-9.8443055E-1,-4.8427063E-1,-2.710001E-4,-1.8561974E0,1.8817647E0,-2.9370005E0,-7.220411E-2,1.4964913E-3,-6.5495545E-1,3.2285776E-2,-4.8358938E-1,5.873704E-3,1.5536712E-3,-4.6167817E-4,1.7475855E-3,3.090251E0,3.0959494E0,-2.9337531E-2,1.1986341E0,1.3129655E-3,6.463457E-1,-2.0273407E-3,3.9331536E-4,-5.372617E-4,1.2067286E-3,-1.3705762E-3,6.1098576E-6,4.8017842E-4,-6.598809E-4,-9.857008E-4,-3.6376999E-3],"split_indices":[2,9,5,0,0,5,5,15,0,0,4,7,10,0,0,0,0,19,0,17,15,0,2,0,0,0,0,0,0,0,0,0,0],"split_type":[0,0,0,0,0,0,0,0,0,0,0,0,0,0,0,0,0,0,0,0,0,0,0,0,0,0,0,0,0,0,0,0,0],"sum_hessian":[1.958E3,6.5E1,1.893E3,5.7E1,8E0,2.6E2,1.633E3,1.8E1,3.9E1,3.2E1,2.28E2,1.524E3,1.09E2,6E0,1.2E1,1.1E1,2.8E1,1.17E2,1.11E2,7.55E2,7.69E2,2.4E1,8.5E1,9.4E1,2.3E1,1.01E2,1E1,8.7E1,6.68E2,6.79E2,9E1,7.1E1,1.4E1],"tree_param":{"num_deleted":"0","num_feature":"20","num_nodes":"33","size_leaf_vector":"1"}},{"base_weights":[-1.3159518E-4,5.8720127E-2,-7.923338E-4,4.647909E-3,1.176782E-3,-1.2029904E-2,1.02443E-3,1.1937008E-3,-1.7855616E-2,2.2548172E-3,-1.5653536E-2,-2.2414362E-2,5.532419E-4,-3.011223E-3,6.982078E-3,-1.4705424E-3,7.832974E-3,-3.5383482E-3,-7.871545E-4,1.7786198E-4,-6.1913667E-4,1.7238671E-3,2.521074E-4,-5.5563665E-4,1.4051239E-3],"categories":[],"categories_nodes":[],"categories_segments":[],"categories_sizes":[],"default_left":[0,0,0,0,0,0,0,0,0,0,0,0,0,0,0,0,0,0,0,0,0,0,0,0,0],"id":9,"left_children":[1,3,5,-1,-1,7,9,-1,11,13,15,17,-1,19,21,-1,23,-1,-1,-1,-1,-1,-1,-1,-1],"loss_changes":[7.184556E-2,1.7776683E-2,3.9377484E-2,0E0,0E0,5.6073274E-2,3.286771E-2,0E0,3.134451E-2,3.8159873E-2,3.657476E-2,6.043856E-2,0E0,4.456847E-2,4.1061595E-2,0E0,1.6174424E-2,0E0,0E0,0E0,0E0,0E0,0E0,0E0,0E0],"parents":[2147483647,0,0,1,1,2,2,5,5,6,6,8,8,9,9,10,10,11,11,13,13,14,14,16,16],"right_children":[2,4,6,-1,-1,8,10,-1,12,14,16,18,-1,20,22,-1,24,-1,-1,-1,-1,-1,-1,-1,-1],"split_conditions":[-1.7840811E0,-8.040967E-3,-9.8443055E-1,4.647909E-3,1.176782E-3,-1.8561974E0,1.4918574E0,1.1937008E-3,2.815794E0,3.2285776E-2,1.3289596E0,-2.8219603E-2,5.532419E-4,-2.9043777E-2,-8.707907E-1,-1.4705424E-3,2.3440804E0,-3.5383482E-3,-7.871545E-4,1.7786198E-4,-6.1913667E-4,1.7238671E-3,2.521074E-4,-5.5563665E-4,1.4051239E-3],"split_indices":[11,17,5,0,0,5,15,0,19,7,1,7,0,5,19,0,15,0,0,0,0,0,0,0,0],"split_type":[0,0,0,0,0,0,0,0,0,0,0,0,0,0,0,0,0,0,0,0,0,0,0,0,0],"sum_hessian":[1.921E3,2E1,1.901E3,9E0,1.1E1,2.68E2,1.633E3,3.6E1,2.32E2,1.524E3,1.09E2,2.02E2,3E1,7.16E2,8.08E2,7E1,3.9E1,2.3E1,1.79E2,4.18E2,2.98E2,5.1E1,7.57E2,1.9E1,2E1],"tree_param":{"num_deleted":"0","num_feature":"20","num_nodes":"25","size_leaf_vector":"1"}},{"base_weights":[-8.9323753E-4,2.8354835E-2,-1.8414832E-3,2.300284E-2,4.005055E-3,-1.5581798E-4,-1.4687675E-2,3.0659411E-2,-0E0,9.4596425E-4,-3.2562066E-2,5.0096903E-3,-2.472932E-2,2.7216244E-3,1.4884415E-2,-3.0165904E-3,8.44211E-3,-5.5520615E-4,-2.4516354E-3,-4.208052E-3,1.7116854E-3,-3.5878044E-2,7.1233546E-4,-9.6922845E-4,1.6002314E-3,2.1615239E-4,-3.9728102E-4,-1.8815722E-4,7.783062E-4,-5.382365E-4,1.8168762E-3,-4.7410475E-3,-1.524256E-3],"categories":[],"categories_nodes":[],"categories_segments":[],"categories_sizes":[],"default_left":[0,0,0,0,0,0,0,0,0,0,0,0,0,0,0,0,0,0,0,0,0,0,0,0,0,0,0,0,0,0,0,0,0],"id":10,"left_children":[1,3,5,7,-1,9,11,13,-1,15,17,19,21,-1,23,25,27,-1,-1,29,-1,31,-1,-1,-1,-1,-1,-1,-1,-1,-1,-1,-1],"loss_changes":[5.2685365E-2,1.0401793E-2,4.012932E-2,1.0583224E-2,0E0,6.1312202E-2,4.3672528E-2,1.2067411E-2,0E0,4.8300344E-2,1.6689498E-2,2.0833943E-2,6.412715E-2,0E0,1.7075239E-2,3.8311087E-2,4.9615987E-2,0E0,0E0,1.3139613E-2,0E0,2.836816E-2,0E0,0E0,0E0,0E0,0E0,0E0,0E0,0E0,0E0,0E0,0E0],"parents":[2147483647,0,0,1,1,2,2,3,3,5,5,6,6,7,7,9,9,10,10,11,11,12,12,14,14,15,15,16,16,19,19,21,21],"right_children":[2,4,6,8,-1,10,12,14,-1,16,18,20,22,-1,24,26,28,-1,-1,30,-1,32,-1,-1,-1,-1,-1,-1,-1,-1,-1,-1,-1],"split_conditions":[-1.6436334E0,4.1447577E0,1.0347676E0,1.5235995E0,4.005055E-3,2.054108E0,-4.8358938E-1,-4.221509E-1,-0E0,-1.5200524E-1,1.9641183E-1,-7.163168E-1,3.2222688E0,2.7216244E-3,-7.220411E-2,-7.311759E-1,2.0668743E-2,-5.5520615E-4,-2.4516354E-3,1.9411324E0,1.7116854E-3,-1.6353045E0,7.1233546E-4,-9.6922845E-4,1.6002314E-3,2.1615239E-4,-3.9728102E-4,-1.8815722E-4,7.783062E-4,-5.382365E-4,1.8168762E-3,-4.7410475E-3,-1.524256E-3],"split_indices":[2,19,19,19,0,16,10,0,0,19,19,5,19,0,0,19,7,0,0,2,0,4,0,0,0,0,0,0,0,0,0,0,0],"split_type":[0,0,0,0,0,0,0,0,0,0,0,0,0,0,0,0,0,0,0,0,0,0,0,0,0,0,0,0,0,0,0,0,0],"sum_hessian":[1.946E3,5.9E1,1.887E3,5.5E1,4E0,1.672E3,2.15E2,4.2E1,1.3E1,1.616E3,5.6E1,7.1E1,1.44E2,1.5E1,2.7E1,1.053E3,5.63E2,2.6E1,3E1,5.3E1,1.8E1,1.13E2,3.1E1,8E0,1.9E1,4.19E2,6.34E2,2.05E2,3.58E2,4.7E1,6E0,8E0,1.05E2],"tree_param":{"num_deleted":"0","num_feature":"20","num_nodes":"33","size_leaf_vector":"1"}},{"base_weights":[-3.8309183E-4,1.4850862E-3,-1.1889247E-3,-1.7067209E-2,9.4348023E-4,-2.5204891E-2,-3.105335E-3,1.8253278E-3,-3.2021377E-2,-3.2747015E-2,6.259818E-4,3.3363528E-3,-2.3438424E-2,-2.516208E-2,2.7857097E-3,-2.1334847E-3,4.1461888E-5,-4.112379E-3,-1.2023099E-3,-1.7719429E-4,1.2189974E-3,-2.8504457E-3,1.4662625E-3,-1.9187545E-3,1.0207392E-3,1.1349948E-3,8.032113E-5],"categories":[],"categories_nodes":[],"categories_segments":[],"categories_sizes":[],"default_left":[0,0,0,0,0,0,0,0,0,0,0,0,0,0,0,0,0,0,0,0,0,0,0,0,0,0,0],"id":11,"left_children":[1,-1,3,5,7,9,11,13,15,17,-1,19,21,23,25,-1,-1,-1,-1,-1,-1,-1,-1,-1,-1,-1,-1],"loss_changes":[4.515133E-2,0E0,6.4215094E-2,2.4052441E-2,4.6441276E-2,4.090731E-2,1.2242943E-2,4.057977E-2,1.6626567E-2,4.430315E-2,0E0,1.0278847E-2,4.2074382E-2,3.3507828E-2,3.5273176E-2,0E0,0E0,0E0,0E0,0E0,0E0,0E0,0E0,0E0,0E0,0E0,0E0],"parents":[2147483647,0,0,2,2,3,3,4,4,5,5,6,6,7,7,8,8,9,9,11,11,12,12,13,13,14,14],"right_children":[2,-1,4,6,8,10,12,14,16,18,-1,20,22,24,26,-1,-1,-1,-1,-1,-1,-1,-1,-1,-1,-1,-1],"split_conditions":[-1.8561974E0,1.4850862E-3,-9.8443055E-1,7.547172E-1,1.6027197E0,3.2222688E0,2.0606053E0,-1.5292841E0,2.0126617E0,-1.2496524E0,6.259818E-4,-1.3493758E0,3.0959494E0,3.2222688E0,-1.402092E0,-2.1334847E-3,4.1461888E-5,-4.112379E-3,-1.2023099E-3,-1.7719429E-4,1.2189974E-3,-2.8504457E-3,1.4662625E-3,-1.9187545E-3,1.0207392E-3,1.1349948E-3,8.032113E-5],"split_indices":[5,0,5,12,12,19,0,16,2,12,0,10,0,19,2,0,0,0,0,0,0,0,0,0,0,0,0],"split_type":[0,0,0,0,0,0,0,0,0,0,0,0,0,0,0,0,0,0,0,0,0,0,0,0,0,0,0],"sum_hessian":[1.92E3,4.8E1,1.872E3,2.24E2,1.648E3,1.39E2,8.5E1,1.607E3,4.1E1,1.17E2,2.2E1,6.3E1,2.2E1,5.3E1,1.554E3,3.2E1,9E0,1.6E1,1.01E2,4.6E1,1.7E1,1.4E1,8E0,4.2E1,1.1E1,8.4E1,1.47E3],"tree_param":{"num_deleted":"0","num_feature":"20","num_nodes":"27","size_leaf_vector":"1"}},{"base_weights":[-0E0,2.6578225E-2,-9.404032E-4,3.2949623E-2,-4.2441228E-4,-9.442544E-3,1.2226424E-3,5.8111705E-2,1.8375013E-2,-2.9554777E-3,8.941336E-4,3.2166215E-3,-2.2139441E-2,2.656897E-3,-1.6696403E-2,4.842901E-3,1.2983975E-3,-7.208746E-4,1.6454182E-3,-1.7065866E-3,7.5026285E-3,-6.313786E-3,-3.4836132E-2,1.1652043E-3,1.8980531E-2,-1.3764612E-3,1.7770883E-3,-4.0262408E-4,1.0456736E-3,-9.465096E-4,5.274863E-4,-2.548531E-3,-9.470232E-4,8.109059E-5,-2.701265E-3,5.863114E-4,2.137834E-3,-2.6733367E-4,2.2475752E-3],"categories":[],"categories_nodes":[],"categories_segments":[],"categories_sizes":[],"default_left":[0,0,0,0,0,0,0,0,0,0,0,0,0,0,0,0,0,0,0,0,0,0,0,0,0,0,0,0,0,0,0,0,0,0,0,0,0,0,0],"id":12,"left_children":[1,3,5,7,9,11,13,15,17,-1,-1,19,21,23,25,-1,-1,-1,-1,-1,27,29,31,33,35,-1,37,-1,-1,-1,-1,-1,-1,-1,-1,-1,-1,-1,-1],"loss_changes":[4.792088E-2,1.290217E-2,3.4761056E-2,1.5628409E-2,1.4944931E-2,6.262252E-2,3.747256E-2,1.5641961E-2,1.8557124E-2,0E0,0E0,2.9290931E-2,3.6713153E-2,3.252357E-2,2.2824977E-2,0E0,0E0,0E0,0E0,0E0,3.6711987E-2,1.9347865E-2,2.3079157E-2,2.9314732E-2,1.6429096E-2,0E0,1.3941634E-2,0E0,0E0,0E0,0E0,0E0,0E0,0E0,0E0,0E0,0E0,0E0,0E0],"parents":[2147483647,0,0,1,1,2,2,3,3,4,4,5,5,6,6,7,7,8,8,11,11,12,12,13,13,14,14,20,20,21,21,22,22,23,23,24,24,26,26],"right_children":[2,4,6,8,10,12,14,16,18,-1,-1,20,22,24,26,-1,-1,-1,-1,-1,28,30,32,34,36,-1,38,-1,-1,-1,-1,-1,-1,-1,-1,-1,-1,-1,-1],"split_conditions":[-1.6436334E0,-1.6329257E-1,-6.0335547E-1,-4.221509E-1,2.240499E0,-8.2551557E-1,1.4918574E0,-2.9370005E0,-7.220411E-2,-2.9554777E-3,8.941336E-4,-9.678764E-1,9.795321E-2,1.4612924E0,1.3289596E0,4.842901E-3,1.2983975E-3,-7.208746E-4,1.6454182E-3,-1.7065866E-3,-1.113193E-3,-4.0871972E-1,-6.157841E-1,2.1690488E0,8.291179E-1,-1.3764612E-3,2.8793783E0,-4.0262408E-4,1.0456736E-3,-9.465096E-4,5.274863E-4,-2.548531E-3,-9.470232E-4,8.109059E-5,-2.701265E-3,5.863114E-4,2.137834E-3,-2.6733367E-4,2.2475752E-3],"split_indices":[2,15,4,0,19,6,15,15,0,0,0,15,2,6,1,0,0,0,0,0,7,1,6,17,19,0,3,0,0,0,0,0,0,0,0,0,0,0,0],"split_type":[0,0,0,0,0,0,0,0,0,0,0,0,0,0,0,0,0,0,0,0,0,0,0,0,0,0,0,0,0,0,0,0,0,0,0,0,0,0,0],"sum_hessian":[1.932E3,6.5E1,1.867E3,5.4E1,1.1E1,3.83E2,1.484E3,1.8E1,3.6E1,3E0,8E0,1.9E2,1.93E2,1.377E3,1.07E2,7E0,1.1E1,1E1,2.6E1,1.8E1,1.72E2,8.8E1,1.05E2,1.265E3,1.12E2,6.9E1,3.8E1,7.8E1,9.4E1,5.2E1,3.6E1,5E1,5.5E1,1.256E3,9E0,8.8E1,2.4E1,3.2E1,6E0],"tree_param":{"num_deleted":"0","num_feature":"20","num_nodes":"39","size_leaf_vector":"1"}},{"base_weights":[-9.446876E-5,1.020639E-3,-1.6926741E-2,-3.5042854E-3,5.358023E-3,-1.14693465E-2,-2.724195E-3,-3.0545194E-3,-2.6279897E-3,1.4172295E-3,3.6665532E-3,-9.904172E-4,3.6552627E-4,-3.5563076E-3,2.3033526E-3,-2.266995E-2,5.39357E-3,-0E0,-1.1075316E-3,5.3356367E-4,-2.2445132E-3,-9.099235E-5,6.025894E-4],"categories":[],"categories_nodes":[],"categories_segments":[],"categories_sizes":[],"default_left":[0,0,0,0,0,0,0,0,0,0,0,0,0,0,0,0,0,0,0,0,0,0,0],"id":13,"left_children":[1,3,5,7,9,11,-1,-1,13,-1,15,-1,-1,17,-1,19,21,-1,-1,-1,-1,-1,-1],"loss_changes":[3.7564594E-2,3.6106586E-2,2.1907937E-2,4.177155E-2,3.499291E-2,1.8002179E-2,0E0,0E0,3.7758924E-2,0E0,3.9245605E-2,0E0,0E0,5.799014E-2,0E0,4.084522E-2,4.0314175E-2,0E0,0E0,0E0,0E0,0E0,0E0],"parents":[2147483647,0,0,1,1,2,2,3,3,4,4,5,5,8,8,10,10,13,13,15,15,16,16],"right_children":[2,4,6,8,10,12,-1,-1,14,-1,16,-1,-1,18,-1,20,22,-1,-1,-1,-1,-1,-1],"split_conditions":[1.4918574E0,3.2285776E-2,1.487083E0,-1.5009793E0,-8.707907E-1,1.3289596E0,-2.724195E-3,-3.0545194E-3,4.1447577E0,1.4172295E-3,-1.5292841E0,-9.904172E-4,3.6552627E-4,4.0572345E-1,2.3033526E-3,-7.8710556E-1,-1.3344614E-1,-0E0,-1.1075316E-3,5.3356367E-4,-2.2445132E-3,-9.099235E-5,6.025894E-4],"split_indices":[15,7,12,0,19,1,0,0,19,0,16,0,0,19,0,12,19,0,0,0,0,0,0],"split_type":[0,0,0,0,0,0,0,0,0,0,0,0,0,0,0,0,0,0,0,0,0,0,0],"sum_hessian":[1.958E3,1.834E3,1.24E2,8.92E2,9.42E2,1.1E2,1.4E1,1.2E1,8.8E2,6.2E1,8.8E2,7.8E1,3.2E1,8.65E2,1.5E1,5.2E1,8.28E2,7.25E2,1.4E2,2E1,3.2E1,3.94E2,4.34E2],"tree_param":{"num_deleted":"0","num_feature":"20","num_nodes":"23","size_leaf_vector":"1"}},{"base_weights":[-2.5827892E-4,2.7195573E-2,-1.104257E-3,2.1099513E-2,4.2091715E-3,-1.1968127E-4,-1.7639002E-2,5.3012457E-2,5.895219E-4,-5.508717E-3,3.2913142E-3,-4.2011548E-2,5.4849144E-3,3.9995643E-3,-0E0,-1.1769105E-3,-2.3004826E-2,-3.3149049E-3,8.993389E-3,-0E0,-2.3841853E-3,1.0910243E-3,-5.7944056E-4,-2.8329433E-3,-0E0,-2.238093E-3,-1.4001304E-4,9.0871006E-4,-2.8862405E-4,5.6949805E-4,-4.7513848E-4],"categories":[],"categories_nodes":[],"categories_segments":[],"categories_sizes":[],"default_left":[0,0,0,0,0,0,0,0,0,0,0,0,0,0,0,0,0,0,0,0,0,0,0,0,0,0,0,0,0,0,0],"id":14,"left_children":[1,3,5,7,-1,9,11,13,-1,15,17,19,21,-1,-1,23,25,27,29,-1,-1,-1,-1,-1,-1,-1,-1,-1,-1,-1,-1],"loss_changes":[4.3965053E-2,1.3475917E-2,2.9920358E-2,1.2044035E-2,0E0,3.301448E-2,6.0272977E-2,1.2082577E-2,0E0,5.1792316E-2,4.1377045E-2,1.2559019E-2,1.5280747E-2,0E0,0E0,3.934733E-2,5.756344E-2,2.5917146E-2,2.627946E-2,0E0,0E0,0E0,0E0,0E0,0E0,0E0,0E0,0E0,0E0,0E0,0E0],"parents":[2147483647,0,0,1,1,2,2,3,3,5,5,6,6,7,7,9,9,10,10,11,11,12,12,15,15,16,16,17,17,18,18],"right_children":[2,4,6,8,-1,10,12,14,-1,16,18,20,22,-1,-1,24,26,28,30,-1,-1,-1,-1,-1,-1,-1,-1,-1,-1,-1,-1],"split_conditions":[-1.7310785E0,4.1447577E0,1.4485373E0,-1.805282E0,4.2091715E-3,2.4541087E-2,1.9366958E0,-1.2881979E0,5.895219E-4,4.0572345E-1,-4.3871522E-1,5.4802984E-1,1.3790864E0,3.9995643E-3,-0E0,-1.5009793E0,-1.19047716E-1,-6.902658E-2,2.0032706E0,-0E0,-2.3841853E-3,1.0910243E-3,-5.7944056E-4,-2.8329433E-3,-0E0,-2.238093E-3,-1.4001304E-4,9.0871006E-4,-2.8862405E-4,5.6949805E-4,-4.7513848E-4],"split_indices":[11,19,12,11,0,7,11,12,0,19,0,11,3,0,0,0,10,17,15,0,0,0,0,0,0,0,0,0,0,0,0],"split_type":[0,0,0,0,0,0,0,0,0,0,0,0,0,0,0,0,0,0,0,0,0,0,0,0,0,0,0,0,0,0,0],"sum_hessian":[1.948E3,5.6E1,1.892E3,5.2E1,4E0,1.789E3,1.03E2,1E1,4.2E1,6.99E2,1.09E3,5.1E1,5.2E1,6E0,4E0,5.63E2,1.36E2,5.01E2,5.89E2,6E0,4.5E1,2.8E1,2.4E1,1.2E1,5.51E2,6.4E1,7.2E1,4.9E1,4.52E2,5.24E2,6.5E1],"tree_param":{"num_deleted":"0","num_feature":"20","num_nodes":"31","size_leaf_vector":"1"}},{"base_weights":[2.4119321E-4,1.2680055E-3,-1.8332595E-2,-2.0494442E-3,5.759242E-3,-2.703917E-2,9.143401E-4,-1.0721996E-2,2.6597183E-3,9.97911E-3,-1.0134329E-2,-1.07824E-3,-3.135362E-3,-2.615464E-2,-2.3326462E-3,-1.3319434E-2,5.697429E-3,1.0576332E-2,-4.245832E-3,-2.1078838E-2,2.3778269E-2,-2.4173988E-3,-8.827333E-4,1.2786125E-3,-2.5922328E-4,3.4728562E-4,-2.2785687E-3,4.805935E-4,-3.1906713E-4,-2.6411022E-4,6.7940494E-4,6.057631E-4,-1.5324838E-3,2.2760783E-3,3.748111E-4],"categories":[],"categories_nodes":[],"categories_segments":[],"categories_sizes":[],"default_left":[0,0,0,0,0,0,0,0,0,0,0,0,0,0,0,0,0,0,0,0,0,0,0,0,0,0,0,0,0,0,0,0,0,0,0],"id":15,"left_children":[1,3,5,7,9,11,-1,13,15,17,19,-1,-1,21,23,25,27,29,-1,31,33,-1,-1,-1,-1,-1,-1,-1,-1,-1,-1,-1,-1,-1,-1],"loss_changes":[3.6663074E-2,2.8001217E-2,3.2727223E-2,4.401456E-2,5.366429E-2,1.121923E-2,0E0,4.7678933E-2,3.3076666E-2,3.2691568E-2,6.1542086E-2,0E0,0E0,2.1079607E-2,1.8822461E-2,7.235049E-2,2.7686462E-2,3.0613028E-2,0E0,4.130085E-2,1.11624915E-2,0E0,0E0,0E0,0E0,0E0,0E0,0E0,0E0,0E0,0E0,0E0,0E0,0E0,0E0],"parents":[2147483647,0,0,1,1,2,2,3,3,4,4,5,5,7,7,8,8,9,9,10,10,13,13,14,14,15,15,16,16,17,17,19,19,20,20],"right_children":[2,4,6,8,10,12,-1,14,16,18,20,-1,-1,22,24,26,28,30,-1,32,34,-1,-1,-1,-1,-1,-1,-1,-1,-1,-1,-1,-1,-1,-1],"split_conditions":[2.054108E0,-1.5200524E-1,1.5235995E0,-7.141171E-1,1.0912553E0,5.841562E-1,9.143401E-4,3.0913274E-3,-6.3413626E-1,2.1690488E0,3.2222688E0,-1.07824E-3,-3.135362E-3,-9.234666E-1,-4.3996033E-1,-7.9060405E-1,1.5886682E0,-4.7884092E-1,-4.245832E-3,-5.139679E-1,-1.678076E0,-2.4173988E-3,-8.827333E-4,1.2786125E-3,-2.5922328E-4,3.4728562E-4,-2.2785687E-3,4.805935E-4,-3.1906713E-4,-2.6411022E-4,6.7940494E-4,6.057631E-4,-1.5324838E-3,2.2760783E-3,3.748111E-4],"split_indices":[16,19,19,0,19,4,0,17,4,17,19,0,0,15,8,6,2,9,0,10,11,0,0,0,0,0,0,0,0,0,0,0,0,0,0],"split_type":[0,0,0,0,0,0,0,0,0,0,0,0,0,0,0,0,0,0,0,0,0,0,0,0,0,0,0,0,0,0,0,0,0,0,0],"sum_hessian":[1.966E3,1.866E3,1E2,1.067E3,7.99E2,8.2E1,1.8E1,3.79E2,6.88E2,6.34E2,1.65E2,7.3E1,9E0,1.31E2,2.48E2,1.07E2,5.81E2,6.31E2,3E0,1.26E2,3.9E1,3.4E1,9.7E1,2.1E1,2.27E2,6.5E1,4.2E1,4.42E2,1.39E2,9.8E1,5.33E2,2.7E1,9.9E1,1.5E1,2.4E1],"tree_param":{"num_deleted":"0","num_feature":"20","num_nodes":"35","size_leaf_vector":"1"}},{"base_weights":[2.5038762E-4,2.0256389E-2,-6.776616E-4,1.2697461E-3,-1.4790478E-3,-0E0,-1.0691384E-3,1.3242622E-3,-1.1522172E-2,-2.047025E-3,7.645861E-3,-1.6990168E-2,5.6163815E-4,2.5334998E-4,-3.3443683E-4,-1.5674224E-4,6.869987E-4,-2.5395635E-3,-5.0701003E-4],"categories":[],"categories_nodes":[],"categories_segments":[],"categories_sizes":[],"default_left":[0,0,0,0,0,0,0,0,0,0,0,0,0,0,0,0,0,0,0],"id":16,"left_children":[1,3,5,-1,-1,7,-1,9,11,13,15,17,-1,-1,-1,-1,-1,-1,-1],"loss_changes":[3.66243E-2,2.257425E-2,2.6363224E-2,0E0,0E0,2.6757738E-2,0E0,3.424832E-2,2.2841798E-2,3.425851E-2,3.7310295E-2,3.084753E-2,0E0,0E0,0E0,0E0,0E0,0E0,0E0],"parents":[2147483647,0,0,1,1,2,2,5,5,7,7,8,8,9,9,10,10,11,11],"right_children":[2,4,6,-1,-1,8,-1,10,12,14,16,18,-1,-1,-1,-1,-1,-1,-1],"split_conditions":[-1.699277E0,-8.6419666E-1,2.409317E0,1.2697461E-3,-1.4790478E-3,1.060507E0,-1.0691384E-3,-1.5200524E-1,2.815794E0,-7.311759E-1,2.0668743E-2,-2.8219603E-2,5.6163815E-4,2.5334998E-4,-3.3443683E-4,-1.5674224E-4,6.869987E-4,-2.5395635E-3,-5.0701003E-4],"split_indices":[11,12,16,0,0,19,0,19,19,19,7,7,0,0,0,0,0,0,0],"split_type":[0,0,0,0,0,0,0,0,0,0,0,0,0,0,0,0,0,0,0],"sum_hessian":[1.919E3,8.7E1,1.832E3,8E1,7E0,1.773E3,5.9E1,1.593E3,1.8E2,1.034E3,5.59E2,1.47E2,3.3E1,4.04E2,6.3E2,1.99E2,3.6E2,2.3E1,1.24E2],"tree_param":{"num_deleted":"0","num_feature":"20","num_nodes":"19","size_leaf_vector":"1"}},{"base_weights":[-1.1721074E-4,1.3654084E-3,-8.088154E-4,-2.4360765E-2,-1.3004294E-4,4.348591E-4,-3.9859857E-2,9.032419E-4,-1.429477E-2,-3.897218E-3,-1.277269E-3,-3.2640903E-3,5.3884424E-3,-1.7173698E-2,2.1017725E-3,-1.8576246E-5,-8.11629E-4,3.889585E-4,-7.11067E-4,4.9675724E-5,-1.3817585E-3],"categories":[],"categories_nodes":[],"categories_segments":[],"categories_sizes":[],"default_left":[0,0,0,0,0,0,0,0,0,0,0,0,0,0,0,0,0,0,0,0,0],"id":17,"left_children":[1,-1,3,5,7,-1,9,11,13,-1,-1,15,17,19,-1,-1,-1,-1,-1,-1,-1],"loss_changes":[3.5132166E-2,0E0,2.8772384E-2,2.7606064E-2,2.7409049E-2,0E0,1.3183117E-2,3.1880908E-2,1.9794632E-2,0E0,0E0,3.2008715E-2,3.8387123E-2,2.462764E-2,0E0,0E0,0E0,0E0,0E0,0E0,0E0],"parents":[2147483647,0,0,2,2,3,3,4,4,6,6,7,7,8,8,11,11,12,12,13,13],"right_children":[2,-1,4,6,8,-1,10,12,14,-1,-1,16,18,20,-1,-1,-1,-1,-1,-1,-1],"split_conditions":[-1.7522795E0,1.3654084E-3,-1.5292841E0,-7.8710556E-1,1.5106987E0,4.348591E-4,-8.383581E-1,3.2285776E-2,1.8730928E0,-3.897218E-3,-1.277269E-3,2.914533E-1,1.8817647E0,5.692308E-1,2.1017725E-3,-1.8576246E-5,-8.11629E-4,3.889585E-4,-7.11067E-4,4.9675724E-5,-1.3817585E-3],"split_indices":[11,0,16,12,16,0,0,7,11,0,0,6,5,11,0,0,0,0,0,0,0],"split_type":[0,0,0,0,0,0,0,0,0,0,0,0,0,0,0,0,0,0,0,0,0],"sum_hessian":[1.921E3,4.5E1,1.876E3,5E1,1.826E3,1.5E1,3.5E1,1.699E3,1.27E2,8E0,2.7E1,8.75E2,8.24E2,1.22E2,5E0,7.19E2,1.56E2,7.37E2,8.7E1,4.3E1,7.9E1],"tree_param":{"num_deleted":"0","num_feature":"20","num_nodes":"21","size_leaf_vector":"1"}},{"base_weights":[-0E0,1.2296636E-3,-5.9292157E-4,-1.270808E-2,1.0098658E-3,3.3086343E-4,-1.7035142E-2,1.4330046E-3,-1.9248326E-3,-2.165251E-2,2.220816E-4,-2.3473208E-3,5.798473E-3,-2.942351E-3,-8.7055966E-4,-1.973349E-3,-6.807723E-5,-8.152296E-4,3.7337298E-4],"categories":[],"categories_nodes":[],"categories_segments":[],"categories_sizes":[],"default_left":[0,0,0,0,0,0,0,0,0,0,0,0,0,0,0,0,0,0,0],"id":18,"left_children":[1,-1,3,5,7,-1,9,11,-1,13,-1,15,17,-1,-1,-1,-1,-1,-1],"loss_changes":[2.8791977E-2,0E0,3.745644E-2,1.9434016E-2,2.6149869E-2,0E0,1.9403122E-2,2.7532905E-2,0E0,2.0205505E-2,0E0,3.022386E-2,2.8226994E-2,0E0,0E0,0E0,0E0,0E0,0E0],"parents":[2147483647,0,0,2,2,3,3,4,4,6,6,7,7,9,9,11,11,12,12],"right_children":[2,-1,4,6,8,-1,10,12,-1,14,-1,16,18,-1,-1,-1,-1,-1,-1],"split_conditions":[-1.8561974E0,1.2296636E-3,-9.8443055E-1,-1.4222813E0,2.7672977E0,3.3086343E-4,2.240499E0,3.615812E-2,-1.9248326E-3,-1.2881979E0,2.220816E-4,-1.5009793E0,-1.5292841E0,-2.942351E-3,-8.7055966E-4,-1.973349E-3,-6.807723E-5,-8.152296E-4,3.7337298E-4],"split_indices":[5,0,5,9,9,0,19,7,0,12,0,0,16,0,0,0,0,0,0],"split_type":[0,0,0,0,0,0,0,0,0,0,0,0,0,0,0,0,0,0,0],"sum_hessian":[1.944E3,4.6E1,1.898E3,2.25E2,1.673E3,3.9E1,1.86E2,1.657E3,1.6E1,1.55E2,3.1E1,8.82E2,7.75E2,1.4E1,1.41E2,2.1E1,8.61E2,5.2E1,7.23E2],"tree_param":{"num_deleted":"0","num_feature":"20","num_nodes":"19","size_leaf_vector":"1"}},{"base_weights":[6.679226E-4,1.7945955E-2,-2.2281126E-4,1.164394E-3,-1.133138E-3,6.405216E-4,-1.6660724E-2,1.875504E-3,-1.2373037E-2,-2.068468E-2,2.7502791E-3,2.1091686E-4,1.5574213E-2,5.5794016E-4,-1.8854182E-2,-1.2260925E-3,5.946414E-4,5.1216834E-5,-1.1423768E-3,-1.0424992E-4,1.4896134E-3,-1.3789777E-3,9.717294E-5],"categories":[],"categories_nodes":[],"categories_segments":[],"categories_sizes":[],"default_left":[0,0,0,0,0,0,0,0,0,0,0,0,0,0,0,0,0,0,0,0,0,0,0],"id":19,"left_children":[1,3,5,-1,-1,7,9,11,13,15,-1,17,19,-1,21,-1,-1,-1,-1,-1,-1,-1,-1],"loss_changes":[3.0629579E-2,2.1445692E-2,2.685464E-2,0E0,0E0,2.7475271E-2,2.6104942E-2,3.5568E-2,2.298567E-2,1.2090258E-2,0E0,2.5657505E-2,4.397442E-2,0E0,2.2630993E-2,0E0,0E0,0E0,0E0,0E0,0E0,0E0,0E0],"parents":[2147483647,0,0,1,1,2,2,5,5,6,6,7,7,8,8,9,9,11,11,12,12,14,14],"right_children":[2,4,6,-1,-1,8,10,12,14,16,-1,18,20,-1,22,-1,-1,-1,-1,-1,-1,-1,-1],"split_conditions":[-1.678076E0,-9.0274227E-1,2.054108E0,1.164394E-3,-1.133138E-3,1.060507E0,1.917289E0,5.4493356E-1,-5.139679E-1,1.8060693E0,2.7502791E-3,1.4848131E0,4.6134746E-1,5.5794016E-4,2.815794E0,-1.2260925E-3,5.946414E-4,5.1216834E-5,-1.1423768E-3,-1.0424992E-4,1.4896134E-3,-1.3789777E-3,9.717294E-5],"split_indices":[11,12,16,0,0,19,2,1,10,19,0,15,16,0,19,0,0,0,0,0,0,0,0],"split_type":[0,0,0,0,0,0,0,0,0,0,0,0,0,0,0,0,0,0,0,0,0,0,0],"sum_hessian":[1.932E3,9.7E1,1.835E3,8.7E1,1E1,1.741E3,9.4E1,1.594E3,1.47E2,9E1,4E0,1.425E3,1.69E2,3E1,1.17E2,8.2E1,8E0,1.379E3,4.6E1,7.4E1,9.5E1,8.4E1,3.3E1],"tree_param":{"num_deleted":"0","num_feature":"20","num_nodes":"23","size_leaf_vector":"1"}},{"base_weights":[4.5607398E-5,1.4088274E-2,-7.0198264E-4,-1.2035373E-3,2.0324057E-2,-1.5686179E-2,1.9840934E-4,4.26129E-3,8.1022637E-4,-3.9484005E-2,-4.8198705E-3,-4.8652585E-3,3.049862E-3,1.0459434E-3,-4.7676142E-2,6.594198E-5,-1.2030111E-3,-1.7575923E-2,-1.2062241E-3,1.8384408E-2,9.374445E-4,-0E0,-2.8670384E-3,-1.1177838E-3,3.6023234E-3,-1.3503259E-3,5.3802232E-5,6.2244464E-5,1.5246649E-3,-3.0979974E-4,2.6555642E-4],"categories":[],"categories_nodes":[],"categories_segments":[],"categories_sizes":[],"default_left":[0,0,0,0,0,0,0,0,0,0,0,0,0,0,0,0,0,0,0,0,0,0,0,0,0,0,0,0,0,0,0],"id":20,"left_children":[1,3,5,-1,7,9,11,-1,-1,13,15,17,19,-1,21,-1,-1,23,25,27,29,-1,-1,-1,-1,-1,-1,-1,-1,-1,-1],"loss_changes":[2.1255897E-2,2.444729E-2,2.5850175E-2,0E0,1.8167112E-2,2.5747158E-2,2.5191784E-2,0E0,0E0,1.7918453E-2,1.0188421E-2,2.8095014E-2,3.5515964E-2,0E0,1.3501182E-2,0E0,0E0,5.679366E-2,3.0075494E-2,2.610077E-2,3.096882E-2,0E0,0E0,0E0,0E0,0E0,0E0,0E0,0E0,0E0,0E0],"parents":[2147483647,0,0,1,1,2,2,4,4,5,5,6,6,9,9,10,10,11,11,12,12,14,14,17,17,18,18,19,19,20,20],"right_children":[2,4,6,-1,8,10,12,-1,-1,14,16,18,20,-1,22,-1,-1,24,26,28,30,-1,-1,-1,-1,-1,-1,-1,-1,-1,-1],"split_conditions":[-6.902658E-2,-2.3311453E-1,-2.9337531E-2,-1.2035373E-3,-1.805282E0,-6.0335547E-1,-7.141171E-1,4.26129E-3,8.1022637E-4,7.203664E-2,-9.7084545E-2,3.0913274E-3,-7.8589183E-1,1.0459434E-3,-1.0119362E-1,6.594198E-5,-1.2030111E-3,6.84702E-1,-1.5292841E0,-1.0178481E0,-3.683883E-1,-0E0,-2.8670384E-3,-1.1177838E-3,3.6023234E-3,-1.3503259E-3,5.3802232E-5,6.2244464E-5,1.5246649E-3,-3.0979974E-4,2.6555642E-4],"split_indices":[17,19,17,0,11,4,0,0,0,2,4,17,16,0,0,0,0,2,16,16,8,0,0,0,0,0,0,0,0,0,0],"split_type":[0,0,0,0,0,0,0,0,0,0,0,0,0,0,0,0,0,0,0,0,0,0,0,0,0,0,0,0,0,0,0],"sum_hessian":[1.96E3,1.02E2,1.858E3,1.3E1,8.9E1,1.08E2,1.75E3,4E0,8.5E1,3.2E1,7.6E1,6.24E2,1.126E3,3E0,2.9E1,5.6E1,2E1,1.36E2,4.88E2,1.33E2,9.93E2,5E0,2.4E1,1.3E2,6E0,4.1E1,4.47E2,5.7E1,7.6E1,3.73E2,6.2E2],"tree_param":{"num_deleted":"0","num_feature":"20","num_nodes":"31","size_leaf_vector":"1"}},{"base_weights":[1.4538843E-4,1.1014971E-3,-1.808928E-2,-2.135675E-3,5.5720313E-3,-1.055545E-3,2.4601514E-3,-9.856739E-3,2.1062712E-3,8.805267E-3,-5.012512E-3,-1.35079315E-2,5.4711354E-4,8.991518E-3,-3.2469598E-3,-9.774424E-4,1.390156E-2,-1.341305E-2,2.5867045E-2,-4.0170513E-4,-1.2525031E-3,1.4528666E-4,1.3544604E-3,-1.6902257E-3,-2.2826162E-5,3.0604107E-4,-1.24515E-3,8.6680957E-4,-1.0959416E-4,4.9567164E-4,-1.0722118E-3,5.950955E-4,2.8224366E-3],"categories":[],"categories_nodes":[],"categories_segments":[],"categories_sizes":[],"default_left":[0,0,0,0,0,0,0,0,0,0,0,0,0,0,0,0,0,0,0,0,0,0,0,0,0,0,0,0,0,0,0,0,0],"id":21,"left_children":[1,3,5,7,9,-1,-1,11,13,15,17,19,-1,21,23,25,27,29,31,-1,-1,-1,-1,-1,-1,-1,-1,-1,-1,-1,-1,-1,-1],"loss_changes":[3.3131354E-2,2.7015885E-2,1.832962E-2,3.542653E-2,2.7093338E-2,0E0,0E0,2.932563E-2,2.5605062E-2,3.0840538E-2,4.6373364E-2,1.899968E-2,0E0,3.1998113E-2,3.0894596E-2,3.574554E-2,2.2969157E-2,2.7566025E-2,1.2261946E-2,0E0,0E0,0E0,0E0,0E0,0E0,0E0,0E0,0E0,0E0,0E0,0E0,0E0,0E0],"parents":[2147483647,0,0,1,1,2,2,3,3,4,4,7,7,8,8,9,9,10,10,11,11,13,13,14,14,15,15,16,16,17,17,18,18],"right_children":[2,4,6,8,10,-1,-1,12,14,16,18,20,-1,22,24,26,28,30,32,-1,-1,-1,-1,-1,-1,-1,-1,-1,-1,-1,-1,-1,-1],"split_conditions":[2.054108E0,-1.5200524E-1,1.917289E0,-6.934106E-1,1.060507E0,-1.055545E-3,2.4601514E-3,1.629774E-1,-7.718763E-1,2.0668743E-2,3.2222688E0,1.2037811E0,5.4711354E-4,-2.6194348E-3,-6.454931E-1,4.0572345E-1,1.3972898E0,-5.139679E-1,5.262247E-1,-4.0170513E-4,-1.2525031E-3,1.4528666E-4,1.3544604E-3,-1.6902257E-3,-2.2826162E-5,3.0604107E-4,-1.24515E-3,8.6680957E-4,-1.0959416E-4,4.9567164E-4,-1.0722118E-3,5.950955E-4,2.8224366E-3],"split_indices":[16,19,2,0,19,0,0,7,19,7,19,13,0,4,4,19,4,10,0,0,0,0,0,0,0,0,0,0,0,0,0,0,0],"split_type":[0,0,0,0,0,0,0,0,0,0,0,0,0,0,0,0,0,0,0,0,0,0,0,0,0,0,0,0,0,0,0,0,0],"sum_hessian":[1.948E3,1.854E3,9.4E1,1.069E3,7.85E2,9.1E1,3E0,3.83E2,6.86E2,6.05E2,1.8E2,3.28E2,5.5E1,3.04E2,3.82E2,2.04E2,4.01E2,1.43E2,3.7E1,2.26E2,1.02E2,2.3E2,7.4E1,3E1,3.52E2,1.56E2,4.8E1,3.33E2,6.8E1,3.5E1,1.08E2,2.7E1,1E1],"tree_param":{"num_deleted":"0","num_feature":"20","num_nodes":"33","size_leaf_vector":"1"}},{"base_weights":[-6.1568055E-5,1.2063591E-3,-6.6952436E-4,-1.47268325E-2,9.017754E-4,-2.2462538E-2,1.4351253E-4,7.101139E-4,-1.542638E-4,7.736556E-4,-2.4449805E-2,4.421115E-4,-1.3354347E-3,4.986853E-4,-2.3157554E-2,-3.0155382E-3,-9.956072E-4,-1.3794267E-4,2.5181778E-4,-1.7705025E-3,3.3027187E-4],"categories":[],"categories_nodes":[],"categories_segments":[],"categories_sizes":[],"default_left":[0,0,0,0,0,0,0,0,0,0,0,0,0,0,0,0,0,0,0,0,0],"id":22,"left_children":[1,-1,3,5,7,9,11,-1,13,-1,15,-1,-1,17,19,-1,-1,-1,-1,-1,-1],"loss_changes":[2.7327495E-2,0E0,4.2499896E-2,2.3376372E-2,2.4574423E-2,1.0400772E-2,1.4290653E-2,0E0,2.474261E-2,0E0,1.5647642E-2,0E0,0E0,2.268499E-2,1.8149706E-2,0E0,0E0,0E0,0E0,0E0,0E0],"parents":[2147483647,0,0,2,2,3,3,4,4,5,5,6,6,8,8,10,10,13,13,14,14],"right_children":[2,-1,4,6,8,10,12,-1,14,-1,16,-1,-1,18,20,-1,-1,-1,-1,-1,-1],"split_conditions":[-1.8561974E0,1.2063591E-3,-1.0313135E0,7.932627E-1,-8.2551557E-1,-2.1542842E0,1.4318488E0,7.101139E-4,1.564174E0,7.736556E-4,-1.259033E0,4.421115E-4,-1.3354347E-3,8.572569E-2,2.0126617E0,-3.0155382E-3,-9.956072E-4,-1.3794267E-4,2.5181778E-4,-1.7705025E-3,3.3027187E-4],"split_indices":[5,0,5,12,6,3,3,0,12,0,2,0,0,16,2,0,0,0,0,0,0],"split_type":[0,0,0,0,0,0,0,0,0,0,0,0,0,0,0,0,0,0,0,0,0],"sum_hessian":[1.937E3,4.5E1,1.892E3,1.93E2,1.699E3,1.29E2,6.4E1,1.28E2,1.571E3,5E0,1.24E2,5E1,1.4E1,1.526E3,4.5E1,1.2E1,1.12E2,8.82E2,6.44E2,3.3E1,1.2E1],"tree_param":{"num_deleted":"0","num_feature":"20","num_nodes":"21","size_leaf_vector":"1"}},{"base_weights":[-1.7099564E-4,1.0961718E-3,-7.334104E-4,-1.523844E-2,1.1430203E-3,2.6521736E-4,-2.0029472E-2,6.509543E-4,-0E0,-2.1828463E-2,6.099301E-4,5.7062885E-4,-2.2963934E-2,-1.8858962E-3,-7.7155506E-4,-4.0953813E-4,1.0983657E-4,-1.2301792E-4,-2.0683026E-3],"categories":[],"categories_nodes":[],"categories_segments":[],"categories_sizes":[],"default_left":[0,0,0,0,0,0,0,0,0,0,0,0,0,0,0,0,0,0,0],"id":23,"left_children":[1,-1,3,5,7,-1,9,-1,11,13,-1,15,17,-1,-1,-1,-1,-1,-1],"loss_changes":[2.3322599E-2,0E0,5.2848954E-2,2.2688095E-2,2.363568E-2,0E0,1.11956075E-2,0E0,2.1319257E-2,1.4789581E-2,0E0,2.1115292E-2,1.26615055E-2,0E0,0E0,0E0,0E0,0E0,0E0],"parents":[2147483647,0,0,2,2,3,3,4,4,6,6,8,8,9,9,11,11,12,12],"right_children":[2,-1,4,6,8,-1,10,-1,12,14,-1,16,18,-1,-1,-1,-1,-1,-1],"split_conditions":[-1.8561974E0,1.0961718E-3,-9.966162E-1,-1.4222813E0,-7.9060405E-1,2.6521736E-4,3.0959494E0,6.509543E-4,1.6027197E0,-1.9924015E-1,6.099301E-4,-5.214161E-1,3.6972225E-2,-1.8858962E-3,-7.7155506E-4,-4.0953813E-4,1.0983657E-4,-1.2301792E-4,-2.0683026E-3],"split_indices":[5,0,5,9,6,0,0,0,12,15,0,6,17,0,0,0,0,0,0],"split_type":[0,0,0,0,0,0,0,0,0,0,0,0,0,0,0,0,0,0,0],"sum_hessian":[1.961E3,4.6E1,1.915E3,2.22E2,1.693E3,4E1,1.82E2,1.52E2,1.541E3,1.74E2,8E0,1.502E3,3.9E1,4.7E1,1.27E2,2.3E2,1.272E3,2E1,1.9E1],"tree_param":{"num_deleted":"0","num_feature":"20","num_nodes":"19","size_leaf_vector":"1"}},{"base_weights":[-8.775639E-5,7.083423E-4,-1.4404336E-2,-1.2032117E-3,9.625852E-3,9.694005E-3,-2.2975454E-2,-1.7649661E-3,-6.989589E-4,-1.7867489E-2,1.3533189E-2,1.9998979E-3,-1.788729E-3,-2.335886E-3,-1.2012075E-2,-7.6567233E-3,1.3163008E-3,-3.516759E-3,-1.8386263E-3,1.2854215E-3,6.8759536E-3,-1.5268483E-3,8.403463E-4,1.0780301E-2,-1.0792493E-3,-3.3113996E-5,-1.2894829E-3,-1.7881811E-4,4.7622455E-4,-8.533556E-4,1.0519959E-3,2.991976E-3,2.360196E-4,3.3393397E-3,-6.663649E-5],"categories":[],"categories_nodes":[],"categories_segments":[],"categories_sizes":[],"default_left":[0,0,0,0,0,0,0,0,0,0,0,0,0,0,0,0,0,0,0,0,0,0,0,0,0,0,0,0,0,0,0,0,0,0,0],"id":24,"left_children":[1,3,5,7,9,11,13,-1,15,17,19,-1,21,-1,23,25,27,-1,29,-1,31,-1,-1,33,-1,-1,-1,-1,-1,-1,-1,-1,-1,-1,-1],"loss_changes":[2.2795178E-2,3.169836E-2,2.2566434E-2,2.4089092E-2,3.519354E-2,1.1167498E-2,1.7476406E-2,0E0,2.1165323E-2,2.9546047E-2,2.174737E-2,0E0,1.0833076E-2,0E0,1.298428E-2,4.1727576E-2,4.6397932E-2,0E0,1.095568E-2,0E0,1.8379442E-2,0E0,0E0,1.3832537E-2,0E0,0E0,0E0,0E0,0E0,0E0,0E0,0E0,0E0,0E0,0E0],"parents":[2147483647,0,0,1,1,2,2,3,3,4,4,5,5,6,6,8,8,9,9,10,10,12,12,14,14,15,15,16,16,18,18,20,20,23,23],"right_children":[2,4,6,8,10,12,14,-1,16,18,20,-1,22,-1,24,26,28,-1,30,-1,32,-1,-1,34,-1,-1,-1,-1,-1,-1,-1,-1,-1,-1,-1],"split_conditions":[1.8817647E0,1.0634436E-1,-4.8358938E-1,-1.5009793E0,-1.5292841E0,1.0245361E0,1.7781995E-1,-1.7649661E-3,-4.7884092E-1,-8.611358E-1,-4.983692E-2,1.9998979E-3,1.346217E0,-2.335886E-3,-3.3169702E-1,-7.9020864E-1,-1.5200524E-1,-3.516759E-3,3.2222688E0,1.2854215E-3,-1.805282E0,-1.5268483E-3,8.403463E-4,2.4469547E0,-1.0792493E-3,-3.3113996E-5,-1.2894829E-3,-1.7881811E-4,4.7622455E-4,-8.533556E-4,1.0519959E-3,2.991976E-3,2.360196E-4,3.3393397E-3,-6.663649E-5],"split_indices":[5,7,10,0,16,12,17,0,9,0,8,0,0,0,10,9,19,0,19,0,11,0,0,3,0,0,0,0,0,0,0,0,0,0,0],"split_type":[0,0,0,0,0,0,0,0,0,0,0,0,0,0,0,0,0,0,0,0,0,0,0,0,0,0,0,0,0,0,0,0,0,0,0],"sum_hessian":[1.939E3,1.834E3,1.05E2,1.506E3,3.28E2,2.6E1,7.9E1,2E1,1.486E3,3.9E1,2.89E2,8E0,1.8E1,2.3E1,5.6E1,3.39E2,1.147E3,8E0,3.1E1,9.9E1,1.9E2,8E0,1E1,1.5E1,4.1E1,2.47E2,9.2E1,7.15E2,4.32E2,2E1,1.1E1,6E0,1.84E2,3E0,1.2E1],"tree_param":{"num_deleted":"0","num_feature":"20","num_nodes":"35","size_leaf_vector":"1"}},{"base_weights":[-3.6121914E-5,1.0019181E-3,-5.761348E-4,-1.0214608E-2,5.470296E-4,-1.2656937E-2,1.5142969E-3,1.2842526E-2,-2.878654E-4,3.7092785E-4,-1.777914E-2,9.880458E-4,-3.415559E-4,-5.404185E-3,2.3917258E-3,-1.2593128E-3,3.5575926E-4,-3.3530215E-4,1.4755777E-3,-6.546747E-4,2.1215601E-4],"categories":[],"categories_nodes":[],"categories_segments":[],"categories_sizes":[],"default_left":[0,0,0,0,0,0,0,0,0,0,0,0,0,0,0,0,0,0,0,0,0],"id":25,"left_children":[1,-1,3,5,7,9,-1,11,13,-1,15,-1,-1,17,19,-1,-1,-1,-1,-1,-1],"loss_changes":[2.0101132E-2,0E0,2.1006078E-2,1.9340638E-2,1.8014118E-2,2.0378897E-2,0E0,1.5890243E-2,2.18526E-2,0E0,2.9666606E-2,0E0,0E0,2.3981826E-2,2.9186254E-2,0E0,0E0,0E0,0E0,0E0,0E0],"parents":[2147483647,0,0,2,2,3,3,4,4,5,5,7,7,8,8,10,10,13,13,14,14],"right_children":[2,-1,4,6,8,10,-1,12,14,-1,16,-1,-1,18,20,-1,-1,-1,-1,-1,-1],"split_conditions":[-1.8561974E0,1.0019181E-3,-1.0313135E0,3.0959494E0,-1.0866313E0,-1.4222813E0,1.5142969E-3,7.6192796E-1,-7.141171E-1,3.7092785E-4,2.815794E0,9.880458E-4,-3.415559E-4,6.6463536E-1,-2.9337531E-2,-1.2593128E-3,3.5575926E-4,-3.3530215E-4,1.4755777E-3,-6.546747E-4,2.1215601E-4],"split_indices":[5,0,5,0,15,9,0,10,0,0,19,0,0,11,17,0,0,0,0,0,0],"split_type":[0,0,0,0,0,0,0,0,0,0,0,0,0,0,0,0,0,0,0,0,0],"sum_hessian":[1.943E3,4.8E1,1.895E3,2.02E2,1.693E3,1.92E2,1E1,1.11E2,1.582E3,3.7E1,1.55E2,8.4E1,2.7E1,5.5E2,1.032E3,1.21E2,3.4E1,5.32E2,1.8E1,1.07E2,9.25E2],"tree_param":{"num_deleted":"0","num_feature":"20","num_nodes":"21","size_leaf_vector":"1"}},{"base_weights":[1.5822066E-4,1.8848332E-2,-4.3149287E-4,1.2741825E-3,-4.915978E-4,-8.953679E-3,9.2726445E-4,-3.790802E-2,-5.1863315E-3,-1.6787332E-3,1.2731684E-3,1.3334652E-4,-3.317281E-3,2.1645795E-4,-1.39361555E-2,8.8558946E-4,6.233431E-4,-9.113594E-4,1.0620296E-3,6.2869025E-5,-1.1668523E-3],"categories":[],"categories_nodes":[],"categories_segments":[],"categories_sizes":[],"default_left":[0,0,0,0,0,0,0,0,0,0,0,0,0,0,0,0,0,0,0,0,0],"id":26,"left_children":[1,3,5,-1,-1,7,9,11,13,-1,15,-1,-1,-1,17,-1,19,-1,-1,-1,-1],"loss_changes":[2.2147404E-2,1.2611486E-2,2.1995604E-2,0E0,0E0,2.627168E-2,1.7543035E-2,3.615724E-2,1.9951459E-2,0E0,1.605713E-2,0E0,0E0,0E0,1.883551E-2,0E0,2.2192093E-2,0E0,0E0,0E0,0E0],"parents":[2147483647,0,0,1,1,2,2,5,5,6,6,7,7,8,8,10,10,14,14,16,16],"right_children":[2,4,6,-1,-1,8,10,12,14,-1,16,-1,-1,-1,18,-1,20,-1,-1,-1,-1],"split_conditions":[-1.6436334E0,-1.6329257E-1,-9.8443055E-1,1.2741825E-3,-4.915978E-4,-1.2496524E0,-1.554816E0,-1.7235811E0,-1.182554E0,-1.6787332E-3,-8.651407E-1,1.3334652E-4,-3.317281E-3,2.1645795E-4,3.0959494E0,8.8558946E-4,1.6027197E0,-9.113594E-4,1.0620296E-3,6.2869025E-5,-1.1668523E-3],"split_indices":[2,15,5,0,0,12,0,3,5,0,5,0,0,0,0,0,12,0,0,0,0],"split_type":[0,0,0,0,0,0,0,0,0,0,0,0,0,0,0,0,0,0,0,0,0],"sum_hessian":[1.925E3,6.1E1,1.864E3,5.1E1,1E1,2.61E2,1.603E3,2.8E1,2.33E2,1.4E1,1.589E3,1.1E1,1.7E1,1.09E2,1.24E2,5.7E1,1.532E3,1.12E2,1.2E1,1.495E3,3.7E1],"tree_param":{"num_deleted":"0","num_feature":"20","num_nodes":"21","size_leaf_vector":"1"}},{"base_weights":[1.9059808E-4,-2.1887226E-4,1.0455285E-3,1.0075347E-4,-2.8911752E-3,-1.9394834E-2,7.3046354E-4,4.9145E-4,-3.5243336E-2,-2.8204795E-3,3.6874802E-3,-3.1320346E-3,-8.1342546E-4,-2.266329E-3,-1.031075E-4,1.2581503E-3,1.0941235E-4],"categories":[],"categories_nodes":[],"categories_segments":[],"categories_sizes":[],"default_left":[0,0,0,0,0,0,0,0,0,0,0,0,0,0,0,0,0],"id":27,"left_children":[1,3,-1,5,-1,7,9,-1,11,13,15,-1,-1,-1,-1,-1,-1],"loss_changes":[1.7729562E-2,3.837803E-2,0E0,2.2601906E-2,0E0,2.8075276E-2,1.9573668E-2,0E0,1.555961E-2,2.457949E-2,3.152616E-2,0E0,0E0,0E0,0E0,0E0,0E0],"parents":[2147483647,0,0,1,1,3,3,5,5,6,6,8,8,9,9,10,10],"right_children":[2,4,-1,6,-1,8,10,-1,12,14,16,-1,-1,-1,-1,-1,-1],"split_conditions":[3.2222688E0,2.1690488E0,1.0455285E-3,-1.2157265E0,-2.8911752E-3,-1.8561974E0,3.2285776E-2,4.9145E-4,1.0657127E0,-1.5009793E0,-8.647085E-1,-3.1320346E-3,-8.1342546E-4,-2.266329E-3,-1.031075E-4,1.2581503E-3,1.0941235E-4],"split_indices":[19,17,0,6,0,5,7,0,10,0,19,0,0,0,0,0,0],"split_type":[0,0,0,0,0,0,0,0,0,0,0,0,0,0,0,0,0],"sum_hessian":[1.967E3,1.927E3,4E1,1.916E3,1.1E1,5.7E1,1.859E3,1.9E1,3.8E1,8.37E2,1.022E3,1.4E1,2.4E1,1.3E1,8.24E2,6.4E1,9.58E2],"tree_param":{"num_deleted":"0","num_feature":"20","num_nodes":"17","size_leaf_vector":"1"}},{"base_weights":[3.8170387E-4,1.3226279E-3,-1.2189643E-2,-4.3401518E-4,8.410195E-3,2.0561607E-3,-1.5325698E-2,-2.5307361E-2,7.0027733E-4,3.3838497E-3,2.4334837E-2,-1.070082E-3,7.687778E-4,-2.2571571E-3,-1.11158086E-4,-4.879182E-3,4.5386637E-3,1.6211882E-2,-7.248005E-3,1.4676224E-3,-2.8508701E-3,-8.94685E-4,8.24613E-5,2.970876E-4,-9.1169885E-4,7.143147E-5,1.1654751E-3,-8.3582074E-4,3.6709578E-4],"categories":[],"categories_nodes":[],"categories_segments":[],"categories_sizes":[],"default_left":[0,0,0,0,0,0,0,0,0,0,0,0,0,0,0,0,0,0,0,0,0,0,0,0,0,0,0,0,0],"id":28,"left_children":[1,3,5,7,9,-1,11,13,15,17,19,-1,-1,-1,-1,21,23,25,27,-1,-1,-1,-1,-1,-1,-1,-1,-1,-1],"loss_changes":[2.2252668E-2,2.2767644E-2,2.0843804E-2,4.1711695E-2,2.7588386E-2,0E0,2.3689935E-2,2.7115613E-2,2.9344838E-2,3.8490385E-2,3.3945933E-2,0E0,0E0,0E0,0E0,4.7854595E-2,2.5560342E-2,1.222942E-2,2.1320667E-2,0E0,0E0,0E0,0E0,0E0,0E0,0E0,0E0,0E0,0E0],"parents":[2147483647,0,0,1,1,2,2,3,3,4,4,6,6,7,7,8,8,9,9,10,10,15,15,16,16,17,17,18,18],"right_children":[2,4,6,8,10,-1,12,14,16,18,20,-1,-1,-1,-1,22,24,26,28,-1,-1,-1,-1,-1,-1,-1,-1,-1,-1],"split_conditions":[1.5106987E0,4.6134746E-1,4.9015203E-1,-1.2400721E0,6.91855E-1,2.0561607E-3,1.5235995E0,2.5688611E-2,2.4541087E-2,7.1512365E-1,1.5591139E0,-1.070082E-3,7.687778E-4,-2.2571571E-3,-1.11158086E-4,-7.556955E-3,1.1330522E0,-5.551028E-1,1.0694375E0,1.4676224E-3,-2.8508701E-3,-8.94685E-4,8.24613E-5,2.970876E-4,-9.1169885E-4,7.143147E-5,1.1654751E-3,-8.3582074E-4,3.6709578E-4],"split_indices":[16,16,3,0,1,0,19,15,7,16,19,0,0,0,0,17,3,15,16,0,0,0,0,0,0,0,0,0,0],"split_type":[0,0,0,0,0,0,0,0,0,0,0,0,0,0,0,0,0,0,0,0,0,0,0,0,0,0,0,0,0],"sum_hessian":[1.926E3,1.796E3,1.3E2,1.434E3,3.62E2,6E0,1.24E2,6.4E1,1.37E3,2.78E2,8.4E1,1.05E2,1.9E1,3.3E1,3.1E1,5.53E2,8.17E2,1.28E2,1.5E2,8E1,4E0,1.87E2,3.66E2,7.72E2,4.5E1,4.4E1,8.4E1,9.3E1,5.7E1],"tree_param":{"num_deleted":"0","num_feature":"20","num_nodes":"29","size_leaf_vector":"1"}},{"base_weights":[6.8081927E-4,2.0480314E-2,7.2287454E-5,3.3139845E-3,7.149695E-4,9.806696E-4,-5.6121196E-4,3.3130194E-3,-4.6145557E-3,1.4935981E-3,1.2692098E-2,-1.8352516E-2,4.3511284E-3,1.2625293E-3,4.1347863E-5,1.0436997E-3,1.7511864E-4,-2.909713E-3,-7.94237E-4,3.955694E-4,-1.3178325E-3],"categories":[],"categories_nodes":[],"categories_segments":[],"categories_sizes":[],"default_left":[0,0,0,0,0,0,0,0,0,0,0,0,0,0,0,0,0,0,0,0,0],"id":29,"left_children":[1,3,5,-1,-1,7,-1,9,11,13,15,17,19,-1,-1,-1,-1,-1,-1,-1,-1],"loss_changes":[2.2388129E-2,1.1208247E-2,1.8872287E-2,0E0,0E0,2.2812733E-2,0E0,2.050094E-2,6.3495226E-2,1.5259499E-2,1.3594527E-2,1.5842065E-2,3.2690924E-2,0E0,0E0,0E0,0E0,0E0,0E0,0E0,0E0],"parents":[2147483647,0,0,1,1,2,2,5,5,7,7,8,8,9,9,10,10,11,11,12,12],"right_children":[2,4,6,-1,-1,8,-1,10,12,14,16,18,20,-1,-1,-1,-1,-1,-1,-1,-1],"split_conditions":[-7.2414674E-2,-1.7099795E0,1.3694974E0,3.3139845E-3,7.149695E-4,3.6548454E-1,-5.6121196E-4,-1.0312351E-3,7.647424E-1,-2.2926433E0,3.7655827E-2,-1.0569245E0,1.3329006E0,1.2625293E-3,4.1347863E-5,1.0436997E-3,1.7511864E-4,-2.909713E-3,-7.94237E-4,3.955694E-4,-1.3178325E-3],"split_indices":[17,2,10,0,0,6,0,6,6,6,3,12,12,0,0,0,0,0,0,0,0],"split_type":[0,0,0,0,0,0,0,0,0,0,0,0,0,0,0,0,0,0,0,0,0],"sum_hessian":[1.943E3,5.5E1,1.888E3,5E0,5E1,1.752E3,1.36E2,1.243E3,5.09E2,1.046E3,1.97E2,2.03E2,3.06E2,2.6E1,1.02E3,1.01E2,9.6E1,1E1,1.93E2,2.76E2,3E1],"tree_param":{"num_deleted":"0","num_feature":"20","num_nodes":"21","size_leaf_vector":"1"}},{"base_weights":[-1.9445528E-5,1.3736575E-3,-3.664861E-4,3.711154E-4,-1.1077716E-2,-1.8246338E-2,8.9352677E-4,-1.5724368E-2,1.5987461E-2,-2.2739964E-3,-7.874736E-5,-5.693392E-4,7.1300934E-3,1.5089059E-3,-9.0189243E-4,1.857177E-3,-4.0151062E-4,6.6706393E-6,-1.115272E-3,4.7036546E-4,-2.039353E-3],"categories":[],"categories_nodes":[],"categories_segments":[],"categories_sizes":[],"default_left":[0,0,0,0,0,0,0,0,0,0,0,0,0,0,0,0,0,0,0,0,0],"id":30,"left_children":[1,-1,3,5,7,9,11,13,15,-1,-1,17,19,-1,-1,-1,-1,-1,-1,-1,-1],"loss_changes":[1.7240431E-2,0E0,1.5757928E-2,1.6632667E-2,1.6273022E-2,1.8723454E-2,1.6318584E-2,1.1505842E-2,1.0496897E-2,0E0,0E0,2.2701424E-2,3.566831E-2,0E0,0E0,0E0,0E0,0E0,0E0,0E0,0E0],"parents":[2147483647,0,0,2,2,3,3,4,4,5,5,6,6,7,7,8,8,11,11,12,12],"right_children":[2,-1,4,6,8,10,12,14,16,-1,-1,18,20,-1,-1,-1,-1,-1,-1,-1,-1],"split_conditions":[-1.7840811E0,1.3736575E-3,1.5106987E0,-1.4595646E0,1.5235995E0,-1.0285599E-1,4.6134746E-1,4.9015203E-1,-4.8358938E-1,-2.2739964E-3,-7.874736E-5,1.5723783E0,1.5256284E0,1.5089059E-3,-9.0189243E-4,1.857177E-3,-4.0151062E-4,6.6706393E-6,-1.115272E-3,4.7036546E-4,-2.039353E-3],"split_indices":[11,0,16,0,19,1,16,3,10,0,0,5,12,0,0,0,0,0,0,0,0],"split_type":[0,0,0,0,0,0,0,0,0,0,0,0,0,0,0,0,0,0,0,0,0],"sum_hessian":[1.948E3,2.2E1,1.926E3,1.798E3,1.28E2,4.6E1,1.752E3,1.11E2,1.7E1,1.6E1,3E1,1.413E3,3.39E2,4E0,1.07E2,1E1,7E0,1.367E3,4.6E1,3.25E2,1.4E1],"tree_param":{"num_deleted":"0","num_feature":"20","num_nodes":"21","size_leaf_vector":"1"}},{"base_weights":[3.5058224E-4,6.490071E-4,-2.682201E-2,1.3605091E-3,-1.0810933E-2,-2.8875025E-3,5.3586107E-4,-1.5389659E-4,8.123525E-3,-2.0336779E-2,1.2384573E-3,-6.5359552E-3,1.7894646E-3,1.8563965E-2,2.125452E-3,4.2297822E-4,-1.3701624E-3,1.2159435E-3,-6.0054526E-4,-3.9997968E-4,1.4914587E-3,-7.524873E-5,3.4203683E-4,4.8898085E-4,1.6015178E-3,-8.1176776E-4,3.582253E-4],"categories":[],"categories_nodes":[],"categories_segments":[],"categories_sizes":[],"default_left":[0,0,0,0,0,0,0,0,0,0,0,0,0,0,0,0,0,0,0,0,0,0,0,0,0,0,0],"id":31,"left_children":[1,3,5,7,9,-1,-1,11,13,15,17,19,21,23,25,-1,-1,-1,-1,-1,-1,-1,-1,-1,-1,-1,-1],"loss_changes":[1.4605811E-2,1.5373532E-2,2.5300894E-2,1.9177726E-2,1.35359885E-2,0E0,0E0,1.8754119E-2,2.0331396E-2,1.3984606E-2,1.4981179E-2,1.7896235E-2,1.9217838E-2,1.2125533E-2,2.0005519E-2,0E0,0E0,0E0,0E0,0E0,0E0,0E0,0E0,0E0,0E0,0E0,0E0],"parents":[2147483647,0,0,1,1,2,2,3,3,4,4,7,7,8,8,9,9,10,10,11,11,12,12,13,13,14,14],"right_children":[2,4,6,8,10,-1,-1,12,14,16,18,20,22,24,26,-1,-1,-1,-1,-1,-1,-1,-1,-1,-1,-1,-1],"split_conditions":[2.1690488E0,2.0032706E0,3.2222688E0,1.0634436E-1,1.4704596E0,-2.8875025E-3,5.3586107E-4,-4.1461092E-1,-4.983692E-2,9.9442504E-2,1.9508592E0,3.0959494E0,-1.9874153E-1,7.274228E-1,-1.0495692E0,4.2297822E-4,-1.3701624E-3,1.2159435E-3,-6.0054526E-4,-3.9997968E-4,1.4914587E-3,-7.524873E-5,3.4203683E-4,4.8898085E-4,1.6015178E-3,-8.1176776E-4,3.582253E-4],"split_indices":[17,15,19,7,0,0,0,8,8,12,0,0,19,19,0,0,0,0,0,0,0,0,0,0,0,0,0],"split_type":[0,0,0,0,0,0,0,0,0,0,0,0,0,0,0,0,0,0,0,0,0,0,0,0,0,0,0],"sum_hessian":[1.961E3,1.942E3,1.9E1,1.833E3,1.09E2,1.1E1,8E0,1.492E3,3.41E2,6.3E1,4.6E1,3.54E2,1.138E3,1.21E2,2.2E2,1.1E1,5.2E1,1.8E1,2.8E1,3.42E2,1.2E1,6.83E2,4.55E2,7.6E1,4.5E1,4.5E1,1.75E2],"tree_param":{"num_deleted":"0","num_feature":"20","num_nodes":"27","size_leaf_vector":"1"}},{"base_weights":[4.020066E-5,1.3569036E-2,-6.4933015E-4,3.315156E-3,9.202302E-3,-5.619929E-3,1.2463081E-3,-1.0381946E-3,1.4047149E-2,-2.0994589E-2,-1.2024345E-3,1.3913464E-2,-2.1329425E-4,-1.4196194E-3,8.853997E-4,-3.0006515E-2,4.3389243E-3,-1.3883097E-2,3.7029998E-3,2.0408395E-3,6.8932157E-3,-7.1637117E-4,1.6210176E-3,-1.1629637E-3,-2.8033264E-3,-1.1039661E-3,1.095925E-3,-3.7623112E-4,-2.5718492E-3,3.7621986E-4,-7.5951713E-4,7.309407E-4,-2.504297E-4,-0E0,-1.553795E-3],"categories":[],"categories_nodes":[],"categories_segments":[],"categories_sizes":[],"default_left":[0,0,0,0,0,0,0,0,0,0,0,0,0,0,0,0,0,0,0,0,0,0,0,0,0,0,0,0,0,0,0,0,0,0,0],"id":32,"left_children":[1,3,5,-1,7,9,11,-1,13,15,17,19,21,-1,-1,23,25,27,29,-1,31,33,-1,-1,-1,-1,-1,-1,-1,-1,-1,-1,-1,-1,-1],"loss_changes":[1.8724453E-2,1.8371534E-2,1.7564217E-2,0E0,1.3094115E-2,3.3888984E-2,2.5193674E-2,0E0,1.2224017E-2,2.7032647E-2,2.5634084E-2,2.400978E-2,1.7889045E-2,0E0,0E0,1.0239586E-2,1.3469947E-2,2.4438119E-2,2.0503256E-2,0E0,1.0953287E-2,2.5956891E-2,0E0,0E0,0E0,0E0,0E0,0E0,0E0,0E0,0E0,0E0,0E0,0E0,0E0],"parents":[2147483647,0,0,1,1,2,2,4,4,5,5,6,6,8,8,9,9,10,10,11,11,12,12,15,15,16,16,17,17,18,18,20,20,21,21],"right_children":[2,4,6,-1,8,10,12,-1,14,16,18,20,22,-1,-1,24,26,28,30,-1,32,34,-1,-1,-1,-1,-1,-1,-1,-1,-1,-1,-1,-1,-1],"split_conditions":[-6.902658E-2,-1.805282E0,9.383494E-3,3.315156E-3,-2.3311453E-1,-6.0335547E-1,2.583993E-2,-1.0381946E-3,-1.6830264E0,1.20369956E-1,-5.1502514E-1,-9.5887417E-1,2.3495755E0,-1.4196194E-3,8.853997E-4,2.3052292E-1,-1.429256E-1,-1.4911538E-1,6.6105705E-1,2.0408395E-3,-3.48768E-2,1.6027197E0,1.6210176E-3,-1.1629637E-3,-2.8033264E-3,-1.1039661E-3,1.095925E-3,-3.7623112E-4,-2.5718492E-3,3.7621986E-4,-7.5951713E-4,7.309407E-4,-2.504297E-4,-0E0,-1.553795E-3],"split_indices":[17,11,17,0,19,4,17,0,2,0,15,19,2,0,0,8,1,9,3,0,15,12,0,0,0,0,0,0,0,0,0,0,0,0,0],"split_type":[0,0,0,0,0,0,0,0,0,0,0,0,0,0,0,0,0,0,0,0,0,0,0,0,0,0,0,0,0,0,0,0,0,0,0],"sum_hessian":[1.937E3,9.7E1,1.84E3,6E0,9.1E1,5.15E2,1.325E3,1.1E1,8E1,1.12E2,4.03E2,1.4E2,1.185E3,5E0,7.5E1,8.4E1,2.8E1,1.15E2,2.88E2,2.7E1,1.13E2,1.169E3,1.6E1,6.9E1,1.5E1,1E1,1.8E1,1E2,1.5E1,2.42E2,4.6E1,7.1E1,4.2E1,1.142E3,2.7E1],"tree_param":{"num_deleted":"0","num_feature":"20","num_nodes":"35","size_leaf_vector":"1"}},{"base_weights":[1.6203232E-4,-3.1641885E-3,2.009663E-3,-4.700821E-3,7.5331324E-4,1.0128009E-2,-3.1251166E-4,-1.1750364E-2,-2.7300045E-4,8.97261E-4,6.179598E-5,-6.115651E-3,3.4608578E-3,-1.8377095E-2,2.3589333E-4,3.479563E-4,-6.88894E-3,-1.2487968E-2,8.280593E-4,1.5353031E-2,4.198068E-4,-6.84179E-4,-2.457958E-3,6.796433E-4,-6.2814064E-4,1.2740658E-3,-4.7440274E-4,-4.6467903E-4,-1.9636485E-3,4.3116586E-4,-5.4808724E-4,-4.208195E-4,1.1521723E-3,7.4951306E-5,-1.2536132E-3],"categories":[],"categories_nodes":[],"categories_segments":[],"categories_sizes":[],"default_left":[0,0,0,0,0,0,0,0,0,0,0,0,0,0,0,0,0,0,0,0,0,0,0,0,0,0,0,0,0,0,0,0,0,0,0],"id":33,"left_children":[1,3,5,7,-1,9,11,13,15,-1,-1,17,19,21,23,-1,25,27,29,31,33,-1,-1,-1,-1,-1,-1,-1,-1,-1,-1,-1,-1,-1,-1],"loss_changes":[1.2043121E-2,1.8944506E-2,2.453836E-2,1.9452296E-2,0E0,1.9083876E-2,2.1766996E-2,2.0250358E-2,1.9135462E-2,0E0,0E0,1.8043816E-2,2.067189E-2,1.956546E-2,1.4582327E-2,0E0,1.7199695E-2,1.5314348E-2,1.6978636E-2,2.2306938E-2,1.1949375E-2,0E0,0E0,0E0,0E0,0E0,0E0,0E0,0E0,0E0,0E0,0E0,0E0,0E0,0E0],"parents":[2147483647,0,0,1,1,2,2,3,3,5,5,6,6,7,7,8,8,11,11,12,12,13,13,14,14,16,16,17,17,18,18,19,19,20,20],"right_children":[2,4,6,8,-1,10,12,14,16,-1,-1,18,20,22,24,-1,26,28,30,32,34,-1,-1,-1,-1,-1,-1,-1,-1,-1,-1,-1,-1,-1,-1],"split_conditions":[-2.5181702E-1,1.9366958E0,-3.699911E-2,2.0668743E-2,7.5331324E-4,2.1613213E-1,-4.9820822E-1,3.916296E-1,5.2615583E-2,8.97261E-4,6.179598E-5,2.5993217E-2,-3.8031247E-1,-1.3554302E-1,-3.4996204E-2,3.479563E-4,-8.257097E-1,5.1130187E-2,-2.6458186E-1,2.0497417E-1,1.487083E0,-6.84179E-4,-2.457958E-3,6.796433E-4,-6.2814064E-4,1.2740658E-3,-4.7440274E-4,-4.6467903E-4,-1.9636485E-3,4.3116586E-4,-5.4808724E-4,-4.208195E-4,1.1521723E-3,7.4951306E-5,-1.2536132E-3],"split_indices":[5,11,5,7,0,2,1,0,7,0,0,7,9,3,7,0,2,8,3,5,12,0,0,0,0,0,0,0,0,0,0,0,0,0,0],"split_type":[0,0,0,0,0,0,0,0,0,0,0,0,0,0,0,0,0,0,0,0,0,0,0,0,0,0,0,0,0,0,0,0,0,0,0],"sum_hessian":[1.968E3,6.93E2,1.275E3,6.42E2,5.1E1,2.88E2,9.87E2,2.43E2,3.99E2,1.5E2,1.38E2,3.94E2,5.93E2,1.59E2,8.4E1,1.87E2,2.12E2,2.09E2,1.85E2,1.17E2,4.76E2,1.4E2,1.9E1,4.3E1,4.1E1,1.4E1,1.98E2,1.89E2,2E1,1.14E2,7.1E1,2.7E1,9E1,4.59E2,1.7E1],"tree_param":{"num_deleted":"0","num_feature":"20","num_nodes":"35","size_leaf_vector":"1"}},{"base_weights":[2.2204561E-4,5.3429697E-4,-3.3439185E-2,7.684693E-4,-8.983592E-5,2.858265E-4,-2.7529893E-3,5.7338784E-4,-1.1354284E-2,-9.855899E-4,4.6071745E-4,-1.2022011E-3,2.2167454E-3,5.426869E-5,-7.3770655E-4,1.1049728E-3,-1.2489946E-3],"categories":[],"categories_nodes":[],"categories_segments":[],"categories_sizes":[],"default_left":[0,0,0,0,0,0,0,0,0,0,0,0,0,0,0,0,0],"id":34,"left_children":[1,3,5,-1,7,-1,-1,9,11,13,-1,-1,15,-1,-1,-1,-1],"loss_changes":[1.890698E-2,1.871337E-2,1.6592944E-2,0E0,1.4419404E-2,0E0,0E0,2.399708E-2,1.963089E-2,4.284961E-2,0E0,0E0,2.7439514E-2,0E0,0E0,0E0,0E0],"parents":[2147483647,0,0,1,1,2,2,4,4,7,7,8,8,9,9,12,12],"right_children":[2,4,6,-1,8,-1,-1,10,12,14,-1,-1,16,-1,-1,-1,-1],"split_conditions":[2.1690488E0,-1.678076E0,-1.018379E0,7.684693E-4,1.8817647E0,2.858265E-4,-2.7529893E-3,7.647424E-1,1.1125844E0,3.6548454E-1,4.6071745E-4,-1.2022011E-3,-3.3169702E-1,5.426869E-5,-7.3770655E-4,1.1049728E-3,-1.2489946E-3],"split_indices":[17,11,12,0,5,0,0,6,1,6,0,0,10,0,0,0,0],"split_type":[0,0,0,0,0,0,0,0,0,0,0,0,0,0,0,0,0],"sum_hessian":[1.954E3,1.938E3,1.6E1,8.1E1,1.857E3,5E0,1.1E1,1.75E3,1.07E2,1.478E3,2.72E2,5.7E1,5E1,1.282E3,1.96E2,3E1,2E1],"tree_param":{"num_deleted":"0","num_feature":"20","num_nodes":"17","size_leaf_vector":"1"}},{"base_weights":[-7.9460774E-4,1.2564795E-2,-1.5479614E-3,3.1232217E-3,4.310221E-4,-2.0006741E-3,1.8345783E-2,-1.6520172E-3,-2.451688E-3,1.9076588E-3,9.602337E-5,-6.2749523E-4,-1.1158463E-2,-0E0,-9.1651734E-4,6.700232E-5,-9.3714305E-4],"categories":[],"categories_nodes":[],"categories_segments":[],"categories_sizes":[],"default_left":[0,0,0,0,0,0,0,0,0,0,0,0,0,0,0,0,0],"id":35,"left_children":[1,3,5,-1,-1,7,9,11,-1,-1,-1,13,15,-1,-1,-1,-1],"loss_changes":[1.9441659E-2,1.6350752E-2,1.6164185E-2,0E0,0E0,2.7672086E-2,1.0810718E-2,1.7254949E-2,0E0,0E0,0E0,1.8330663E-2,1.73294E-2,0E0,0E0,0E0,0E0],"parents":[2147483647,0,0,1,1,2,2,5,5,6,6,7,7,11,11,12,12],"right_children":[2,4,6,-1,-1,8,10,12,-1,-1,-1,14,16,-1,-1,-1,-1],"split_conditions":[-6.902658E-2,-1.805282E0,3.2222688E0,3.1232217E-3,4.310221E-4,2.1690488E0,-1.678076E0,1.0347676E0,-2.451688E-3,1.9076588E-3,9.602337E-5,2.054108E0,-4.8358938E-1,-0E0,-9.1651734E-4,6.700232E-5,-9.3714305E-4],"split_indices":[17,11,19,0,0,17,11,19,0,0,0,16,10,0,0,0,0],"split_type":[0,0,0,0,0,0,0,0,0,0,0,0,0,0,0,0,0],"sum_hessian":[1.985E3,1.02E2,1.883E3,6E0,9.6E1,1.844E3,3.9E1,1.832E3,1.2E1,1.6E1,2.3E1,1.659E3,1.73E2,1.603E3,5.6E1,6.3E1,1.1E2],"tree_param":{"num_deleted":"0","num_feature":"20","num_nodes":"17","size_leaf_vector":"1"}},{"base_weights":[-5.0735733E-5,8.792183E-4,-5.458909E-4,-1.8690431E-2,-9.366336E-5,-2.1578537E-3,-1.4688732E-5,-3.8072385E-4,1.3613015E-3,-1.4956837E-4,-3.4178034E-3,2.303432E-5,-5.589272E-4],"categories":[],"categories_nodes":[],"categories_segments":[],"categories_sizes":[],"default_left":[0,0,0,0,0,0,0,0,0,0,0,0,0],"id":36,"left_children":[1,-1,3,5,7,-1,-1,9,-1,11,-1,-1,-1],"loss_changes":[1.6176129E-2,0E0,1.4646194E-2,1.740066E-2,1.3222342E-2,0E0,0E0,2.5473434E-2,0E0,1.2885543E-2,0E0,0E0,0E0],"parents":[2147483647,0,0,2,2,3,3,4,4,7,7,9,9],"right_children":[2,-1,4,6,8,-1,-1,10,-1,12,-1,-1,-1],"split_conditions":[-7.2414674E-2,8.792183E-4,-1.4595646E0,-1.0285599E-1,4.1447577E0,-2.1578537E-3,-1.4688732E-5,3.9067621E0,1.3613015E-3,1.8817647E0,-3.4178034E-3,2.303432E-5,-5.589272E-4],"split_indices":[17,0,0,1,19,0,0,1,0,5,0,0,0],"split_type":[0,0,0,0,0,0,0,0,0,0,0,0,0],"sum_hessian":[1.949E3,5E1,1.899E3,4.3E1,1.856E3,1.7E1,2.6E1,1.839E3,1.7E1,1.834E3,5E0,1.734E3,1E2],"tree_param":{"num_deleted":"0","num_feature":"20","num_nodes":"13","size_leaf_vector":"1"}},{"base_weights":[-1.1339584E-4,-3.8806797E-4,1.2761368E-3,-3.321701E-2,-0E0,-3.463528E-3,-0E0,6.8154413E-4,-9.010097E-3,1.5654862E-3,-8.467231E-3,-9.732991E-4,-0E0,-9.288109E-5,2.509974E-4,-1.3715348E-3,1.0928703E-4,-3.8135482E-4,1.1852792E-3],"categories":[],"categories_nodes":[],"categories_segments":[],"categories_sizes":[],"default_left":[0,0,0,0,0,0,0,0,0,0,0,0,0,0,0,0,0,0,0],"id":37,"left_children":[1,3,-1,5,7,-1,-1,9,11,13,15,-1,17,-1,-1,-1,-1,-1,-1],"loss_changes":[1.2313728E-2,2.3435032E-2,0E0,2.6660861E-2,1.181418E-2,0E0,0E0,1.3833986E-2,1.230371E-2,1.912416E-2,3.1493805E-2,0E0,1.3179133E-2,0E0,0E0,0E0,0E0,0E0,0E0],"parents":[2147483647,0,0,1,1,3,3,4,4,7,7,8,8,9,9,10,10,12,12],"right_children":[2,4,-1,6,8,-1,-1,10,12,14,16,-1,18,-1,-1,-1,-1,-1,-1],"split_conditions":[4.1447577E0,-1.6375165E-1,1.2761368E-3,3.916296E-1,1.3694974E0,-3.463528E-3,-0E0,1.4831563E0,-2.3311453E-1,-6.31012E-2,6.91855E-1,-9.732991E-4,1.4910113E0,-9.288109E-5,2.509974E-4,-1.3715348E-3,1.0928703E-4,-3.8135482E-4,1.1852792E-3],"split_indices":[19,7,0,0,10,0,0,5,19,15,1,0,10,0,0,0,0,0,0],"split_type":[0,0,0,0,0,0,0,0,0,0,0,0,0,0,0,0,0,0,0],"sum_hessian":[1.926E3,1.908E3,1.8E1,2.1E1,1.887E3,1E1,1.1E1,1.752E3,1.35E2,1.603E3,1.49E2,6.1E1,7.4E1,7.98E2,8.05E2,5.5E1,9.4E1,5.7E1,1.7E1],"tree_param":{"num_deleted":"0","num_feature":"20","num_nodes":"19","size_leaf_vector":"1"}},{"base_weights":[3.972527E-4,1.0586294E-4,1.6659581E-3,-3.1212268E-3,2.7847762E-4,-9.920076E-3,9.588842E-4,-1.2435203E-3,4.506956E-3,-2.4477632E-3,3.205241E-3,-1.7979266E-3,4.8278278E-4,-3.9117734E-4,5.5163622E-5,7.3712104E-4,4.685006E-5],"categories":[],"categories_nodes":[],"categories_segments":[],"categories_sizes":[],"default_left":[0,0,0,0,0,0,0,0,0,0,0,0,0,0,0,0,0],"id":38,"left_children":[1,3,-1,-1,5,7,9,-1,11,13,15,-1,-1,-1,-1,-1,-1],"loss_changes":[1.6923225E-2,1.7663004E-2,0E0,0E0,1.2876418E-2,2.5986282E-2,1.38508165E-2,0E0,1.0838273E-2,1.3865311E-2,2.790353E-2,0E0,0E0,0E0,0E0,0E0,0E0],"parents":[2147483647,0,0,1,1,4,4,5,5,6,6,8,8,9,9,10,10],"right_children":[2,4,-1,-1,6,8,10,-1,12,14,16,-1,-1,-1,-1,-1,-1],"split_conditions":[4.1447577E0,-2.7143838E0,1.6659581E-3,-3.1212268E-3,-1.3270407E0,2.5688611E-2,-2.449864E-1,-1.2435203E-3,-7.348E-2,2.0668743E-2,-7.750101E-2,-1.7979266E-3,4.8278278E-4,-3.9117734E-4,5.5163622E-5,7.3712104E-4,4.685006E-5],"split_indices":[19,12,0,0,0,15,5,0,10,7,5,0,0,0,0,0,0],"split_type":[0,0,0,0,0,0,0,0,0,0,0,0,0,0,0,0,0],"sum_hessian":[1.938E3,1.923E3,1.5E1,4E0,1.919E3,1.15E2,1.804E3,5.8E1,5.7E1,7.08E2,1.096E3,5E0,5.2E1,2.87E2,4.21E2,1.76E2,9.2E2],"tree_param":{"num_deleted":"0","num_feature":"20","num_nodes":"17","size_leaf_vector":"1"}},{"base_weights":[-1.7712814E-4,-1.5348072E-2,2.3473131E-4,-2.9970736E-3,-2.874938E-4,-2.1958053E-3,3.0753545E-3,-2.7227371E-3,1.1387459E-3,4.198708E-3,-1.0872361E-3,-2.085453E-3,-4.117541E-2,-1.321077E-3,4.996476E-3,7.5626944E-5,-2.829175E-4,-2.9141165E-3,3.314758E-4,6.2282826E-4,1.2748975E-4],"categories":[],"categories_nodes":[],"categories_segments":[],"categories_sizes":[],"default_left":[0,0,0,0,0,0,0,0,0,0,0,0,0,0,0,0,0,0,0,0,0],"id":39,"left_children":[1,3,5,-1,-1,7,9,11,-1,13,-1,15,17,-1,19,-1,-1,-1,-1,-1,-1],"loss_changes":[1.26448525E-2,1.9441968E-2,1.2816742E-2,0E0,0E0,1.2021793E-2,2.321633E-2,2.1551896E-2,0E0,1.9208804E-2,0E0,1.2494765E-2,1.463386E-2,0E0,1.3990916E-2,0E0,0E0,0E0,0E0,0E0,0E0],"parents":[2147483647,0,0,1,1,2,2,5,5,6,6,7,7,9,9,11,11,12,12,14,14],"right_children":[2,4,6,-1,-1,8,10,12,-1,14,-1,16,18,-1,20,-1,-1,-1,-1,-1,-1],"split_conditions":[-1.5292841E0,-8.611358E-1,3.615812E-2,-2.9970736E-3,-2.874938E-4,4.1447577E0,1.4485373E0,2.5070019E0,1.1387459E-3,-1.1746575E0,-1.0872361E-3,3.3893605E-4,6.4632493E-1,-1.321077E-3,2.245184E-2,7.5626944E-5,-2.829175E-4,-2.9141165E-3,3.314758E-4,6.2282826E-4,1.2748975E-4],"split_indices":[16,0,7,0,0,19,12,1,0,4,0,7,0,0,17,0,0,0,0,0,0],"split_type":[0,0,0,0,0,0,0,0,0,0,0,0,0,0,0,0,0,0,0,0,0],"sum_hessian":[1.902E3,5.3E1,1.849E3,8E0,4.5E1,9.87E2,8.62E2,9.69E2,1.8E1,8.27E2,3.5E1,9.55E2,1.4E1,1.9E1,8.08E2,4.69E2,4.86E2,1.1E1,3E0,1.94E2,6.14E2],"tree_param":{"num_deleted":"0","num_feature":"20","num_nodes":"21","size_leaf_vector":"1"}},{"base_weights":[2.2406926E-4,-2.2525645E-3,2.8896537E-3,-8.998514E-3,9.6239365E-4,1.13545945E-2,-1.4611585E-4,-1.9525615E-2,-1.4381012E-4,6.507196E-3,-3.2401537E-3,-2.2727186E-3,1.3046132E-2,7.980618E-3,-5.089361E-3,-2.3458493E-3,-1.3715328E-2,1.211826E-3,1.1308783E-3,-5.0409692E-3,1.427745E-3,9.469247E-3,3.8234647E-2,2.4513397E-4,1.2463451E-3,2.0637398E-3,-6.252448E-3,-1.7314384E-3,-3.7248695E-4,2.2969227E-3,-6.0883362E-6,-1.3746108E-3,-1.4569194E-4,-3.140048E-4,6.295573E-4,2.8262595E-3,-0E0,-9.891427E-4,-9.985637E-5],"categories":[],"categories_nodes":[],"categories_segments":[],"categories_sizes":[],"default_left":[0,0,0,0,0,0,0,0,0,0,0,0,0,0,0,0,0,0,0,0,0,0,0,0,0,0,0,0,0,0,0,0,0,0,0,0,0,0,0],"id":40,"left_children":[1,3,5,7,9,11,13,15,-1,17,19,-1,21,23,25,-1,27,29,-1,31,-1,33,35,-1,-1,-1,37,-1,-1,-1,-1,-1,-1,-1,-1,-1,-1,-1,-1],"loss_changes":[1.2680621E-2,2.1736229E-2,2.4524273E-2,1.9637017E-2,1.5588361E-2,2.2747766E-2,2.7293434E-2,1.502867E-2,0E0,2.3577493E-2,2.0167265E-2,0E0,1.9462354E-2,1.1722039E-2,2.1485005E-2,0E0,1.0543004E-2,1.5505465E-2,0E0,1.5321651E-2,0E0,1.0999929E-2,2.0640578E-2,0E0,0E0,0E0,2.3044473E-2,0E0,0E0,0E0,0E0,0E0,0E0,0E0,0E0,0E0,0E0,0E0,0E0],"parents":[2147483647,0,0,1,1,2,2,3,3,4,4,5,5,6,6,7,7,9,9,10,10,12,12,13,13,14,14,16,16,17,17,19,19,21,21,22,22,26,26],"right_children":[2,4,6,8,10,12,14,16,-1,18,20,-1,22,24,26,-1,28,30,-1,32,-1,34,36,-1,-1,-1,38,-1,-1,-1,-1,-1,-1,-1,-1,-1,-1,-1,-1],"split_conditions":[-2.1277188E-1,-7.0376307E-1,-4.858867E-1,3.0913274E-3,-7.828904E-1,-1.5009793E0,2.6727593E-1,-2.5760847E-1,-1.4381012E-4,-2.6194348E-3,4.2421794E-1,-2.2727186E-3,-5.276702E-1,8.4144783E-1,-1.7099795E0,-2.3458493E-3,-1.3270407E0,-4.1288763E-2,1.1308783E-3,-6.454931E-1,1.427745E-3,-8.217938E-1,1.3534893E0,2.4513397E-4,1.2463451E-3,2.0637398E-3,8.1713796E-2,-1.7314384E-3,-3.7248695E-4,2.2969227E-3,-6.0883362E-6,-1.3746108E-3,-1.4569194E-4,-3.140048E-4,6.295573E-4,2.8262595E-3,-0E0,-9.891427E-4,-9.985637E-5],"split_indices":[19,0,16,17,19,0,19,11,0,4,8,0,16,1,2,0,0,7,0,4,0,0,19,0,0,0,16,0,0,0,0,0,0,0,0,0,0,0,0],"split_type":[0,0,0,0,0,0,0,0,0,0,0,0,0,0,0,0,0,0,0,0,0,0,0,0,0,0,0,0,0,0,0,0,0,0,0,0,0,0,0],"sum_hessian":[1.915E3,9.83E2,9.32E2,3.22E2,6.61E2,2.5E2,6.82E2,1.15E2,2.07E2,2.9E2,3.71E2,6E0,2.44E2,2.54E2,4.28E2,1.8E1,9.7E1,2.21E2,6.9E1,3.53E2,1.8E1,2.16E2,2.8E1,2.18E2,3.6E1,9E0,4.19E2,2E1,7.7E1,7E0,2.14E2,2.8E1,3.25E2,3.3E1,1.83E2,1.9E1,9E0,9.7E1,3.22E2],"tree_param":{"num_deleted":"0","num_feature":"20","num_nodes":"39","size_leaf_vector":"1"}},{"base_weights":[-1.7469621E-4],"categories":[],"categories_nodes":[],"categories_segments":[],"categories_sizes":[],"default_left":[0],"id":41,"left_children":[-1],"loss_changes":[0E0],"parents":[2147483647],"right_children":[-1],"split_conditions":[-8.734811E-6],"split_indices":[0],"split_type":[0],"sum_hessian":[1.922E3],"tree_param":{"num_deleted":"0","num_feature":"20","num_nodes":"1","size_leaf_vector":"1"}},{"base_weights":[-0E0,5.6558516E-4,-1.0124216E-2,-7.4848987E-4,6.190102E-3,-9.050377E-4,4.619959E-5,8.8711997E-4,-8.079589E-3,8.482348E-4,4.9728254E-4,-5.9741613E-4,1.221389E-2,-2.1509891E-2,-2.752768E-3,-9.288977E-4,3.8986246E-3,-4.6060937E-5,2.2168392E-3,1.207657E-3,1.5714871E-4,5.270527E-4,-1.4530409E-3,4.939732E-4,-4.269173E-4,2.4012558E-3,1.2033755E-4],"categories":[],"categories_nodes":[],"categories_segments":[],"categories_sizes":[],"default_left":[0,0,0,0,0,0,0,0,0,0,0,0,0,0,0,0,0,0,0,0,0,0,0,0,0,0,0],"id":42,"left_children":[1,3,5,7,9,-1,-1,11,13,-1,15,17,19,21,23,-1,25,-1,-1,-1,-1,-1,-1,-1,-1,-1,-1],"loss_changes":[1.1502735E-2,1.3825864E-2,1.0252667E-2,1.810362E-2,2.0866938E-2,0E0,0E0,2.083814E-2,1.8466756E-2,0E0,1.4581817E-2,1.3294266E-2,1.4138281E-2,1.935123E-2,1.4628615E-2,0E0,1.0751422E-2,0E0,0E0,0E0,0E0,0E0,0E0,0E0,0E0,0E0,0E0],"parents":[2147483647,0,0,1,1,2,2,3,3,4,4,7,7,8,8,10,10,11,11,12,12,13,13,14,14,16,16],"right_children":[2,4,6,8,10,-1,-1,12,14,-1,16,18,20,22,24,-1,26,-1,-1,-1,-1,-1,-1,-1,-1,-1,-1],"split_conditions":[2.0032706E0,1.0634436E-1,1.0364524E0,3.6548454E-1,-4.983692E-2,-9.050377E-4,4.619959E-5,9.728931E-2,-5.551028E-1,8.482348E-4,-1.2400721E0,2.3939862E0,-4.0164986E-1,-1.0605165E0,4.392591E-3,-9.288977E-4,-1.19047716E-1,-4.6060937E-5,2.2168392E-3,1.207657E-3,1.5714871E-4,5.270527E-4,-1.4530409E-3,4.939732E-4,-4.269173E-4,2.4012558E-3,1.2033755E-4],"split_indices":[15,7,1,6,8,0,0,4,15,0,0,0,12,1,3,0,10,0,0,0,0,0,0,0,0,0,0],"split_type":[0,0,0,0,0,0,0,0,0,0,0,0,0,0,0,0,0,0,0,0,0,0,0,0,0,0,0],"sum_hessian":[1.939E3,1.833E3,1.06E2,1.479E3,3.54E2,6.4E1,4.2E1,1.204E3,2.75E2,1.19E2,2.35E2,1.061E3,1.43E2,7.5E1,2E2,3.3E1,2.02E2,1.055E3,6E0,5.9E1,8.4E1,1.3E1,6.2E1,6E1,1.4E2,5E0,1.97E2],"tree_param":{"num_deleted":"0","num_feature":"20","num_nodes":"27","size_leaf_vector":"1"}}]},"name":"gbtree"},"learner_model_param":{"base_score":"[7.1685114E-3]","boost_from_average":"1","num_class":"0","num_feature":"20","num_target":"1"},"objective":{"name":"reg:squarederror","reg_loss_param":{"scale_pos_weight":"1"}}},"version":[3,2,0]}