{"learner":{"attributes":{"best_iteration":"15","best_score":"0.06301751238782347","scikit_learn":"{\"_estimator_type\": \"regressor\"}"},"feature_names":[],"feature_types":[],"gradient_booster":{"model":{"cats":{"enc":[],"feature_segments":[],"sorted_idx":[]},"gbtree_model_param":{"num_parallel_tree":"1","num_trees":"56"},"iteration_indptr":[0,1,2,3,4,5,6,7,8,9,10,11,12,13,14,15,16,17,18,19,20,21,22,23,24,25,26,27,28,29,30,31,32,33,34,35,36,37,38,39,40,41,42,43,44,45,46,47,48,49,50,51,52,53,54,55,56],"tree_info":[0,0,0,0,0,0,0,0,0,0,0,0,0,0,0,0,0,0,0,0,0,0,0,0,0,0,0,0,0,0,0,0,0,0,0,0,0,0,0,0,0,0,0,0,0,0,0,0,0,0,0,0,0,0,0,0],"trees":[{"base_weights":[-3.2829354E-4,1.7297065E-2,-1.721383E-2,7.463937E-2,7.2560487E-3,5.7069454E-2,-2.0741558E-2,-1.0477924E-3,1.07243456E-1,3.9059084E-4,4.7701962E-2,-1.1848581E-3,7.8322195E-2,4.612995E-3,-2.7981812E-2,-5.50787E-4,3.625304E-3,1.0946686E-3,-2.0627063E-4,1.961937E-3,-3.343927E-4,4.7162785E-3,1.0834967E-3,-6.22491E-4,9.843216E-4,-6.0475536E-4,-1.936856E-3],"categories":[],"categories_nodes":[],"categories_segments":[],"categories_sizes":[],"default_left":[0,0,0,0,0,0,0,0,0,0,0,0,0,0,0,0,0,0,0,0,0,0,0,0,0,0,0],"id":0,"left_children":[1,3,5,7,9,11,13,-1,15,17,19,-1,21,23,25,-1,-1,-1,-1,-1,-1,-1,-1,-1,-1,-1,-1],"loss_changes":[8.0831057E-1,7.547466E-1,3.6180207E-1,7.111466E-1,3.0922785E-1,1.3421649E-1,2.4643499E-1,0E0,2.7211392E-1,2.5764394E-1,1.7485729E-1,0E0,1.4812249E-1,2.1143185E-1,2.8699183E-1,0E0,0E0,0E0,0E0,0E0,0E0,0E0,0E0,0E0,0E0,0E0,0E0],"parents":[2147483647,0,0,1,1,2,2,3,3,4,4,5,5,6,6,8,8,9,9,10,10,12,12,13,13,14,14],"right_children":[2,4,6,8,10,12,14,-1,16,18,20,-1,22,24,26,-1,-1,-1,-1,-1,-1,-1,-1,-1,-1,-1,-1],"split_conditions":[1.5631941E-1,-8.94844E-1,-1.0577503E0,-5.415855E-1,2.3012362E0,-3.8863918E-1,-1.1512184E0,-1.0477924E-3,-9.4538294E-2,-3.137663E-1,4.734288E-1,-1.1848581E-3,-1.1562607E0,-2.1062449E-2,1.1256318E0,-5.50787E-4,3.625304E-3,1.0946686E-3,-2.0627063E-4,1.961937E-3,-3.343927E-4,4.7162785E-3,1.0834967E-3,-6.22491E-4,9.843216E-4,-6.0475536E-4,-1.936856E-3],"split_indices":[12,1,11,12,9,3,9,0,11,9,15,0,11,15,12,0,0,0,0,0,0,0,0,0,0,0,0],"split_type":[0,0,0,0,0,0,0,0,0,0,0,0,0,0,0,0,0,0,0,0,0,0,0,0,0,0,0],"sum_hessian":[2.714E3,1.325E3,1.389E3,1.95E2,1.13E3,6.1E1,1.328E3,4.4E1,1.51E2,9.69E2,1.61E2,1E1,5.1E1,2.92E2,1.036E3,1.4E1,1.37E2,1.64E2,8.05E2,1.25E2,3.6E1,1.6E1,3.5E1,1.52E2,1.4E2,8.57E2,1.79E2],"tree_param":{"num_deleted":"0","num_feature":"21","num_nodes":"27","size_leaf_vector":"1"}},{"base_weights":[4.7007325E-4,1.7700605E-2,-1.6097171E-2,4.3974295E-3,5.8604877E-2,-4.9958125E-2,-8.7062875E-3,-2.2805687E-3,7.6715186E-2,1.2241367E-1,3.9083056E-2,-1.8401466E-2,-8.293024E-2,-1.062E-2,3.823803E-3,2.9875312E-3,-1.3974284E-4,2.0986065E-4,3.6739253E-3,2.7022182E-3,7.7862157E-3,3.7378323E-4,2.2083935E-3,-1.7340103E-3,2.5057286E-4,3.5947716E-4,-2.9075465E-3,-7.366699E-5,-1.7302722E-3],"categories":[],"categories_nodes":[],"categories_segments":[],"categories_sizes":[],"default_left":[0,0,0,0,0,0,0,0,0,0,0,0,0,0,0,0,0,0,0,0,0,0,0,0,0,0,0,0,0],"id":1,"left_children":[1,3,5,7,9,11,13,15,17,19,21,23,25,27,-1,-1,-1,-1,-1,-1,-1,-1,-1,-1,-1,-1,-1,-1,-1],"loss_changes":[7.694811E-1,7.139056E-1,3.3680838E-1,4.9152216E-1,3.814155E-1,2.4117976E-1,2.838682E-1,2.1305633E-1,2.60504E-1,2.698245E-1,2.203044E-1,1.392949E-1,1.6498864E-1,4.2220986E-1,0E0,0E0,0E0,0E0,0E0,0E0,0E0,0E0,0E0,0E0,0E0,0E0,0E0,0E0,0E0],"parents":[2147483647,0,0,1,1,2,2,3,3,4,4,5,5,6,6,7,7,8,8,9,9,10,10,11,11,12,12,13,13],"right_children":[2,4,6,8,10,12,14,16,18,20,22,24,26,28,-1,-1,-1,-1,-1,-1,-1,-1,-1,-1,-1,-1,-1,-1,-1],"split_conditions":[1.5631941E-1,-4.179259E-2,-5.2437377E-1,2.4137368E0,-7.0891273E-1,-1.096552E0,2.81767E0,-2.2169473E0,5.555089E-1,5.1993513E-1,-4.52605E-3,2.5863219E-2,1.4626473E-1,1.497609E0,3.823803E-3,2.9875312E-3,-1.3974284E-4,2.0986065E-4,3.6739253E-3,2.7022182E-3,7.7862157E-3,3.7378323E-4,2.2083935E-3,-1.7340103E-3,2.5057286E-4,3.5947716E-4,-2.9075465E-3,-7.366699E-5,-1.7302722E-3],"split_indices":[12,2,4,9,0,5,9,3,1,15,0,11,11,5,0,0,0,0,0,0,0,0,0,0,0,0,0,0,0],"split_type":[0,0,0,0,0,0,0,0,0,0,0,0,0,0,0,0,0,0,0,0,0,0,0,0,0,0,0,0,0],"sum_hessian":[2.693E3,1.323E3,1.37E3,1.001E3,3.22E2,2.42E2,1.128E3,9.16E2,8.5E1,7.3E1,2.49E2,1.26E2,1.16E2,1.114E3,1.4E1,1.9E1,8.97E2,3.5E1,5E1,6.1E1,1.2E1,1.43E2,1.06E2,5.2E1,7.4E1,1.4E1,1.02E2,9.52E2,1.62E2],"tree_param":{"num_deleted":"0","num_feature":"21","num_nodes":"29","size_leaf_vector":"1"}},{"base_weights":[2.1875408E-4,1.5086699E-2,-1.3684464E-2,2.4905084E-3,5.6070004E-2,-4.043484E-2,-7.962988E-3,-1.4257533E-2,2.6598915E-2,7.781134E-2,2.510232E-3,-9.647432E-3,-7.107821E-2,-0E0,-3.762978E-2,-7.9264963E-4,2.129484E-4,5.582165E-4,2.9626715E-3,-1.9322146E-3,2.608149E-3,-2.1768713E-4,4.050906E-3,-1.7842811E-3,4.891348E-4,8.7448204E-4,-2.533872E-3,-2.3328523E-4,1.2910853E-3,-7.5925066E-4,-3.471851E-3],"categories":[],"categories_nodes":[],"categories_segments":[],"categories_sizes":[],"default_left":[0,0,0,0,0,0,0,0,0,0,0,0,0,0,0,0,0,0,0,0,0,0,0,0,0,0,0,0,0,0,0],"id":2,"left_children":[1,3,5,7,9,11,13,15,17,19,21,23,25,27,29,-1,-1,-1,-1,-1,-1,-1,-1,-1,-1,-1,-1,-1,-1,-1,-1],"loss_changes":[5.6074363E-1,6.723351E-1,2.0880446E-1,4.086121E-1,3.4926194E-1,2.2049522E-1,2.736191E-1,1.5616632E-1,2.2631481E-1,2.8952384E-1,1.3153416E-1,1.6563728E-1,1.6896921E-1,3.0603826E-1,2.187275E-1,0E0,0E0,0E0,0E0,0E0,0E0,0E0,0E0,0E0,0E0,0E0,0E0,0E0,0E0,0E0,0E0],"parents":[2147483647,0,0,1,1,2,2,3,3,4,4,5,5,6,6,7,7,8,8,9,9,10,10,11,11,12,12,13,13,14,14],"right_children":[2,4,6,8,10,12,14,16,18,20,22,24,26,28,30,-1,-1,-1,-1,-1,-1,-1,-1,-1,-1,-1,-1,-1,-1,-1,-1],"split_conditions":[1.5631941E-1,-4.179259E-2,-5.2437377E-1,4.705881E-2,2.8855744E-1,-1.096552E0,1.2201115E0,3.7773117E-2,2.4996736E0,-6.57903E-1,6.2843734E-1,3.9720354E-3,1.4626473E-1,1.0603284E-1,1.3194942E0,-7.9264963E-4,2.129484E-4,5.582165E-4,2.9626715E-3,-1.9322146E-3,2.608149E-3,-2.1768713E-4,4.050906E-3,-1.7842811E-3,4.891348E-4,8.7448204E-4,-2.533872E-3,-2.3328523E-4,1.2910853E-3,-7.5925066E-4,-3.471851E-3],"split_indices":[12,2,4,17,11,5,4,7,9,12,2,11,11,7,12,0,0,0,0,0,0,0,0,0,0,0,0,0,0,0,0],"split_type":[0,0,0,0,0,0,0,0,0,0,0,0,0,0,0,0,0,0,0,0,0,0,0,0,0,0,0,0,0,0,0],"sum_hessian":[2.71E3,1.313E3,1.397E3,1.007E3,3.06E2,2.42E2,1.155E3,5.92E2,4.15E2,2.16E2,9E1,1.23E2,1.19E2,9.11E2,2.44E2,3.8E2,2.12E2,3.76E2,3.9E1,1.2E1,2.04E2,8.4E1,6E0,4.3E1,8E1,1.3E1,1.06E2,7.72E2,1.39E2,2.13E2,3.1E1],"tree_param":{"num_deleted":"0","num_feature":"21","num_nodes":"31","size_leaf_vector":"1"}},{"base_weights":[8.3407445E-4,1.6946597E-2,-1.4529658E-2,5.4575443E-2,3.8345868E-3,-4.475453E-2,-7.390711E-3,3.1646848E-2,1.0943403E-1,6.817464E-2,6.941293E-4,-1.5009687E-2,-7.3410995E-2,-4.2864974E-3,-5.6091235E-3,-3.971836E-5,1.9311949E-3,2.3549392E-3,6.157254E-3,-1.5404448E-3,3.811046E-3,8.247046E-4,-2.429813E-4,-1.7806207E-3,2.3908641E-4,-3.084954E-3,-9.560924E-4,5.782134E-5,-1.0237532E-3],"categories":[],"categories_nodes":[],"categories_segments":[],"categories_sizes":[],"default_left":[0,0,0,0,0,0,0,0,0,0,0,0,0,0,0,0,0,0,0,0,0,0,0,0,0,0,0,0,0],"id":3,"left_children":[1,3,5,7,9,11,13,15,17,19,21,23,25,-1,27,-1,-1,-1,-1,-1,-1,-1,-1,-1,-1,-1,-1,-1,-1],"loss_changes":[6.79761E-1,6.565722E-1,2.969695E-1,4.1638017E-1,1.9492094E-1,2.1593738E-1,2.590532E-1,2.7182728E-1,2.5190628E-1,3.30673E-1,2.2718938E-1,1.4113832E-1,1.458022E-1,0E0,2.4506013E-1,0E0,0E0,0E0,0E0,0E0,0E0,0E0,0E0,0E0,0E0,0E0,0E0,0E0,0E0],"parents":[2147483647,0,0,1,1,2,2,3,3,4,4,5,5,6,6,7,7,8,8,9,9,10,10,11,11,12,12,14,14],"right_children":[2,4,6,8,10,12,14,16,18,20,22,24,26,-1,28,-1,-1,-1,-1,-1,-1,-1,-1,-1,-1,-1,-1,-1,-1],"split_conditions":[1.5631941E-1,-4.2541307E-1,-5.2437377E-1,-6.1701518E-2,-1.0145468E0,-1.096552E0,-1.102236E0,4.0099955E-1,-1.0549116E0,4.1616306E-1,-2.2275348E-1,1.4917627E-2,7.490137E-3,-4.2864974E-3,1.2201115E0,-3.971836E-5,1.9311949E-3,2.3549392E-3,6.157254E-3,-1.5404448E-3,3.811046E-3,8.247046E-4,-2.429813E-4,-1.7806207E-3,2.3908641E-4,-3.084954E-3,-9.560924E-4,5.782134E-5,-1.0237532E-3],"split_indices":[12,0,4,11,1,5,1,5,1,10,9,11,17,0,4,0,0,0,0,0,0,0,0,0,0,0,0,0,0],"split_type":[0,0,0,0,0,0,0,0,0,0,0,0,0,0,0,0,0,0,0,0,0,0,0,0,0,0,0,0,0],"sum_hessian":[2.743E3,1.342E3,1.401E3,3.44E2,9.98E2,2.64E2,1.137E3,2.45E2,9.9E1,4.4E1,9.54E2,1.32E2,1.32E2,1.3E1,1.124E3,1.21E2,1.24E2,7.7E1,2.2E1,1.4E1,3E1,2.38E2,7.16E2,4.6E1,8.6E1,7.5E1,5.7E1,8.87E2,2.37E2],"tree_param":{"num_deleted":"0","num_feature":"21","num_nodes":"29","size_leaf_vector":"1"}},{"base_weights":[-1.8934545E-4,1.5624444E-2,-1.5192795E-2,5.3713392E-2,4.475134E-3,-1.3666273E-2,-1.4003743E-1,4.0012684E-2,1.62797E-1,-5.613889E-3,3.380823E-2,-3.8740527E-2,-5.7466743E-3,-5.844453E-3,-0E0,3.4678811E-3,8.956319E-4,8.864056E-3,2.234117E-3,2.5870174E-3,-2.5032717E-4,5.038195E-4,2.8994463E-3,-1.6581771E-3,-1.462002E-4,-4.099539E-3,-1.1664534E-4],"categories":[],"categories_nodes":[],"categories_segments":[],"categories_sizes":[],"default_left":[0,0,0,0,0,0,0,0,0,0,0,0,0,0,0,0,0,0,0,0,0,0,0,0,0,0,0],"id":4,"left_children":[1,3,5,7,9,11,13,15,17,19,21,23,25,-1,-1,-1,-1,-1,-1,-1,-1,-1,-1,-1,-1,-1,-1],"loss_changes":[6.4530796E-1,5.549239E-1,2.4933463E-1,4.170785E-1,3.063501E-1,2.7016065E-1,1.0371444E-1,1.8623793E-1,3.1599128E-1,1.8377167E-1,2.7036405E-1,1.7792112E-1,2.4232449E-1,0E0,0E0,0E0,0E0,0E0,0E0,0E0,0E0,0E0,0E0,0E0,0E0,0E0,0E0],"parents":[2147483647,0,0,1,1,2,2,3,3,4,4,5,5,6,6,7,7,8,8,9,9,10,10,11,11,12,12],"right_children":[2,4,6,8,10,12,14,16,18,20,22,24,26,-1,-1,-1,-1,-1,-1,-1,-1,-1,-1,-1,-1,-1,-1],"split_conditions":[1.5631941E-1,-5.8242816E-1,3.241842E0,1.2549502E-1,-1.9936666E-1,-3.907006E-1,1.3641988E0,-7.500382E-2,-5.9237665E-1,-2.2169473E0,2.0339139E-2,3.2552612E-1,-1.102236E0,-5.844453E-3,-0E0,3.4678811E-3,8.956319E-4,8.864056E-3,2.234117E-3,2.5870174E-3,-2.5032717E-4,5.038195E-4,2.8994463E-3,-1.6581771E-3,-1.462002E-4,-4.099539E-3,-1.1664534E-4],"split_indices":[12,0,3,2,2,4,1,7,16,3,16,3,1,0,0,0,0,0,0,0,0,0,0,0,0,0,0],"split_type":[0,0,0,0,0,0,0,0,0,0,0,0,0,0,0,0,0,0,0,0,0,0,0,0,0,0,0],"sum_hessian":[2.718E3,1.32E3,1.398E3,2.96E2,1.024E3,1.383E3,1.5E1,2.65E2,3.1E1,7.6E2,2.64E2,3.28E2,1.055E3,1E1,5E0,2.9E1,2.36E2,1.1E1,2E1,2E1,7.4E2,2.1E2,5.4E1,2.18E2,1.1E2,1.3E1,1.042E3],"tree_param":{"num_deleted":"0","num_feature":"21","num_nodes":"27","size_leaf_vector":"1"}},{"base_weights":[8.4072526E-4,1.6333917E-2,-1.3886632E-2,6.989509E-2,7.722872E-3,5.6052197E-2,-1.669201E-2,-4.5074362E-4,8.85297E-2,3.217602E-3,6.714116E-2,-1.3173278E-3,2.7641396E-3,-1.1496513E-1,-1.4904812E-2,1.8639498E-3,4.7517275E-3,-1.2684453E-3,2.1010794E-4,3.7309339E-3,9.060936E-4,-0E0,-5.1176865E-3,-4.270645E-3,-4.0974547E-4],"categories":[],"categories_nodes":[],"categories_segments":[],"categories_sizes":[],"default_left":[0,0,0,0,0,0,0,0,0,0,0,0,0,0,0,0,0,0,0,0,0,0,0,0,0],"id":5,"left_children":[1,3,5,7,9,11,13,-1,15,17,19,-1,-1,21,23,-1,-1,-1,-1,-1,-1,-1,-1,-1,-1],"loss_changes":[6.2658036E-1,6.101913E-1,2.7247125E-1,2.9985118E-1,3.0273938E-1,2.0005274E-1,2.2275603E-1,0E0,2.4842489E-1,1.826363E-1,1.4988434E-1,0E0,0E0,1.3252136E-1,1.9376883E-1,0E0,0E0,0E0,0E0,0E0,0E0,0E0,0E0,0E0,0E0],"parents":[2147483647,0,0,1,1,2,2,3,3,4,4,5,5,6,6,8,8,9,9,10,10,13,13,14,14],"right_children":[2,4,6,8,10,12,14,-1,16,18,20,-1,-1,22,24,-1,-1,-1,-1,-1,-1,-1,-1,-1,-1],"split_conditions":[1.5631941E-1,-9.366008E-1,-1.0196159E0,-5.415855E-1,2.4486475E0,1.579696E-1,-1.6640856E0,-4.5074362E-4,-1.0549116E0,-6.237436E-1,-3.14485E-1,-1.3173278E-3,2.7641396E-3,-1.2767613E-2,-1.102236E0,1.8639498E-3,4.7517275E-3,-1.2684453E-3,2.1010794E-4,3.7309339E-3,9.060936E-4,-0E0,-5.1176865E-3,-4.270645E-3,-4.0974547E-4],"split_indices":[12,1,2,12,9,7,0,0,1,10,15,0,0,16,1,0,0,0,0,0,0,0,0,0,0],"split_type":[0,0,0,0,0,0,0,0,0,0,0,0,0,0,0,0,0,0,0,0,0,0,0,0,0],"sum_hessian":[2.743E3,1.34E3,1.403E3,1.83E2,1.157E3,5.2E1,1.351E3,3.2E1,1.51E2,1.078E3,7.9E1,1.3E1,3.9E1,2.2E1,1.329E3,1.12E2,3.9E1,8E1,9.98E2,2.9E1,5E1,8E0,1.4E1,1.1E1,1.318E3],"tree_param":{"num_deleted":"0","num_feature":"21","num_nodes":"25","size_leaf_vector":"1"}},{"base_weights":[2.2152795E-4,1.4917063E-2,-1.3728277E-2,4.8588254E-2,3.6233098E-3,-1.5404812E-2,3.7644252E-3,3.3744782E-2,1.4270587E-1,-8.9586055E-4,1.3319672E-3,-9.8197255E-3,-5.614655E-2,-1.2186925E-3,1.2395956E-3,7.3692263E-3,2.937607E-3,-1.1439484E-4,2.5925334E-3,-1.1752363E-3,-6.259964E-5,-2.2644803E-3,2.1968393E-4],"categories":[],"categories_nodes":[],"categories_segments":[],"categories_sizes":[],"default_left":[0,0,0,0,0,0,0,0,0,0,0,0,0,0,0,0,0,0,0,0,0,0,0],"id":6,"left_children":[1,3,5,7,9,11,-1,13,15,17,-1,19,21,-1,-1,-1,-1,-1,-1,-1,-1,-1,-1],"loss_changes":[5.5894816E-1,5.007477E-1,3.1650296E-1,4.413541E-1,1.8866196E-1,3.0686566E-1,0E0,1.6455409E-1,1.4443105E-1,2.2106247E-1,0E0,2.7205467E-1,2.0863807E-1,0E0,0E0,0E0,0E0,0E0,0E0,0E0,0E0,0E0,0E0],"parents":[2147483647,0,0,1,1,2,2,3,3,4,4,5,5,7,7,8,8,9,9,11,11,12,12],"right_children":[2,4,6,8,10,12,-1,14,16,18,-1,20,22,-1,-1,-1,-1,-1,-1,-1,-1,-1,-1],"split_conditions":[1.5631941E-1,-4.2541307E-1,2.81767E0,6.964559E-2,2.507267E-1,1.497609E0,3.7644252E-3,-2.8375554E0,-5.9237665E-1,5.1429206E-1,1.3319672E-3,-5.2437377E-1,1.6390522E-1,-1.2186925E-3,1.2395956E-3,7.3692263E-3,2.937607E-3,-1.1439484E-4,2.5925334E-3,-1.1752363E-3,-6.259964E-5,-2.2644803E-3,2.1968393E-4],"split_indices":[12,0,9,11,15,5,0,16,16,16,0,4,7,0,0,0,0,0,0,0,0,0,0],"split_type":[0,0,0,0,0,0,0,0,0,0,0,0,0,0,0,0,0,0,0,0,0,0,0],"sum_hessian":[2.724E3,1.33E3,1.394E3,3.31E2,9.99E2,1.379E3,1.5E1,2.88E2,4.3E1,8.98E2,1.01E2,1.216E3,1.63E2,2.5E1,2.63E2,1.1E1,3.2E1,8.71E2,2.7E1,2.5E2,9.66E2,1.26E2,3.7E1],"tree_param":{"num_deleted":"0","num_feature":"21","num_nodes":"23","size_leaf_vector":"1"}},{"base_weights":[-7.53522E-4,1.335449E-2,-1.4271127E-2,2.0864536E-3,4.980355E-2,-1.2956504E-2,-4.4025755E-3,-1.0199999E-2,2.2416268E-2,6.929978E-2,2.1185473E-5,-3.979835E-3,-1.1488898E-2,-8.705475E-5,-1.0505684E-3,1.4300102E-4,1.88562E-3,-1.5556788E-4,2.4542625E-3,-1.0347483E-3,-1.3547395E-4],"categories":[],"categories_nodes":[],"categories_segments":[],"categories_sizes":[],"default_left":[0,0,0,0,0,0,0,0,0,0,0,0,0,0,0,0,0,0,0,0,0],"id":7,"left_children":[1,3,5,7,9,11,-1,13,15,17,-1,-1,19,-1,-1,-1,-1,-1,-1,-1,-1],"loss_changes":[5.2491593E-1,5.462897E-1,2.2752357E-1,2.5847524E-1,2.944727E-1,2.2948481E-1,0E0,1.11850314E-1,2.719983E-1,2.1679533E-1,0E0,0E0,2.1761657E-1,0E0,0E0,0E0,0E0,0E0,0E0,0E0,0E0],"parents":[2147483647,0,0,1,1,2,2,3,3,4,4,5,5,7,7,8,8,9,9,12,12],"right_children":[2,4,6,8,10,12,-1,14,16,18,-1,-1,20,-1,-1,-1,-1,-1,-1,-1,-1],"split_conditions":[1.5631941E-1,-4.179259E-2,3.241842E0,5.552517E-2,2.8855744E-1,-1.102236E0,-4.4025755E-3,-3.8649553E-1,7.909251E-1,-7.948666E-1,2.1185473E-5,-3.979835E-3,-3.907006E-1,-8.705475E-5,-1.0505684E-3,1.4300102E-4,1.88562E-3,-1.5556788E-4,2.4542625E-3,-1.0347483E-3,-1.3547395E-4],"split_indices":[12,2,3,16,11,1,0,12,9,3,0,0,4,0,0,0,0,0,0,0,0],"split_type":[0,0,0,0,0,0,0,0,0,0,0,0,0,0,0,0,0,0,0,0,0],"sum_hessian":[2.75E3,1.342E3,1.408E3,1.028E3,3.14E2,1.396E3,1.2E1,6.38E2,3.9E2,2.23E2,9.1E1,1.5E1,1.381E3,4.97E2,1.41E2,2.74E2,1.16E2,3.1E1,1.92E2,3.17E2,1.064E3],"tree_param":{"num_deleted":"0","num_feature":"21","num_nodes":"21","size_leaf_vector":"1"}},{"base_weights":[6.061499E-4,1.4051393E-2,-1.3154352E-2,4.7255695E-2,3.421138E-3,-1.1110377E-1,-1.1445203E-2,3.7305612E-2,1.700565E-1,-1.4368012E-3,4.603324E-2,-5.4249438E-3,-4.7537833E-4,-8.760168E-3,-7.044376E-2,-3.772149E-3,1.2540742E-3,8.152529E-3,2.125919E-3,5.3891994E-4,-3.2465503E-4,9.1677974E-4,4.2844326E-3,1.8377309E-3,-3.2614902E-4,-4.706112E-4,-4.011438E-3],"categories":[],"categories_nodes":[],"categories_segments":[],"categories_sizes":[],"default_left":[0,0,0,0,0,0,0,0,0,0,0,0,0,0,0,0,0,0,0,0,0,0,0,0,0,0,0],"id":8,"left_children":[1,3,5,7,9,11,13,15,17,19,21,-1,-1,23,25,-1,-1,-1,-1,-1,-1,-1,-1,-1,-1,-1,-1],"loss_changes":[5.0610083E-1,4.8434025E-1,2.1214244E-1,3.8102698E-1,2.2271118E-1,1.2359321E-1,2.016768E-1,2.2488338E-1,1.8857706E-1,1.7154309E-1,1.4303257E-1,0E0,0E0,1.8368027E-1,1.7697448E-1,0E0,0E0,0E0,0E0,0E0,0E0,0E0,0E0,0E0,0E0,0E0,0E0],"parents":[2147483647,0,0,1,1,2,2,3,3,4,4,5,5,6,6,7,7,8,8,9,9,10,10,13,13,14,14],"right_children":[2,4,6,8,10,12,14,16,18,20,22,-1,-1,24,26,-1,-1,-1,-1,-1,-1,-1,-1,-1,-1,-1,-1],"split_conditions":[2.338644E-1,-4.450408E-1,-1.6640856E0,9.168751E-1,2.507267E-1,6.316752E-1,2.2676702E0,-2.1312578E0,-8.3757854E-1,-9.064795E-2,1.9672716E-1,-5.4249438E-3,-4.7537833E-4,-1.031488E0,1.1644043E0,-3.772149E-3,1.2540742E-3,8.152529E-3,2.125919E-3,5.3891994E-4,-3.2465503E-4,9.1677974E-4,4.2844326E-3,1.8377309E-3,-3.2614902E-4,-4.706112E-4,-4.011438E-3],"split_indices":[12,0,0,15,15,2,5,12,0,8,2,0,0,2,12,0,0,0,0,0,0,0,0,0,0,0,0],"split_type":[0,0,0,0,0,0,0,0,0,0,0,0,0,0,0,0,0,0,0,0,0,0,0,0,0,0,0],"sum_hessian":[2.733E3,1.386E3,1.347E3,3.33E2,1.053E3,2.1E1,1.326E3,3.1E2,2.3E1,9.44E2,1.09E2,1.1E1,1E1,1.271E3,5.5E1,7E0,3.03E2,1E1,1.3E1,3.04E2,6.4E2,9.6E1,1.3E1,3.5E1,1.236E3,3.1E1,2.4E1],"tree_param":{"num_deleted":"0","num_feature":"21","num_nodes":"27","size_leaf_vector":"1"}},{"base_weights":[-1.415294E-3,4.1702278E-2,-5.587332E-3,-1.7626061E-3,5.7590064E-2,-9.258155E-3,3.5677865E-2,-6.1374344E-4,6.95329E-2,-8.326493E-3,-4.5575234E-3,7.6481484E-2,2.1268206E-2,-2.3845522E-4,2.6494765E-3,-8.5149944E-4,-1.04344064E-4,6.04265E-4,4.8624077E-3,7.110578E-5,1.7906245E-3],"categories":[],"categories_nodes":[],"categories_segments":[],"categories_sizes":[],"default_left":[0,0,0,0,0,0,0,0,0,0,0,0,0,0,0,0,0,0,0,0,0],"id":9,"left_children":[1,3,5,-1,7,9,11,-1,13,15,-1,17,19,-1,-1,-1,-1,-1,-1,-1,-1],"loss_changes":[4.8393846E-1,3.8152415E-1,3.722916E-1,0E0,1.9834602E-1,2.8494868E-1,1.06191665E-1,0E0,2.7069855E-1,2.1658075E-1,0E0,2.1964192E-1,1.0328602E-1,0E0,0E0,0E0,0E0,0E0,0E0,0E0,0E0],"parents":[2147483647,0,0,1,1,2,2,4,4,5,5,6,6,8,8,9,9,11,11,12,12],"right_children":[2,4,6,-1,8,10,12,-1,14,16,-1,18,20,-1,-1,-1,-1,-1,-1,-1,-1],"split_conditions":[-9.296413E-1,-8.587553E-3,2.3012362E0,-1.7626061E-3,-8.2327414E-1,3.241842E0,-3.14485E-1,-6.1374344E-4,-9.217273E-3,-1.1304982E-2,-4.5575234E-3,-7.948666E-1,1.1902121E0,-2.3845522E-4,2.6494765E-3,-8.5149944E-4,-1.04344064E-4,6.04265E-4,4.8624077E-3,7.110578E-5,1.7906245E-3],"split_indices":[1,10,9,0,3,3,15,0,7,17,0,3,1,0,0,0,0,0,0,0,0],"split_type":[0,0,0,0,0,0,0,0,0,0,0,0,0,0,0,0,0,0,0,0,0],"sum_hessian":[2.708E3,2.36E2,2.472E3,3.1E1,2.05E2,2.273E3,1.99E2,2.6E1,1.79E2,2.26E3,1.3E1,4.9E1,1.5E2,3.4E1,1.45E2,4.35E2,1.825E3,3.1E1,1.8E1,1.03E2,4.7E1],"tree_param":{"num_deleted":"0","num_feature":"21","num_nodes":"21","size_leaf_vector":"1"}},{"base_weights":[-4.536543E-4,3.756961E-3,-3.2788515E-2,-1.1083037E-1,4.817375E-3,-4.9134407E-2,5.254674E-4,-1.1812286E-3,-6.285741E-3,2.021134E-2,-1.0871143E-3,-5.7960383E-4,-8.7716974E-2,8.879354E-4,-1.1968277E-3,-3.4937472E-4,3.3490732E-4,-4.26824E-3,-1.458324E-3],"categories":[],"categories_nodes":[],"categories_segments":[],"categories_sizes":[],"default_left":[0,0,0,0,0,0,0,0,0,0,0,0,0,0,0,0,0,0,0],"id":10,"left_children":[1,3,5,7,9,11,-1,-1,-1,13,15,-1,17,-1,-1,-1,-1,-1,-1],"loss_changes":[3.6954123E-1,2.791264E-1,2.6139152E-1,1.1495876E-1,2.1644308E-1,2.6137567E-1,0E0,0E0,0E0,3.7194687E-1,2.2033453E-1,0E0,1.9161671E-1,0E0,0E0,0E0,0E0,0E0,0E0],"parents":[2147483647,0,0,1,1,2,2,3,3,4,4,5,5,9,9,10,10,12,12],"right_children":[2,4,6,8,10,12,-1,-1,-1,14,16,-1,18,-1,-1,-1,-1,-1,-1],"split_conditions":[1.1256318E0,-1.6640856E0,2.1372638E0,1.1070493E-1,-4.450408E-1,1.943759E-1,5.254674E-4,-1.1812286E-3,-6.285741E-3,6.7916316E-1,2.1642024E-2,-5.7960383E-4,9.8524463E-1,8.879354E-4,-1.1968277E-3,-3.4937472E-4,3.3490732E-4,-4.26824E-3,-1.458324E-3],"split_indices":[12,0,2,4,0,15,0,0,0,2,0,0,15,0,0,0,0,0,0],"split_type":[0,0,0,0,0,0,0,0,0,0,0,0,0,0,0,0,0,0,0],"sum_hessian":[2.691E3,2.379E3,3.12E2,2E1,2.359E3,2.37E2,7.5E1,1.3E1,7E0,6.58E2,1.701E3,1.36E2,1.01E2,5.71E2,8.7E1,9.18E2,7.83E2,4E1,6.1E1],"tree_param":{"num_deleted":"0","num_feature":"21","num_nodes":"19","size_leaf_vector":"1"}},{"base_weights":[5.0267886E-4,1.36997225E-2,-1.180128E-2,4.4319596E-2,2.8182007E-3,-3.962804E-3,-1.0327708E-2,3.1654917E-2,1.313454E-1,4.282191E-3,1.6955152E-3,4.3269563E-2,-1.2572949E-2,3.1532417E-3,7.091703E-4,7.479931E-3,1.9922818E-3,-2.2037735E-4,5.6976726E-4,-1.36995E-3,2.0822345E-3,-6.8023946E-4,-4.518469E-5],"categories":[],"categories_nodes":[],"categories_segments":[],"categories_sizes":[],"default_left":[0,0,0,0,0,0,0,0,0,0,0,0,0,0,0,0,0,0,0,0,0,0,0],"id":11,"left_children":[1,3,5,7,9,-1,11,13,15,-1,17,19,21,-1,-1,-1,-1,-1,-1,-1,-1,-1,-1],"loss_changes":[4.397407E-1,4.3164128E-1,2.3202477E-1,3.5537678E-1,1.3768964E-1,0E0,1.6378255E-1,1.612787E-1,2.7365172E-1,0E0,1.5206131E-1,1.310719E-1,1.4612125E-1,0E0,0E0,0E0,0E0,0E0,0E0,0E0,0E0,0E0,0E0],"parents":[2147483647,0,0,1,1,2,2,3,3,4,4,6,6,7,7,8,8,10,10,11,11,12,12],"right_children":[2,4,6,8,10,-1,12,14,16,-1,18,20,22,-1,-1,-1,-1,-1,-1,-1,-1,-1,-1],"split_conditions":[1.5631941E-1,-4.2541307E-1,-1.102236E0,1.1901932E-1,-3.1005702E0,-3.962804E-3,-1.0196159E0,-4.878813E-2,-5.9237665E-1,4.282191E-3,-4.2925233E-1,1.579696E-1,1.7865711E-1,3.1532417E-3,7.091703E-4,7.479931E-3,1.9922818E-3,-2.2037735E-4,5.6976726E-4,-1.36995E-3,2.0822345E-3,-6.8023946E-4,-4.518469E-5],"split_indices":[12,0,1,2,12,0,2,7,16,0,2,7,0,0,0,0,0,0,0,0,0,0,0],"split_type":[0,0,0,0,0,0,0,0,0,0,0,0,0,0,0,0,0,0,0,0,0,0,0],"sum_hessian":[2.705E3,1.309E3,1.396E3,3.4E2,9.69E2,1.5E1,1.381E3,2.99E2,4.1E1,6E0,9.63E2,5.3E1,1.328E3,2.7E1,2.72E2,1.3E1,2.8E1,6.29E2,3.34E2,1.1E1,4.2E1,6.89E2,6.39E2],"tree_param":{"num_deleted":"0","num_feature":"21","num_nodes":"23","size_leaf_vector":"1"}},{"base_weights":[-5.9516676E-4,9.937302E-3,-1.0605798E-2,1.9197009E-3,3.7108336E-2,-1.2066443E-2,3.3182802E-3,-1.5284563E-3,6.3034394E-3,2.8998395E-3,2.069928E-2,-8.609025E-3,-4.3900337E-2,-1.9772643E-4,8.3878945E-4,-3.6318525E-4,1.4025607E-3,-4.558049E-4,4.1567112E-4,-7.0756074E-4,-3.572346E-3],"categories":[],"categories_nodes":[],"categories_segments":[],"categories_sizes":[],"default_left":[0,0,0,0,0,0,0,0,0,0,0,0,0,0,0,0,0,0,0,0,0],"id":12,"left_children":[1,3,5,7,9,11,-1,-1,13,-1,15,17,19,-1,-1,-1,-1,-1,-1,-1,-1],"loss_changes":[2.8780347E-1,2.8467256E-1,2.4006188E-1,2.3387474E-1,2.784484E-1,1.4724873E-1,0E0,0E0,2.6788038E-1,0E0,2.065879E-1,1.8627769E-1,1.8604767E-1,0E0,0E0,0E0,0E0,0E0,0E0,0E0,0E0],"parents":[2147483647,0,0,1,1,2,2,3,3,4,4,5,5,8,8,10,10,11,11,12,12],"right_children":[2,4,6,8,10,12,-1,-1,14,-1,16,18,20,-1,-1,-1,-1,-1,-1,-1,-1],"split_conditions":[1.5631941E-1,-4.179259E-2,2.81767E0,-6.0909706E-1,-7.0891273E-1,1.5641402E0,3.3182802E-3,-1.5284563E-3,5.552517E-2,2.8998395E-3,-1.0920333E-1,9.811867E-2,1.3194942E0,-1.9772643E-4,8.3878945E-4,-3.6318525E-4,1.4025607E-3,-4.558049E-4,4.1567112E-4,-7.0756074E-4,-3.572346E-3],"split_indices":[12,2,9,10,0,5,0,0,16,0,0,7,12,0,0,0,0,0,0,0,0],"split_type":[0,0,0,0,0,0,0,0,0,0,0,0,0,0,0,0,0,0,0,0,0],"sum_hessian":[2.727E3,1.324E3,1.403E3,1.026E3,2.98E2,1.388E3,1.5E1,7.6E1,9.5E2,6.2E1,2.36E2,1.256E3,1.32E2,5.93E2,3.57E2,1.03E2,1.33E2,9.75E2,2.81E2,1.06E2,2.6E1],"tree_param":{"num_deleted":"0","num_feature":"21","num_nodes":"21","size_leaf_vector":"1"}},{"base_weights":[-6.672716E-4,1.2740172E-2,-1.254146E-2,5.9343174E-2,5.279499E-3,-3.4293865E-3,-1.0748439E-2,-8.1868947E-4,8.286543E-2,7.7187546E-2,1.8366398E-3,-3.5778537E-2,-5.33324E-3,-0E0,3.0626622E-3,3.3959376E-3,-7.0646225E-4,-5.513218E-4,2.6847288E-4,-2.8326418E-4,-1.9293635E-3,6.0238643E-5,-9.879917E-4],"categories":[],"categories_nodes":[],"categories_segments":[],"categories_sizes":[],"default_left":[0,0,0,0,0,0,0,0,0,0,0,0,0,0,0,0,0,0,0,0,0,0,0],"id":13,"left_children":[1,3,5,7,9,-1,11,-1,13,15,17,19,21,-1,-1,-1,-1,-1,-1,-1,-1,-1,-1],"loss_changes":[4.3348917E-1,4.3652892E-1,2.5049382E-1,3.62396E-1,2.6477712E-1,0E0,1.8884674E-1,0E0,2.1967477E-1,1.8938065E-1,1.5075673E-1,1.7988521E-1,2.414346E-1,0E0,0E0,0E0,0E0,0E0,0E0,0E0,0E0,0E0,0E0],"parents":[2147483647,0,0,1,1,2,2,3,3,4,4,6,6,8,8,9,9,10,10,11,11,12,12],"right_children":[2,4,6,8,10,-1,12,-1,14,16,18,20,22,-1,-1,-1,-1,-1,-1,-1,-1,-1,-1],"split_conditions":[7.8774415E-2,-9.296413E-1,-1.6640856E0,-5.415855E-1,-1.3282498E0,-3.4293865E-3,-5.2437377E-1,-8.1868947E-4,-1.1899253E0,-3.8863918E-1,-1.0810374E-2,-1.096552E0,1.2201115E0,-0E0,3.0626622E-3,3.3959376E-3,-7.0646225E-4,-5.513218E-4,2.6847288E-4,-2.8326418E-4,-1.9293635E-3,6.0238643E-5,-9.879917E-4],"split_indices":[12,1,0,12,0,0,4,0,1,3,17,5,4,0,0,0,0,0,0,0,0,0,0],"split_type":[0,0,0,0,0,0,0,0,0,0,0,0,0,0,0,0,0,0,0,0,0,0,0],"sum_hessian":[2.721E3,1.274E3,1.447E3,1.73E2,1.101E3,2.3E1,1.424E3,3.6E1,1.37E2,4.8E1,1.053E3,2.49E2,1.175E3,2.6E1,1.11E2,3.6E1,1.2E1,2.7E2,7.83E2,1.32E2,1.17E2,9.26E2,2.49E2],"tree_param":{"num_deleted":"0","num_feature":"21","num_nodes":"23","size_leaf_vector":"1"}},{"base_weights":[-8.701355E-4,1.1788265E-2,-1.3056504E-2,3.0464414E-3,3.768004E-2,-3.4882457E-3,-1.147866E-2,-1.0591303E-2,2.3107538E-2,2.8705355E-3,2.2448754E-2,4.588938E-2,-1.3655503E-2,-9.637024E-4,2.5852682E-5,7.167825E-5,1.4252425E-3,-3.9360508E-5,1.4887967E-3,-1.8046626E-3,2.5383246E-3,-7.227625E-4,-7.5426346E-5],"categories":[],"categories_nodes":[],"categories_segments":[],"categories_sizes":[],"default_left":[0,0,0,0,0,0,0,0,0,0,0,0,0,0,0,0,0,0,0,0,0,0,0],"id":14,"left_children":[1,3,5,7,9,-1,11,13,15,-1,17,19,21,-1,-1,-1,-1,-1,-1,-1,-1,-1,-1],"loss_changes":[4.2249015E-1,2.988836E-1,2.1373445E-1,2.764524E-1,2.8200546E-1,0E0,1.697394E-1,1.5013252E-1,2.0216691E-1,0E0,1.7796172E-1,2.0873944E-1,1.5215974E-1,0E0,0E0,0E0,0E0,0E0,0E0,0E0,0E0,0E0,0E0],"parents":[2147483647,0,0,1,1,2,2,3,3,4,4,6,6,7,7,8,8,10,10,11,11,12,12],"right_children":[2,4,6,8,10,-1,12,14,16,-1,18,20,22,-1,-1,-1,-1,-1,-1,-1,-1,-1,-1],"split_conditions":[1.5631941E-1,-6.1701518E-2,-1.6640856E0,4.705881E-2,-7.0891273E-1,-3.4882457E-3,-1.0796416E0,-3.601053E-1,5.552517E-2,2.8705355E-3,-1.0920333E-1,1.579696E-1,1.7865711E-1,-9.637024E-4,2.5852682E-5,7.167825E-5,1.4252425E-3,-3.9360508E-5,1.4887967E-3,-1.8046626E-3,2.5383246E-3,-7.227625E-4,-7.5426346E-5],"split_indices":[12,11,0,17,0,0,11,10,16,0,0,7,0,0,0,0,0,0,0,0,0,0,0],"split_type":[0,0,0,0,0,0,0,0,0,0,0,0,0,0,0,0,0,0,0,0,0,0,0],"sum_hessian":[2.736E3,1.338E3,1.398E3,1.004E3,3.34E2,1.9E1,1.379E3,5.95E2,4.09E2,6.7E1,2.67E2,4.8E1,1.331E3,2.09E2,3.86E2,2.24E2,1.85E2,1.41E2,1.26E2,1.2E1,3.6E1,6.82E2,6.49E2],"tree_param":{"num_deleted":"0","num_feature":"21","num_nodes":"23","size_leaf_vector":"1"}},{"base_weights":[6.301308E-4,1.305262E-2,-1.1300828E-2,3.6172953E-3,3.795616E-2,-9.908944E-3,-4.508368E-3,-8.955968E-3,2.2530345E-2,-4.534197E-4,5.023313E-2,-3.9402798E-2,-3.4715799E-3,3.1037797E-4,-5.8977655E-4,-8.244888E-4,1.2342716E-3,-6.872367E-4,1.7294746E-3,-3.0038366E-4,-2.0367317E-3,4.5265057E-4,-4.0140635E-4],"categories":[],"categories_nodes":[],"categories_segments":[],"categories_sizes":[],"default_left":[0,0,0,0,0,0,0,0,0,0,0,0,0,0,0,0,0,0,0,0,0,0,0],"id":15,"left_children":[1,3,5,7,9,11,-1,13,15,-1,17,19,21,-1,-1,-1,-1,-1,-1,-1,-1,-1,-1],"loss_changes":[4.0523848E-1,3.112741E-1,2.5137568E-1,2.341264E-1,2.4273503E-1,2.5720653E-1,0E0,1.21991694E-1,3.6925143E-1,0E0,1.6697699E-1,1.9582379E-1,2.0876159E-1,0E0,0E0,0E0,0E0,0E0,0E0,0E0,0E0,0E0,0E0],"parents":[2147483647,0,0,1,1,2,2,3,3,4,4,5,5,7,7,8,8,10,10,11,11,12,12],"right_children":[2,4,6,8,10,12,-1,14,16,-1,18,20,22,-1,-1,-1,-1,-1,-1,-1,-1,-1,-1],"split_conditions":[1.5631941E-1,-8.35927E-2,3.241842E0,5.552517E-2,-8.796815E-1,-5.2437377E-1,-4.508368E-3,-1.2394904E0,-3.601053E-1,-4.534197E-4,-8.2327414E-1,-1.096552E0,2.7361156E-2,3.1037797E-4,-5.8977655E-4,-8.244888E-4,1.2342716E-3,-6.872367E-4,1.7294746E-3,-3.0038366E-4,-2.0367317E-3,4.5265057E-4,-4.0140635E-4],"split_indices":[12,11,3,16,5,4,0,12,10,0,3,5,16,0,0,0,0,0,0,0,0,0,0],"split_type":[0,0,0,0,0,0,0,0,0,0,0,0,0,0,0,0,0,0,0,0,0,0,0],"sum_hessian":[2.731E3,1.342E3,1.389E3,9.77E2,3.65E2,1.377E3,1.2E1,5.84E2,3.93E2,6.7E1,2.98E2,2.43E2,1.134E3,2.05E2,3.79E2,1.05E2,2.88E2,2.6E1,2.72E2,1.22E2,1.21E2,3.91E2,7.43E2],"tree_param":{"num_deleted":"0","num_feature":"21","num_nodes":"23","size_leaf_vector":"1"}},{"base_weights":[-5.7203457E-4,6.8800384E-3,-1.3934353E-2,-2.6624467E-2,1.4149126E-2,-9.390151E-2,-7.2696987E-3,1.8356664E-3,-3.902174E-2,4.450932E-3,3.416446E-2,-2.2747062E-4,-3.5455327E-3,2.1570276E-3,-9.187482E-3,-9.5990505E-3,-9.2954753E-4,-2.0407264E-4,7.6992094E-4,1.5394555E-3,1.8244747E-4,3.4478158E-4,-4.768745E-4],"categories":[],"categories_nodes":[],"categories_segments":[],"categories_sizes":[],"default_left":[0,0,0,0,0,0,0,0,0,0,0,0,0,0,0,0,0,0,0,0,0,0,0],"id":16,"left_children":[1,3,5,7,9,11,13,-1,15,17,19,-1,-1,-1,21,-1,-1,-1,-1,-1,-1,-1,-1],"loss_changes":[2.6776716E-1,4.172997E-1,5.0350034E-1,3.3111945E-1,2.704616E-1,1.3954109E-1,1.299753E-1,0E0,5.601127E-1,2.3051435E-1,2.1454012E-1,0E0,0E0,0E0,1.2187279E-1,0E0,0E0,0E0,0E0,0E0,0E0,0E0,0E0],"parents":[2147483647,0,0,1,1,2,2,3,3,4,4,5,5,6,6,8,8,9,9,10,10,14,14],"right_children":[2,4,6,8,10,12,14,-1,16,18,20,-1,-1,-1,22,-1,-1,-1,-1,-1,-1,-1,-1],"split_conditions":[2.1416868E-1,-8.796815E-1,3.1586722E-1,-1.6362975E0,-4.179259E-2,6.671481E-2,-1.031488E0,1.8356664E-3,-1.4200269E0,7.998152E-2,-9.064795E-2,-2.2747062E-4,-3.5455327E-3,2.1570276E-3,2.1593478E-3,-9.5990505E-3,-9.2954753E-4,-2.0407264E-4,7.6992094E-4,1.5394555E-3,1.8244747E-4,3.4478158E-4,-4.768745E-4],"split_indices":[3,5,3,3,2,15,2,0,2,16,8,0,0,0,7,0,0,0,0,0,0,0,0],"split_type":[0,0,0,0,0,0,0,0,0,0,0,0,0,0,0,0,0,0,0,0,0,0,0],"sum_hessian":[2.68E3,1.716E3,9.64E2,3.03E2,1.413E3,7.2E1,8.92E2,3.6E1,2.67E2,9.56E2,4.57E2,1.7E1,5.5E1,1.9E1,8.73E2,6E0,2.61E2,6.22E2,3.34E2,2.81E2,1.76E2,2.1E2,6.63E2],"tree_param":{"num_deleted":"0","num_feature":"21","num_nodes":"23","size_leaf_vector":"1"}},{"base_weights":[4.329518E-4,1.2963179E-2,-1.1498926E-2,3.6178376E-3,4.291357E-2,-1.2714237E-2,3.2902467E-3,-8.999005E-3,2.436173E-2,6.000865E-2,-8.381656E-4,8.024302E-3,-1.8685242E-2,-8.506727E-4,7.740725E-5,-2.5199124E-4,1.4638358E-3,-1.2132507E-3,2.003963E-3,-9.6893066E-4,1.1383927E-3,-5.2954117E-4,1.1157466E-3,-3.3561405E-4,-1.2459172E-3],"categories":[],"categories_nodes":[],"categories_segments":[],"categories_sizes":[],"default_left":[0,0,0,0,0,0,0,0,0,0,0,0,0,0,0,0,0,0,0,0,0,0,0,0,0],"id":17,"left_children":[1,3,5,7,9,11,-1,13,15,17,19,21,23,-1,-1,-1,-1,-1,-1,-1,-1,-1,-1,-1,-1],"loss_changes":[4.0441868E-1,3.654948E-1,1.9506977E-1,2.6661858E-1,2.3932445E-1,1.707392E-1,0E0,1.4318438E-1,3.134245E-1,1.5948498E-1,1.06813304E-1,2.2952381E-1,1.7703727E-1,0E0,0E0,0E0,0E0,0E0,0E0,0E0,0E0,0E0,0E0,0E0,0E0],"parents":[2147483647,0,0,1,1,2,2,3,3,4,4,5,5,7,7,8,8,9,9,10,10,11,11,12,12],"right_children":[2,4,6,8,10,12,-1,14,16,18,20,22,24,-1,-1,-1,-1,-1,-1,-1,-1,-1,-1,-1,-1],"split_conditions":[1.5631941E-1,-4.179259E-2,2.81767E0,5.552517E-2,2.8855744E-1,-1.1512184E0,3.2902467E-3,-1.3149796E-1,-9.6808296E-1,-6.57903E-1,-1.0920333E-1,-2.1062449E-2,7.4607825E-1,-8.506727E-4,7.740725E-5,-2.5199124E-4,1.4638358E-3,-1.2132507E-3,2.003963E-3,-9.6893066E-4,1.1383927E-3,-5.2954117E-4,1.1157466E-3,-3.3561405E-4,-1.2459172E-3],"split_indices":[12,2,9,16,11,9,0,9,12,12,0,15,2,0,0,0,0,0,0,0,0,0,0,0,0],"split_type":[0,0,0,0,0,0,0,0,0,0,0,0,0,0,0,0,0,0,0,0,0,0,0,0,0],"sum_hessian":[2.702E3,1.322E3,1.38E3,1.011E3,3.11E2,1.368E3,1.2E1,6.26E2,3.85E2,2.25E2,8.6E1,3.02E2,1.066E3,2.37E2,3.89E2,1.63E2,2.22E2,1.3E1,2.12E2,4.9E1,3.7E1,1.59E2,1.43E2,8.07E2,2.59E2],"tree_param":{"num_deleted":"0","num_feature":"21","num_nodes":"25","size_leaf_vector":"1"}},{"base_weights":[-9.852018E-4,3.205438E-2,-3.6523843E-3,5.9898845E-3,1.8534921E-3,2.750138E-2,-7.113661E-3,-9.345738E-3,2.8264996E-2,-2.8305773E-3,4.6279725E-2,-2.253656E-2,-1.9311245E-3,1.2605384E-3,-1.3125701E-3,-1.1438149E-3,1.8624816E-3,-3.5405532E-3,-5.65049E-4,2.544799E-3,-1.0295665E-4],"categories":[],"categories_nodes":[],"categories_segments":[],"categories_sizes":[],"default_left":[0,0,0,0,0,0,0,0,0,0,0,0,0,0,0,0,0,0,0,0,0],"id":18,"left_children":[1,3,5,7,-1,9,11,-1,13,-1,15,17,19,-1,-1,-1,-1,-1,-1,-1,-1],"loss_changes":[2.3758718E-1,1.4860018E-1,2.7064782E-1,7.5847304E-1,0E0,5.716133E-1,1.7958967E-1,0E0,1.0467179E-1,0E0,2.955488E-1,1.8484285E-1,2.1492879E-1,0E0,0E0,0E0,0E0,0E0,0E0,0E0,0E0],"parents":[2147483647,0,0,1,1,2,2,3,3,5,5,6,6,8,8,10,10,11,11,12,12],"right_children":[2,4,6,8,-1,10,12,-1,14,-1,16,18,20,-1,-1,-1,-1,-1,-1,-1,-1],"split_conditions":[-3.840078E-2,-3.601053E-1,-9.296413E-1,-1.4846284E0,1.8534921E-3,-8.587553E-3,-4.5340616E-1,-9.345738E-3,-4.3333817E-1,-2.8305773E-3,-8.2327414E-1,-1.5354215E0,-4.358663E-1,1.2605384E-3,-1.3125701E-3,-1.1438149E-3,1.8624816E-3,-3.5405532E-3,-5.65049E-4,2.544799E-3,-1.0295665E-4],"split_indices":[7,10,1,11,0,10,4,0,10,0,3,0,4,0,0,0,0,0,0,0,0],"split_type":[0,0,0,0,0,0,0,0,0,0,0,0,0,0,0,0,0,0,0,0,0],"sum_hessian":[2.726E3,2E2,2.526E3,1.09E2,9.1E1,2.49E2,2.277E3,6E0,1.03E2,3.2E1,2.17E2,5.67E2,1.71E3,8.8E1,1.5E1,3.3E1,1.84E2,1.9E1,5.48E2,2.7E1,1.683E3],"tree_param":{"num_deleted":"0","num_feature":"21","num_nodes":"21","size_leaf_vector":"1"}},{"base_weights":[-4.7025882E-4,1.0074579E-2,-1.1462568E-2,1.4460701E-3,3.629817E-2,-1.0173132E-2,-3.7440013E-3,-1.2041395E-2,1.9803211E-2,4.0892906E-2,-2.5079949E-3,-3.0101996E-3,-8.5575115E-3,-8.1676856E-4,7.649708E-5,2.4053953E-3,4.0632827E-4,1.6882988E-3,1.00517005E-4,-9.997772E-4,-9.18007E-5],"categories":[],"categories_nodes":[],"categories_segments":[],"categories_sizes":[],"default_left":[0,0,0,0,0,0,0,0,0,0,0,0,0,0,0,0,0,0,0,0,0],"id":19,"left_children":[1,3,5,7,9,11,-1,13,15,17,-1,-1,19,-1,-1,-1,-1,-1,-1,-1,-1],"loss_changes":[3.1391248E-1,3.0774754E-1,1.7960119E-1,2.5850958E-1,1.8535194E-1,1.801061E-1,0E0,1.3480683E-1,1.5732625E-1,1.8270463E-1,0E0,0E0,1.7272791E-1,0E0,0E0,0E0,0E0,0E0,0E0,0E0,0E0],"parents":[2147483647,0,0,1,1,2,2,3,3,4,4,5,5,7,7,8,8,9,9,12,12],"right_children":[2,4,6,8,10,12,-1,14,16,18,-1,-1,20,-1,-1,-1,-1,-1,-1,-1,-1],"split_conditions":[2.338644E-1,-4.179259E-2,3.241842E0,4.705881E-2,7.713327E-1,-1.6640856E0,-3.7440013E-3,-4.198475E-1,-1.3282498E0,2.8855744E-1,-2.5079949E-3,-3.0101996E-3,-5.2437377E-1,-8.1676856E-4,7.649708E-5,2.4053953E-3,4.0632827E-4,1.6882988E-3,1.00517005E-4,-9.997772E-4,-9.18007E-5],"split_indices":[12,2,3,17,6,0,0,6,0,11,0,0,4,0,0,0,0,0,0,0,0],"split_type":[0,0,0,0,0,0,0,0,0,0,0,0,0,0,0,0,0,0,0,0,0],"sum_hessian":[2.705E3,1.376E3,1.329E3,1.039E3,3.37E2,1.316E3,1.3E1,5.96E2,4.43E2,3.26E2,1.1E1,2.1E1,1.295E3,2.95E2,3.01E2,3.9E1,4.04E2,2.29E2,9.7E1,2.31E2,1.064E3],"tree_param":{"num_deleted":"0","num_feature":"21","num_nodes":"21","size_leaf_vector":"1"}},{"base_weights":[-2.3231008E-4,9.933149E-3,-9.194782E-3,2.16277E-3,3.7504032E-2,-3.3501342E-2,-3.7697295E-3,-1.5289178E-3,5.725807E-3,8.428485E-3,6.0701497E-2,-2.6688934E-3,-6.174617E-2,1.1355772E-2,-1.7952623E-2,-1.6740007E-4,7.5759616E-4,-1.3266744E-3,1.094127E-3,-1.7252472E-3,2.186707E-3,-1.3446815E-3,4.7594763E-4,-3.0837085E-3,-1.1901661E-3,1.9790289E-4,3.7840388E-3,-8.5312384E-4,2.6173829E-4],"categories":[],"categories_nodes":[],"categories_segments":[],"categories_sizes":[],"default_left":[0,0,0,0,0,0,0,0,0,0,0,0,0,0,0,0,0,0,0,0,0,0,0,0,0,0,0,0,0],"id":20,"left_children":[1,3,5,7,9,11,13,-1,15,17,19,21,23,25,27,-1,-1,-1,-1,-1,-1,-1,-1,-1,-1,-1,-1,-1,-1],"loss_changes":[2.4846804E-1,2.686749E-1,1.8800923E-1,1.844925E-1,1.7940608E-1,2.2155833E-1,2.5700444E-1,0E0,2.0897257E-1,1.8687168E-1,2.247358E-1,1.0360961E-1,1.0398668E-1,2.9997906E-1,1.7563742E-1,0E0,0E0,0E0,0E0,0E0,0E0,0E0,0E0,0E0,0E0,0E0,0E0,0E0,0E0],"parents":[2147483647,0,0,1,1,2,2,3,3,4,4,5,5,6,6,8,8,9,9,10,10,11,11,12,12,13,13,14,14],"right_children":[2,4,6,8,10,12,14,-1,16,18,20,22,24,26,28,-1,-1,-1,-1,-1,-1,-1,-1,-1,-1,-1,-1,-1,-1],"split_conditions":[7.8774415E-2,-4.179259E-2,-5.2437377E-1,-6.530368E-1,-9.646699E-2,-1.096552E0,1.13312356E-1,-1.5289178E-3,5.552517E-2,-4.3804646E-3,-6.966755E-1,3.9720354E-3,-4.5249158E-1,9.2157674E-1,6.065685E-1,-1.6740007E-4,7.5759616E-4,-1.3266744E-3,1.094127E-3,-1.7252472E-3,2.186707E-3,-1.3446815E-3,4.7594763E-4,-3.0837085E-3,-1.1901661E-3,1.9790289E-4,3.7840388E-3,-8.5312384E-4,2.6173829E-4],"split_indices":[12,2,4,10,10,5,16,0,16,17,12,11,16,1,10,0,0,0,0,0,0,0,0,0,0,0,0,0,0],"split_type":[0,0,0,0,0,0,0,0,0,0,0,0,0,0,0,0,0,0,0,0,0,0,0,0,0,0,0,0,0],"sum_hessian":[2.726E3,1.272E3,1.454E3,9.96E2,2.76E2,2.61E2,1.193E3,6E1,9.36E2,1.25E2,1.51E2,1.27E2,1.34E2,5.74E2,6.19E2,5.9E2,3.46E2,4.2E1,8.3E1,1.3E1,1.38E2,4E1,8.7E1,4.4E1,9E1,5.53E2,2.1E1,4.47E2,1.72E2],"tree_param":{"num_deleted":"0","num_feature":"21","num_nodes":"29","size_leaf_vector":"1"}},{"base_weights":[2.851477E-4,8.7906787E-4,-4.0912884E-3,-1.3493301E-3,3.135546E-2,4.7862087E-3,-1.41447615E-2,7.507897E-2,4.8799388E-4,-1.8304877E-4,6.018635E-4,-1.6198795E-3,-1.8616777E-4,5.570017E-4,4.1012825E-3],"categories":[],"categories_nodes":[],"categories_segments":[],"categories_sizes":[],"default_left":[0,0,0,0,0,0,0,0,0,0,0,0,0,0,0],"id":21,"left_children":[1,3,-1,5,7,9,11,13,-1,-1,-1,-1,-1,-1,-1],"loss_changes":[2.0644881E-1,1.8634152E-1,0E0,1.982913E-1,1.1301631E-1,2.832672E-1,2.530809E-1,1.4214638E-1,0E0,0E0,0E0,0E0,0E0,0E0,0E0],"parents":[2147483647,0,0,1,1,3,3,4,4,5,5,6,6,7,7],"right_children":[2,4,-1,6,8,10,12,14,-1,-1,-1,-1,-1,-1,-1],"split_conditions":[3.241842E0,2.3012362E0,-4.0912884E-3,1.739123E-1,-3.14485E-1,-3.1082812E-1,-1.0033152E0,-7.948666E-1,4.8799388E-4,-1.8304877E-4,6.018635E-4,-1.6198795E-3,-1.8616777E-4,5.570017E-4,4.1012825E-3],"split_indices":[3,9,0,6,15,6,0,3,0,0,0,0,0,0,0],"split_type":[0,0,0,0,0,0,0,0,0,0,0,0,0,0,0],"sum_hessian":[2.708E3,2.698E3,1E1,2.512E3,1.86E2,1.693E3,8.19E2,4.5E1,1.41E2,9.85E2,7.08E2,1.33E2,6.86E2,2.5E1,2E1],"tree_param":{"num_deleted":"0","num_feature":"21","num_nodes":"15","size_leaf_vector":"1"}},{"base_weights":[3.742867E-4,-2.1489349E-3,1.0365491E-3,-3.2056008E-2,6.6967506E-4,1.4264756E-2,-6.2291306E-2,2.8829271E-2,-3.1083005E-3,-2.6668136E-3,1.5803091E-3,-3.927068E-3,-1.1276312E-3,-8.048782E-4,1.5368381E-3,1.5127402E-3,-1.5248168E-4],"categories":[],"categories_nodes":[],"categories_segments":[],"categories_sizes":[],"default_left":[0,0,0,0,0,0,0,0,0,0,0,0,0,0,0,0,0],"id":22,"left_children":[1,3,-1,5,7,9,11,13,15,-1,-1,-1,-1,-1,-1,-1,-1],"loss_changes":[2.3563707E-1,2.1449111E-1,0E0,3.124056E-1,2.4617986E-1,3.4184012E-1,2.053523E-1,3.4540382E-1,2.0880662E-1,0E0,0E0,0E0,0E0,0E0,0E0,0E0,0E0],"parents":[2147483647,0,0,1,1,3,3,4,4,5,5,6,6,7,7,8,8],"right_children":[2,4,-1,6,8,10,12,14,16,-1,-1,-1,-1,-1,-1,-1,-1],"split_conditions":[2.3012362E0,-1.0033152E0,1.0365491E-3,1.8294246E-1,-5.562601E-1,-6.9919306E-1,3.1363705E-1,-3.78807E-2,-1.0145468E0,-2.6668136E-3,1.5803091E-3,-3.927068E-3,-1.1276312E-3,-8.048782E-4,1.5368381E-3,1.5127402E-3,-1.5248168E-4],"split_indices":[9,0,0,4,0,4,10,10,1,0,0,0,0,0,0,0,0],"split_type":[0,0,0,0,0,0,0,0,0,0,0,0,0,0,0,0,0],"sum_hessian":[2.693E3,2.506E3,1.87E2,2.18E2,2.288E3,8.5E1,1.33E2,2.73E2,2.015E3,2.2E1,6.3E1,3.3E1,1E2,7.7E1,1.96E2,6.9E1,1.946E3],"tree_param":{"num_deleted":"0","num_feature":"21","num_nodes":"17","size_leaf_vector":"1"}},{"base_weights":[9.319582E-4,1.1628346E-2,-8.254158E-3,3.31032E-3,3.9932236E-2,-9.435689E-3,2.8147928E-3,-1.2055478E-2,2.0003509E-2,5.8503475E-2,-8.9703484E-5,-5.60028E-3,-3.4669578E-2,2.1393495E-3,-5.331804E-4,4.1727594E-4,2.5704843E-3,-0E0,2.113904E-3,-5.826618E-4,2.600698E-4,-4.0102375E-4,-2.0089962E-3],"categories":[],"categories_nodes":[],"categories_segments":[],"categories_sizes":[],"default_left":[0,0,0,0,0,0,0,0,0,0,0,0,0,0,0,0,0,0,0,0,0,0,0],"id":23,"left_children":[1,3,5,7,9,11,-1,13,15,17,-1,19,21,-1,-1,-1,-1,-1,-1,-1,-1,-1,-1],"loss_changes":[2.706436E-1,2.9595542E-1,1.7034802E-1,2.5497508E-1,2.3450005E-1,1.3708097E-1,0E0,2.4042311E-1,1.8017809E-1,1.4772546E-1,0E0,2.5211614E-1,1.2110226E-1,0E0,0E0,0E0,0E0,0E0,0E0,0E0,0E0,0E0,0E0],"parents":[2147483647,0,0,1,1,2,2,3,3,4,4,5,5,7,7,8,8,9,9,11,11,12,12],"right_children":[2,4,6,8,10,12,-1,14,16,18,-1,20,22,-1,-1,-1,-1,-1,-1,-1,-1,-1,-1],"split_conditions":[7.8774415E-2,-4.179259E-2,2.81767E0,3.766125E-2,2.8855744E-1,1.497609E0,2.8147928E-3,-8.567093E-1,2.4996736E0,-5.02813E-1,-8.9703484E-5,4.0134292E-2,1.1256318E0,2.1393495E-3,-5.331804E-4,4.1727594E-4,2.5704843E-3,-0E0,2.113904E-3,-5.826618E-4,2.600698E-4,-4.0102375E-4,-2.0089962E-3],"split_indices":[12,2,9,17,11,5,0,6,9,12,0,17,12,0,0,0,0,0,0,0,0,0,0],"split_type":[0,0,0,0,0,0,0,0,0,0,0,0,0,0,0,0,0,0,0,0,0,0,0],"sum_hessian":[2.749E3,1.275E3,1.474E3,9.89E2,2.86E2,1.459E3,1.5E1,5.12E2,4.77E2,2.01E2,8.5E1,1.271E3,1.88E2,3.1E1,4.81E2,4.39E2,3.8E1,3.3E1,1.68E2,6.49E2,6.22E2,1.16E2,7.2E1],"tree_param":{"num_deleted":"0","num_feature":"21","num_nodes":"23","size_leaf_vector":"1"}},{"base_weights":[6.7028886E-4,1.2668372E-2,-9.97192E-3,3.3628768E-3,3.9091825E-2,-3.1173325E-3,-8.702803E-3,-1.1911661E-3,8.581828E-3,4.742215E-3,3.1018965E-2,-7.57647E-3,-3.4216316E-3,-1.3855068E-4,8.871579E-4,-3.082747E-4,1.2204605E-3,-1.6087487E-4,-1.6901045E-3],"categories":[],"categories_nodes":[],"categories_segments":[],"categories_sizes":[],"default_left":[0,0,0,0,0,0,0,0,0,0,0,0,0,0,0,0,0,0,0],"id":24,"left_children":[1,3,5,7,9,-1,11,-1,13,-1,15,17,-1,-1,-1,-1,-1,-1,-1],"loss_changes":[3.4731916E-1,3.1084543E-1,1.590339E-1,2.1121128E-1,2.941212E-1,0E0,1.553528E-1,0E0,2.3869835E-1,0E0,1.2795722E-1,1.453115E-1,0E0,0E0,0E0,0E0,0E0,0E0,0E0],"parents":[2147483647,0,0,1,1,2,2,3,3,4,4,6,6,8,8,10,10,11,11],"right_children":[2,4,6,8,10,-1,12,-1,14,-1,16,18,-1,-1,-1,-1,-1,-1,-1],"split_conditions":[1.1754691E-1,-6.1701518E-2,-1.0702226E0,-5.944505E-1,-9.0300035E-1,-3.1173325E-3,3.241842E0,-1.1911661E-3,5.552517E-2,4.742215E-3,-8.796815E-1,9.461869E-1,-3.4216316E-3,-1.3855068E-4,8.871579E-4,-3.082747E-4,1.2204605E-3,-1.6087487E-4,-1.6901045E-3],"split_indices":[12,11,1,10,0,0,3,0,16,0,5,8,0,0,0,0,0,0,0],"split_type":[0,0,0,0,0,0,0,0,0,0,0,0,0,0,0,0,0,0,0],"sum_hessian":[2.716E3,1.281E3,1.435E3,9.51E2,3.3E2,1.7E1,1.418E3,1E2,8.51E2,1.9E1,3.11E2,1.405E3,1.3E1,5.2E2,3.31E2,5.7E1,2.54E2,1.347E3,5.8E1],"tree_param":{"num_deleted":"0","num_feature":"21","num_nodes":"19","size_leaf_vector":"1"}},{"base_weights":[9.622804E-4,5.2917525E-3,-1.2789428E-2,-3.245687E-2,8.309875E-3,2.3059456E-3,-4.9032122E-2,-4.2833723E-4,-3.0954406E-3,4.368374E-4,2.9413259E-2,1.2125055E-3,-1.383785E-4,-2.1275533E-3,-6.3872215E-4,-1.0913128E-4,7.9294556E-4,1.445697E-3,-6.29071E-5],"categories":[],"categories_nodes":[],"categories_segments":[],"categories_sizes":[],"default_left":[0,0,0,0,0,0,0,0,0,0,0,0,0,0,0,0,0,0,0],"id":25,"left_children":[1,3,5,7,9,11,13,-1,-1,15,17,-1,-1,-1,-1,-1,-1,-1,-1],"loss_changes":[1.6298687E-1,2.3676616E-1,3.6204004E-1,1.8349262E-1,3.201595E-1,1.250563E-1,1.0705763E-1,0E0,0E0,1.5288293E-1,3.1532922E-1,0E0,0E0,0E0,0E0,0E0,0E0,0E0,0E0],"parents":[2147483647,0,0,1,1,2,2,3,3,4,4,5,5,6,6,9,9,10,10],"right_children":[2,4,6,8,10,12,14,-1,-1,16,18,-1,-1,-1,-1,-1,-1,-1,-1],"split_conditions":[6.7916316E-1,-4.152578E-1,-6.0909706E-1,-4.507306E-1,-7.201242E-2,-5.80716E-1,-1.2337382E-1,-4.2833723E-4,-3.0954406E-3,2.3012362E0,-9.064795E-2,1.2125055E-3,-1.383785E-4,-2.1275533E-3,-6.3872215E-4,-1.0913128E-4,7.9294556E-4,1.445697E-3,-6.29071E-5],"split_indices":[2,8,10,8,2,6,6,0,0,9,8,0,0,0,0,0,0,0,0],"split_type":[0,0,0,0,0,0,0,0,0,0,0,0,0,0,0,0,0,0,0],"sum_hessian":[2.748E3,2.096E3,6.52E2,1.52E2,1.944E3,4.59E2,1.93E2,1.23E2,2.9E1,1.42E3,5.24E2,7.2E1,3.87E2,1.05E2,8.8E1,1.225E3,1.95E2,3.3E2,1.94E2],"tree_param":{"num_deleted":"0","num_feature":"21","num_nodes":"19","size_leaf_vector":"1"}},{"base_weights":[-4.5719455E-4,-2.960534E-3,9.361035E-4,3.0871776E-3,-1.5099536E-2,-3.0913753E-3,3.6039896E-2,-7.529046E-2,-2.7144025E-4,-2.7956767E-4,8.4824546E-4,1.4829381E-3,-6.239842E-4,-0E0,-3.37461E-3],"categories":[],"categories_nodes":[],"categories_segments":[],"categories_sizes":[],"default_left":[0,0,0,0,0,0,0,0,0,0,0,0,0,0,0],"id":26,"left_children":[1,3,-1,5,7,9,11,13,-1,-1,-1,-1,-1,-1,-1],"loss_changes":[2.1126291E-1,1.852213E-1,0E0,3.430113E-1,2.9648817E-1,2.724224E-1,2.0635915E-1,2.2017068E-1,0E0,0E0,0E0,0E0,0E0,0E0,0E0],"parents":[2147483647,0,0,1,1,3,3,4,4,5,5,6,6,7,7],"right_children":[2,4,-1,6,8,10,12,14,-1,-1,-1,-1,-1,-1,-1],"split_conditions":[2.3012362E0,1.739123E-1,9.361035E-4,2.6148885E-1,-1.1755955E0,4.6409822E-1,8.952415E-1,-7.73165E-1,-2.7144025E-4,-2.7956767E-4,8.4824546E-4,1.4829381E-3,-6.239842E-4,-0E0,-3.37461E-3],"split_indices":[9,6,0,5,0,15,5,11,0,0,0,0,0,0,0],"split_type":[0,0,0,0,0,0,0,0,0,0,0,0,0,0,0],"sum_hessian":[2.699E3,2.505E3,1.94E2,1.667E3,8.38E2,1.402E3,2.65E2,7.4E1,7.64E2,1.173E3,2.29E2,2.16E2,4.9E1,2.4E1,5E1],"tree_param":{"num_deleted":"0","num_feature":"21","num_nodes":"15","size_leaf_vector":"1"}},{"base_weights":[-7.016284E-4,7.532833E-3,-9.616989E-3,7.56334E-4,3.5603102E-2,-2.7964725E-3,-8.129363E-3,6.416644E-2,-1.7820636E-3,1.8520072E-2,1.3021064E-1,-3.4759548E-3,-2.9305644E-2,-1.3434847E-3,2.523852E-3,-2.5383645E-4,4.6403805E-4,-4.0303246E-4,1.1317473E-3,6.9103353E-3,2.617593E-3,-3.0570512E-4,1.1445982E-3,-1.3617413E-3,7.197389E-4],"categories":[],"categories_nodes":[],"categories_segments":[],"categories_sizes":[],"default_left":[0,0,0,0,0,0,0,0,0,0,0,0,0,0,0,0,0,0,0,0,0,0,0,0,0],"id":27,"left_children":[1,3,5,7,9,-1,11,13,15,17,19,21,23,-1,-1,-1,-1,-1,-1,-1,-1,-1,-1,-1,-1],"loss_changes":[2.0282784E-1,2.6815888E-1,1.5463576E-1,1.9226167E-1,4.2716578E-1,0E0,1.2570983E-1,1.0774474E-1,1.2731926E-1,1.4715083E-1,1.2450367E-1,2.9918125E-1,2.0212734E-1,0E0,0E0,0E0,0E0,0E0,0E0,0E0,0E0,0E0,0E0,0E0,0E0],"parents":[2147483647,0,0,1,1,2,2,3,3,4,4,6,6,7,7,8,8,9,9,10,10,11,11,12,12],"right_children":[2,4,6,8,10,-1,12,14,16,18,20,22,24,-1,-1,-1,-1,-1,-1,-1,-1,-1,-1,-1,-1],"split_conditions":[2.338644E-1,2.507267E-1,-1.6640856E0,-1.3282498E0,1.2549502E-1,-2.7964725E-3,1.2201115E0,-7.948666E-1,-9.575629E-2,-1.0019376E0,-3.2573145E-2,1.0603284E-1,2.0274246E0,-1.3434847E-3,2.523852E-3,-2.5383645E-4,4.6403805E-4,-4.0303246E-4,1.1317473E-3,6.9103353E-3,2.617593E-3,-3.0570512E-4,1.1445982E-3,-1.3617413E-3,7.197389E-4],"split_indices":[12,15,0,0,2,0,4,3,2,16,17,7,16,0,0,0,0,0,0,0,0,0,0,0,0],"split_type":[0,0,0,0,0,0,0,0,0,0,0,0,0,0,0,0,0,0,0,0,0,0,0,0,0],"sum_hessian":[2.758E3,1.428E3,1.33E3,1.154E3,2.74E2,2.1E1,1.309E3,4.5E1,1.109E3,2.34E2,4E1,1.078E3,2.31E2,6E0,3.9E1,8.04E2,3.05E2,8.6E1,1.48E2,1E1,3E1,9.31E2,1.47E2,1.79E2,5.2E1],"tree_param":{"num_deleted":"0","num_feature":"21","num_nodes":"25","size_leaf_vector":"1"}},{"base_weights":[-1.8616914E-4,3.0996085E-3,-2.5073912E-2,-1.6801456E-2,7.1601532E-3,-1.6621828E-2,-3.4946133E-3,1.8070288E-3,-2.2102492E-2,2.5215847E-3,5.934803E-3,-8.907871E-4,6.2870554E-4,3.5902073E-3,-7.6082523E-4,1.1566832E-3,9.917049E-5],"categories":[],"categories_nodes":[],"categories_segments":[],"categories_sizes":[],"default_left":[0,0,0,0,0,0,0,0,0,0,0,0,0,0,0,0,0],"id":28,"left_children":[1,3,5,7,9,11,-1,-1,13,-1,15,-1,-1,-1,-1,-1,-1],"loss_changes":[2.2478653E-1,1.9317897E-1,2.3276784E-1,1.6209096E-1,1.788491E-1,1.4688924E-1,0E0,0E0,1.6868506E-1,0E0,1.6464405E-1,0E0,0E0,0E0,0E0,0E0,0E0],"parents":[2147483647,0,0,1,1,2,2,3,3,4,4,5,5,8,8,10,10],"right_children":[2,4,6,8,10,12,-1,-1,14,-1,16,-1,-1,-1,-1,-1,-1],"split_conditions":[1.1256318E0,-8.796815E-1,2.2676702E0,-1.7144859E0,-7.876582E-1,2.1372638E0,-3.4946133E-3,1.8070288E-3,-3.1005702E0,2.5215847E-3,-3.840078E-2,-8.907871E-4,6.2870554E-4,3.5902073E-3,-7.6082523E-4,1.1566832E-3,9.917049E-5],"split_indices":[12,5,5,11,5,2,0,0,12,0,7,0,0,0,0,0,0],"split_type":[0,0,0,0,0,0,0,0,0,0,0,0,0,0,0,0,0],"sum_hessian":[2.72E3,2.4E3,3.2E2,4.02E2,1.998E3,2.95E2,2.5E1,2.4E1,3.78E2,2.9E1,1.969E3,2.21E2,7.4E1,7E0,3.71E2,1.43E2,1.826E3],"tree_param":{"num_deleted":"0","num_feature":"21","num_nodes":"17","size_leaf_vector":"1"}},{"base_weights":[-1.4216296E-5,2.6815934E-3,-2.1740058E-2,-1.7220765E-2,6.840829E-3,-3.6344677E-2,3.6197557E-4,1.4541199E-3,-2.5191817E-2,-3.4225786E-3,7.551085E-3,-9.137963E-4,-4.3357676E-3,-8.974652E-3,-6.115449E-4,2.2390664E-3,1.92256E-4],"categories":[],"categories_nodes":[],"categories_segments":[],"categories_sizes":[],"default_left":[0,0,0,0,0,0,0,0,0,0,0,0,0,0,0,0,0],"id":29,"left_children":[1,3,5,7,9,11,-1,-1,13,-1,15,-1,-1,-1,-1,-1,-1],"loss_changes":[1.6209108E-1,2.0014901E-1,1.5394548E-1,2.1672317E-1,1.6318849E-1,1.15609795E-1,0E0,0E0,4.531656E-1,0E0,1.4501877E-1,0E0,0E0,0E0,0E0,0E0,0E0],"parents":[2147483647,0,0,1,1,2,2,3,3,4,4,5,5,8,8,10,10],"right_children":[2,4,6,8,10,12,-1,-1,14,-1,16,-1,-1,-1,-1,-1,-1],"split_conditions":[1.1256318E0,-8.796815E-1,2.0617433E0,-1.6362975E0,-1.7404137E0,2.4443285E0,3.6197557E-4,1.4541199E-3,-1.4846284E0,-3.4225786E-3,-7.876582E-1,-9.137963E-4,-4.3357676E-3,-8.974652E-3,-6.115449E-4,2.2390664E-3,1.92256E-4],"split_indices":[12,5,11,3,0,5,0,0,11,0,5,0,0,0,0,0,0],"split_type":[0,0,0,0,0,0,0,0,0,0,0,0,0,0,0,0,0],"sum_hessian":[2.733E3,2.428E3,3.05E2,4.15E2,2.013E3,2.15E2,9E1,4.3E1,3.72E2,1E1,2.003E3,2.06E2,9E0,5E0,3.67E2,3.1E1,1.972E3],"tree_param":{"num_deleted":"0","num_feature":"21","num_nodes":"17","size_leaf_vector":"1"}},{"base_weights":[9.845169E-4,3.0702734E-2,-1.8722642E-3,-2.4144708E-3,4.3034896E-2,8.428787E-4,-4.5036995E-3,-7.744661E-4,5.61558E-2,-6.637605E-2,-2.9804406E-3,-1.5933359E-4,2.000128E-3,-4.0334975E-3,-1.2305903E-4,-5.033685E-4,3.863394E-5],"categories":[],"categories_nodes":[],"categories_segments":[],"categories_sizes":[],"default_left":[0,0,0,0,0,0,0,0,0,0,0,0,0,0,0,0,0],"id":30,"left_children":[1,3,5,-1,7,-1,9,-1,11,13,15,-1,-1,-1,-1,-1,-1],"loss_changes":[2.3709042E-1,3.3565116E-1,1.9601992E-1,0E0,2.0503408E-1,0E0,2.110497E-1,0E0,1.2800062E-1,2.1451211E-1,1.3479196E-1,0E0,0E0,0E0,0E0,0E0,0E0],"parents":[2147483647,0,0,1,1,2,2,4,4,6,6,8,8,9,9,10,10],"right_children":[2,4,6,-1,8,-1,10,-1,12,14,16,-1,-1,-1,-1,-1,-1],"split_conditions":[-9.296413E-1,-3.3936536E-1,-3.840078E-2,-2.4144708E-3,-5.415855E-1,8.428787E-4,-3.147588E-2,-7.744661E-4,-1.5647538E-2,6.2158936E-1,-4.781328E-1,-1.5933359E-4,2.000128E-3,-4.0334975E-3,-1.2305903E-4,-5.033685E-4,3.863394E-5],"split_indices":[1,9,7,0,12,0,7,0,7,12,4,0,0,0,0,0,0],"split_type":[0,0,0,0,0,0,0,0,0,0,0,0,0,0,0,0,0],"sum_hessian":[2.757E3,2.44E2,2.513E3,2.3E1,2.21E2,1.99E2,2.314E3,3.4E1,1.87E2,5.3E1,2.261E3,2.6E1,1.61E2,2.4E1,2.9E1,5.39E2,1.722E3],"tree_param":{"num_deleted":"0","num_feature":"21","num_nodes":"17","size_leaf_vector":"1"}},{"base_weights":[5.601657E-4,9.8805055E-3,-7.471265E-3,-1.3864107E-3,2.3856912E-2,-8.470093E-3,3.5279028E-3,-7.726705E-3,2.8964926E-2,6.3560575E-2,9.559926E-3,-7.434495E-3,-1.01760775E-1,-4.478428E-4,9.87932E-4,5.264021E-4,3.4170998E-3,-5.861607E-4,2.1676498E-3,-3.9026716E-3,4.0353788E-4,-8.728694E-4,-8.3806284E-5,-4.8785578E-3,-0E0],"categories":[],"categories_nodes":[],"categories_segments":[],"categories_sizes":[],"default_left":[0,0,0,0,0,0,0,0,0,0,0,0,0,0,0,0,0,0,0,0,0,0,0,0,0],"id":31,"left_children":[1,3,5,7,9,11,-1,13,15,17,19,21,23,-1,-1,-1,-1,-1,-1,-1,-1,-1,-1,-1,-1],"loss_changes":[2.0729065E-1,2.0478782E-1,1.749671E-1,1.345374E-1,3.2017782E-1,1.30343E-1,0E0,1.7143881E-1,1.01237476E-1,1.1578077E-1,2.226704E-1,1.4309911E-1,1.0911925E-1,0E0,0E0,0E0,0E0,0E0,0E0,0E0,0E0,0E0,0E0,0E0,0E0],"parents":[2147483647,0,0,1,1,2,2,3,3,4,4,5,5,7,7,8,8,9,9,10,10,11,11,12,12],"right_children":[2,4,6,8,10,12,-1,14,16,18,20,22,24,-1,-1,-1,-1,-1,-1,-1,-1,-1,-1,-1,-1],"split_conditions":[7.8774415E-2,-6.9884926E-1,2.81767E0,2.3012362E0,-5.454486E-1,3.241842E0,3.5279028E-3,1.6339186E-1,-7.948666E-1,-1.8598503E0,-1.2010605E0,-5.2437377E-1,1.3641988E0,-4.478428E-4,9.87932E-4,5.264021E-4,3.4170998E-3,-5.861607E-4,2.1676498E-3,-3.9026716E-3,4.0353788E-4,-8.728694E-4,-8.3806284E-5,-4.8785578E-3,-0E0],"split_indices":[12,3,9,9,3,3,0,0,3,12,1,4,1,0,0,0,0,0,0,0,0,0,0,0,0],"split_type":[0,0,0,0,0,0,0,0,0,0,0,0,0,0,0,0,0,0,0,0,0,0,0,0,0],"sum_hessian":[2.764E3,1.285E3,1.479E3,7.08E2,5.77E2,1.469E3,1E1,5.89E2,1.19E2,1.5E2,4.27E2,1.455E3,1.4E1,5.03E2,8.6E1,1.07E2,1.2E1,1.3E1,1.37E2,1E1,4.17E2,2.52E2,1.203E3,9E0,5E0],"tree_param":{"num_deleted":"0","num_feature":"21","num_nodes":"25","size_leaf_vector":"1"}},{"base_weights":[5.325156E-4,5.2010617E-3,-1.4068747E-2,-3.0531157E-2,7.8963E-3,-3.0726888E-3,-1.4863653E-3,-3.8653208E-4,-3.5307945E-3,-7.122393E-4,2.8887412E-2,1.3307022E-4,-1.5334943E-3,2.4021692E-3,-6.3192165E-5,1.350881E-3,1.2640077E-4],"categories":[],"categories_nodes":[],"categories_segments":[],"categories_sizes":[],"default_left":[0,0,0,0,0,0,0,0,0,0,0,0,0,0,0,0,0],"id":32,"left_children":[1,3,5,7,9,11,-1,-1,-1,13,15,-1,-1,-1,-1,-1,-1],"loss_changes":[1.8514507E-1,1.9762172E-1,2.5049454E-1,2.0537792E-1,3.5177523E-1,1.8670283E-1,0E0,0E0,0E0,1.463333E-1,2.1991837E-1,0E0,0E0,0E0,0E0,0E0,0E0],"parents":[2147483647,0,0,1,1,2,2,3,3,4,4,5,5,9,9,10,10],"right_children":[2,4,6,8,10,12,-1,-1,-1,14,16,-1,-1,-1,-1,-1,-1],"split_conditions":[6.7916316E-1,-4.152578E-1,-3.947992E-1,-4.507306E-1,-1.7778118E-1,5.950874E-1,-1.4863653E-3,-3.8653208E-4,-3.5307945E-3,-2.2169473E0,-9.064795E-2,1.3307022E-4,-1.5334943E-3,2.4021692E-3,-6.3192165E-5,1.350881E-3,1.2640077E-4],"split_indices":[2,8,8,8,2,5,0,0,0,3,8,0,0,0,0,0,0],"split_type":[0,0,0,0,0,0,0,0,0,0,0,0,0,0,0,0,0],"sum_hessian":[2.727E3,2.072E3,6.55E2,1.42E2,1.93E3,5.03E2,1.52E2,1.2E2,2.2E1,1.366E3,5.64E2,4.34E2,6.9E1,2.1E1,1.345E3,3.38E2,2.26E2],"tree_param":{"num_deleted":"0","num_feature":"21","num_nodes":"17","size_leaf_vector":"1"}},{"base_weights":[-3.9191596E-4,3.3769026E-4,-2.3290864E-3,4.646371E-3,-1.4741754E-2,-7.8891154E-4,7.2670397E-3,-5.3917447E-6,-1.4692964E-3,-1.1725239E-5,7.688683E-4],"categories":[],"categories_nodes":[],"categories_segments":[],"categories_sizes":[],"default_left":[0,0,0,0,0,0,0,0,0,0,0],"id":33,"left_children":[1,3,-1,5,7,-1,9,-1,-1,-1,-1],"loss_changes":[1.6262765E-1,1.7591414E-1,0E0,1.704474E-1,2.9419243E-1,0E0,2.7827647E-1,0E0,0E0,0E0,0E0],"parents":[2147483647,0,0,1,1,3,3,4,4,6,6],"right_children":[2,4,-1,6,8,-1,10,-1,-1,-1,-1],"split_conditions":[2.4443285E0,6.6070753E-1,-2.3290864E-3,-4.152578E-1,-7.262696E-1,-7.8891154E-4,-1.7778118E-1,-5.3917447E-6,-1.4692964E-3,-1.1725239E-5,7.688683E-4],"split_indices":[5,11,0,8,10,0,2,0,0,0,0],"split_type":[0,0,0,0,0,0,0,0,0,0,0],"sum_hessian":[2.747E3,2.721E3,2.6E1,2.122E3,5.99E2,1.62E2,1.96E3,4.23E2,1.76E2,1.38E3,5.8E2],"tree_param":{"num_deleted":"0","num_feature":"21","num_nodes":"11","size_leaf_vector":"1"}},{"base_weights":[9.145872E-4,2.6074123E-2,-1.6406702E-3,3.7395924E-2,-2.5621944E-3,8.7113545E-4,-4.2078127E-3,-1.0380154E-3,5.0373208E-2,-6.0681857E-2,-2.8207407E-3,-2.8229653E-4,1.7759169E-3,-3.424246E-3,-2.71655E-4,-6.3826206E-5,-2.955404E-3],"categories":[],"categories_nodes":[],"categories_segments":[],"categories_sizes":[],"default_left":[0,0,0,0,0,0,0,0,0,0,0,0,0,0,0,0,0],"id":34,"left_children":[1,3,5,7,-1,-1,9,-1,11,13,15,-1,-1,-1,-1,-1,-1],"loss_changes":[1.7773817E-1,3.202439E-1,1.9232434E-1,2.2101629E-1,0E0,0E0,1.7247078E-1,0E0,1.1051375E-1,1.3292395E-1,1.3785066E-1,0E0,0E0,0E0,0E0,0E0,0E0],"parents":[2147483647,0,0,1,1,2,2,3,3,6,6,8,8,9,9,10,10],"right_children":[2,4,6,8,-1,-1,10,-1,12,14,16,-1,-1,-1,-1,-1,-1],"split_conditions":[-9.296413E-1,-5.7056947E-3,-3.840078E-2,-8.2327414E-1,-2.5621944E-3,8.7113545E-4,-3.147588E-2,-1.0380154E-3,-1.5647538E-2,6.531311E-2,3.241842E0,-2.8229653E-4,1.7759169E-3,-3.424246E-3,-2.71655E-4,-6.3826206E-5,-2.955404E-3],"split_indices":[1,3,7,3,0,0,7,0,7,3,3,0,0,0,0,0,0],"split_type":[0,0,0,0,0,0,0,0,0,0,0,0,0,0,0,0,0],"sum_hessian":[2.725E3,2.54E2,2.471E3,2.32E2,2.2E1,1.87E2,2.284E3,3.4E1,1.98E2,5.2E1,2.232E3,2.4E1,1.74E2,2.4E1,2.8E1,2.218E3,1.4E1],"tree_param":{"num_deleted":"0","num_feature":"21","num_nodes":"17","size_leaf_vector":"1"}},{"base_weights":[-7.024659E-4,7.4260305E-3,-8.2169E-3,-3.4009146E-3,2.1442162E-2,-2.5155783E-2,-3.2849996E-3,-9.174244E-2,4.4462006E-4,-2.3433669E-3,5.4751962E-2,-4.1655768E-2,1.4898345E-4,1.1999266E-2,-1.3856298E-2,-9.1154035E-3,-8.1788155E-4,-3.8286296E-4,8.4954384E-4,1.0943787E-5,-5.0541293E-3,1.2220412E-3,3.3990135E-3,-3.4869337E-4,-2.2554568E-3,2.2065144E-3,1.2941222E-4,2.0330246E-3,-4.991623E-4],"categories":[],"categories_nodes":[],"categories_segments":[],"categories_sizes":[],"default_left":[0,0,0,0,0,0,0,0,0,0,0,0,0,0,0,0,0,0,0,0,0,0,0,0,0,0,0,0,0],"id":35,"left_children":[1,3,5,7,9,11,13,15,17,19,21,23,-1,25,27,-1,-1,-1,-1,-1,-1,-1,-1,-1,-1,-1,-1,-1,-1],"loss_changes":[1.6860165E-1,2.0203781E-1,1.1737214E-1,2.609034E-1,4.6410573E-1,1.629193E-1,1.8147703E-1,3.9625102E-1,2.6328045E-1,1.6848841E-1,1.7940873E-1,2.0088333E-1,0E0,2.071356E-1,1.4749964E-1,0E0,0E0,0E0,0E0,0E0,0E0,0E0,0E0,0E0,0E0,0E0,0E0,0E0,0E0],"parents":[2147483647,0,0,1,1,2,2,3,3,4,4,5,5,6,6,7,7,8,8,9,9,10,10,11,11,13,13,14,14],"right_children":[2,4,6,8,10,12,14,16,18,20,22,24,-1,26,28,-1,-1,-1,-1,-1,-1,-1,-1,-1,-1,-1,-1,-1,-1],"split_conditions":[1.1754691E-1,-6.9884926E-1,-3.907006E-1,-3.3081216E-1,-9.646699E-2,3.2552612E-1,1.739123E-1,-1.4846284E0,5.552517E-2,-1.8434642E-1,6.964559E-2,2.2288388E-1,1.4898345E-4,-1.1014504E0,-6.373347E-2,-9.1154035E-3,-8.1788155E-4,-3.8286296E-4,8.4954384E-4,1.0943787E-5,-5.0541293E-3,1.2220412E-3,3.3990135E-3,-3.4869337E-4,-2.2554568E-3,2.2065144E-3,1.2941222E-4,2.0330246E-3,-4.991623E-4],"split_indices":[12,3,4,10,10,3,6,11,16,10,11,11,0,0,17,0,0,0,0,0,0,0,0,0,0,0,0,0,0],"split_type":[0,0,0,0,0,0,0,0,0,0,0,0,0,0,0,0,0,0,0,0,0,0,0,0,0,0,0,0,0],"sum_hessian":[2.757E3,1.318E3,1.439E3,7.4E2,5.78E2,3.19E2,1.12E3,3.1E1,7.09E2,3.36E2,2.42E2,2.08E2,1.11E2,4.54E2,6.66E2,6E0,2.5E1,4.79E2,2.3E2,3.31E2,5E0,1.98E2,4.4E1,1.12E2,9.6E1,4.8E1,4.06E2,2E1,6.46E2],"tree_param":{"num_deleted":"0","num_feature":"21","num_nodes":"29","size_leaf_vector":"1"}},{"base_weights":[-0E0,8.780804E-3,-7.0010247E-3,3.264025E-2,2.227962E-3,-8.072303E-3,2.8092335E-3,8.726275E-4,5.911129E-2,-1.3836646E-3,4.477346E-2,-3.1907524E-3,-2.9182117E-2,-1.9490754E-3,4.951628E-4,-7.750374E-4,2.1120538E-3,-6.8796746E-4,1.1911315E-4,-1.6559704E-4,2.675909E-3,-1.8946275E-3,-4.4704335E-5,-1.4289126E-3,8.8430475E-5],"categories":[],"categories_nodes":[],"categories_segments":[],"categories_sizes":[],"default_left":[0,0,0,0,0,0,0,0,0,0,0,0,0,0,0,0,0,0,0,0,0,0,0,0,0],"id":36,"left_children":[1,3,5,7,9,11,-1,13,15,17,19,21,23,-1,-1,-1,-1,-1,-1,-1,-1,-1,-1,-1,-1],"loss_changes":[1.6753703E-1,1.8608958E-1,1.5500067E-1,2.1090785E-1,1.5129842E-1,1.5083033E-1,0E0,1.19741E-1,1.3958797E-1,1.0351579E-1,1.8089405E-1,1.17850214E-1,1.6879773E-1,0E0,0E0,0E0,0E0,0E0,0E0,0E0,0E0,0E0,0E0,0E0,0E0],"parents":[2147483647,0,0,1,1,2,2,3,3,4,4,5,5,7,7,8,8,9,9,10,10,11,11,12,12],"right_children":[2,4,6,8,10,12,-1,14,16,18,20,22,24,-1,-1,-1,-1,-1,-1,-1,-1,-1,-1,-1,-1],"split_conditions":[4.000192E-2,-6.6529816E-1,2.81767E0,-7.335065E-1,-6.0248084E-2,9.675592E-1,2.8092335E-3,3.6621132E-1,-1.1899253E0,-2.762706E-2,-2.762706E-2,-1.5007294E0,1.6390522E-1,-1.9490754E-3,4.951628E-4,-7.750374E-4,2.1120538E-3,-6.8796746E-4,1.1911315E-4,-1.6559704E-4,2.675909E-3,-1.8946275E-3,-4.4704335E-5,-1.4289126E-3,8.8430475E-5],"split_indices":[12,0,9,3,3,5,0,1,1,17,17,6,7,0,0,0,0,0,0,0,0,0,0,0,0],"split_type":[0,0,0,0,0,0,0,0,0,0,0,0,0,0,0,0,0,0,0,0,0,0,0,0,0],"sum_hessian":[2.721E3,1.212E3,1.509E3,2.57E2,9.55E2,1.495E3,1.4E1,1.19E2,1.38E2,8.79E2,7.6E1,1.219E3,2.76E2,2.1E1,9.8E1,1.5E1,1.23E2,1.78E2,7.01E2,3.5E1,4.1E1,3.1E1,1.188E3,1.77E2,9.9E1],"tree_param":{"num_deleted":"0","num_feature":"21","num_nodes":"25","size_leaf_vector":"1"}},{"base_weights":[-2.3822727E-4,8.103688E-3,-7.480501E-3,6.647765E-4,3.268195E-2,-2.7143586E-2,-1.9519007E-3,-1.1517205E-2,1.9334031E-2,4.41562E-2,-9.138342E-4,-4.220248E-5,-4.4537835E-2,6.8048425E-3,-1.6040988E-2,-2.1251875E-3,-2.372666E-4,2.3943584E-3,3.7398445E-4,3.7563161E-3,1.0934314E-3,-2.0713792E-3,-5.1380007E-4,3.248246E-4,-1.797375E-3,-3.2574579E-3,-3.089201E-4],"categories":[],"categories_nodes":[],"categories_segments":[],"categories_sizes":[],"default_left":[0,0,0,0,0,0,0,0,0,0,0,0,0,0,0,0,0,0,0,0,0,0,0,0,0,0,0],"id":37,"left_children":[1,3,5,7,9,11,13,15,17,19,-1,-1,21,23,25,-1,-1,-1,-1,-1,-1,-1,-1,-1,-1,-1,-1],"loss_changes":[1.6535261E-1,2.2811338E-1,1.5705764E-1,2.2297461E-1,2.1354973E-1,1.3815054E-1,1.4340697E-1,1.1742865E-1,1.5135044E-1,1.3422245E-1,0E0,0E0,1.1649799E-1,1.8575333E-1,2.2458473E-1,0E0,0E0,0E0,0E0,0E0,0E0,0E0,0E0,0E0,0E0,0E0,0E0],"parents":[2147483647,0,0,1,1,2,2,3,3,4,4,5,5,6,6,7,7,8,8,9,9,12,12,13,13,14,14],"right_children":[2,4,6,8,10,12,14,16,18,20,-1,-1,22,24,26,-1,-1,-1,-1,-1,-1,-1,-1,-1,-1,-1,-1],"split_conditions":[7.8774415E-2,-4.179259E-2,-3.907006E-1,4.705881E-2,3.4805305E-2,-1.096552E0,6.47041E-1,-3.394906E-2,-2.1363957E-1,-9.0300035E-1,-9.138342E-4,-4.220248E-5,2.4306823E-2,9.461869E-1,-9.217273E-3,-2.1251875E-3,-2.372666E-4,2.3943584E-3,3.7398445E-4,3.7563161E-3,1.0934314E-3,-2.0713792E-3,-5.1380007E-4,3.248246E-4,-1.797375E-3,-3.2574579E-3,-3.089201E-4],"split_indices":[12,2,4,17,7,5,16,7,10,0,0,0,17,8,7,0,0,0,0,0,0,0,0,0,0,0,0],"split_type":[0,0,0,0,0,0,0,0,0,0,0,0,0,0,0,0,0,0,0,0,0,0,0,0,0,0,0],"sum_hessian":[2.736E3,1.265E3,1.471E3,9.75E2,2.9E2,3.18E2,1.153E3,5.87E2,3.88E2,2.47E2,4.3E1,1.31E2,1.87E2,7.07E2,4.46E2,3.1E1,5.56E2,3.7E1,3.51E2,1.9E1,2.28E2,9.6E1,9.1E1,6.69E2,3.8E1,2.4E1,4.22E2],"tree_param":{"num_deleted":"0","num_feature":"21","num_nodes":"27","size_leaf_vector":"1"}},{"base_weights":[-5.245792E-4,2.5962463E-2,-2.6133812E-3,-0E0,4.611265E-2,-2.1414932E-2,5.461504E-4,-6.695757E-2,9.819975E-4,1.0665449E-3,4.5575355E-3,-3.8108252E-2,9.2821974E-5,2.6671486E-2,-2.148934E-3,-1.7702745E-4,-8.500737E-3,1.1480379E-4,-1.6284197E-3,-1.1095947E-3,1.2850793E-3,5.9610746E-5,-5.05192E-4],"categories":[],"categories_nodes":[],"categories_segments":[],"categories_sizes":[],"default_left":[0,0,0,0,0,0,0,0,0,0,0,0,0,0,0,0,0,0,0,0,0,0,0],"id":38,"left_children":[1,3,5,7,9,11,13,15,-1,-1,-1,17,-1,19,21,-1,-1,-1,-1,-1,-1,-1,-1],"loss_changes":[1.4866278E-1,1.0604046E-1,1.5256914E-1,1.9108972E-1,1.0100372E-1,1.5459073E-1,1.5494719E-1,3.525698E-1,0E0,0E0,0E0,1.5581137E-1,0E0,2.1414308E-1,1.2060939E-1,0E0,0E0,0E0,0E0,0E0,0E0,0E0,0E0],"parents":[2147483647,0,0,1,1,2,2,3,3,4,4,5,5,6,6,7,7,11,11,13,13,14,14],"right_children":[2,4,6,8,10,12,14,16,-1,-1,-1,18,-1,20,22,-1,-1,-1,-1,-1,-1,-1,-1],"split_conditions":[-3.840078E-2,4.2112727E-2,-9.217273E-3,-7.431202E-2,1.5721636E0,9.360755E-2,-9.2128986E-1,-2.4900554E-1,9.819975E-4,1.0665449E-3,4.5575355E-3,-2.6966777E-1,9.2821974E-5,-5.415855E-1,9.12002E-1,-1.7702745E-4,-8.500737E-3,1.1480379E-4,-1.6284197E-3,-1.1095947E-3,1.2850793E-3,5.9610746E-5,-5.05192E-4],"split_indices":[7,17,7,0,0,0,1,1,0,0,0,11,0,12,5,0,0,0,0,0,0,0,0],"split_type":[0,0,0,0,0,0,0,0,0,0,0,0,0,0,0,0,0,0,0,0,0,0,0],"sum_hessian":[2.727E3,1.95E2,2.532E3,8.4E1,1.11E2,3.68E2,2.164E3,2.8E1,5.6E1,1.03E2,8E0,2.21E2,1.47E2,2.05E2,1.959E3,2.3E1,5E0,6E1,1.61E2,4E1,1.65E2,1.524E3,4.35E2],"tree_param":{"num_deleted":"0","num_feature":"21","num_nodes":"23","size_leaf_vector":"1"}},{"base_weights":[5.5327173E-4,-8.202926E-2,1.3115589E-3,2.2279586E-4,-3.8364094E-3,3.8248978E-3,-6.188471E-4,-5.6528865E-4,1.7609984E-2,-2.5558396E-4,2.2914892E-4,3.891896E-3,4.690001E-4],"categories":[],"categories_nodes":[],"categories_segments":[],"categories_sizes":[],"default_left":[0,0,0,0,0,0,0,0,0,0,0,0,0],"id":39,"left_children":[1,3,5,-1,-1,7,-1,9,11,-1,-1,-1,-1],"loss_changes":[1.5848316E-1,1.07332855E-1,1.4375326E-1,0E0,0E0,1.451447E-1,0E0,1.1715142E-1,1.1153276E-1,0E0,0E0,0E0,0E0],"parents":[2147483647,0,0,1,1,2,2,5,5,7,7,8,8],"right_children":[2,4,6,-1,-1,8,-1,10,12,-1,-1,-1,-1],"split_conditions":[-1.6640856E0,1.2704517E-1,1.2201115E0,2.2279586E-4,-3.8364094E-3,6.832697E-2,-6.188471E-4,-8.587553E-3,-2.1469872E0,-2.5558396E-4,2.2914892E-4,3.891896E-3,4.690001E-4],"split_indices":[0,16,4,0,0,17,0,10,10,0,0,0,0],"split_type":[0,0,0,0,0,0,0,0,0,0,0,0,0],"sum_hessian":[2.657E3,2.2E1,2.635E3,7E0,1.5E1,2.369E3,2.66E2,1.792E3,5.77E2,9.16E2,8.76E2,8E0,5.69E2],"tree_param":{"num_deleted":"0","num_feature":"21","num_nodes":"13","size_leaf_vector":"1"}},{"base_weights":[5.131424E-4,3.2318825E-5,-2.8094864E-3],"categories":[],"categories_nodes":[],"categories_segments":[],"categories_sizes":[],"default_left":[0,0,0],"id":40,"left_children":[1,-1,-1],"loss_changes":[1.339545E-1,0E0,0E0],"parents":[2147483647,0,0],"right_children":[2,-1,-1],"split_conditions":[3.241842E0,3.2318825E-5,-2.8094864E-3],"split_indices":[3,0,0],"split_type":[0,0,0],"sum_hessian":[2.693E3,2.679E3,1.4E1],"tree_param":{"num_deleted":"0","num_feature":"21","num_nodes":"3","size_leaf_vector":"1"}},{"base_weights":[-6.2764616E-4,-2.5291892E-3,5.088059E-5,6.2258734E-4,-3.3009693E-3,-1.3418614E-2,3.9539128E-3,-8.788015E-4,6.389851E-4,2.475807E-3,8.8605484E-5],"categories":[],"categories_nodes":[],"categories_segments":[],"categories_sizes":[],"default_left":[0,0,0,0,0,0,0,0,0,0,0],"id":41,"left_children":[1,-1,3,5,-1,7,9,-1,-1,-1,-1],"loss_changes":[1.6241233E-1,0E0,1.584235E-1,1.24372214E-1,0E0,2.8140354E-1,1.6185787E-1,0E0,0E0,0E0,0E0],"parents":[2147483647,0,0,2,2,3,3,5,5,6,6],"right_children":[2,-1,4,6,-1,8,10,-1,-1,-1,-1],"split_conditions":[-1.6640856E0,-2.5291892E-3,3.241842E0,-6.9919306E-1,-3.3009693E-3,4.3449305E-2,-8.567093E-1,-8.788015E-4,6.389851E-4,2.475807E-3,8.8605484E-5],"split_indices":[0,0,3,4,0,0,6,0,0,0,0],"split_type":[0,0,0,0,0,0,0,0,0,0,0],"sum_hessian":[2.711E3,2.2E1,2.689E3,2.677E3,1.2E1,5.07E2,2.17E3,3.5E2,1.57E2,2.5E1,2.145E3],"tree_param":{"num_deleted":"0","num_feature":"21","num_nodes":"11","size_leaf_vector":"1"}},{"base_weights":[5.7226134E-4,3.1492836E-3,-1.9180052E-2,2.5366055E-2,1.199628E-3,-1.4466871E-2,-4.09375E-3,5.12755E-3,1.9967787E-2,-2.15777E-2,5.619771E-3,-5.4936295E-6,-1.4113333E-3,-1.8341202E-4,1.4787886E-3,-4.610124E-4,-2.983201E-3,2.7399886E-4,-3.6898933E-4],"categories":[],"categories_nodes":[],"categories_segments":[],"categories_sizes":[],"default_left":[0,0,0,0,0,0,0,0,0,0,0,0,0,0,0,0,0,0,0],"id":42,"left_children":[1,3,5,7,9,11,-1,-1,13,15,17,-1,-1,-1,-1,-1,-1,-1,-1],"loss_changes":[1.3665666E-1,1.0157233E-1,1.537343E-1,1.2678732E-1,2.2183159E-1,1.3440228E-1,0E0,0E0,1.461156E-1,1.5962687E-1,1.17027774E-1,0E0,0E0,0E0,0E0,0E0,0E0,0E0,0E0],"parents":[2147483647,0,0,1,1,2,2,3,3,4,4,5,5,8,8,9,9,10,10],"right_children":[2,4,6,8,10,12,-1,-1,14,16,18,-1,-1,-1,-1,-1,-1,-1,-1],"split_conditions":[1.1256318E0,-3.840078E-2,4.2236862E-1,-2.1469872E0,-9.217273E-3,1.6532934E0,-4.09375E-3,5.12755E-3,-3.3081216E-1,5.314431E-1,6.7916316E-1,-5.4936295E-6,-1.4113333E-3,-1.8341202E-4,1.4787886E-3,-4.610124E-4,-2.983201E-3,2.7399886E-4,-3.6898933E-4],"split_indices":[12,7,8,10,7,3,0,0,10,16,2,0,0,0,0,0,0,0,0],"split_type":[0,0,0,0,0,0,0,0,0,0,0,0,0,0,0,0,0,0,0],"sum_hessian":[2.714E3,2.406E3,3.08E2,1.89E2,2.217E3,2.98E2,1E1,5E0,1.84E2,3.56E2,1.861E3,2.1E2,8.8E1,9.6E1,8.8E1,3.32E2,2.4E1,1.561E3,3E2],"tree_param":{"num_deleted":"0","num_feature":"21","num_nodes":"19","size_leaf_vector":"1"}},{"base_weights":[9.087004E-4,3.4781925E-3,-2.1641493E-2,-8.165648E-2,1.286504E-4,-3.6004033E-2,5.389215E-4,-0E0,-4.254127E-3,-1.4172315E-3,1.8247789E-4],"categories":[],"categories_nodes":[],"categories_segments":[],"categories_sizes":[],"default_left":[0,0,0,0,0,0,0,0,0,0,0],"id":43,"left_children":[1,3,5,7,-1,9,-1,-1,-1,-1,-1],"loss_changes":[1.5621032E-1,1.6173321E-1,1.5888071E-1,1.1471851E-1,0E0,1.0088056E-1,0E0,0E0,0E0,0E0,0E0],"parents":[2147483647,0,0,1,1,2,2,3,3,5,5],"right_children":[2,4,6,8,-1,10,-1,-1,-1,-1,-1],"split_conditions":[1.1644043E0,-1.6640856E0,2.1372638E0,1.2704517E-1,1.286504E-4,2.0274246E0,5.389215E-4,-0E0,-4.254127E-3,-1.4172315E-3,1.8247789E-4],"split_indices":[12,0,2,16,0,16,0,0,0,0,0],"split_type":[0,0,0,0,0,0,0,0,0,0,0],"sum_hessian":[2.725E3,2.451E3,2.74E2,2.1E1,2.43E3,2.03E2,7.1E1,9E0,1.2E1,1.62E2,4.1E1],"tree_param":{"num_deleted":"0","num_feature":"21","num_nodes":"11","size_leaf_vector":"1"}},{"base_weights":[-1.1520848E-4,7.7204583E-3,-6.976187E-3,1.040046E-3,2.528866E-2,-7.335804E-4,-2.2779955E-3,-7.7961865E-3,1.4779263E-2,-7.1808114E-4,3.3664938E-2,1.4963337E-2,-7.5325207E-3,3.5884443E-3,-2.884557E-4,1.0946319E-4,1.5875128E-3,1.5202689E-3,-2.5109987E-4,2.3072794E-4,4.0673143E-3,1.586953E-4,-6.277532E-4],"categories":[],"categories_nodes":[],"categories_segments":[],"categories_sizes":[],"default_left":[0,0,0,0,0,0,0,0,0,0,0,0,0,0,0,0,0,0,0,0,0,0,0],"id":44,"left_children":[1,3,5,7,9,-1,11,13,15,-1,17,19,21,-1,-1,-1,-1,-1,-1,-1,-1,-1,-1],"loss_changes":[1.4373457E-1,1.4310546E-1,1.1493189E-1,1.1068317E-1,1.411428E-1,0E0,1.0219498E-1,1.1692344E-1,1.4654323E-1,0E0,2.1273234E-1,2.1356732E-1,1.5193325E-1,0E0,0E0,0E0,0E0,0E0,0E0,0E0,0E0,0E0,0E0],"parents":[2147483647,0,0,1,1,2,2,3,3,4,4,6,6,7,7,8,8,10,10,11,11,12,12],"right_children":[2,4,6,8,10,-1,12,14,16,-1,18,20,22,-1,-1,-1,-1,-1,-1,-1,-1,-1,-1],"split_conditions":[7.8774415E-2,-9.4538294E-2,-4.781328E-1,4.705881E-2,-5.415855E-1,-7.335804E-4,5.0541077E-2,-3.1005702E0,-6.9884926E-1,-7.1808114E-4,3.3919144E-1,8.826039E-1,-4.654771E-1,3.5884443E-3,-2.884557E-4,1.0946319E-4,1.5875128E-3,1.5202689E-3,-2.5109987E-4,2.3072794E-4,4.0673143E-3,1.586953E-4,-6.277532E-4],"split_indices":[12,11,4,17,12,0,3,12,3,0,2,1,9,0,0,0,0,0,0,0,0,0,0],"split_type":[0,0,0,0,0,0,0,0,0,0,0,0,0,0,0,0,0,0,0,0,0,0,0],"sum_hessian":[2.673E3,1.241E3,1.432E3,9.04E2,3.37E2,2.98E2,1.134E3,5.46E2,3.58E2,4.7E1,2.9E2,2.6E2,8.74E2,6E0,5.4E2,2.8E2,7.8E1,2.08E2,8.2E1,2.47E2,1.3E1,4.43E2,4.31E2],"tree_param":{"num_deleted":"0","num_feature":"21","num_nodes":"23","size_leaf_vector":"1"}},{"base_weights":[-1.1609432E-3,3.7003698E-5,-1.9819451E-2,-1.51952775E-2,-4.076441E-3,-3.253432E-4,-3.101514E-3],"categories":[],"categories_nodes":[],"categories_segments":[],"categories_sizes":[],"default_left":[0,0,0,0,0,0,0],"id":45,"left_children":[1,-1,3,5,-1,-1,-1],"loss_changes":[1.22552745E-1,0E0,1.5027502E-1,1.0332265E-1,0E0,0E0,0E0],"parents":[2147483647,0,0,2,2,3,3],"right_children":[2,-1,4,6,-1,-1,-1],"split_conditions":[1.1256318E0,3.7003698E-5,2.4443285E0,3.241842E0,-4.076441E-3,-3.253432E-4,-3.101514E-3],"split_indices":[12,0,5,3,0,0,0],"split_type":[0,0,0,0,0,0,0],"sum_hessian":[2.7E3,2.389E3,3.11E2,3.01E2,1E1,2.89E2,1.2E1],"tree_param":{"num_deleted":"0","num_feature":"21","num_nodes":"7","size_leaf_vector":"1"}},{"base_weights":[6.008804E-6,6.7857305E-5,-1.9642929E-2,-1.131782E-2,-2.8719234E-3,-1.932184E-4,-3.561065E-3],"categories":[],"categories_nodes":[],"categories_segments":[],"categories_sizes":[],"default_left":[0,0,0,0,0,0,0],"id":46,"left_children":[1,-1,3,5,-1,-1,-1],"loss_changes":[1.1944946E-1,0E0,1.6367441E-1,1.1870261E-1,0E0,0E0,0E0],"parents":[2147483647,0,0,2,2,3,3],"right_children":[2,-1,4,6,-1,-1,-1],"split_conditions":[1.1644043E0,6.7857305E-5,2.2676702E0,3.241842E0,-2.8719234E-3,-1.932184E-4,-3.561065E-3],"split_indices":[12,0,5,3,0,0,0],"split_type":[0,0,0,0,0,0,0],"sum_hessian":[2.732E3,2.456E3,2.76E2,2.51E2,2.5E1,2.42E2,9E0],"tree_param":{"num_deleted":"0","num_feature":"21","num_nodes":"7","size_leaf_vector":"1"}},{"base_weights":[-1.0823349E-4,-1.9949055E-3,6.829405E-4,2.9068084E-3,-3.6851026E-4,-6.48582E-3,1.8391352E-2,2.3235022E-3,-2.7616354E-4,4.4683673E-4,3.8266333E-3],"categories":[],"categories_nodes":[],"categories_segments":[],"categories_sizes":[],"default_left":[0,0,0,0,0,0,0,0,0,0,0],"id":47,"left_children":[1,3,-1,5,-1,7,9,-1,-1,-1,-1],"loss_changes":[1.1517387E-1,1.2776096E-1,0E0,2.4812247E-1,0E0,2.342617E-1,2.3006518E-1,0E0,0E0,0E0,0E0],"parents":[2147483647,0,0,1,1,3,3,5,5,6,6],"right_children":[2,4,-1,6,-1,8,10,-1,-1,-1,-1],"split_conditions":[2.3012362E0,1.739123E-1,6.829405E-4,-2.8751025E-1,-3.6851026E-4,-1.1523443E0,9.2157674E-1,2.3235022E-3,-2.7616354E-4,4.4683673E-4,3.8266333E-3],"split_indices":[9,6,0,6,0,1,1,0,0,0,0],"split_type":[0,0,0,0,0,0,0,0,0,0,0],"sum_hessian":[2.715E3,2.513E3,2.02E2,1.696E3,8.17E2,1.052E3,6.44E2,3.1E1,1.021E3,6.26E2,1.8E1],"tree_param":{"num_deleted":"0","num_feature":"21","num_nodes":"11","size_leaf_vector":"1"}},{"base_weights":[-3.4819075E-4,-2.2646652E-3,6.9498667E-4,2.7593311E-3,-1.2374084E-2,-4.5181443E-3,2.127422E-2,-4.1092392E-2,-6.456704E-3,5.554643E-5,-1.1118005E-3,-3.291684E-4,1.0181125E-3,-2.7821339E-3,-6.964374E-4,1.1964092E-4,-6.1825E-4],"categories":[],"categories_nodes":[],"categories_segments":[],"categories_sizes":[],"default_left":[0,0,0,0,0,0,0,0,0,0,0,0,0,0,0,0,0],"id":48,"left_children":[1,3,-1,5,7,9,11,13,15,-1,-1,-1,-1,-1,-1,-1,-1],"loss_changes":[1.2225095E-1,1.3076326E-1,0E0,2.3096727E-1,1.4027603E-1,2.560586E-1,2.003021E-1,1.1828481E-1,1.0713278E-1,0E0,0E0,0E0,0E0,0E0,0E0,0E0,0E0],"parents":[2147483647,0,0,1,1,3,3,4,4,5,5,6,6,7,7,8,8],"right_children":[2,4,-1,6,8,10,12,14,16,-1,-1,-1,-1,-1,-1,-1,-1],"split_conditions":[2.3012362E0,1.739123E-1,6.9498667E-4,1.21956795E-1,-1.0033152E0,7.244928E-1,-6.511246E-1,3.1363705E-1,1.1561618E0,5.554643E-5,-1.1118005E-3,-3.291684E-4,1.0181125E-3,-2.7821339E-3,-6.964374E-4,1.1964092E-4,-6.1825E-4],"split_indices":[9,6,0,15,0,2,3,10,3,0,0,0,0,0,0,0,0],"split_type":[0,0,0,0,0,0,0,0,0,0,0,0,0,0,0,0,0],"sum_hessian":[2.757E3,2.554E3,2.03E2,1.7E3,8.54E2,1.217E3,4.83E2,1.42E2,7.12E2,1.016E3,2.01E2,1.34E2,3.49E2,3.4E1,1.08E2,4.06E2,3.06E2],"tree_param":{"num_deleted":"0","num_feature":"21","num_nodes":"17","size_leaf_vector":"1"}},{"base_weights":[-4.1703563E-4,-8.192732E-3,6.9370214E-3,-3.008558E-3,-1.8631616E-4,3.3691812E-3,3.902226E-2,5.6283223E-3,-2.1283706E-3,1.2689437E-1,3.9978288E-4,3.718945E-3,9.5451716E-5,5.2591297E-3,-4.6938108E-4],"categories":[],"categories_nodes":[],"categories_segments":[],"categories_sizes":[],"default_left":[0,0,0,0,0,0,0,0,0,0,0,0,0,0,0],"id":49,"left_children":[1,3,5,-1,-1,7,9,11,-1,13,-1,-1,-1,-1,-1],"loss_changes":[1.5640612E-1,2.3242548E-1,1.5566544E-1,0E0,0E0,2.0574196E-1,2.9362965E-1,3.421343E-1,0E0,2.2571984E-1,0E0,0E0,0E0,0E0,0E0],"parents":[2147483647,0,0,1,1,2,2,5,5,6,6,7,7,9,9],"right_children":[2,4,6,-1,-1,8,10,12,-1,14,-1,-1,-1,-1,-1],"split_conditions":[-8.587553E-3,-1.0702226E0,6.028333E-1,-3.008558E-3,-1.8631616E-4,3.5423097E-1,-2.639564E-2,1.0858503E-1,-2.1283706E-3,7.1687967E-1,3.9978288E-4,3.718945E-3,9.5451716E-5,5.2591297E-3,-4.6938108E-4],"split_indices":[10,1,1,0,0,11,15,10,0,4,0,0,0,0,0],"split_type":[0,0,0,0,0,0,0,0,0,0,0,0,0,0,0],"sum_hessian":[2.731E3,1.334E3,1.397E3,2.6E1,1.308E3,1.261E3,1.36E2,1.226E3,3.5E1,2.9E1,1.07E2,2.3E1,1.203E3,2.2E1,7E0],"tree_param":{"num_deleted":"0","num_feature":"21","num_nodes":"15","size_leaf_vector":"1"}},{"base_weights":[1.1811153E-3,-2.2634435E-3,1.8689539E-3,4.8534307E-3,-1.2534037E-2,-7.8767735E-5,2.9362446E-2,-8.207057E-4,2.2556851E-4,6.725838E-4,-9.463768E-5,3.3409547E-3,6.518922E-4],"categories":[],"categories_nodes":[],"categories_segments":[],"categories_sizes":[],"default_left":[0,0,0,0,0,0,0,0,0,0,0,0,0],"id":50,"left_children":[1,-1,3,5,7,9,11,-1,-1,-1,-1,-1,-1],"loss_changes":[1.36572E-1,0E0,1.15611255E-1,2.746764E-1,1.3862348E-1,1.2748006E-1,2.2211349E-1,0E0,0E0,0E0,0E0,0E0,0E0],"parents":[2147483647,0,0,2,2,3,3,4,4,5,5,6,6],"right_children":[2,-1,4,6,8,10,12,-1,-1,-1,-1,-1,-1],"split_conditions":[-1.6640856E0,-2.2634435E-3,9.12002E-1,4.0099955E-1,1.6390522E-1,-8.94844E-1,-1.4612747E0,-8.207057E-4,2.2556851E-4,6.725838E-4,-9.463768E-5,3.3409547E-3,6.518922E-4],"split_indices":[0,0,5,5,7,1,0,0,0,0,0,0,0],"split_type":[0,0,0,0,0,0,0,0,0,0,0,0,0],"sum_hessian":[2.727E3,2.2E1,2.705E3,2.247E3,4.58E2,1.868E3,3.79E2,2.66E2,1.92E2,2.2E2,1.648E3,3E1,3.49E2],"tree_param":{"num_deleted":"0","num_feature":"21","num_nodes":"13","size_leaf_vector":"1"}},{"base_weights":[1.3088647E-3,2.2151512E-3,-4.6631876E-2,-8.288399E-3,5.9283474E-3,-8.022361E-6,-2.9060587E-3,-2.1209633E-2,1.4595488E-2,-2.7598985E-3,6.83122E-3,-5.002004E-4,-8.573751E-3,2.5391404E-3,1.1889991E-4,2.1692975E-3,1.7671075E-4],"categories":[],"categories_nodes":[],"categories_segments":[],"categories_sizes":[],"default_left":[0,0,0,0,0,0,0,0,0,0,0,0,0,0,0,0,0],"id":51,"left_children":[1,3,5,7,9,-1,-1,11,13,-1,15,-1,-1,-1,-1,-1,-1],"loss_changes":[1.1275411E-1,1.0308975E-1,1.020621E-1,2.0351729E-1,1.6575655E-1,0E0,0E0,4.9428535E-1,1.7325668E-1,0E0,1.1176333E-1,0E0,0E0,0E0,0E0,0E0,0E0],"parents":[2147483647,0,0,1,1,2,2,3,3,4,4,7,7,8,8,10,10],"right_children":[2,4,6,8,10,-1,-1,12,14,-1,16,-1,-1,-1,-1,-1,-1],"split_conditions":[2.2676702E0,-5.2437377E-1,1.1644043E0,4.3449305E-2,-1.2010605E0,-8.022361E-6,-2.9060587E-3,2.5431328E0,1.132336E-1,-2.7598985E-3,-8.567093E-1,-5.002004E-4,-8.573751E-3,2.5391404E-3,1.1889991E-4,2.1692975E-3,1.7671075E-4],"split_indices":[5,4,12,0,1,0,0,1,0,0,6,0,0,0,0,0,0],"split_type":[0,0,0,0,0,0,0,0,0,0,0,0,0,0,0,0,0],"sum_hessian":[2.694E3,2.647E3,4.7E1,6.84E2,1.963E3,2.6E1,2.1E1,4.4E2,2.44E2,1.6E1,1.947E3,4.34E2,6E0,3E1,2.14E2,2.5E1,1.922E3],"tree_param":{"num_deleted":"0","num_feature":"21","num_nodes":"17","size_leaf_vector":"1"}},{"base_weights":[1.5014115E-4,3.644951E-3,-1.1966134E-2,-7.3127536E-4,6.072927E-3,2.2788932E-5,-1.2887137E-3,-3.5294895E-3,1.4679026E-2,-3.1713274E-4,3.94017E-4,1.5318042E-3,1.8245727E-4],"categories":[],"categories_nodes":[],"categories_segments":[],"categories_sizes":[],"default_left":[0,0,0,0,0,0,0,0,0,0,0,0,0],"id":52,"left_children":[1,3,5,-1,7,-1,-1,9,11,-1,-1,-1,-1],"loss_changes":[1.1519193E-1,1.4343388E-1,2.4364349E-1,0E0,1.6371834E-1,0E0,0E0,1.0841924E-1,3.2019717E-1,0E0,0E0,0E0,0E0],"parents":[2147483647,0,0,1,1,2,2,4,4,7,7,8,8],"right_children":[2,4,6,-1,8,-1,-1,10,12,-1,-1,-1,-1],"split_conditions":[6.6070753E-1,-6.0909706E-1,-7.262696E-1,-7.3127536E-4,-6.9884926E-1,2.2788932E-5,-1.2887137E-3,5.552517E-2,-4.919585E-1,-3.1713274E-4,3.94017E-4,1.5318042E-3,1.8245727E-4],"split_indices":[11,10,10,0,3,0,0,16,16,0,0,0,0],"split_type":[0,0,0,0,0,0,0,0,0,0,0,0,0],"sum_hessian":[2.738E3,2.132E3,6.06E2,1.66E2,1.966E3,4.28E2,1.78E2,9.24E2,1.042E3,6.54E2,2.7E2,1.96E2,8.46E2],"tree_param":{"num_deleted":"0","num_feature":"21","num_nodes":"13","size_leaf_vector":"1"}},{"base_weights":[3.2627658E-4,2.4863314E-3,-1.75227E-2,1.9835348E-3,3.1533064E-3,-2.9321142E-2,4.5239183E-4,-4.8017264E-5,1.342326E-2,-1.3145042E-3,4.6782827E-4,4.8812294E-6,1.1654048E-3],"categories":[],"categories_nodes":[],"categories_segments":[],"categories_sizes":[],"default_left":[0,0,0,0,0,0,0,0,0,0,0,0,0],"id":53,"left_children":[1,3,5,7,-1,9,-1,-1,11,-1,-1,-1,-1],"loss_changes":[1.0456554E-1,1.15963936E-1,1.1418639E-1,1.0161578E-1,0E0,1.4478965E-1,0E0,0E0,1.9533686E-1,0E0,0E0,0E0,0E0],"parents":[2147483647,0,0,1,1,2,2,3,3,5,5,8,8],"right_children":[2,4,6,8,-1,10,-1,-1,12,-1,-1,-1,-1],"split_conditions":[1.1644043E0,1.8368807E0,2.1372638E0,3.7456286E-1,3.1533064E-3,2.0274246E0,4.5239183E-4,-4.8017264E-5,2.0705592E-2,-1.3145042E-3,4.6782827E-4,4.8812294E-6,1.1654048E-3],"split_indices":[12,10,2,1,0,16,0,0,10,0,0,0,0],"split_type":[0,0,0,0,0,0,0,0,0,0,0,0,0],"sum_hessian":[2.749E3,2.458E3,2.91E2,2.448E3,1E1,2.16E2,7.5E1,1.858E3,5.9E2,1.65E2,5.1E1,3.91E2,1.99E2],"tree_param":{"num_deleted":"0","num_feature":"21","num_nodes":"13","size_leaf_vector":"1"}},{"base_weights":[4.4961485E-5,-2.002297E-3,1.9387251E-5],"categories":[],"categories_nodes":[],"categories_segments":[],"categories_sizes":[],"default_left":[0,0,0],"id":54,"left_children":[1,-1,-1],"loss_changes":[1.03587985E-1,0E0,0E0],"parents":[2147483647,0,0],"right_children":[2,-1,-1],"split_conditions":[-1.6640856E0,-2.002297E-3,1.9387251E-5],"split_indices":[0,0,0],"split_type":[0,0,0],"sum_hessian":[2.742E3,2.2E1,2.72E3],"tree_param":{"num_deleted":"0","num_feature":"21","num_nodes":"3","size_leaf_vector":"1"}},{"base_weights":[1.8285915E-4],"categories":[],"categories_nodes":[],"categories_segments":[],"categories_sizes":[],"default_left":[0],"id":55,"left_children":[-1],"loss_changes":[0E0],"parents":[2147483647],"right_children":[-1],"split_conditions":[5.485774E-6],"split_indices":[0],"split_type":[0],"sum_hessian":[2.682E3],"tree_param":{"num_deleted":"0","num_feature":"21","num_nodes":"1","size_leaf_vector":"1"}}]},"name":"gbtree"},"learner_model_param":{"base_score":"[1.4520513E-2]","boost_from_average":"1","num_class":"0","num_feature":"21","num_target":"1"},"objective":{"name":"reg:squarederror","reg_loss_param":{"scale_pos_weight":"1"}}},"version":[3,2,0]}