{"learner":{"attributes":{"best_iteration":"29","best_score":"0.04025872313266338","scikit_learn":"{\"_estimator_type\": \"regressor\"}"},"feature_names":[],"feature_types":[],"gradient_booster":{"model":{"cats":{"enc":[],"feature_segments":[],"sorted_idx":[]},"gbtree_model_param":{"num_parallel_tree":"1","num_trees":"70"},"iteration_indptr":[0,1,2,3,4,5,6,7,8,9,10,11,12,13,14,15,16,17,18,19,20,21,22,23,24,25,26,27,28,29,30,31,32,33,34,35,36,37,38,39,40,41,42,43,44,45,46,47,48,49,50,51,52,53,54,55,56,57,58,59,60,61,62,63,64,65,66,67,68,69,70],"tree_info":[0,0,0,0,0,0,0,0,0,0,0,0,0,0,0,0,0,0,0,0,0,0,0,0,0,0,0,0,0,0,0,0,0,0,0,0,0,0,0,0,0,0,0,0,0,0,0,0,0,0,0,0,0,0,0,0,0,0,0,0,0,0,0,0,0,0,0,0,0,0],"trees":[{"base_weights":[-4.864304E-4,1.084336E-3,-2.319388E-2,1.9211627E-3,-3.7195433E-2,-3.662783E-2,-0E0,1.3568811E-3,2.9485694E-3,-4.939782E-4,-2.7484093E-3,-1.3897693E-3,-5.9792776E-2,-4.6214435E-2,2.1688454E-3,-4.118611E-3,-8.594067E-4,-4.399168E-3,3.3845575E-4,7.666449E-5,1.5137362E-3],"categories":[],"categories_nodes":[],"categories_segments":[],"categories_sizes":[],"default_left":[0,0,0,0,0,0,0,0,0,0,0,0,0,0,0,0,0,0,0,0,0],"id":0,"left_children":[1,3,5,7,9,11,-1,13,-1,-1,-1,-1,15,17,19,-1,-1,-1,-1,-1,-1],"loss_changes":[7.026067E-2,5.6300767E-2,4.075081E-2,5.4068983E-2,1.4691509E-2,1.146476E-2,0E0,6.577202E-2,0E0,0E0,0E0,0E0,1.4034852E-2,6.743087E-2,2.929805E-2,0E0,0E0,0E0,0E0,0E0,0E0],"parents":[2147483647,0,0,1,1,2,2,3,3,4,4,5,5,7,7,12,12,13,13,14,14],"right_children":[2,4,6,8,10,12,-1,14,-1,-1,-1,-1,16,18,20,-1,-1,-1,-1,-1,-1],"split_conditions":[1.4918574E0,2.409317E0,1.2341287E0,5.583442E0,4.2852303E-1,1.1787183E0,-0E0,-1.6353045E0,2.9485694E-3,-4.939782E-4,-2.7484093E-3,-1.3897693E-3,9.8703355E-1,6.4462066E-2,1.833835E0,-4.118611E-3,-8.594067E-4,-4.399168E-3,3.3845575E-4,7.666449E-5,1.5137362E-3],"split_indices":[15,16,1,19,19,12,0,4,0,0,0,0,1,0,1,0,0,0,0,0,0],"split_type":[0,0,0,0,0,0,0,0,0,0,0,0,0,0,0,0,0,0,0,0,0],"sum_hessian":[1.938E3,1.811E3,1.27E2,1.774E3,3.7E1,8.1E1,4.6E1,1.758E3,1.6E1,1.6E1,2.1E1,6.1E1,2E1,2.8E1,1.73E3,1.2E1,8E0,1.6E1,1.2E1,1.694E3,3.6E1],"tree_param":{"num_deleted":"0","num_feature":"20","num_nodes":"21","size_leaf_vector":"1"}},{"base_weights":[-3.502435E-4,-9.4522414E-4,3.0929751E-3,4.6738086E-4,-2.3790358E-2,1.2767841E-3,-3.2650176E-2,-3.412745E-2,8.90364E-3,-7.2475914E-3,3.5155567E-3,-5.7635555E-4,-2.4852946E-3,-1.0649491E-3,-5.121002E-2,-2.3971136E-4,1.7383391E-3,-1.0945568E-3,-4.2575142E-5,-6.342165E-5,3.9359825E-4,-3.531472E-3,-1.0324264E-3],"categories":[],"categories_nodes":[],"categories_segments":[],"categories_sizes":[],"default_left":[0,0,0,0,0,0,0,0,0,0,0,0,0,0,0,0,0,0,0,0,0,0,0],"id":1,"left_children":[1,3,-1,5,7,9,11,13,15,17,19,-1,-1,-1,21,-1,-1,-1,-1,-1,-1,-1,-1],"loss_changes":[6.843827E-2,6.292255E-2,0E0,4.671541E-2,3.977169E-2,3.3404678E-2,1.1603024E-2,1.500421E-2,1.097012E-2,3.2712147E-2,2.9481325E-2,0E0,0E0,0E0,1.5775673E-2,0E0,0E0,0E0,0E0,0E0,0E0,0E0,0E0],"parents":[2147483647,0,0,1,1,3,3,4,4,5,5,6,6,7,7,8,8,9,9,10,10,14,14],"right_children":[2,4,-1,6,8,10,12,14,16,18,20,-1,-1,-1,22,-1,-1,-1,-1,-1,-1,-1,-1],"split_conditions":[5.583442E0,2.0032706E0,3.0929751E-3,2.409317E0,1.2995754E0,-6.0335547E-1,4.2852303E-1,6.1317253E-1,1.0630816E0,3.0913274E-3,-4.9820822E-1,-5.7635555E-4,-2.4852946E-3,-1.0649491E-3,1.0217605E0,-2.3971136E-4,1.7383391E-3,-1.0945568E-3,-4.2575142E-5,-6.342165E-5,3.9359825E-4,-3.531472E-3,-1.0324264E-3],"split_indices":[19,15,0,16,1,4,19,2,12,17,1,0,0,0,1,0,0,0,0,0,0,0,0],"split_type":[0,0,0,0,0,0,0,0,0,0,0,0,0,0,0,0,0,0,0,0,0,0,0],"sum_hessian":[1.93E3,1.913E3,1.7E1,1.8E3,1.13E2,1.759E3,4.1E1,8.7E1,2.6E1,3.61E2,1.398E3,2E1,2.1E1,5.2E1,3.5E1,1.6E1,1E1,1.07E2,2.54E2,6.61E2,7.37E2,2E1,1.5E1],"tree_param":{"num_deleted":"0","num_feature":"20","num_nodes":"23","size_leaf_vector":"1"}},{"base_weights":[1.7552846E-5,-5.401909E-4,2.9948028E-3,-1.53146945E-2,1.6259676E-3,-5.6515664E-2,-6.6716745E-3,3.1215264E-3,-2.1461992E-2,6.6470966E-4,-3.4955104E-3,6.1993995E-3,-1.8549304E-2,2.7100403E-2,2.1490592E-3,-1.673032E-3,-0E0,7.882449E-4,-1.4706092E-3,-1.0954536E-3,1.8635419E-3,2.5737458E-3,7.198613E-4,7.8606055E-5,2.1607208E-3,3.349655E-4,-2.225376E-3],"categories":[],"categories_nodes":[],"categories_segments":[],"categories_sizes":[],"default_left":[0,0,0,0,0,0,0,0,0,0,0,0,0,0,0,0,0,0,0,0,0,0,0,0,0,0,0],"id":2,"left_children":[1,3,-1,5,7,9,11,13,15,-1,-1,17,19,21,23,-1,25,-1,-1,-1,-1,-1,-1,-1,-1,-1,-1],"loss_changes":[6.692227E-2,6.139231E-2,0E0,8.4074855E-2,5.6141786E-2,4.210095E-2,3.1938512E-2,3.473397E-2,2.5724731E-2,0E0,0E0,3.2421485E-2,1.9988596E-2,1.4449421E-2,3.3158336E-2,0E0,1.032788E-2,0E0,0E0,0E0,0E0,0E0,0E0,0E0,0E0,0E0,0E0],"parents":[2147483647,0,0,1,1,3,3,4,4,5,5,6,6,7,7,8,8,11,11,12,12,13,13,14,14,16,16],"right_children":[2,4,-1,6,8,10,12,14,16,-1,-1,18,20,22,24,-1,26,-1,-1,-1,-1,-1,-1,-1,-1,-1,-1],"split_conditions":[5.583442E0,-9.966162E-1,2.9948028E-3,-2.5673988E-1,1.4918574E0,-4.0790552E-1,-1.182554E0,-8.443509E-1,1.3289596E0,6.6470966E-4,-3.4955104E-3,1.2828068E0,1.833835E0,2.1192262E-1,2.0809302E0,-1.673032E-3,1.4485373E0,7.882449E-4,-1.4706092E-3,-1.0954536E-3,1.8635419E-3,2.5737458E-3,7.198613E-4,7.8606055E-5,2.1607208E-3,3.349655E-4,-2.225376E-3],"split_indices":[19,5,0,16,15,19,5,8,1,0,0,16,1,19,1,0,12,0,0,0,0,0,0,0,0,0,0],"split_type":[0,0,0,0,0,0,0,0,0,0,0,0,0,0,0,0,0,0,0,0,0,0,0,0,0,0,0],"sum_hessian":[1.914E3,1.896E3,1.8E1,2.45E2,1.651E3,4.1E1,2.04E2,1.553E3,9.8E1,6E0,3.5E1,9.6E1,1.08E2,5.8E1,1.495E3,6.3E1,3.5E1,7.7E1,1.9E1,1.03E2,5E0,1.8E1,4E1,1.476E3,1.9E1,3.1E1,4E0],"tree_param":{"num_deleted":"0","num_feature":"20","num_nodes":"27","size_leaf_vector":"1"}},{"base_weights":[-0E0,1.3627905E-3,-2.2819428E-2,7.81112E-4,2.7837455E-3,-1.6024675E-3,4.096371E-4,-3.904693E-2,1.489638E-3,-3.5859626E-3,3.4349898E-4,4.9989094E-4,1.5356634E-2,1.0671424E-4,-7.9553755E-4,2.307958E-3,5.3685E-4],"categories":[],"categories_nodes":[],"categories_segments":[],"categories_sizes":[],"default_left":[0,0,0,0,0,0,0,0,0,0,0,0,0,0,0,0,0],"id":3,"left_children":[1,3,5,7,-1,-1,-1,9,11,-1,-1,13,15,-1,-1,-1,-1],"loss_changes":[6.0943574E-2,5.504815E-2,3.295363E-2,4.935496E-2,0E0,0E0,0E0,4.9245283E-2,2.3695275E-2,0E0,0E0,4.4106565E-2,1.3342615E-2,0E0,0E0,0E0,0E0],"parents":[2147483647,0,0,1,1,2,2,3,3,7,7,8,8,11,11,12,12],"right_children":[2,4,6,8,-1,-1,-1,10,12,-1,-1,14,16,-1,-1,-1,-1],"split_conditions":[2.0032706E0,5.583442E0,1.3289596E0,-1.6353045E0,2.7837455E-3,-1.6024675E-3,4.096371E-4,6.4462066E-2,1.1604482E0,-3.5859626E-3,3.4349898E-4,7.070243E-1,-4.0525106E-1,1.0671424E-4,-7.9553755E-4,2.307958E-3,5.3685E-4],"split_indices":[15,19,1,4,0,0,0,0,19,0,0,19,15,0,0,0,0],"split_type":[0,0,0,0,0,0,0,0,0,0,0,0,0,0,0,0,0],"sum_hessian":[1.942E3,1.832E3,1.1E2,1.814E3,1.8E1,8.6E1,2.4E1,3E1,1.784E3,1.8E1,1.2E1,1.669E3,1.15E2,1.521E3,1.48E2,1.3E1,1.02E2],"tree_param":{"num_deleted":"0","num_feature":"20","num_nodes":"17","size_leaf_vector":"1"}},{"base_weights":[8.300217E-4,2.1753046E-3,-2.0582596E-2,2.9527103E-3,-3.178616E-2,-3.0793691E-2,3.4869704E-4,2.461722E-3,2.7905114E-3,-3.490988E-4,-2.4074863E-3,-9.858093E-4,-4.7180112E-2,-1.2895063E-3,9.479085E-3,-3.2378826E-3,-6.935974E-4,-4.75907E-4,1.2588182E-4,1.6822492E-3,2.972726E-4],"categories":[],"categories_nodes":[],"categories_segments":[],"categories_sizes":[],"default_left":[0,0,0,0,0,0,0,0,0,0,0,0,0,0,0,0,0,0,0,0,0],"id":4,"left_children":[1,3,5,7,9,11,-1,13,-1,-1,-1,-1,15,17,19,-1,-1,-1,-1,-1,-1],"loss_changes":[5.4971315E-2,4.685461E-2,3.295389E-2,4.343362E-2,1.3107777E-2,1.1347063E-2,0E0,4.7100723E-2,0E0,0E0,0E0,0E0,1.4061838E-2,3.643572E-2,5.107787E-2,0E0,0E0,0E0,0E0,0E0,0E0],"parents":[2147483647,0,0,1,1,2,2,3,3,4,4,5,5,7,7,12,12,13,13,14,14],"right_children":[2,4,6,8,10,12,-1,14,-1,-1,-1,-1,16,18,20,-1,-1,-1,-1,-1,-1],"split_conditions":[2.0032706E0,2.409317E0,1.26752E0,5.583442E0,4.2852303E-1,6.1317253E-1,3.4869704E-4,5.7940055E-2,2.7905114E-3,-3.490988E-4,-2.4074863E-3,-9.858093E-4,1.0217605E0,-5.509952E-1,-5.70055E-1,-3.2378826E-3,-6.935974E-4,-4.75907E-4,1.2588182E-4,1.6822492E-3,2.972726E-4],"split_indices":[15,16,1,19,19,2,0,7,0,0,0,0,1,2,6,0,0,0,0,0,0],"split_type":[0,0,0,0,0,0,0,0,0,0,0,0,0,0,0,0,0,0,0,0,0],"sum_hessian":[1.939E3,1.827E3,1.12E2,1.788E3,3.9E1,8.3E1,2.9E1,1.773E3,1.5E1,1.7E1,2.2E1,5.2E1,3.1E1,1.151E3,6.22E2,1.9E1,1.2E1,3.68E2,7.83E2,7.7E1,5.45E2],"tree_param":{"num_deleted":"0","num_feature":"20","num_nodes":"21","size_leaf_vector":"1"}},{"base_weights":[-5.22227E-4,1.7364304E-4,-1.3637879E-3,1.0703177E-3,-1.7497713E-2,-8.021463E-4,8.735369E-3,-1.4063404E-3,6.278096E-4,-1.2101704E-3,2.5361592E-3,2.0950055E-3,2.1172611E-2,-5.1775825E-4,7.946027E-5,4.4692666E-4,-4.0520928E-4,1.4965403E-3,2.8959048E-4],"categories":[],"categories_nodes":[],"categories_segments":[],"categories_sizes":[],"default_left":[0,0,0,0,0,0,0,0,0,0,0,0,0,0,0,0,0,0,0],"id":5,"left_children":[1,3,-1,5,7,9,11,-1,-1,13,-1,15,17,-1,-1,-1,-1,-1,-1],"loss_changes":[3.7837446E-2,2.9429046E-2,0E0,2.65146E-2,2.9545514E-2,2.8196905E-2,2.8752519E-2,0E0,0E0,3.750293E-2,0E0,1.6794667E-2,1.4763635E-2,0E0,0E0,0E0,0E0,0E0,0E0],"parents":[2147483647,0,0,1,1,3,3,4,4,5,5,6,6,9,9,11,11,12,12],"right_children":[2,4,-1,6,8,10,12,-1,-1,14,-1,16,18,-1,-1,-1,-1,-1,-1],"split_conditions":[2.409317E0,2.0032706E0,-1.3637879E-3,4.4445983E-1,1.2995754E0,5.8154044E0,4.6238917E-1,-1.4063404E-3,6.278096E-4,-6.0335547E-1,2.5361592E-3,2.4484448E-2,1.1986341E0,-5.1775825E-4,7.946027E-5,4.4692666E-4,-4.0520928E-4,1.4965403E-3,2.8959048E-4],"split_indices":[16,15,0,15,1,1,5,0,0,4,0,4,15,0,0,0,0,0,0],"split_type":[0,0,0,0,0,0,0,0,0,0,0,0,0,0,0,0,0,0,0],"sum_hessian":[1.959E3,1.908E3,5.1E1,1.819E3,8.9E1,1.457E3,3.62E2,6.7E1,2.2E1,1.447E3,1E1,2.39E2,1.23E2,3.43E2,1.104E3,1.46E2,9.3E1,7.6E1,4.7E1],"tree_param":{"num_deleted":"0","num_feature":"20","num_nodes":"19","size_leaf_vector":"1"}},{"base_weights":[-0E0,1.2599693E-3,-2.2055417E-2,8.0783904E-4,2.3997158E-3,-3.3703797E-2,-9.244605E-3,-1.1370157E-2,2.6072874E-3,-0E0,-2.087509E-3,8.3290663E-4,-2.4449775E-2,-4.6224758E-2,-2.7550643E-3,-1.579471E-3,7.180854E-3,-3.6028303E-2,3.601932E-4,6.657438E-4,-2.8487642E-3,1.7425214E-4,-1.5377514E-3,1.6430474E-4,-3.2525335E-4,7.3148235E-4,1.2792338E-4,-4.7320165E-4,-2.8777246E-3],"categories":[],"categories_nodes":[],"categories_segments":[],"categories_sizes":[],"default_left":[0,0,0,0,0,0,0,0,0,0,0,0,0,0,0,0,0,0,0,0,0,0,0,0,0,0,0,0,0],"id":6,"left_children":[1,3,5,7,-1,9,11,13,15,-1,-1,-1,17,19,21,23,25,27,-1,-1,-1,-1,-1,-1,-1,-1,-1,-1,-1],"loss_changes":[5.374385E-2,3.628238E-2,1.32908225E-2,3.9404783E-2,0E0,1.2700543E-2,2.1270638E-2,6.670086E-2,3.0683856E-2,0E0,0E0,0E0,1.4215333E-2,3.1045996E-2,3.400289E-2,1.9907482E-2,2.5444534E-2,1.153015E-2,0E0,0E0,0E0,0E0,0E0,0E0,0E0,0E0,0E0,0E0,0E0],"parents":[2147483647,0,0,1,1,2,2,3,3,5,5,6,6,7,7,8,8,12,12,13,13,14,14,15,15,16,16,17,17],"right_children":[2,4,6,8,-1,10,12,14,16,-1,-1,-1,18,20,22,24,26,28,-1,-1,-1,-1,-1,-1,-1,-1,-1,-1,-1],"split_conditions":[2.0032706E0,5.583442E0,4.199833E-1,-1.0313135E0,2.3997158E-3,-8.921965E-1,6.9073044E-2,-2.5673988E-1,3.615812E-2,-0E0,-2.087509E-3,8.3290663E-4,8.277609E-1,-4.0790552E-1,-1.0785234E0,3.3893605E-4,2.7617617E-2,-1.343238E-1,3.601932E-4,6.657438E-4,-2.8487642E-3,1.7425214E-4,-1.5377514E-3,1.6430474E-4,-3.2525335E-4,7.3148235E-4,1.2792338E-4,-4.7320165E-4,-2.8777246E-3],"split_indices":[15,19,19,5,0,0,7,16,7,0,0,0,2,19,5,7,4,0,0,0,0,0,0,0,0,0,0,0,0],"split_type":[0,0,0,0,0,0,0,0,0,0,0,0,0,0,0,0,0,0,0,0,0,0,0,0,0,0,0,0,0],"sum_hessian":[1.937E3,1.833E3,1.04E2,1.817E3,1.6E1,5.2E1,5.2E1,2.3E2,1.587E3,1.1E1,4.1E1,1.8E1,3.4E1,4.4E1,1.86E2,8.23E2,7.64E2,2.6E1,8E0,6E0,3.8E1,1.51E2,3.5E1,4.09E2,4.14E2,2.88E2,4.76E2,1.3E1,1.3E1],"tree_param":{"num_deleted":"0","num_feature":"20","num_nodes":"29","size_leaf_vector":"1"}},{"base_weights":[-4.1945314E-4,4.0347912E-4,-1.4740808E-3,1.9838504E-2,-3.0722073E-4,-2.4516995E-3,2.5182122E-2,-8.590041E-3,1.5243769E-3,1.8811971E-3,1.4835193E-4,-2.8892898E-3,-2.1464992E-2,9.608302E-3,-1.1048535E-3,9.114234E-5,-1.2182192E-3,-5.2960665E-4,-2.349653E-3,7.3542463E-4,-1.1806615E-4,5.377567E-6,-1.2443486E-3],"categories":[],"categories_nodes":[],"categories_segments":[],"categories_sizes":[],"default_left":[0,0,0,0,0,0,0,0,0,0,0,0,0,0,0,0,0,0,0,0,0,0,0],"id":7,"left_children":[1,3,-1,5,7,-1,9,11,13,-1,-1,15,17,19,21,-1,-1,-1,-1,-1,-1,-1,-1],"loss_changes":[4.820405E-2,2.7216397E-2,0E0,2.5002765E-2,2.8129969E-2,0E0,1.6018573E-2,2.344933E-2,3.2195337E-2,0E0,0E0,2.5081562E-2,2.476696E-2,2.3313817E-2,3.3634808E-2,0E0,0E0,0E0,0E0,0E0,0E0,0E0,0E0],"parents":[2147483647,0,0,1,1,3,3,4,4,6,6,7,7,8,8,11,11,12,12,13,13,14,14],"right_children":[2,4,-1,6,8,-1,10,12,14,-1,-1,16,18,20,22,-1,-1,-1,-1,-1,-1,-1,-1],"split_conditions":[2.409317E0,-2.0205636E0,-1.4740808E-3,-3.165078E-1,-6.0335547E-1,-2.4516995E-3,4.4232417E-2,-7.337286E-1,-2.1096064E-1,1.8811971E-3,1.4835193E-4,1.5963097E-1,6.1317253E-1,-1.0602209E-2,1.4485373E0,9.114234E-5,-1.2182192E-3,-5.2960665E-4,-2.349653E-3,7.3542463E-4,-1.1806615E-4,5.377567E-6,-1.2443486E-3],"split_indices":[16,12,0,10,4,0,17,6,4,0,0,8,2,8,12,0,0,0,0,0,0,0,0],"split_type":[0,0,0,0,0,0,0,0,0,0,0,0,0,0,0,0,0,0,0,0,0,0,0],"sum_hessian":[1.954E3,1.899E3,5.5E1,6.9E1,1.83E3,4E0,6.5E1,3.36E2,1.494E3,4E1,2.5E1,2.36E2,1E2,3.71E2,1.123E3,1.92E2,4.4E1,7.2E1,2.8E1,2.63E2,1.08E2,1.067E3,5.6E1],"tree_param":{"num_deleted":"0","num_feature":"20","num_nodes":"23","size_leaf_vector":"1"}},{"base_weights":[3.1835734E-5,1.1267953E-3,-1.7170511E-2,-3.0301407E-3,1.4732229E-3,-2.8865688E-2,-5.6668366E-3,1.0846775E-3,2.0622115E-3,-3.0606007E-4,-2.1314663E-3,-2.3918193E-2,8.157246E-4,-9.935354E-3,2.541168E-3,-1.4323925E-3,-2.5717712E-3,8.099408E-4,-7.771122E-4,1.2214569E-3,8.492817E-5,9.769339E-4,-1.3548579E-3],"categories":[],"categories_nodes":[],"categories_segments":[],"categories_sizes":[],"default_left":[0,0,0,0,0,0,0,0,0,0,0,0,0,0,0,0,0,0,0,0,0,0,0],"id":8,"left_children":[1,3,5,-1,7,9,11,13,-1,-1,-1,15,-1,17,19,21,-1,-1,-1,-1,-1,-1,-1],"loss_changes":[3.609755E-2,3.6532503E-2,1.3596132E-2,0E0,2.6224872E-2,1.4493056E-2,2.4847228E-2,2.8846925E-2,0E0,0E0,0E0,1.8666541E-2,0E0,3.064485E-2,2.8393604E-2,1.1676106E-2,0E0,0E0,0E0,0E0,0E0,0E0,0E0],"parents":[2147483647,0,0,1,1,2,2,4,4,5,5,6,6,7,7,11,11,13,13,14,14,15,15],"right_children":[2,4,6,-1,8,10,12,14,-1,-1,-1,16,-1,18,20,22,-1,-1,-1,-1,-1,-1,-1],"split_conditions":[2.0032706E0,-2.8685746E0,4.199833E-1,-3.0301407E-3,5.583442E0,-3.9210075E-1,1.1660681E0,-1.0313135E0,2.0622115E-3,-3.0606007E-4,-2.1314663E-3,-1.1361724E-1,8.157246E-4,-1.4222813E0,-8.443509E-1,1.6707062E0,-2.5717712E-3,8.099408E-4,-7.771122E-4,1.2214569E-3,8.492817E-5,9.769339E-4,-1.3548579E-3],"split_indices":[15,6,19,0,19,19,0,5,0,0,0,0,0,9,8,19,0,0,0,0,0,0,0],"split_type":[0,0,0,0,0,0,0,0,0,0,0,0,0,0,0,0,0,0,0,0,0,0,0],"sum_hessian":[1.958E3,1.844E3,1.14E2,9E0,1.835E3,5.4E1,6E1,1.819E3,1.6E1,2.2E1,3.2E1,3.4E1,2.6E1,2.08E2,1.611E3,2E1,1.4E1,3.5E1,1.73E2,5.7E1,1.554E3,1E1,1E1],"tree_param":{"num_deleted":"0","num_feature":"20","num_nodes":"23","size_leaf_vector":"1"}},{"base_weights":[4.677011E-5,2.3819156E-2,-6.595509E-4,7.92091E-2,1.0271703E-2,-1.0755594E-3,2.2887567E-3,1.12880545E-4,5.158626E-3,-5.8262664E-5,1.322756E-3,-1.0877298E-2,3.723158E-4,-4.244717E-2,-5.9132813E-3,1.1710143E-3,-1.9931436E-2,8.557384E-4,-3.6436997E-3,5.4965647E-5,-1.3023028E-3,2.9128718E-5,1.1196304E-3,-1.5783608E-3,1.2324081E-3],"categories":[],"categories_nodes":[],"categories_segments":[],"categories_sizes":[],"default_left":[0,0,0,0,0,0,0,0,0,0,0,0,0,0,0,0,0,0,0,0,0,0,0,0,0],"id":9,"left_children":[1,3,5,7,9,11,-1,-1,-1,-1,-1,13,15,17,19,21,23,-1,-1,-1,-1,-1,-1,-1,-1],"loss_changes":[3.342962E-2,3.826673E-2,3.38066E-2,1.3974242E-2,1.0071635E-2,2.6774812E-2,0E0,0E0,0E0,0E0,0E0,3.5459466E-2,2.5141794E-2,6.04984E-2,3.1121854E-2,1.8194305E-2,3.1080024E-2,0E0,0E0,0E0,0E0,0E0,0E0,0E0,0E0],"parents":[2147483647,0,0,1,1,2,2,3,3,4,4,5,5,11,11,12,12,13,13,14,14,15,15,16,16],"right_children":[2,4,6,8,10,12,-1,-1,-1,-1,-1,14,16,18,20,22,24,-1,-1,-1,-1,-1,-1,-1,-1],"split_conditions":[-1.5638037E0,-3.4515315E-1,5.583442E0,2.5362477E-1,8.9694417E-1,-9.966162E-1,2.2887567E-3,1.12880545E-4,5.158626E-3,-5.8262664E-5,1.322756E-3,-1.2496524E0,1.487083E0,-1.6674755E0,-1.0785234E0,1.7243116E0,2.3077135E0,8.557384E-4,-3.6436997E-3,5.4965647E-5,-1.3023028E-3,2.9128718E-5,1.1196304E-3,-1.5783608E-3,1.2324081E-3],"split_indices":[15,19,19,12,5,5,0,0,0,0,0,12,12,11,5,1,11,0,0,0,0,0,0,0,0],"split_type":[0,0,0,0,0,0,0,0,0,0,0,0,0,0,0,0,0,0,0,0,0,0,0,0,0],"sum_hessian":[1.921E3,5.7E1,1.864E3,1E1,4.7E1,1.849E3,1.5E1,3E0,7E0,2.6E1,2.1E1,2.42E2,1.607E3,3.1E1,2.11E2,1.549E3,5.8E1,1E1,2.1E1,1.55E2,5.6E1,1.51E3,3.9E1,4.7E1,1.1E1],"tree_param":{"num_deleted":"0","num_feature":"20","num_nodes":"25","size_leaf_vector":"1"}},{"base_weights":[9.735547E-5,8.719974E-4,-2.3636851E-2,4.6921382E-4,2.1750347E-3,-7.933429E-4,-2.921665E-3,-2.971606E-2,1.0630409E-3,6.997271E-4,-3.1173779E-3,3.8085633E-4,2.0270504E-2,6.1106504E-5,-1.0598045E-3,1.2467396E-3,-6.3523557E-4],"categories":[],"categories_nodes":[],"categories_segments":[],"categories_sizes":[],"default_left":[0,0,0,0,0,0,0,0,0,0,0,0,0,0,0,0,0],"id":10,"left_children":[1,3,5,7,-1,-1,-1,9,11,-1,-1,13,15,-1,-1,-1,-1],"loss_changes":[3.4659464E-2,3.0199938E-2,1.1908323E-2,3.2129467E-2,0E0,0E0,0E0,5.206272E-2,2.3040399E-2,0E0,0E0,3.1279642E-2,1.0075156E-2,0E0,0E0,0E0,0E0],"parents":[2147483647,0,0,1,1,2,2,3,3,7,7,8,8,11,11,12,12],"right_children":[2,4,6,8,-1,-1,-1,10,12,-1,-1,14,16,-1,-1,-1,-1],"split_conditions":[2.409317E0,5.583442E0,6.88356E-1,-1.6353045E0,2.1750347E-3,-7.933429E-4,-2.921665E-3,-1.7235811E0,1.7243116E0,6.997271E-4,-3.1173779E-3,2.038069E0,2.2744565E0,6.1106504E-5,-1.0598045E-3,1.2467396E-3,-6.3523557E-4],"split_indices":[16,19,19,4,0,0,0,3,1,0,0,15,5,0,0,0,0],"split_type":[0,0,0,0,0,0,0,0,0,0,0,0,0,0,0,0,0],"sum_hessian":[1.946E3,1.887E3,5.9E1,1.871E3,1.6E1,5E1,9E0,3.4E1,1.837E3,1.4E1,2E1,1.777E3,6E1,1.713E3,6.4E1,5.4E1,6E0],"tree_param":{"num_deleted":"0","num_feature":"20","num_nodes":"17","size_leaf_vector":"1"}},{"base_weights":[-1.1482188E-4,6.160208E-4,-1.2118411E-3,1.9454877E-4,1.9959284E-3,3.0016964E-3,-4.569203E-3,4.371764E-3,-1.6181085E-2,-7.3020547E-3,5.826366E-3,-1.1873066E-3,2.7357024E-4,-1.714039E-3,9.009951E-4,-1.0582054E-3,-2.706119E-4,-1.0443277E-4,1.5002994E-3],"categories":[],"categories_nodes":[],"categories_segments":[],"categories_sizes":[],"default_left":[0,0,0,0,0,0,0,0,0,0,0,0,0,0,0,0,0,0,0],"id":11,"left_children":[1,3,-1,5,-1,7,9,11,13,15,17,-1,-1,-1,-1,-1,-1,-1,-1],"loss_changes":[3.5045743E-2,2.8842634E-2,0E0,2.459416E-2,0E0,3.0128807E-2,1.9342525E-2,3.293085E-2,4.785848E-2,1.2773247E-2,2.7742257E-2,0E0,0E0,0E0,0E0,0E0,0E0,0E0,0E0],"parents":[2147483647,0,0,1,1,3,3,5,5,6,6,7,7,8,8,9,9,10,10],"right_children":[2,4,-1,6,-1,8,10,12,14,16,18,-1,-1,-1,-1,-1,-1,-1,-1],"split_conditions":[2.409317E0,5.583442E0,-1.2118411E-3,4.2048715E-2,1.9959284E-3,1.4485373E0,9.3848723E-1,-3.95018E-2,2.2386532E0,-8.6486506E-1,8.179115E-1,-1.1873066E-3,2.7357024E-4,-1.714039E-3,9.009951E-4,-1.0582054E-3,-2.706119E-4,-1.0443277E-4,1.5002994E-3],"split_indices":[16,19,0,8,0,12,5,17,2,15,16,0,0,0,0,0,0,0,0],"split_type":[0,0,0,0,0,0,0,0,0,0,0,0,0,0,0,0,0,0,0],"sum_hessian":[1.92E3,1.862E3,5.8E1,1.844E3,1.8E1,1.167E3,6.77E2,1.092E3,7.5E1,5.4E2,1.37E2,3.9E1,1.053E3,5E1,2.5E1,6.1E1,4.79E2,1.02E2,3.5E1],"tree_param":{"num_deleted":"0","num_feature":"20","num_nodes":"19","size_leaf_vector":"1"}},{"base_weights":[-2.186796E-4,9.2391006E-4,-1.6789945E-2,-2.840767E-3,1.2568134E-3,-1.3268519E-3,-0E0,8.5555686E-4,2.074383E-3,-3.4542018E-4,1.6942592E-3,-7.4751684E-3,3.012041E-3,-5.352837E-4,6.470118E-4,6.691907E-4,5.6699046E-5],"categories":[],"categories_nodes":[],"categories_segments":[],"categories_sizes":[],"default_left":[0,0,0,0,0,0,0,0,0,0,0,0,0,0,0,0,0],"id":12,"left_children":[1,3,5,-1,7,-1,9,11,-1,-1,-1,13,15,-1,-1,-1,-1],"loss_changes":[3.7391316E-2,3.1962354E-2,2.145093E-2,0E0,2.6865793E-2,0E0,1.1597202E-2,3.1774923E-2,0E0,0E0,0E0,2.3799215E-2,2.6916696E-2,0E0,0E0,0E0,0E0],"parents":[2147483647,0,0,1,1,2,2,4,4,6,6,7,7,11,11,12,12],"right_children":[2,4,6,-1,8,-1,10,12,-1,-1,-1,14,16,-1,-1,-1,-1],"split_conditions":[1.4918574E0,-2.8685746E0,1.2341287E0,-2.840767E-3,5.583442E0,-1.3268519E-3,2.8793783E0,-6.0335547E-1,2.074383E-3,-3.4542018E-4,1.6942592E-3,5.7940055E-2,-3.664432E-1,-5.352837E-4,6.470118E-4,6.691907E-4,5.6699046E-5],"split_indices":[15,6,1,0,19,0,3,4,0,0,0,7,4,0,0,0,0],"split_type":[0,0,0,0,0,0,0,0,0,0,0,0,0,0,0,0,0],"sum_hessian":[1.932E3,1.805E3,1.27E2,9E0,1.796E3,8.1E1,4.6E1,1.78E3,1.6E1,3.8E1,8E0,3.61E2,1.419E3,3.14E2,4.7E1,2.13E2,1.206E3],"tree_param":{"num_deleted":"0","num_feature":"20","num_nodes":"17","size_leaf_vector":"1"}},{"base_weights":[-2.1555788E-4,9.031969E-4,-1.7101083E-2,1.5007188E-3,-2.5003184E-2,-3.0722247E-2,-2.1190483E-4,3.7270994E-4,1.5392888E-2,-1.520975E-4,-1.9653148E-3,-9.385749E-4,-3.0022298E-3,-0E0,1.8853095E-3,1.7766267E-3,4.8936147E-4,-5.566626E-4,8.264951E-5],"categories":[],"categories_nodes":[],"categories_segments":[],"categories_sizes":[],"default_left":[0,0,0,0,0,0,0,0,0,0,0,0,0,0,0,0,0,0,0],"id":13,"left_children":[1,3,5,7,9,11,-1,13,15,-1,-1,-1,-1,17,-1,-1,-1,-1,-1],"loss_changes":[3.7815176E-2,2.7241018E-2,2.0000383E-2,2.7345218E-2,1.0230305E-2,1.5995435E-2,0E0,2.1806007E-2,1.2405954E-2,0E0,0E0,0E0,0E0,3.002458E-2,0E0,0E0,0E0,0E0,0E0],"parents":[2147483647,0,0,1,1,2,2,3,3,4,4,5,5,7,7,8,8,13,13],"right_children":[2,4,6,8,10,12,-1,14,16,-1,-1,-1,-1,18,-1,-1,-1,-1,-1],"split_conditions":[1.4918574E0,2.409317E0,9.8703355E-1,8.8565606E-1,4.2852303E-1,6.010323E-1,-2.1190483E-4,5.583442E0,-1.7139175E0,-1.520975E-4,-1.9653148E-3,-9.385749E-4,-3.0022298E-3,-1.0313135E0,1.8853095E-3,1.7766267E-3,4.8936147E-4,-5.566626E-4,8.264951E-5],"split_indices":[15,16,1,15,19,11,0,19,10,0,0,0,0,5,0,0,0,0,0],"split_type":[0,0,0,0,0,0,0,0,0,0,0,0,0,0,0,0,0,0,0],"sum_hessian":[1.958E3,1.834E3,1.24E2,1.795E3,3.9E1,5.8E1,6.6E1,1.664E3,1.31E2,1.7E1,2.2E1,4.3E1,1.5E1,1.649E3,1.5E1,2.6E1,1.05E2,2.1E2,1.439E3],"tree_param":{"num_deleted":"0","num_feature":"20","num_nodes":"19","size_leaf_vector":"1"}},{"base_weights":[1.9883811E-4,1.2094491E-3,-1.33896405E-2,1.7421653E-3,-1.1065056E-3,-2.3670077E-2,8.8529626E-4,-2.1316055E-3,5.299578E-3,-1.1018428E-2,-2.1401506E-3,-2.591902E-4,1.72654E-3,-1.0022781E-3,-5.046275E-5,1.6610479E-3,1.5031809E-2,-8.357811E-4,1.3493904E-3,1.7864043E-3,-5.0461043E-5,3.4319217E-4,-2.596801E-4,1.0900878E-3,1.2313069E-5],"categories":[],"categories_nodes":[],"categories_segments":[],"categories_sizes":[],"default_left":[0,0,0,0,0,0,0,0,0,0,0,0,0,0,0,0,0,0,0,0,0,0,0,0,0],"id":14,"left_children":[1,3,5,7,-1,9,11,13,15,17,-1,-1,-1,-1,19,21,23,-1,-1,-1,-1,-1,-1,-1,-1],"loss_changes":[2.6157187E-2,2.1597516E-2,2.0447683E-2,2.4686625E-2,0E0,1.6075075E-2,1.2481438E-2,3.0516202E-2,3.2244466E-2,1.0430127E-2,0E0,0E0,0E0,0E0,2.4369495E-2,2.451289E-2,2.3969308E-2,0E0,0E0,0E0,0E0,0E0,0E0,0E0,0E0],"parents":[2147483647,0,0,1,1,2,2,3,3,5,5,6,6,7,7,8,8,9,9,14,14,15,15,16,16],"right_children":[2,4,6,8,-1,10,12,14,16,18,-1,-1,-1,-1,20,22,24,-1,-1,-1,-1,-1,-1,-1,-1],"split_conditions":[1.4918574E0,2.409317E0,1.1125844E0,-5.235855E-1,-1.1065056E-3,5.3742933E-1,2.8793783E0,-4.9057716E-1,5.6763935E-1,9.47445E-1,-2.1401506E-3,-2.591902E-4,1.72654E-3,-1.0022781E-3,-2.3235116E0,2.729409E-1,2.913427E-1,-8.357811E-4,1.3493904E-3,1.7864043E-3,-5.0461043E-5,3.4319217E-4,-2.596801E-4,1.0900878E-3,1.2313069E-5],"split_indices":[15,16,1,1,0,11,3,8,0,12,0,0,0,0,15,19,4,0,0,0,0,0,0,0,0],"split_type":[0,0,0,0,0,0,0,0,0,0,0,0,0,0,0,0,0,0,0,0,0,0,0,0,0],"sum_hessian":[1.948E3,1.817E3,1.31E2,1.779E3,3.8E1,7.8E1,5.3E1,8.45E2,9.34E2,4.9E1,2.9E1,4.4E1,9E0,8.5E1,7.6E2,6.84E2,2.5E2,4.4E1,5E0,1.8E1,7.42E2,3.93E2,2.91E2,1.69E2,8.1E1],"tree_param":{"num_deleted":"0","num_feature":"20","num_nodes":"25","size_leaf_vector":"1"}},{"base_weights":[1.8485477E-4,4.20678E-3,-2.759298E-3,-4.4585722E-3,9.574269E-3,-8.7918533E-4,-1.4461269E-2,-1.3653266E-2,3.6208602E-3,6.9957073E-3,2.9451746E-2,-5.5721137E-3,6.132223E-3,-1.6550709E-2,1.6898729E-3,-8.400272E-3,-2.2288635E-3,-4.881385E-4,5.5444404E-4,4.785726E-3,2.573505E-2,5.4458253E-2,-0E0,-1.3709428E-2,9.854767E-4,3.993507E-3,1.9257991E-3,5.161872E-4,-1.9558365E-2,7.965004E-4,-6.0152396E-4,3.7705098E-4,-7.409904E-4,5.3224526E-4,2.2791894E-3,3.136998E-3,-0E0,-7.8059867E-4,1.9537217E-3,5.36279E-4,-3.2418812E-4,1.653873E-3,8.773486E-5,-1.5009874E-3,-4.7157067E-4],"categories":[],"categories_nodes":[],"categories_segments":[],"categories_sizes":[],"default_left":[0,0,0,0,0,0,0,0,0,0,0,0,0,0,0,0,0,0,0,0,0,0,0,0,0,0,0,0,0,0,0,0,0,0,0,0,0,0,0,0,0,0,0,0,0],"id":15,"left_children":[1,3,5,7,9,11,13,15,17,19,21,23,25,27,-1,29,-1,-1,-1,31,33,35,-1,37,39,41,-1,-1,43,-1,-1,-1,-1,-1,-1,-1,-1,-1,-1,-1,-1,-1,-1,-1,-1],"loss_changes":[2.3363823E-2,3.927676E-2,2.4054779E-2,2.4112748E-2,2.4804246E-2,3.211987E-2,1.47944875E-2,2.17741E-2,1.6761981E-2,1.7649002E-2,4.0578086E-2,3.2099366E-2,2.463574E-2,1.2484986E-2,0E0,1.1515447E-2,0E0,0E0,0E0,2.2298887E-2,1.0873646E-2,1.385811E-2,0E0,2.5894806E-2,2.378186E-2,2.2028334E-2,0E0,0E0,1.2135066E-2,0E0,0E0,0E0,0E0,0E0,0E0,0E0,0E0,0E0,0E0,0E0,0E0,0E0,0E0,0E0,0E0],"parents":[2147483647,0,0,1,1,2,2,3,3,4,4,5,5,6,6,7,7,8,8,9,9,10,10,11,11,12,12,13,13,15,15,19,19,20,20,21,21,23,23,24,24,25,25,28,28],"right_children":[2,4,6,8,10,12,14,16,18,20,22,24,26,28,-1,30,-1,-1,-1,32,34,36,-1,38,40,42,-1,-1,44,-1,-1,-1,-1,-1,-1,-1,-1,-1,-1,-1,-1,-1,-1,-1,-1],"split_conditions":[-1.2827425E-1,6.712633E-4,1.4141641E0,-1.633149E-1,1.0657127E0,4.4445983E-1,1.8920132E0,7.1617156E-1,-5.903679E-1,1.1280519E0,1.3694974E0,-2.5884E-1,1.294355E0,-8.143065E-1,1.6898729E-3,-7.824502E-1,-2.2288635E-3,-4.881385E-4,5.5444404E-4,7.4764466E-1,5.6763935E-1,9.287571E-2,-0E0,5.8154044E0,-2.7912298E-2,-1.7139175E0,1.9257991E-3,5.161872E-4,1.4538937E0,7.965004E-4,-6.0152396E-4,3.7705098E-4,-7.409904E-4,5.3224526E-4,2.2791894E-3,3.136998E-3,-0E0,-7.8059867E-4,1.9537217E-3,5.36279E-4,-3.2418812E-4,1.653873E-3,8.773486E-5,-1.5009874E-3,-4.7157067E-4],"split_indices":[15,17,16,0,10,15,19,12,1,19,10,16,12,2,0,0,0,0,0,19,0,19,0,1,10,10,0,0,0,0,0,0,0,0,0,0,0,0,0,0,0,0,0,0,0],"split_type":[0,0,0,0,0,0,0,0,0,0,0,0,0,0,0,0,0,0,0,0,0,0,0,0,0,0,0,0,0,0,0,0,0,0,0,0,0,0,0,0,0,0,0,0,0],"sum_hessian":[1.966E3,8.38E2,1.128E3,3.17E2,5.21E2,9.76E2,1.52E2,1.51E2,1.66E2,4.64E2,5.7E1,5.89E2,3.87E2,1.47E2,5E0,1.31E2,2E1,5.7E1,1.09E2,4.18E2,4.6E1,3E1,2.7E1,2.66E2,3.23E2,3.65E2,2.2E1,1.3E1,1.34E2,1.5E1,1.16E2,3.69E2,4.9E1,2.8E1,1.8E1,2.6E1,4E0,2.58E2,8E0,1.43E2,1.8E2,2.4E1,3.41E2,6.3E1,7.1E1],"tree_param":{"num_deleted":"0","num_feature":"20","num_nodes":"45","size_leaf_vector":"1"}},{"base_weights":[1.5585982E-4,9.3712064E-4,-4.117176E-4,-3.524455E-2,-0E0,1.9698053E-4,-2.8872583E-3,5.690853E-4,-8.5840264E-4,6.694125E-5,2.3191161E-2,3.434007E-5,-7.5320917E-4,1.4652752E-3,-1.2179565E-3],"categories":[],"categories_nodes":[],"categories_segments":[],"categories_sizes":[],"default_left":[0,0,0,0,0,0,0,0,0,0,0,0,0,0,0],"id":16,"left_children":[1,-1,3,5,7,-1,-1,9,-1,11,13,-1,-1,-1,-1],"loss_changes":[2.1169787E-2,0E0,2.6391458E-2,2.1759879E-2,1.811378E-2,0E0,0E0,1.9061983E-2,0E0,1.5648287E-2,1.1216212E-2,0E0,0E0,0E0,0E0],"parents":[2147483647,0,0,2,2,3,3,4,4,7,7,9,9,10,10],"right_children":[2,-1,4,6,8,-1,-1,10,-1,12,14,-1,-1,-1,-1],"split_conditions":[-2.0591092E0,9.3712064E-4,-1.6353045E0,-1.5347842E0,2.409317E0,1.9698053E-4,-2.8872583E-3,1.833835E0,-8.5840264E-4,2.038069E0,2.2744565E0,3.434007E-5,-7.5320917E-4,1.4652752E-3,-1.2179565E-3],"split_indices":[12,0,4,2,16,0,0,1,0,15,5,0,0,0,0],"split_type":[0,0,0,0,0,0,0,0,0,0,0,0,0,0,0],"sum_hessian":[1.919E3,5.9E1,1.86E3,2.1E1,1.839E3,7E0,1.4E1,1.78E3,5.9E1,1.744E3,3.6E1,1.679E3,6.5E1,3.3E1,3E0],"tree_param":{"num_deleted":"0","num_feature":"20","num_nodes":"15","size_leaf_vector":"1"}},{"base_weights":[-5.94728E-4,-9.2536444E-4,1.6273909E-3,1.6873511E-3,-5.809682E-3,4.2914716E-4,1.8216582E-2,-4.173977E-3,-2.6639638E-2,2.8673531E-3,-9.748618E-3,1.1982628E-3,-1.585421E-4,-7.6828687E-3,5.766313E-3,4.8504915E-4,-1.8412035E-3,2.2048808E-3,1.1711555E-4,-0E0,-8.7907707E-4,3.4788926E-4,-5.139305E-4,-2.6291926E-4,7.8394124E-4],"categories":[],"categories_nodes":[],"categories_segments":[],"categories_sizes":[],"default_left":[0,0,0,0,0,0,0,0,0,0,0,0,0,0,0,0,0,0,0,0,0,0,0,0,0],"id":17,"left_children":[1,3,-1,5,7,9,11,13,15,17,19,-1,-1,21,23,-1,-1,-1,-1,-1,-1,-1,-1,-1,-1],"loss_changes":[1.9489992E-2,2.4514975E-2,0E0,2.4737881E-2,2.1248776E-2,2.822013E-2,1.1466935E-2,2.1900166E-2,1.8744811E-2,1.781277E-2,1.6791672E-2,0E0,0E0,1.7892357E-2,1.7992796E-2,0E0,0E0,0E0,0E0,0E0,0E0,0E0,0E0,0E0,0E0],"parents":[2147483647,0,0,1,1,3,3,4,4,5,5,6,6,7,7,8,8,9,9,10,10,13,13,14,14],"right_children":[2,4,-1,6,8,10,12,14,16,18,20,-1,-1,22,24,-1,-1,-1,-1,-1,-1,-1,-1,-1,-1],"split_conditions":[5.583442E0,1.267855E-1,1.6273909E-3,9.9578893E-1,1.4485373E0,4.3984395E-1,1.8817647E0,9.921295E-1,4.2852303E-1,-1.1889261E0,-7.4272174E-1,1.1982628E-3,-1.585421E-4,-5.015008E-2,6.9073044E-2,4.8504915E-4,-1.8412035E-3,2.2048808E-3,1.1711555E-4,-0E0,-8.7907707E-4,3.4788926E-4,-5.139305E-4,-2.6291926E-4,7.8394124E-4],"split_indices":[19,19,0,5,12,4,5,0,19,8,19,0,0,17,7,0,0,0,0,0,0,0,0,0,0],"split_type":[0,0,0,0,0,0,0,0,0,0,0,0,0,0,0,0,0,0,0,0,0,0,0,0,0],"sum_hessian":[1.921E3,1.904E3,1.7E1,1.234E3,6.7E2,1.15E3,8.4E1,6.24E2,4.6E1,9.32E2,2.18E2,6.8E1,1.6E1,4.65E2,1.59E2,9E0,3.7E1,1E1,9.22E2,9.7E1,1.21E2,6.7E1,3.98E2,7.3E1,8.6E1],"tree_param":{"num_deleted":"0","num_feature":"20","num_nodes":"25","size_leaf_vector":"1"}},{"base_weights":[-1.0518431E-4,1.4202101E-2,-7.657472E-4,-1.1276271E-3,9.485704E-4,-3.2755502E-3,-3.0117083E-4,-5.3442636E-4,1.9833134E-3,-1.0393218E-5,-2.205863E-2,-3.682463E-5,8.4269297E-4,4.9924786E-4,-1.6312158E-3],"categories":[],"categories_nodes":[],"categories_segments":[],"categories_sizes":[],"default_left":[0,0,0,0,0,0,0,0,0,0,0,0,0,0,0],"id":18,"left_children":[1,3,5,-1,-1,-1,7,9,-1,11,13,-1,-1,-1,-1],"loss_changes":[1.771082E-2,1.4496641E-2,5.2721884E-2,0E0,0E0,0E0,1.5305525E-2,1.9667441E-2,0E0,2.1247681E-2,1.5345186E-2,0E0,0E0,0E0,0E0],"parents":[2147483647,0,0,1,1,2,2,6,6,7,7,9,9,10,10],"right_children":[2,4,6,-1,-1,-1,8,10,-1,12,14,-1,-1,-1,-1],"split_conditions":[-1.2590413E0,-7.679555E-1,-1.6353045E0,-1.1276271E-3,9.485704E-4,-3.2755502E-3,3.2760983E0,2.2573202E0,1.9833134E-3,1.7189415E0,2.3154636E-1,-3.682463E-5,8.4269297E-4,4.9924786E-4,-1.6312158E-3],"split_indices":[3,0,4,0,0,0,0,0,0,0,6,0,0,0,0],"split_type":[0,0,0,0,0,0,0,0,0,0,0,0,0,0,0],"sum_hessian":[1.944E3,8.2E1,1.862E3,8E0,7.4E1,1.2E1,1.85E3,1.841E3,9E0,1.8E3,4.1E1,1.729E3,7.1E1,9E0,3.2E1],"tree_param":{"num_deleted":"0","num_feature":"20","num_nodes":"15","size_leaf_vector":"1"}},{"base_weights":[4.1380693E-4,1.0214115E-3,-9.102171E-4,-5.0122524E-3,2.7042902E-3,8.539223E-4,-1.5607253E-2,3.9789967E-2,2.1714228E-3,-1.7400743E-2,7.1006627E-3,-2.8804552E-3,-1.16159255E-2,4.9097287E-3,3.2459124E-4,1.4404056E-3,2.3199832E-2,7.562647E-5,-1.3970195E-3,-8.5061554E-5,6.427464E-4,-1.942469E-4,-1.725949E-3,1.0906092E-4,-6.4955326E-4,1.4342753E-3,-1.0037982E-3],"categories":[],"categories_nodes":[],"categories_segments":[],"categories_sizes":[],"default_left":[0,0,0,0,0,0,0,0,0,0,0,0,0,0,0,0,0,0,0,0,0,0,0,0,0,0,0],"id":19,"left_children":[1,3,-1,5,7,9,11,13,15,17,19,-1,21,-1,-1,23,25,-1,-1,-1,-1,-1,-1,-1,-1,-1,-1],"loss_changes":[2.1011505E-2,1.892491E-2,0E0,2.5760558E-2,2.6957907E-2,2.879602E-2,2.0763878E-2,3.236986E-2,2.1094667E-2,1.4000561E-2,1.0369089E-2,0E0,2.200482E-2,0E0,0E0,1.4521282E-2,1.1757379E-2,0E0,0E0,0E0,0E0,0E0,0E0,0E0,0E0,0E0,0E0],"parents":[2147483647,0,0,1,1,3,3,4,4,5,5,6,6,7,7,8,8,9,9,10,10,12,12,15,15,16,16],"right_children":[2,4,-1,6,8,10,12,14,16,18,20,-1,22,-1,-1,24,26,-1,-1,-1,-1,-1,-1,-1,-1,-1,-1],"split_conditions":[2.409317E0,-6.0335547E-1,-9.102171E-4,-8.6939764E-1,-9.4485474E-1,-4.6794975E-1,-1.2496524E0,-7.2670214E-2,1.7243116E0,-1.7892903E0,-3.0131856E-1,-2.8804552E-3,6.0695255E-1,4.9097287E-3,3.2459124E-4,2.0032706E0,1.4485373E0,7.562647E-5,-1.3970195E-3,-8.5061554E-5,6.427464E-4,-1.942469E-4,-1.725949E-3,1.0906092E-4,-6.4955326E-4,1.4342753E-3,-1.0037982E-3],"split_indices":[16,4,0,4,6,15,12,19,1,12,10,0,2,0,0,15,12,0,0,0,0,0,0,0,0,0,0],"split_type":[0,0,0,0,0,0,0,0,0,0,0,0,0,0,0,0,0,0,0,0,0,0,0,0,0,0,0],"sum_hessian":[1.932E3,1.874E3,5.8E1,4.02E2,1.472E3,2.56E2,1.46E2,1.9E1,1.453E3,6.3E1,1.93E2,1.1E1,1.35E2,6E0,1.3E1,1.407E3,4.6E1,2.1E1,4.2E1,7.3E1,1.2E2,1.03E2,3.2E1,1.342E3,6.5E1,4.2E1,4E0],"tree_param":{"num_deleted":"0","num_feature":"20","num_nodes":"27","size_leaf_vector":"1"}},{"base_weights":[1.7949504E-4,-4.0783305E-4,1.1916892E-2,2.48022E-4,-7.2303816E-4,-9.912682E-4,1.246517E-3,-6.082197E-4,1.1820822E-2,-4.1206586E-3,5.284342E-4,1.735563E-3,-1.0386925E-2,8.8247815E-3,2.9380599E-3,-6.751993E-5,3.707457E-4,-3.62435E-4,-2.2479089E-3,6.6871766E-4,-9.6002594E-4],"categories":[],"categories_nodes":[],"categories_segments":[],"categories_sizes":[],"default_left":[0,0,0,0,0,0,0,0,0,0,0,0,0,0,0,0,0,0,0,0,0],"id":20,"left_children":[1,3,5,7,-1,9,-1,11,13,-1,-1,15,17,19,-1,-1,-1,-1,-1,-1,-1],"loss_changes":[1.40929865E-2,1.7887723E-2,1.7587326E-2,1.8177675E-2,0E0,4.8736297E-2,0E0,3.829258E-2,1.4151787E-2,0E0,0E0,2.3591867E-2,3.2323997E-2,1.5201212E-2,0E0,0E0,0E0,0E0,0E0,0E0,0E0],"parents":[2147483647,0,0,1,1,2,2,3,3,5,5,7,7,8,8,11,11,12,12,13,13],"right_children":[2,4,6,8,-1,10,-1,12,14,-1,-1,16,18,20,-1,-1,-1,-1,-1,-1,-1],"split_conditions":[1.7243116E0,2.038069E0,-6.5495545E-1,1.1412655E0,-7.2303816E-4,6.4462066E-2,1.246517E-3,3.137341E-1,1.8198432E0,-4.1206586E-3,5.284342E-4,-4.194049E-1,1.0421226E0,8.7648374E-1,2.9380599E-3,-6.751993E-5,3.707457E-4,-3.62435E-4,-2.2479089E-3,6.6871766E-4,-9.6002594E-4],"split_indices":[1,15,4,19,0,0,0,19,2,0,0,1,4,2,0,0,0,0,0,0,0],"split_type":[0,0,0,0,0,0,0,0,0,0,0,0,0,0,0,0,0,0,0,0,0],"sum_hessian":[1.96E3,1.863E3,9.7E1,1.777E3,8.6E1,4.7E1,5E1,1.651E3,1.26E2,6E0,4.1E1,1.328E3,3.23E2,1.2E2,6E0,8.55E2,4.73E2,2.98E2,2.5E1,1.05E2,1.5E1],"tree_param":{"num_deleted":"0","num_feature":"20","num_nodes":"21","size_leaf_vector":"1"}},{"base_weights":[4.5938665E-5,8.511878E-4,-1.1654602E-2,5.349785E-4,1.5341917E-3,-7.307544E-3,-2.001632E-3,-2.5934711E-2,1.0466442E-3,-1.2471756E-3,-3.081637E-5,-2.557206E-3,3.8678618E-4,2.7607876E-4,6.6420424E-4,6.352324E-5,-5.12533E-4],"categories":[],"categories_nodes":[],"categories_segments":[],"categories_sizes":[],"default_left":[0,0,0,0,0,0,0,0,0,0,0,0,0,0,0,0,0],"id":21,"left_children":[1,3,5,7,-1,9,-1,11,13,-1,-1,-1,-1,15,-1,-1,-1],"loss_changes":[1.7823266E-2,1.5670314E-2,1.2475081E-2,2.3289913E-2,0E0,1.1399975E-2,0E0,2.9954622E-2,1.6090967E-2,0E0,0E0,0E0,0E0,1.7116973E-2,0E0,0E0,0E0],"parents":[2147483647,0,0,1,1,2,2,3,3,5,5,7,7,8,8,13,13],"right_children":[2,4,6,8,-1,10,-1,12,14,-1,-1,-1,-1,16,-1,-1,-1],"split_conditions":[1.4918574E0,5.583442E0,1.5256284E0,-1.6353045E0,1.5341917E-3,3.9400533E-1,-2.001632E-3,3.6264008E-1,1.1412655E0,-1.2471756E-3,-3.081637E-5,-2.557206E-3,3.8678618E-4,7.070243E-1,6.6420424E-4,6.352324E-5,-5.12533E-4],"split_indices":[15,19,12,4,0,1,0,0,19,0,0,0,0,19,0,0,0],"split_type":[0,0,0,0,0,0,0,0,0,0,0,0,0,0,0,0,0],"sum_hessian":[1.948E3,1.827E3,1.21E2,1.81E3,1.7E1,1.07E2,1.4E1,3.2E1,1.778E3,2.7E1,8E1,1.9E1,1.3E1,1.677E3,1.01E2,1.537E3,1.4E2],"tree_param":{"num_deleted":"0","num_feature":"20","num_nodes":"17","size_leaf_vector":"1"}},{"base_weights":[-0E0,8.82598E-3,-8.7732903E-4,3.130729E-4,5.3262327E-2,-1.2358289E-2,1.6413737E-4,5.2037705E-3,-9.954994E-4,-4.473316E-2,-8.77109E-3,5.100684E-3,-2.0202482E-3,-1.5516633E-4,-3.5581735E-3,-1.0633598E-2,1.8173391E-3,-2.0641442E-3,6.1881244E-3,-7.747915E-3,1.4021492E-4,-1.9526547E-3,-2.3553062E-4,1.5751192E-4,9.283921E-4,2.7754458E-4,-6.8384735E-4,8.364359E-4,-6.838031E-5],"categories":[],"categories_nodes":[],"categories_segments":[],"categories_sizes":[],"default_left":[0,0,0,0,0,0,0,0,0,0,0,0,0,0,0,0,0,0,0,0,0,0,0,0,0,0,0,0,0],"id":22,"left_children":[1,3,5,-1,7,9,11,-1,-1,13,15,17,19,-1,-1,21,-1,-1,23,25,27,-1,-1,-1,-1,-1,-1,-1,-1],"loss_changes":[1.5104821E-2,1.6970646E-2,2.1673039E-2,0E0,3.6848288E-2,1.4606943E-2,1.7536493E-2,0E0,0E0,1.1030145E-2,1.0462046E-2,2.3668345E-2,1.4122712E-2,0E0,0E0,2.0191658E-2,0E0,0E0,1.7369265E-2,2.4926895E-2,2.0801995E-2,0E0,0E0,0E0,0E0,0E0,0E0,0E0,0E0],"parents":[2147483647,0,0,1,1,2,2,4,4,5,5,6,6,9,9,10,10,11,11,12,12,15,15,18,18,19,19,20,20],"right_children":[2,4,6,-1,8,10,12,-1,-1,14,16,18,20,-1,-1,22,-1,-1,24,26,28,-1,-1,-1,-1,-1,-1,-1,-1],"split_conditions":[-9.829506E-1,3.6926147E-1,-7.6389843E-1,3.130729E-4,-3.3181202E-1,-1.0569245E0,-1.2827425E-1,5.2037705E-3,-9.954994E-4,-6.074251E-1,1.833835E0,-1.4595646E0,-5.667693E-1,-1.5516633E-4,-3.5581735E-3,-1.0557468E0,1.8173391E-3,-2.0641442E-3,3.4057942E-1,-8.6939764E-1,-2.5949443E-2,-1.9526547E-3,-2.3553062E-4,1.5751192E-4,9.283921E-4,2.7754458E-4,-6.8384735E-4,8.364359E-4,-6.838031E-5],"split_indices":[15,12,15,0,11,12,15,0,0,11,1,0,5,0,0,5,0,0,1,4,17,0,0,0,0,0,0,0,0],"split_type":[0,0,0,0,0,0,0,0,0,0,0,0,0,0,0,0,0,0,0,0,0,0,0,0,0,0,0,0,0],"sum_hessian":[1.937E3,1.76E2,1.761E3,1.68E2,8E0,1.5E2,1.611E3,5E0,3E0,1.3E1,1.37E2,5.01E2,1.11E3,6E0,7E0,1.33E2,4E0,1E1,4.91E2,3.1E2,8E2,2.1E1,1.12E2,3.98E2,9.3E1,9.3E1,2.17E2,6.9E1,7.31E2],"tree_param":{"num_deleted":"0","num_feature":"20","num_nodes":"29","size_leaf_vector":"1"}},{"base_weights":[1.2061149E-4,8.579615E-4,-1.0096869E-2,-1.1070978E-3,4.774567E-3,-1.4533994E-2,1.0767496E-3,-7.7827116E-3,1.9276544E-3,2.5783533E-2,2.0798943E-3,-1.6517182E-3,-8.556293E-3,-2.2690512E-2,-2.8160878E-3,-1.882562E-3,6.8562566E-3,1.559129E-3,-6.77044E-4,3.4612943E-3,-2.2587271E-2,2.9483158E-4,-2.0480243E-2,-9.2452223E-4,-3.1475965E-3,-3.5965774E-4,5.123363E-4,-5.222675E-6,-1.0930015E-3,-4.832278E-4,5.161573E-4,8.696148E-4,1.686179E-5,-1.6163616E-3,9.837775E-4,-2.4428212E-3,-4.3292085E-4],"categories":[],"categories_nodes":[],"categories_segments":[],"categories_sizes":[],"default_left":[0,0,0,0,0,0,0,0,0,0,0,0,0,0,0,0,0,0,0,0,0,0,0,0,0,0,0,0,0,0,0,0,0,0,0,0,0],"id":23,"left_children":[1,3,5,7,9,11,-1,13,15,17,19,-1,21,23,25,27,29,-1,-1,31,33,-1,35,-1,-1,-1,-1,-1,-1,-1,-1,-1,-1,-1,-1,-1,-1],"loss_changes":[1.4320051E-2,1.4304994E-2,1.770164E-2,2.4884349E-2,3.3764556E-2,1.0331068E-2,0E0,2.7161654E-2,1.5832352E-2,1.5636738E-2,1.7943429E-2,0E0,1.6041296E-2,1.1156794E-2,1.6551213E-2,1.5329607E-2,2.1131685E-2,0E0,0E0,2.2024537E-2,1.2270661E-2,0E0,1.385339E-2,0E0,0E0,0E0,0E0,0E0,0E0,0E0,0E0,0E0,0E0,0E0,0E0,0E0,0E0],"parents":[2147483647,0,0,1,1,2,2,3,3,4,4,5,5,7,7,8,8,9,9,10,10,12,12,13,13,14,14,15,15,16,16,19,19,20,20,22,22],"right_children":[2,4,6,8,10,12,-1,14,16,18,20,-1,22,24,26,28,30,-1,-1,32,34,-1,36,-1,-1,-1,-1,-1,-1,-1,-1,-1,-1,-1,-1,-1,-1],"split_conditions":[1.5106987E0,5.7940055E-2,1.610438E0,-5.4166526E-1,-5.70055E-1,3.552714E-1,1.0767496E-3,-1.09098025E-1,-5.476272E-1,9.8703355E-1,1.5264689E0,-1.6517182E-3,6.84702E-1,4.102666E-1,6.4462066E-2,7.459357E-1,-2.9337531E-2,1.559129E-3,-6.77044E-4,-4.076432E-1,1.833835E0,2.9483158E-4,1.5760635E0,-9.2452223E-4,-3.1475965E-3,-3.5965774E-4,5.123363E-4,-5.222675E-6,-1.0930015E-3,-4.832278E-4,5.161573E-4,8.696148E-4,1.686179E-5,-1.6163616E-3,9.837775E-4,-2.4428212E-3,-4.3292085E-4],"split_indices":[16,7,2,2,6,1,0,8,1,1,2,0,2,0,0,3,17,0,0,10,1,0,0,0,0,0,0,0,0,0,0,0,0,0,0,0,0],"split_type":[0,0,0,0,0,0,0,0,0,0,0,0,0,0,0,0,0,0,0,0,0,0,0,0,0,0,0,0,0,0,0,0,0,0,0,0,0],"sum_hessian":[1.961E3,1.834E3,1.27E2,1.213E3,6.21E2,1.13E2,1.4E1,3.84E2,8.29E2,6.8E1,5.53E2,2.5E1,8.8E1,9.3E1,2.91E2,4.62E2,3.67E2,6.1E1,7E0,5.26E2,2.7E1,3.8E1,5E1,8.6E1,7E0,2.21E2,7E1,4.27E2,3.5E1,6.1E1,3.06E2,9.3E1,4.33E2,2.3E1,4E0,1.3E1,3.7E1],"tree_param":{"num_deleted":"0","num_feature":"20","num_nodes":"37","size_leaf_vector":"1"}},{"base_weights":[-0E0,1.0200732E-2,-7.638461E-4,3.636432E-4,3.5624926E-3,-3.0771413E-4,-1.9841077E-2,-8.963769E-3,6.541751E-4,3.8309747E-4,-2.3978795E-3,-5.2966587E-3,-3.253809E-2,1.2876636E-3,-7.497244E-4,-1.9148084E-3,-1.07157626E-4,-2.2109891E-3,3.995439E-4,1.8188844E-5,6.676432E-4],"categories":[],"categories_nodes":[],"categories_segments":[],"categories_sizes":[],"default_left":[0,0,0,0,0,0,0,0,0,0,0,0,0,0,0,0,0,0,0,0,0],"id":24,"left_children":[1,3,5,-1,-1,7,9,11,13,-1,-1,15,17,19,-1,-1,-1,-1,-1,-1,-1],"loss_changes":[1.5462715E-2,2.0570789E-2,1.4665683E-2,0E0,0E0,1.509328E-2,3.2743424E-2,1.37126995E-2,1.5002114E-2,0E0,0E0,1.4535231E-2,1.2640677E-2,1.6294006E-2,0E0,0E0,0E0,0E0,0E0,0E0,0E0],"parents":[2147483647,0,0,1,1,2,2,5,5,6,6,7,7,8,8,11,11,12,12,13,13],"right_children":[2,4,6,-1,-1,8,10,12,14,-1,-1,16,18,20,-1,-1,-1,-1,-1,-1,-1],"split_conditions":[-1.0729744E0,3.6926147E-1,6.942616E-1,3.636432E-4,3.5624926E-3,-7.6389843E-1,-7.8710556E-1,3.307159E-1,2.409317E0,3.8309747E-4,-2.3978795E-3,-1.0569245E0,1.5230365E0,1.6050531E0,-7.497244E-4,-1.9148084E-3,-1.07157626E-4,-2.2109891E-3,3.995439E-4,1.8188844E-5,6.676432E-4],"split_indices":[15,12,17,0,0,15,12,12,16,0,0,12,3,0,0,0,0,0,0,0,0],"split_type":[0,0,0,0,0,0,0,0,0,0,0,0,0,0,0,0,0,0,0,0,0],"sum_hessian":[1.939E3,1.38E2,1.801E3,1.33E2,5E0,1.762E3,3.9E1,1.81E2,1.581E3,1.9E1,2E1,1.59E2,2.2E1,1.523E3,5.8E1,1.2E1,1.47E2,1.8E1,4E0,1.419E3,1.04E2],"tree_param":{"num_deleted":"0","num_feature":"20","num_nodes":"21","size_leaf_vector":"1"}},{"base_weights":[7.277835E-5,3.176426E-3,-2.265618E-3,3.6318786E-4,1.23199895E-2,-8.88378E-4,-9.914256E-4,-3.721274E-4,2.2792574E-3,2.6044969E-2,2.5530174E-4,-1.902021E-3,1.5171823E-2,3.916795E-4,-4.1201264E-3,-6.6158007E-4,3.0297047E-2,-5.033571E-4,-5.709228E-4,1.1218627E-3,-1.9271221E-3,1.18327E-3,-2.6185412E-4,2.6593378E-3,7.412964E-4,-5.169383E-4,5.896948E-5],"categories":[],"categories_nodes":[],"categories_segments":[],"categories_sizes":[],"default_left":[0,0,0,0,0,0,0,0,0,0,0,0,0,0,0,0,0,0,0,0,0,0,0,0,0,0,0],"id":25,"left_children":[1,3,5,7,9,-1,11,13,-1,15,-1,17,19,-1,21,-1,23,25,-1,-1,-1,-1,-1,-1,-1,-1,-1],"loss_changes":[1.4154203E-2,2.1086697E-2,2.0771068E-2,2.3899818E-2,1.7633665E-2,0E0,1.4356121E-2,1.94983E-2,0E0,1.182567E-2,0E0,1.2292055E-2,1.972538E-2,0E0,1.2904668E-2,0E0,1.7275792E-2,1.4523717E-2,0E0,0E0,0E0,0E0,0E0,0E0,0E0,0E0,0E0],"parents":[2147483647,0,0,1,1,2,2,3,3,4,4,6,6,7,7,9,9,11,11,12,12,14,14,16,16,17,17],"right_children":[2,4,6,8,10,-1,12,14,-1,16,-1,18,20,-1,22,-1,24,26,-1,-1,-1,-1,-1,-1,-1,-1,-1],"split_conditions":[-1.2827425E-1,-4.0266716E-1,-4.6471745E-2,1.1952454E0,-4.7531912E-1,-8.88378E-4,2.422582E0,-9.707935E-1,2.2792574E-3,-1.4595646E0,2.5530174E-4,1.2828068E0,1.40197E0,3.916795E-4,-1.5731622E0,-6.6158007E-4,-5.9114292E-2,-1.0178481E0,-5.709228E-4,1.1218627E-3,-1.9271221E-3,1.18327E-3,-2.6185412E-4,2.6593378E-3,7.412964E-4,-5.169383E-4,5.896948E-5],"split_indices":[15,15,15,19,2,0,4,15,0,0,0,16,19,0,8,0,19,16,0,0,0,0,0,0,0,0,0],"split_type":[0,0,0,0,0,0,0,0,0,0,0,0,0,0,0,0,0,0,0,0,0,0,0,0,0,0,0],"sum_hessian":[1.943E3,8.44E2,1.099E3,6.5E2,1.94E2,8E1,1.019E3,6.39E2,1.1E1,6.4E1,1.3E2,9.68E2,5.1E1,1.96E2,4.43E2,5E0,5.9E1,8.49E2,1.19E2,4.6E1,5E0,1.5E1,4.28E2,2.2E1,3.7E1,1.28E2,7.21E2],"tree_param":{"num_deleted":"0","num_feature":"20","num_nodes":"27","size_leaf_vector":"1"}},{"base_weights":[-8.714255E-5,3.3112417E-4,-8.140634E-4,-1.4910297E-3,5.9290027E-4,1.2500675E-3,-1.0541739E-2,-3.7079363E-4,8.062682E-3,-2.8319343E-4,-2.1636987E-3,1.4664023E-4,-2.5423334E-4,-6.0239184E-4,6.0802366E-4],"categories":[],"categories_nodes":[],"categories_segments":[],"categories_sizes":[],"default_left":[0,0,0,0,0,0,0,0,0,0,0,0,0,0,0],"id":26,"left_children":[1,3,-1,-1,5,7,9,11,13,-1,-1,-1,-1,-1,-1],"loss_changes":[1.3842507E-2,1.3342882E-2,0E0,0E0,1.315588E-2,1.9837104E-2,1.3317083E-2,2.2189414E-2,2.8468689E-2,0E0,0E0,0E0,0E0,0E0,0E0],"parents":[2147483647,0,0,1,1,4,4,5,5,6,6,7,7,8,8],"right_children":[2,4,-1,-1,6,8,10,12,14,-1,-1,-1,-1,-1,-1],"split_conditions":[2.409317E0,-1.554816E0,-8.140634E-4,-1.4910297E-3,1.4918574E0,4.4445983E-1,1.564174E0,-1.2827425E-1,-1.0178481E0,-2.8319343E-4,-2.1636987E-3,1.4664023E-4,-2.5423334E-4,-6.0239184E-4,6.0802366E-4],"split_indices":[16,0,0,0,15,15,12,15,16,0,0,0,0,0,0],"split_type":[0,0,0,0,0,0,0,0,0,0,0,0,0,0,0],"sum_hessian":[1.925E3,1.874E3,5.1E1,1.4E1,1.86E3,1.761E3,9.9E1,1.417E3,3.44E2,8.8E1,1.1E1,8.27E2,5.9E2,5.6E1,2.88E2],"tree_param":{"num_deleted":"0","num_feature":"20","num_nodes":"15","size_leaf_vector":"1"}},{"base_weights":[5.476055E-5,2.8603617E-3,-2.0755432E-3,-3.5510825E-3,6.7211464E-3,-1.236811E-3,-1.6525786E-2,8.3653006E-4,-6.1800545E-3,4.419956E-3,2.5183167E-2,-8.948342E-5,-1.3009822E-2,-2.6860768E-2,1.3126371E-3,-3.824417E-4,1.5738329E-3,7.112571E-4,1.5565641E-3,4.7027014E-2,-0E0,-1.0632343E-3,8.620618E-4,-3.8709685E-3,-6.4695007E-3,-1.8880967E-3,-0E0,1.9563338E-5,1.5877022E-3,1.7231222E-3,4.7099655E-3,-5.3180836E-4,4.83768E-6,-7.0823304E-4,1.3329156E-3],"categories":[],"categories_nodes":[],"categories_segments":[],"categories_sizes":[],"default_left":[0,0,0,0,0,0,0,0,0,0,0,0,0,0,0,0,0,0,0,0,0,0,0,0,0,0,0,0,0,0,0,0,0,0,0],"id":27,"left_children":[1,3,5,7,9,11,13,-1,15,17,19,21,23,25,-1,-1,-1,-1,27,29,-1,31,-1,-1,33,-1,-1,-1,-1,-1,-1,-1,-1,-1,-1],"loss_changes":[1.1801529E-2,2.1445816E-2,1.2536541E-2,1.6506582E-2,2.146962E-2,1.3547589E-2,2.5804613E-2,0E0,1.4664515E-2,1.2802708E-2,3.3197477E-2,1.5443225E-2,3.3257812E-2,1.2072533E-2,0E0,0E0,0E0,0E0,1.1740763E-2,1.0613777E-2,0E0,1.0682537E-2,0E0,0E0,2.0595338E-2,0E0,0E0,0E0,0E0,0E0,0E0,0E0,0E0,0E0,0E0],"parents":[2147483647,0,0,1,1,2,2,3,3,4,4,5,5,6,6,8,8,9,9,10,10,11,11,12,12,13,13,18,18,19,19,21,21,24,24],"right_children":[2,4,6,8,10,12,14,-1,16,18,20,22,24,26,-1,-1,-1,-1,28,30,-1,32,-1,-1,34,-1,-1,-1,-1,-1,-1,-1,-1,-1,-1],"split_conditions":[-1.2827425E-1,6.712633E-4,1.487083E0,-3.4996204E-2,1.0505234E0,8.3024204E-1,2.3077135E0,8.3653006E-4,7.1631604E-1,2.583993E-2,1.3694974E0,1.4959158E0,-3.0131856E-1,-1.17091544E-1,1.3126371E-3,-3.824417E-4,1.5738329E-3,7.112571E-4,1.5230365E0,3.6926147E-1,-0E0,-1.0178481E0,8.620618E-4,-3.8709685E-3,1.8926036E0,-1.8880967E-3,-0E0,1.9563338E-5,1.5877022E-3,1.7231222E-3,4.7099655E-3,-5.3180836E-4,4.83768E-6,-7.0823304E-4,1.3329156E-3],"split_indices":[15,17,12,7,10,8,11,0,19,17,10,1,10,9,0,0,0,0,3,12,0,16,0,0,1,0,0,0,0,0,0,0,0,0,0],"split_type":[0,0,0,0,0,0,0,0,0,0,0,0,0,0,0,0,0,0,0,0,0,0,0,0,0,0,0,0,0,0,0,0,0,0,0],"sum_hessian":[1.967E3,8.59E2,1.108E3,3.18E2,5.41E2,1.051E3,5.7E1,3.4E1,2.84E2,4.84E2,5.7E1,9.62E2,8.9E1,4.7E1,1E1,2.75E2,9E0,1.05E2,3.79E2,3.1E1,2.6E1,9.14E2,4.8E1,7E0,8.2E1,3.2E1,1.5E1,3.67E2,1.2E1,2.6E1,5E0,1.03E2,8.11E2,6.8E1,1.4E1],"tree_param":{"num_deleted":"0","num_feature":"20","num_nodes":"35","size_leaf_vector":"1"}},{"base_weights":[1.5499952E-5,1.6306069E-2,-4.2301253E-4,3.7127994E-3,2.6279276E-3,-8.348278E-3,3.2570906E-4,-1.4760256E-3,5.724208E-4,-1.6484028E-2,3.9184357E-5,1.8426282E-2,-2.5239855E-4,-2.190867E-2,4.8149467E-4,3.3987162E-3,4.771663E-4,3.0641789E-3,-2.808216E-3,1.0096796E-4,-1.5002354E-3,1.7276861E-3,1.09762725E-4,-1.6798664E-4,1.2590829E-3],"categories":[],"categories_nodes":[],"categories_segments":[],"categories_sizes":[],"default_left":[0,0,0,0,0,0,0,0,0,0,0,0,0,0,0,0,0,0,0,0,0,0,0,0,0],"id":28,"left_children":[1,3,5,-1,7,9,11,-1,-1,13,-1,15,17,19,-1,-1,-1,21,23,-1,-1,-1,-1,-1,-1],"loss_changes":[1.4559781E-2,3.846486E-2,1.1519494E-2,0E0,1.1884015E-2,1.3235952E-2,1.8767973E-2,0E0,0E0,1.3681199E-2,0E0,2.022715E-2,1.3990554E-2,1.6443036E-2,0E0,0E0,0E0,1.7565351E-2,1.3485033E-2,0E0,0E0,0E0,0E0,0E0,0E0],"parents":[2147483647,0,0,1,1,2,2,4,4,5,5,6,6,9,9,11,11,12,12,13,13,17,17,18,18],"right_children":[2,4,6,-1,8,10,12,-1,-1,14,-1,16,18,20,-1,-1,-1,22,24,-1,-1,-1,-1,-1,-1],"split_conditions":[-1.5638037E0,-3.0402926E-1,-2.9337531E-2,3.7127994E-3,4.9131876E-1,2.5025131E-2,-2.5949443E-2,-1.4760256E-3,5.724208E-4,6.277439E-1,3.9184357E-5,-5.934982E-1,-2.2014588E-1,-5.650231E-1,4.8149467E-4,3.3987162E-3,4.771663E-4,-2.788095E-1,5.583442E0,1.0096796E-4,-1.5002354E-3,1.7276861E-3,1.09762725E-4,-1.6798664E-4,1.2590829E-3],"split_indices":[15,19,17,0,19,7,17,0,0,1,0,2,9,11,0,0,0,11,19,0,0,0,0,0,0],"split_type":[0,0,0,0,0,0,0,0,0,0,0,0,0,0,0,0,0,0,0,0,0,0,0,0,0],"sum_hessian":[1.926E3,5.3E1,1.873E3,9E0,4.4E1,1.67E2,1.706E3,8E0,3.6E1,9.1E1,7.6E1,5.5E1,1.651E3,7.7E1,1.4E1,7E0,4.8E1,7.1E2,9.41E2,1.8E1,5.9E1,1.7E1,6.93E2,9.25E2,1.6E1],"tree_param":{"num_deleted":"0","num_feature":"20","num_nodes":"25","size_leaf_vector":"1"}},{"base_weights":[2.3458255E-4,8.652406E-4,-1.13224955E-2,-1.2315781E-3,4.510175E-3,-2.1733243E-2,7.35043E-4,-6.2696743E-3,1.2838596E-3,2.2362E-2,2.2093242E-3,-2.012748E-3,-3.9403216E-4,-1.9221112E-2,-1.9625048E-3,-5.450111E-4,2.657976E-3,2.6888361E-2,-1.0031551E-3,7.1324455E-4,9.6040184E-4,-0E0,-1.3118972E-3,5.693311E-4,-3.2950632E-4,-3.370596E-5,3.55644E-4,1.7164083E-3,-3.8894187E-4,-1.6033862E-3,6.827854E-5],"categories":[],"categories_nodes":[],"categories_segments":[],"categories_sizes":[],"default_left":[0,0,0,0,0,0,0,0,0,0,0,0,0,0,0,0,0,0,0,0,0,0,0,0,0,0,0,0,0,0,0],"id":29,"left_children":[1,3,5,7,9,11,-1,13,15,17,19,-1,-1,21,23,-1,25,27,-1,29,-1,-1,-1,-1,-1,-1,-1,-1,-1,-1,-1],"loss_changes":[1.3647361E-2,1.4286719E-2,2.6655402E-2,1.5011042E-2,2.6821075E-2,1.5523057E-2,0E0,2.0928761E-2,1.2502349E-2,1.5109364E-2,1.447211E-2,0E0,0E0,1.3940137E-2,1.829922E-2,0E0,1.0663295E-2,1.9386224E-2,0E0,1.0515224E-2,0E0,0E0,0E0,0E0,0E0,0E0,0E0,0E0,0E0,0E0,0E0],"parents":[2147483647,0,0,1,1,2,2,3,3,4,4,5,5,7,7,8,8,9,9,10,10,13,13,14,14,16,16,17,17,19,19],"right_children":[2,4,6,8,10,12,-1,14,16,18,20,-1,-1,22,24,-1,26,28,-1,30,-1,-1,-1,-1,-1,-1,-1,-1,-1,-1,-1],"split_conditions":[1.4485373E0,5.7940055E-2,2.3495755E0,-5.281887E-1,-5.70055E-1,-6.772506E-1,7.35043E-4,-1.09098025E-1,-2.9337531E-2,1.3694974E0,1.7243116E0,-2.012748E-3,-3.9403216E-4,-6.035239E-1,-1.0602209E-2,-5.450111E-4,-5.716688E-1,2.06672E0,-1.0031551E-3,-9.386295E-1,9.6040184E-4,-0E0,-1.3118972E-3,5.693311E-4,-3.2950632E-4,-3.370596E-5,3.55644E-4,1.7164083E-3,-3.8894187E-4,-1.6033862E-3,6.827854E-5],"split_indices":[12,7,2,2,6,8,0,8,17,10,1,0,0,3,8,0,1,3,0,8,0,0,0,0,0,0,0,0,0,0,0],"split_type":[0,0,0,0,0,0,0,0,0,0,0,0,0,0,0,0,0,0,0,0,0,0,0,0,0,0,0,0,0,0,0],"sum_hessian":[1.943E3,1.847E3,9.6E1,1.164E3,6.83E2,7E1,2.6E1,3.94E2,7.7E2,7.5E1,6.08E2,2.8E1,4.2E1,9.5E1,2.99E2,7.4E1,6.96E2,6.9E1,6E0,5.62E2,4.6E1,2.4E1,7.1E1,7.4E1,2.25E2,3.92E2,3.04E2,5.8E1,1.1E1,9E0,5.53E2],"tree_param":{"num_deleted":"0","num_feature":"20","num_nodes":"31","size_leaf_vector":"1"}},{"base_weights":[-1.2970765E-4,6.348826E-4,-6.590311E-4,1.4240885E-3,-4.6880394E-3,2.6535513E-4,1.5783673E-2,-3.268937E-3,-2.15265E-2,2.3469725E-3,-8.29494E-3,1.0826763E-3,-2.1545519E-4,-6.3239327E-3,5.246856E-3,4.5923245E-4,-1.5061856E-3,1.8032718E-3,8.951065E-5,-2.4874767E-3,-3.2844517E-4,-2.6266158E-4,-3.0989386E-3,3.9155196E-4,-2.3251544E-3],"categories":[],"categories_nodes":[],"categories_segments":[],"categories_sizes":[],"default_left":[0,0,0,0,0,0,0,0,0,0,0,0,0,0,0,0,0,0,0,0,0,0,0,0,0],"id":30,"left_children":[1,-1,3,5,7,9,11,13,15,17,19,-1,-1,21,23,-1,-1,-1,-1,-1,-1,-1,-1,-1,-1],"loss_changes":[1.2632222E-2,0E0,1.5907431E-2,1.963638E-2,1.419738E-2,2.00352E-2,1.135171E-2,1.5692879E-2,1.3726728E-2,1.5393095E-2,1.2654828E-2,0E0,0E0,2.3082415E-2,1.890997E-2,0E0,0E0,0E0,0E0,0E0,0E0,0E0,0E0,0E0,0E0],"parents":[2147483647,0,0,2,2,3,3,4,4,5,5,6,6,7,7,8,8,9,9,10,10,13,13,14,14],"right_children":[2,-1,4,6,8,10,12,14,16,18,20,-1,-1,22,24,-1,-1,-1,-1,-1,-1,-1,-1,-1,-1],"split_conditions":[-2.0205636E0,6.348826E-4,1.267855E-1,9.9578893E-1,1.4485373E0,4.3984395E-1,1.8817647E0,1.1280519E0,4.2852303E-1,-1.1889261E0,-1.0569245E0,1.0826763E-3,-2.1545519E-4,2.1690488E0,2.5070019E0,4.5923245E-4,-1.5061856E-3,1.8032718E-3,8.951065E-5,-2.4874767E-3,-3.2844517E-4,-2.6266158E-4,-3.0989386E-3,3.9155196E-4,-2.3251544E-3],"split_indices":[12,0,19,5,12,4,5,19,19,8,12,0,0,17,1,0,0,0,0,0,0,0,0,0,0],"split_type":[0,0,0,0,0,0,0,0,0,0,0,0,0,0,0,0,0,0,0,0,0,0,0,0,0],"sum_hessian":[1.948E3,7.3E1,1.875E3,1.228E3,6.47E2,1.14E3,8.8E1,6E2,4.7E1,9.22E2,2.18E2,7E1,1.8E1,4.46E2,1.54E2,9E0,3.8E1,1.3E1,9.09E2,7E0,2.11E2,4.39E2,7E0,1.48E2,6E0],"tree_param":{"num_deleted":"0","num_feature":"20","num_nodes":"25","size_leaf_vector":"1"}},{"base_weights":[3.0962154E-4,9.37083E-4,-1.0587152E-2,-0E0,8.765985E-3,-0E0,-1.4937542E-3,2.8982208E-4,-2.9543214E-3,4.945514E-3,1.6566815E-3,-1.7350524E-3,2.5659523E-4,7.918123E-4,-9.037186E-4,1.1550386E-2,-4.718876E-3,-1.13912814E-4,2.1593434E-4,-0E0,1.0324086E-3,4.474213E-4,-1.0817053E-3],"categories":[],"categories_nodes":[],"categories_segments":[],"categories_sizes":[],"default_left":[0,0,0,0,0,0,0,0,0,0,0,0,0,0,0,0,0,0,0,0,0,0,0],"id":31,"left_children":[1,3,5,7,9,11,-1,13,-1,15,-1,-1,-1,17,-1,19,21,-1,-1,-1,-1,-1,-1],"loss_changes":[1.2933831E-2,1.3312992E-2,2.1088008E-2,2.6323356E-2,1.612126E-2,1.1776066E-2,0E0,1.4432151E-2,0E0,1.1252195E-2,0E0,0E0,0E0,1.7620819E-2,0E0,1.0573458E-2,1.6104918E-2,0E0,0E0,0E0,0E0,0E0,0E0],"parents":[2147483647,0,0,1,1,2,2,3,3,4,4,5,5,7,7,9,9,13,13,15,15,16,16],"right_children":[2,4,6,8,10,12,-1,14,-1,16,-1,-1,-1,18,-1,20,22,-1,-1,-1,-1,-1,-1],"split_conditions":[1.4485373E0,1.1280519E0,4.2852303E-1,2.1690488E0,9.776347E-1,-4.9820822E-1,-1.4937542E-3,2.141175E0,-2.9543214E-3,1.7167743E0,1.6566815E-3,-1.7350524E-3,2.5659523E-4,3.615812E-2,-9.037186E-4,2.724613E-1,-3.48768E-2,-1.13912814E-4,2.1593434E-4,-0E0,1.0324086E-3,4.474213E-4,-1.0817053E-3],"split_indices":[12,19,19,17,0,1,0,5,0,19,0,0,0,7,0,1,15,0,0,0,0,0,0],"split_type":[0,0,0,0,0,0,0,0,0,0,0,0,0,0,0,0,0,0,0,0,0,0,0],"sum_hessian":[1.961E3,1.859E3,1.02E2,1.665E3,1.94E2,6.6E1,3.6E1,1.658E3,7E0,1.7E2,2.4E1,8E0,5.8E1,1.617E3,4.1E1,1.04E2,6.6E1,8.57E2,7.6E2,4.7E1,5.7E1,3.5E1,3.1E1],"tree_param":{"num_deleted":"0","num_feature":"20","num_nodes":"23","size_leaf_vector":"1"}},{"base_weights":[-0E0,1.4509313E-2,-4.103593E-4,5.4785617E-2,1.4696464E-4,-6.7870435E-4,1.1367629E-3,-0E0,3.7804712E-3,-1.90388E-2,-3.1598832E-4,5.661184E-4,-2.0503702E-3,-1.0626352E-3,3.8259602E-4,-3.9262704E-5,-2.8164533E-3],"categories":[],"categories_nodes":[],"categories_segments":[],"categories_sizes":[],"default_left":[0,0,0,0,0,0,0,0,0,0,0,0,0,0,0,0,0],"id":32,"left_children":[1,3,5,7,-1,9,-1,-1,-1,11,13,-1,-1,15,-1,-1,-1],"loss_changes":[1.1159466E-2,2.103212E-2,1.0621961E-2,1.1360511E-2,0E0,1.1465871E-2,0E0,0E0,0E0,2.4060652E-2,1.0588434E-2,0E0,0E0,2.2929998E-2,0E0,0E0,0E0],"parents":[2147483647,0,0,1,1,2,2,3,3,5,5,9,9,10,10,13,13],"right_children":[2,4,6,8,-1,10,-1,-1,-1,12,14,-1,-1,16,-1,-1,-1],"split_conditions":[-1.5638037E0,-3.4515315E-1,5.583442E0,2.5362477E-1,1.4696464E-4,-1.6353045E0,1.1367629E-3,-0E0,3.7804712E-3,-1.5700307E0,1.1412655E0,5.661184E-4,-2.0503702E-3,2.1690488E0,3.8259602E-4,-3.9262704E-5,-2.8164533E-3],"split_indices":[15,19,19,12,0,4,0,0,0,2,19,0,0,17,0,0,0],"split_type":[0,0,0,0,0,0,0,0,0,0,0,0,0,0,0,0,0],"sum_hessian":[1.937E3,5.1E1,1.886E3,1E1,4.1E1,1.867E3,1.9E1,3E0,7E0,3.3E1,1.834E3,1.3E1,2E1,1.683E3,1.51E2,1.676E3,7E0],"tree_param":{"num_deleted":"0","num_feature":"20","num_nodes":"17","size_leaf_vector":"1"}},{"base_weights":[-0E0,-6.3300286E-3,9.676593E-4,-1.656967E-2,2.9645886E-5,5.818312E-4,1.4388486E-3,-2.38183E-2,1.3024778E-4,-1.8572662E-2,2.9931962E-4,3.7886982E-3,-1.5337077E-3,-4.4720866E-2,-1.3285784E-2,-1.3494303E-3,7.9743296E-4,1.3523012E-3,1.2126597E-2,-2.2959933E-4,4.102341E-3,-2.7538158E-3,-0E0,1.063113E-3,-1.1205943E-3,3.5735834E-4,-1.4546278E-4,8.8201585E-4,-1.1785971E-5,5.2713982E-5,1.267984E-3],"categories":[],"categories_nodes":[],"categories_segments":[],"categories_sizes":[],"default_left":[0,0,0,0,0,0,0,0,0,0,0,0,0,0,0,0,0,0,0,0,0,0,0,0,0,0,0,0,0,0,0],"id":33,"left_children":[1,3,5,7,9,11,-1,13,-1,15,-1,17,19,21,23,-1,-1,25,27,-1,29,-1,-1,-1,-1,-1,-1,-1,-1,-1,-1],"loss_changes":[1.2311753E-2,1.8247057E-2,1.6780123E-2,1.5755108E-2,1.7432777E-2,1.1516591E-2,0E0,1.4084883E-2,0E0,1.166207E-2,0E0,1.3080881E-2,1.7330837E-2,1.3185792E-2,1.7478993E-2,0E0,0E0,1.3298373E-2,1.0994418E-2,0E0,2.1181736E-2,0E0,0E0,0E0,0E0,0E0,0E0,0E0,0E0,0E0,0E0],"parents":[2147483647,0,0,1,1,2,2,3,3,4,4,5,5,7,7,9,9,11,11,12,12,13,13,14,14,17,17,18,18,20,20],"right_children":[2,4,6,8,10,12,-1,14,-1,16,-1,18,20,22,24,-1,-1,26,28,-1,30,-1,-1,-1,-1,-1,-1,-1,-1,-1,-1],"split_conditions":[-9.966162E-1,7.852405E-2,2.0502102E0,5.862748E-1,-9.386295E-1,-7.3955305E-2,1.4388486E-3,-1.2496524E0,1.3024778E-4,1.7243116E0,2.9931962E-4,-1.6172267E-1,7.298333E-1,-1.19047716E-1,-5.650231E-1,-1.3494303E-3,7.9743296E-4,-1.11067005E-1,6.463457E-1,-2.2959933E-4,9.6667296E-1,-2.7538158E-3,-0E0,1.063113E-3,-1.1205943E-3,3.5735834E-4,-1.4546278E-4,8.8201585E-4,-1.1785971E-5,5.2713982E-5,1.267984E-3],"split_indices":[5,16,1,0,8,5,0,12,0,1,0,5,6,10,11,0,0,8,2,0,2,0,0,0,0,0,0,0,0,0,0],"split_type":[0,0,0,0,0,0,0,0,0,0,0,0,0,0,0,0,0,0,0,0,0,0,0,0,0,0,0,0,0,0,0],"sum_hessian":[1.968E3,2.67E2,1.701E3,1.05E2,1.62E2,1.68E3,2.1E1,7.8E1,2.7E1,3.7E1,1.25E2,6.77E2,1.003E3,2.4E1,5.4E1,3.1E1,6E0,5.29E2,1.48E2,6.56E2,3.47E2,2E1,4E0,1E1,4.4E1,2.29E2,3E2,1.05E2,4.3E1,3.06E2,4.1E1],"tree_param":{"num_deleted":"0","num_feature":"20","num_nodes":"31","size_leaf_vector":"1"}},{"base_weights":[1.8440743E-4,4.5723887E-4,-2.8844438E-2,1.279558E-3,-8.916519E-3,-8.040546E-5,-3.1465236E-3,9.511119E-5,8.798906E-3,-2.1606645E-2,1.0416927E-4,7.3084596E-4,-6.467221E-4,4.0518204E-3,1.9983776E-2,-5.289297E-4,-2.3441599E-3,-5.154764E-5,3.2609524E-4,1.3627815E-3,-0E0,4.2669364E-4,1.955633E-3],"categories":[],"categories_nodes":[],"categories_segments":[],"categories_sizes":[],"default_left":[0,0,0,0,0,0,0,0,0,0,0,0,0,0,0,0,0,0,0,0,0,0,0],"id":34,"left_children":[1,3,5,7,9,-1,-1,11,13,15,-1,17,-1,19,21,-1,-1,-1,-1,-1,-1,-1,-1],"loss_changes":[1.4066839E-2,1.4566243E-2,1.2040716E-2,1.5474835E-2,2.2146579E-2,0E0,0E0,1.2237865E-2,1.13679245E-2,1.7088387E-2,0E0,1.5403382E-2,0E0,1.614403E-2,1.2234896E-2,0E0,0E0,0E0,0E0,0E0,0E0,0E0,0E0],"parents":[2147483647,0,0,1,1,2,2,3,3,4,4,7,7,8,8,9,9,11,11,13,13,14,14],"right_children":[2,4,6,8,10,-1,-1,12,14,16,-1,18,-1,20,22,-1,-1,-1,-1,-1,-1,-1,-1],"split_conditions":[2.1690488E0,1.4848131E0,-7.8710556E-1,6.01524E-1,9.8703355E-1,-8.040546E-5,-3.1465236E-3,9.4627875E-1,8.8344187E-1,1.1401728E0,1.0416927E-4,5.7940055E-2,-6.467221E-4,-1.7139175E0,-8.714899E-1,-5.289297E-4,-2.3441599E-3,-5.154764E-5,3.2609524E-4,1.3627815E-3,-0E0,4.2669364E-4,1.955633E-3],"split_indices":[17,15,12,15,1,0,0,4,10,12,0,7,0,10,0,0,0,0,0,0,0,0,0],"split_type":[0,0,0,0,0,0,0,0,0,0,0,0,0,0,0,0,0,0,0,0,0,0,0],"sum_hessian":[1.954E3,1.938E3,1.6E1,1.787E3,1.51E2,1E1,6E0,1.55E3,2.37E2,7.2E1,7.9E1,1.482E3,6.8E1,1.7E2,6.7E1,5.2E1,2E1,1.13E3,3.52E2,2.5E1,1.45E2,4.4E1,2.3E1],"tree_param":{"num_deleted":"0","num_feature":"20","num_nodes":"23","size_leaf_vector":"1"}},{"base_weights":[-3.1011837E-4,1.1382825E-2,-9.5326325E-4,-1.7062575E-3,7.2501553E-4,-6.360732E-3,2.782809E-4,-1.8118901E-2,-3.1885866E-3,5.872197E-3,-1.5107365E-3,1.3217264E-3,-2.1643441E-2,1.6040147E-4,-9.877949E-3,-6.473021E-4,1.0391971E-2,-5.619927E-4,-1.601601E-2,-2.966044E-3,-7.3027506E-4,1.5383246E-3,-6.872832E-4,2.006413E-4,-8.3135284E-4,-1.4029017E-3,6.042521E-4,-6.480488E-5,7.7510404E-4,-0E0,-1.5595272E-3],"categories":[],"categories_nodes":[],"categories_segments":[],"categories_sizes":[],"default_left":[0,0,0,0,0,0,0,0,0,0,0,0,0,0,0,0,0,0,0,0,0,0,0,0,0,0,0,0,0,0,0],"id":35,"left_children":[1,3,5,-1,-1,7,9,11,13,15,17,-1,19,-1,21,23,25,27,29,-1,-1,-1,-1,-1,-1,-1,-1,-1,-1,-1,-1],"loss_changes":[1.4415417E-2,1.3382284E-2,1.2868225E-2,0E0,0E0,1.2239997E-2,1.5529153E-2,1.14312135E-2,1.2565681E-2,1.1614263E-2,1.5027063E-2,0E0,1.4034726E-2,0E0,2.1918766E-2,1.1871461E-2,1.4180819E-2,1.21007385E-2,1.5275873E-2,0E0,0E0,0E0,0E0,0E0,0E0,0E0,0E0,0E0,0E0,0E0,0E0],"parents":[2147483647,0,0,1,1,2,2,5,5,6,6,7,7,8,8,9,9,10,10,12,12,14,14,15,15,16,16,17,17,18,18],"right_children":[2,4,6,-1,-1,8,10,12,14,16,18,-1,20,-1,22,24,26,28,30,-1,-1,-1,-1,-1,-1,-1,-1,-1,-1,-1,-1],"split_conditions":[-1.8278358E0,-4.076432E-1,-6.0335547E-1,-1.7062575E-3,7.2501553E-4,-4.6794975E-1,-2.1096064E-1,-5.650231E-1,-8.6939764E-1,-5.302638E-1,1.4485373E0,1.3217264E-3,-3.424125E-1,1.6040147E-4,-9.0977615E-1,6.4219886E-1,-7.596725E-1,1.294355E0,4.2852303E-1,-2.966044E-3,-7.3027506E-4,1.5383246E-3,-6.872832E-4,2.006413E-4,-8.3135284E-4,-1.4029017E-3,6.042521E-4,-6.480488E-5,7.7510404E-4,-0E0,-1.5595272E-3],"split_indices":[12,10,4,0,0,15,4,11,4,1,12,0,11,0,3,2,0,12,19,0,0,0,0,0,0,0,0,0,0,0,0],"split_type":[0,0,0,0,0,0,0,0,0,0,0,0,0,0,0,0,0,0,0,0,0,0,0,0,0,0,0,0,0,0,0],"sum_hessian":[1.985E3,9.9E1,1.886E3,5E0,9.4E1,3.57E2,1.529E3,7.2E1,2.85E2,3.77E2,1.152E3,4E0,6.8E1,1.42E2,1.43E2,1.5E2,2.27E2,1.085E3,6.7E1,9E0,5.9E1,1.1E1,1.32E2,1.14E2,3.6E1,8E0,2.19E2,1.041E3,4.4E1,3.4E1,3.3E1],"tree_param":{"num_deleted":"0","num_feature":"20","num_nodes":"31","size_leaf_vector":"1"}},{"base_weights":[-2.5719812E-4,-1.4987704E-3,-8.661494E-6,7.087539E-4,-8.09193E-3,1.4741428E-5,9.51091E-4,-5.7842355E-4,1.5183713E-3],"categories":[],"categories_nodes":[],"categories_segments":[],"categories_sizes":[],"default_left":[0,0,0,0,0,0,0,0,0],"id":36,"left_children":[1,-1,3,5,7,-1,-1,-1,-1],"loss_changes":[1.2899797E-2,0E0,1.159611E-2,1.2467343E-2,2.1096556E-2,0E0,0E0,0E0,0E0],"parents":[2147483647,0,0,2,2,3,3,4,4],"right_children":[2,-1,4,6,8,-1,-1,-1,-1],"split_conditions":[-1.554816E0,-1.4987704E-3,1.4141641E0,1.21898E0,1.6398817E0,1.4741428E-5,9.51091E-4,-5.7842355E-4,1.5183713E-3],"split_indices":[0,0,16,16,11,0,0,0,0],"split_type":[0,0,0,0,0,0,0,0,0],"sum_hessian":[1.949E3,1.4E1,1.935E3,1.772E3,1.63E2,1.736E3,3.6E1,1.51E2,1.2E1],"tree_param":{"num_deleted":"0","num_feature":"20","num_nodes":"9","size_leaf_vector":"1"}},{"base_weights":[-2.6910898E-4],"categories":[],"categories_nodes":[],"categories_segments":[],"categories_sizes":[],"default_left":[0],"id":37,"left_children":[-1],"loss_changes":[0E0],"parents":[2147483647],"right_children":[-1],"split_conditions":[-1.3455449E-5],"split_indices":[0],"split_type":[0],"sum_hessian":[1.926E3],"tree_param":{"num_deleted":"0","num_feature":"20","num_nodes":"1","size_leaf_vector":"1"}},{"base_weights":[1.0890902E-4,-6.054215E-4,7.25777E-3,1.3245911E-4,-1.4579602E-2,1.6679965E-3,2.1744869E-4,-6.913341E-4,8.574941E-3,-2.2609228E-2,-0E0,-1.0772364E-3,-2.427188E-4,-2.5000393E-3,1.0240905E-2,-0E0,-3.323548E-2,2.9637351E-5,-4.925124E-4,1.8771038E-4,1.14067E-3,-1.759236E-4,-2.1784601E-3],"categories":[],"categories_nodes":[],"categories_segments":[],"categories_sizes":[],"default_left":[0,0,0,0,0,0,0,0,0,0,0,0,0,0,0,0,0,0,0,0,0,0,0],"id":38,"left_children":[1,3,5,7,9,-1,-1,11,13,15,-1,-1,17,-1,19,-1,21,-1,-1,-1,-1,-1,-1],"loss_changes":[1.0234054E-2,1.8835079E-2,1.1898483E-2,1.1980462E-2,1.1476545E-2,0E0,0E0,1.3057676E-2,1.3247337E-2,1.4914563E-2,0E0,0E0,1.2373497E-2,0E0,1.0902669E-2,0E0,1.031309E-2,0E0,0E0,0E0,0E0,0E0,0E0],"parents":[2147483647,0,0,1,1,2,2,3,3,4,4,7,7,8,8,9,9,12,12,14,14,16,16],"right_children":[2,4,6,8,10,-1,-1,12,14,16,-1,-1,18,-1,20,-1,22,-1,-1,-1,-1,-1,-1],"split_conditions":[1.1412655E0,8.017345E-1,-4.0525106E-1,2.7140304E-1,1.0634436E-1,1.6679965E-3,2.1744869E-4,-1.4595646E0,-1.5292841E0,8.567668E-3,-0E0,-1.0772364E-3,1.4700398E-1,-2.5000393E-3,2.1121684E-1,-0E0,-1.364565E0,2.9637351E-5,-4.925124E-4,1.8771038E-4,1.14067E-3,-1.759236E-4,-2.1784601E-3],"split_indices":[19,19,15,7,7,0,0,0,16,7,0,0,7,0,17,0,10,0,0,0,0,0,0],"split_type":[0,0,0,0,0,0,0,0,0,0,0,0,0,0,0,0,0,0,0,0,0,0,0],"sum_hessian":[1.938E3,1.756E3,1.82E2,1.665E3,9.1E1,1.6E1,1.66E2,1.512E3,1.53E2,6E1,3.1E1,2.9E1,1.483E3,3E0,1.5E2,1.9E1,4.1E1,1.36E3,1.23E2,1.02E2,4.8E1,1.2E1,2.9E1],"tree_param":{"num_deleted":"0","num_feature":"20","num_nodes":"23","size_leaf_vector":"1"}},{"base_weights":[-4.0518795E-4],"categories":[],"categories_nodes":[],"categories_segments":[],"categories_sizes":[],"default_left":[0],"id":39,"left_children":[-1],"loss_changes":[0E0],"parents":[2147483647],"right_children":[-1],"split_conditions":[-2.0259398E-5],"split_indices":[0],"split_type":[0],"sum_hessian":[1.902E3],"tree_param":{"num_deleted":"0","num_feature":"20","num_nodes":"1","size_leaf_vector":"1"}},{"base_weights":[3.7953735E-4],"categories":[],"categories_nodes":[],"categories_segments":[],"categories_sizes":[],"default_left":[0],"id":40,"left_children":[-1],"loss_changes":[0E0],"parents":[2147483647],"right_children":[-1],"split_conditions":[1.8976867E-5],"split_indices":[0],"split_type":[0],"sum_hessian":[1.915E3],"tree_param":{"num_deleted":"0","num_feature":"20","num_nodes":"1","size_leaf_vector":"1"}},{"base_weights":[-8.893315E-5],"categories":[],"categories_nodes":[],"categories_segments":[],"categories_sizes":[],"default_left":[0],"id":41,"left_children":[-1],"loss_changes":[0E0],"parents":[2147483647],"right_children":[-1],"split_conditions":[-4.4466574E-6],"split_indices":[0],"split_type":[0],"sum_hessian":[1.922E3],"tree_param":{"num_deleted":"0","num_feature":"20","num_nodes":"1","size_leaf_vector":"1"}},{"base_weights":[-1.1990931E-4],"categories":[],"categories_nodes":[],"categories_segments":[],"categories_sizes":[],"default_left":[0],"id":42,"left_children":[-1],"loss_changes":[0E0],"parents":[2147483647],"right_children":[-1],"split_conditions":[-5.9954655E-6],"split_indices":[0],"split_type":[0],"sum_hessian":[1.939E3],"tree_param":{"num_deleted":"0","num_feature":"20","num_nodes":"1","size_leaf_vector":"1"}},{"base_weights":[-0E0,-1.9986273E-4,1.1982209E-3,-2.0450957E-2,5.4685884E-6,5.098406E-4,-2.2482758E-3],"categories":[],"categories_nodes":[],"categories_segments":[],"categories_sizes":[],"default_left":[0,0,0,0,0,0,0],"id":43,"left_children":[1,3,-1,5,-1,-1,-1],"loss_changes":[1.01273265E-2,1.3120162E-2,0E0,2.5634164E-2,0E0,0E0,0E0],"parents":[2147483647,0,0,1,1,3,3],"right_children":[2,4,-1,6,-1,-1,-1],"split_conditions":[5.583442E0,-1.6353045E0,1.1982209E-3,-1.7235811E0,5.4685884E-6,5.098406E-4,-2.2482758E-3],"split_indices":[19,4,0,3,0,0,0],"split_type":[0,0,0,0,0,0,0],"sum_hessian":[1.949E3,1.932E3,1.7E1,3.1E1,1.901E3,1.3E1,1.8E1],"tree_param":{"num_deleted":"0","num_feature":"20","num_nodes":"7","size_leaf_vector":"1"}},{"base_weights":[-1.8431144E-4,1.6605032E-5,-5.4711476E-4],"categories":[],"categories_nodes":[],"categories_segments":[],"categories_sizes":[],"default_left":[0,0,0],"id":44,"left_children":[1,-1,-1],"loss_changes":[1.1090654E-2,0E0,0E0],"parents":[2147483647,0,0],"right_children":[2,-1,-1],"split_conditions":[2.038069E0,1.6605032E-5,-5.4711476E-4],"split_indices":[15,0,0],"split_type":[0,0,0],"sum_hessian":[1.9E3,1.809E3,9.1E1],"tree_param":{"num_deleted":"0","num_feature":"20","num_nodes":"3","size_leaf_vector":"1"}},{"base_weights":[7.506883E-5,6.25066E-4,-3.7538217E-4,2.3864077E-3,-2.575145E-3,1.238933E-3,1.3086315E-3,-8.871049E-4,-1.5272511E-3,7.485213E-3,-3.3785987E-3,5.8139866E-4,-7.177428E-3,2.9107856E-4,1.6610915E-3,-2.0943412E-4,1.8717423E-3,-3.0554053E-3,5.2267103E-5,4.137943E-4,-5.228839E-4],"categories":[],"categories_nodes":[],"categories_segments":[],"categories_sizes":[],"default_left":[0,0,0,0,0,0,0,0,0,0,0,0,0,0,0,0,0,0,0,0,0],"id":45,"left_children":[1,-1,3,5,7,9,-1,-1,11,13,15,17,19,-1,-1,-1,-1,-1,-1,-1,-1],"loss_changes":[1.1425652E-2,0E0,1.1321649E-2,2.0871542E-2,1.5655383E-2,2.2729468E-2,0E0,0E0,1.2037633E-2,1.2358887E-2,1.3112284E-2,1.7335001E-2,1.4016276E-2,0E0,0E0,0E0,0E0,0E0,0E0,0E0,0E0],"parents":[2147483647,0,0,2,2,3,3,4,4,5,5,8,8,9,9,10,10,11,11,12,12],"right_children":[2,-1,4,6,8,10,-1,-1,12,14,16,18,20,-1,-1,-1,-1,-1,-1,-1,-1],"split_conditions":[-2.0205636E0,6.25066E-4,-2.2014588E-1,1.156062E0,-1.9506525E-1,6.1317253E-1,1.3086315E-3,-8.871049E-4,3.137341E-1,-2.2461718E-1,3.2760983E0,-1.5292841E0,-1.2389685E0,2.9107856E-4,1.6610915E-3,-2.0943412E-4,1.8717423E-3,-3.0554053E-3,5.2267103E-5,4.137943E-4,-5.228839E-4],"split_indices":[12,0,9,6,9,2,0,0,19,9,0,16,3,0,0,0,0,0,0,0,0],"split_type":[0,0,0,0,0,0,0,0,0,0,0,0,0,0,0,0,0,0,0,0,0],"sum_hessian":[1.932E3,7.1E1,1.861E3,8.15E2,1.046E3,7.8E2,3.5E1,6.4E1,9.82E2,3.36E2,4.44E2,7.09E2,2.73E2,3.18E2,1.8E1,4.37E2,7E0,4E0,7.05E2,4.5E1,2.28E2],"tree_param":{"num_deleted":"0","num_feature":"20","num_nodes":"21","size_leaf_vector":"1"}},{"base_weights":[-0E0],"categories":[],"categories_nodes":[],"categories_segments":[],"categories_sizes":[],"default_left":[0],"id":46,"left_children":[-1],"loss_changes":[0E0],"parents":[2147483647],"right_children":[-1],"split_conditions":[-0E0],"split_indices":[0],"split_type":[0],"sum_hessian":[1.937E3],"tree_param":{"num_deleted":"0","num_feature":"20","num_nodes":"1","size_leaf_vector":"1"}},{"base_weights":[1.6131304E-4],"categories":[],"categories_nodes":[],"categories_segments":[],"categories_sizes":[],"default_left":[0],"id":47,"left_children":[-1],"loss_changes":[0E0],"parents":[2147483647],"right_children":[-1],"split_conditions":[8.065653E-6],"split_indices":[0],"split_type":[0],"sum_hessian":[1.938E3],"tree_param":{"num_deleted":"0","num_feature":"20","num_nodes":"1","size_leaf_vector":"1"}},{"base_weights":[3.5204706E-4],"categories":[],"categories_nodes":[],"categories_segments":[],"categories_sizes":[],"default_left":[0],"id":48,"left_children":[-1],"loss_changes":[0E0],"parents":[2147483647],"right_children":[-1],"split_conditions":[1.7602353E-5],"split_indices":[0],"split_type":[0],"sum_hessian":[1.938E3],"tree_param":{"num_deleted":"0","num_feature":"20","num_nodes":"1","size_leaf_vector":"1"}},{"base_weights":[-7.514819E-5,-6.571675E-4,4.981013E-4,-1.13263224E-4,-5.863117E-4,-8.766627E-4,5.1055005E-4,-4.940194E-5,-1.7287027E-2,4.8819993E-6,-3.1301682E-3,-2.1549806E-4,-1.5402734E-3],"categories":[],"categories_nodes":[],"categories_segments":[],"categories_sizes":[],"default_left":[0,0,0,0,0,0,0,0,0,0,0,0,0],"id":49,"left_children":[1,3,-1,5,-1,7,-1,9,11,-1,-1,-1,-1],"loss_changes":[1.0961728E-2,1.0566382E-2,0E0,1.34999035E-2,0E0,2.1593664E-2,0E0,1.7647471E-2,1.15982145E-2,0E0,0E0,0E0,0E0],"parents":[2147483647,0,0,1,1,3,3,5,5,7,7,8,8],"right_children":[2,4,-1,6,-1,8,-1,10,12,-1,-1,-1,-1],"split_conditions":[1.7243116E0,2.038069E0,4.981013E-4,1.1604482E0,-5.863117E-4,8.017345E-1,5.1055005E-4,2.1690488E0,-7.220411E-2,4.8819993E-6,-3.1301682E-3,-2.1549806E-4,-1.5402734E-3],"split_indices":[1,15,0,19,0,19,0,17,0,0,0,0,0],"split_type":[0,0,0,0,0,0,0,0,0,0,0,0,0],"sum_hessian":[1.955E3,1.853E3,1.02E2,1.771E3,8.2E1,1.654E3,1.17E2,1.578E3,7.6E1,1.574E3,4E0,4.1E1,3.5E1],"tree_param":{"num_deleted":"0","num_feature":"20","num_nodes":"13","size_leaf_vector":"1"}},{"base_weights":[4.3793579E-4,1.1125716E-3,-4.2539203E-4,-1.7767434E-3,3.714938E-3,-5.4737064E-4,-1.229497E-3,7.4024056E-3,-2.2832419E-4,1.002005E-3,-1.2510142E-3,-2.574953E-3,7.9048015E-3,-9.368643E-3,3.3452536E-3,5.2926014E-5,-3.8280536E-4,2.8535494E-4,1.0105219E-3,2.556748E-4,-7.524076E-4,-1.5430308E-4,4.604544E-4],"categories":[],"categories_nodes":[],"categories_segments":[],"categories_sizes":[],"default_left":[0,0,0,0,0,0,0,0,0,0,0,0,0,0,0,0,0,0,0,0,0,0,0],"id":50,"left_children":[1,3,-1,5,7,9,-1,11,13,-1,15,-1,17,19,21,-1,-1,-1,-1,-1,-1,-1,-1],"loss_changes":[1.1394441E-2,1.3766096E-2,0E0,2.2645554E-2,1.4398549E-2,1.0828664E-2,0E0,1.2982514E-2,1.5358446E-2,0E0,1.19832475E-2,0E0,1.2236126E-2,1.1515773E-2,1.2671098E-2,0E0,0E0,0E0,0E0,0E0,0E0,0E0,0E0],"parents":[2147483647,0,0,1,1,3,3,4,4,5,5,7,7,8,8,10,10,12,12,13,13,14,14],"right_children":[2,4,-1,6,8,10,-1,12,14,-1,16,-1,18,20,22,-1,-1,-1,-1,-1,-1,-1,-1],"split_conditions":[1.4918574E0,-5.235855E-1,-4.2539203E-4,7.281571E-1,2.729409E-1,-1.7121992E0,-1.229497E-3,-1.5292841E0,5.564481E-1,1.002005E-3,-1.0602209E-2,-2.574953E-3,2.1121684E-1,-7.9020864E-1,-1.3595885E-1,5.2926014E-5,-3.8280536E-4,2.8535494E-4,1.0105219E-3,2.556748E-4,-7.524076E-4,-1.5430308E-4,4.604544E-4],"split_indices":[15,1,0,3,19,12,0,16,19,0,8,0,17,9,16,0,0,0,0,0,0,0,0],"split_type":[0,0,0,0,0,0,0,0,0,0,0,0,0,0,0,0,0,0,0,0,0,0,0],"sum_hessian":[1.948E3,1.817E3,1.31E2,8.52E2,9.65E2,8.11E2,4.1E1,5.05E2,4.6E2,2.4E1,7.87E2,3E0,5.02E2,1.33E2,3.27E2,5.73E2,2.14E2,4.3E2,7.2E1,3.5E1,9.8E1,1.52E2,1.75E2],"tree_param":{"num_deleted":"0","num_feature":"20","num_nodes":"23","size_leaf_vector":"1"}},{"base_weights":[-4.150233E-4],"categories":[],"categories_nodes":[],"categories_segments":[],"categories_sizes":[],"default_left":[0],"id":51,"left_children":[-1],"loss_changes":[0E0],"parents":[2147483647],"right_children":[-1],"split_conditions":[-2.0751166E-5],"split_indices":[0],"split_type":[0],"sum_hessian":[1.924E3],"tree_param":{"num_deleted":"0","num_feature":"20","num_nodes":"1","size_leaf_vector":"1"}},{"base_weights":[-9.924011E-5],"categories":[],"categories_nodes":[],"categories_segments":[],"categories_sizes":[],"default_left":[0],"id":52,"left_children":[-1],"loss_changes":[0E0],"parents":[2147483647],"right_children":[-1],"split_conditions":[-4.9620057E-6],"split_indices":[0],"split_type":[0],"sum_hessian":[1.943E3],"tree_param":{"num_deleted":"0","num_feature":"20","num_nodes":"1","size_leaf_vector":"1"}},{"base_weights":[3.417007E-5],"categories":[],"categories_nodes":[],"categories_segments":[],"categories_sizes":[],"default_left":[0],"id":53,"left_children":[-1],"loss_changes":[0E0],"parents":[2147483647],"right_children":[-1],"split_conditions":[1.7085034E-6],"split_indices":[0],"split_type":[0],"sum_hessian":[1.94E3],"tree_param":{"num_deleted":"0","num_feature":"20","num_nodes":"1","size_leaf_vector":"1"}},{"base_weights":[2.46825E-4],"categories":[],"categories_nodes":[],"categories_segments":[],"categories_sizes":[],"default_left":[0],"id":54,"left_children":[-1],"loss_changes":[0E0],"parents":[2147483647],"right_children":[-1],"split_conditions":[1.2341249E-5],"split_indices":[0],"split_type":[0],"sum_hessian":[1.935E3],"tree_param":{"num_deleted":"0","num_feature":"20","num_nodes":"1","size_leaf_vector":"1"}},{"base_weights":[-4.776387E-4,-5.269207E-3,7.9178455E-4,-8.549443E-4,-1.8491104E-3,4.7854884E-3,-2.1109963E-3,7.2516445E-3,-4.4052253E-4,-1.0033002E-4,9.67056E-3,-1.4452043E-2,-8.848896E-4,-1.1094072E-2,8.595159E-4,-2.5605853E-4,1.2520266E-2,8.3437696E-4,-2.07651E-2,7.1520996E-3,-3.8228414E-3,-2.792192E-3,3.751713E-4,-1.3763829E-5,7.4555975E-4,-1.3668165E-3,1.1727915E-3,6.471848E-4,-1.0982691E-4,-3.3111518E-4,1.640863E-4],"categories":[],"categories_nodes":[],"categories_segments":[],"categories_sizes":[],"default_left":[0,0,0,0,0,0,0,0,0,0,0,0,0,0,0,0,0,0,0,0,0,0,0,0,0,0,0,0,0,0,0],"id":55,"left_children":[1,3,5,-1,7,9,11,13,-1,-1,15,17,19,21,-1,-1,23,-1,25,27,29,-1,-1,-1,-1,-1,-1,-1,-1,-1,-1],"loss_changes":[1.1877039E-2,1.5604606E-2,1.7603397E-2,0E0,2.047802E-2,2.167777E-2,1.2323018E-2,2.5288498E-2,0E0,0E0,1.6314425E-2,1.5022792E-2,1.8536335E-2,4.1325398E-2,0E0,0E0,1.0508385E-2,0E0,1.8966824E-2,1.1786356E-2,1.1802995E-2,0E0,0E0,0E0,0E0,0E0,0E0,0E0,0E0,0E0,0E0],"parents":[2147483647,0,0,1,1,2,2,4,4,5,5,6,6,7,7,10,10,11,11,12,12,13,13,16,16,18,18,19,19,20,20],"right_children":[2,4,6,-1,8,10,12,14,-1,-1,16,18,20,22,-1,-1,24,-1,26,28,30,-1,-1,-1,-1,-1,-1,-1,-1,-1,-1],"split_conditions":[-6.0335547E-1,-4.6794975E-1,2.7617617E-2,-8.549443E-4,-4.0164986E-1,-5.3827757E-1,-6.871769E-1,-2.405616E-1,-4.4052253E-4,-1.0033002E-4,-3.3209633E-2,-8.143065E-1,-4.8358938E-1,-1.3652891E0,8.595159E-4,-2.5605853E-4,-7.0274043E-1,8.3437696E-4,1.833835E0,1.0245361E0,2.59786E-1,-2.792192E-3,3.751713E-4,-1.3763829E-5,7.4555975E-4,-1.3668165E-3,1.1727915E-3,6.471848E-4,-1.0982691E-4,-3.3111518E-4,1.640863E-4],"split_indices":[4,15,4,0,12,1,5,10,0,0,17,2,10,12,0,0,3,0,1,12,7,0,0,0,0,0,0,0,0,0,0],"split_type":[0,0,0,0,0,0,0,0,0,0,0,0,0,0,0,0,0,0,0,0,0,0,0,0,0,0,0,0,0,0,0],"sum_hessian":[1.915E3,4.09E2,1.506E3,8.8E1,3.21E2,6.41E2,8.65E2,1.36E2,1.85E2,2.64E2,3.77E2,7.4E1,7.91E2,4.6E1,9E1,5.8E1,3.19E2,1.1E1,6.3E1,2.07E2,5.84E2,1.4E1,3.2E1,4.7E1,2.72E2,5.6E1,7E0,1.31E2,7.6E1,4.24E2,1.6E2],"tree_param":{"num_deleted":"0","num_feature":"20","num_nodes":"31","size_leaf_vector":"1"}},{"base_weights":[-3.1096657E-5],"categories":[],"categories_nodes":[],"categories_segments":[],"categories_sizes":[],"default_left":[0],"id":56,"left_children":[-1],"loss_changes":[0E0],"parents":[2147483647],"right_children":[-1],"split_conditions":[-1.5548329E-6],"split_indices":[0],"split_type":[0],"sum_hessian":[1.926E3],"tree_param":{"num_deleted":"0","num_feature":"20","num_nodes":"1","size_leaf_vector":"1"}},{"base_weights":[8.469072E-5],"categories":[],"categories_nodes":[],"categories_segments":[],"categories_sizes":[],"default_left":[0],"id":57,"left_children":[-1],"loss_changes":[0E0],"parents":[2147483647],"right_children":[-1],"split_conditions":[4.234536E-6],"split_indices":[0],"split_type":[0],"sum_hessian":[1.937E3],"tree_param":{"num_deleted":"0","num_feature":"20","num_nodes":"1","size_leaf_vector":"1"}},{"base_weights":[4.3654567E-4],"categories":[],"categories_nodes":[],"categories_segments":[],"categories_sizes":[],"default_left":[0],"id":58,"left_children":[-1],"loss_changes":[0E0],"parents":[2147483647],"right_children":[-1],"split_conditions":[2.1827283E-5],"split_indices":[0],"split_type":[0],"sum_hessian":[1.929E3],"tree_param":{"num_deleted":"0","num_feature":"20","num_nodes":"1","size_leaf_vector":"1"}},{"base_weights":[2.778383E-5],"categories":[],"categories_nodes":[],"categories_segments":[],"categories_sizes":[],"default_left":[0],"id":59,"left_children":[-1],"loss_changes":[0E0],"parents":[2147483647],"right_children":[-1],"split_conditions":[1.3891915E-6],"split_indices":[0],"split_type":[0],"sum_hessian":[1.948E3],"tree_param":{"num_deleted":"0","num_feature":"20","num_nodes":"1","size_leaf_vector":"1"}},{"base_weights":[2.0017977E-4],"categories":[],"categories_nodes":[],"categories_segments":[],"categories_sizes":[],"default_left":[0],"id":60,"left_children":[-1],"loss_changes":[0E0],"parents":[2147483647],"right_children":[-1],"split_conditions":[1.0008988E-5],"split_indices":[0],"split_type":[0],"sum_hessian":[1.981E3],"tree_param":{"num_deleted":"0","num_feature":"20","num_nodes":"1","size_leaf_vector":"1"}},{"base_weights":[6.71867E-5,-6.1901235E-5,1.767743E-3,1.44854685E-5,-8.662841E-4],"categories":[],"categories_nodes":[],"categories_segments":[],"categories_sizes":[],"default_left":[0,0,0,0,0],"id":61,"left_children":[1,3,-1,-1,-1],"loss_changes":[1.06233535E-2,1.2609114E-2,0E0,0E0,0E0],"parents":[2147483647,0,0,1,1],"right_children":[2,4,-1,-1,-1],"split_conditions":[3.2760983E0,2.2573202E0,1.767743E-3,1.44854685E-5,-8.662841E-4],"split_indices":[0,0,0,0,0],"split_type":[0,0,0,0,0],"sum_hessian":[1.944E3,1.936E3,8E0,1.895E3,4.1E1],"tree_param":{"num_deleted":"0","num_feature":"20","num_nodes":"5","size_leaf_vector":"1"}},{"base_weights":[3.1067268E-4],"categories":[],"categories_nodes":[],"categories_segments":[],"categories_sizes":[],"default_left":[0],"id":62,"left_children":[-1],"loss_changes":[0E0],"parents":[2147483647],"right_children":[-1],"split_conditions":[1.5533635E-5],"split_indices":[0],"split_type":[0],"sum_hessian":[1.945E3],"tree_param":{"num_deleted":"0","num_feature":"20","num_nodes":"1","size_leaf_vector":"1"}},{"base_weights":[-3.4130737E-4],"categories":[],"categories_nodes":[],"categories_segments":[],"categories_sizes":[],"default_left":[0],"id":63,"left_children":[-1],"loss_changes":[0E0],"parents":[2147483647],"right_children":[-1],"split_conditions":[-1.706537E-5],"split_indices":[0],"split_type":[0],"sum_hessian":[1.928E3],"tree_param":{"num_deleted":"0","num_feature":"20","num_nodes":"1","size_leaf_vector":"1"}},{"base_weights":[7.949871E-6],"categories":[],"categories_nodes":[],"categories_segments":[],"categories_sizes":[],"default_left":[0],"id":64,"left_children":[-1],"loss_changes":[0E0],"parents":[2147483647],"right_children":[-1],"split_conditions":[3.9749358E-7],"split_indices":[0],"split_type":[0],"sum_hessian":[1.928E3],"tree_param":{"num_deleted":"0","num_feature":"20","num_nodes":"1","size_leaf_vector":"1"}},{"base_weights":[2.5757105E-4],"categories":[],"categories_nodes":[],"categories_segments":[],"categories_sizes":[],"default_left":[0],"id":65,"left_children":[-1],"loss_changes":[0E0],"parents":[2147483647],"right_children":[-1],"split_conditions":[1.2878553E-5],"split_indices":[0],"split_type":[0],"sum_hessian":[1.942E3],"tree_param":{"num_deleted":"0","num_feature":"20","num_nodes":"1","size_leaf_vector":"1"}},{"base_weights":[1.3918537E-5],"categories":[],"categories_nodes":[],"categories_segments":[],"categories_sizes":[],"default_left":[0],"id":66,"left_children":[-1],"loss_changes":[0E0],"parents":[2147483647],"right_children":[-1],"split_conditions":[6.959269E-7],"split_indices":[0],"split_type":[0],"sum_hessian":[1.964E3],"tree_param":{"num_deleted":"0","num_feature":"20","num_nodes":"1","size_leaf_vector":"1"}},{"base_weights":[-4.5887753E-4],"categories":[],"categories_nodes":[],"categories_segments":[],"categories_sizes":[],"default_left":[0],"id":67,"left_children":[-1],"loss_changes":[0E0],"parents":[2147483647],"right_children":[-1],"split_conditions":[-2.2943877E-5],"split_indices":[0],"split_type":[0],"sum_hessian":[1.959E3],"tree_param":{"num_deleted":"0","num_feature":"20","num_nodes":"1","size_leaf_vector":"1"}},{"base_weights":[2.3299672E-4],"categories":[],"categories_nodes":[],"categories_segments":[],"categories_sizes":[],"default_left":[0],"id":68,"left_children":[-1],"loss_changes":[0E0],"parents":[2147483647],"right_children":[-1],"split_conditions":[1.1649837E-5],"split_indices":[0],"split_type":[0],"sum_hessian":[1.951E3],"tree_param":{"num_deleted":"0","num_feature":"20","num_nodes":"1","size_leaf_vector":"1"}},{"base_weights":[1.3892831E-4],"categories":[],"categories_nodes":[],"categories_segments":[],"categories_sizes":[],"default_left":[0],"id":69,"left_children":[-1],"loss_changes":[0E0],"parents":[2147483647],"right_children":[-1],"split_conditions":[6.946416E-6],"split_indices":[0],"split_type":[0],"sum_hessian":[1.95E3],"tree_param":{"num_deleted":"0","num_feature":"20","num_nodes":"1","size_leaf_vector":"1"}}]},"name":"gbtree"},"learner_model_param":{"base_score":"[7.881024E-3]","boost_from_average":"1","num_class":"0","num_feature":"20","num_target":"1"},"objective":{"name":"reg:squarederror","reg_loss_param":{"scale_pos_weight":"1"}}},"version":[3,2,0]}