{"learner":{"attributes":{"best_iteration":"0","best_score":"0.07366603840957855","scikit_learn":"{\"_estimator_type\": \"regressor\"}"},"feature_names":[],"feature_types":[],"gradient_booster":{"model":{"cats":{"enc":[],"feature_segments":[],"sorted_idx":[]},"gbtree_model_param":{"num_parallel_tree":"1","num_trees":"41"},"iteration_indptr":[0,1,2,3,4,5,6,7,8,9,10,11,12,13,14,15,16,17,18,19,20,21,22,23,24,25,26,27,28,29,30,31,32,33,34,35,36,37,38,39,40,41],"tree_info":[0,0,0,0,0,0,0,0,0,0,0,0,0,0,0,0,0,0,0,0,0,0,0,0,0,0,0,0,0,0,0,0,0,0,0,0,0,0,0,0,0],"trees":[{"base_weights":[-1.0037934E-3,4.4221086E-3,-5.0775398E-2,-2.3525928E-3,2.1356216E-2,-3.1181535E-2,-9.4200924E-2,6.877283E-4,-1.3895242E-1,1.1358021E-2,1.9372704E-2,7.198321E-3,-5.480539E-2,-1.4404248E-1,-4.4444043E-2,-1.3701086E-1,1.8094075E-3,-1.2285676E-2,-1.0111878E-1,9.079261E-3,5.147632E-2,-8.2949335E-3,3.5688577E-3,9.101776E-3,-6.629402E-2,-7.983818E-3,-2.7528787E-3,-3.5302776E-3,-0E0,-9.499873E-3,-2.3742484E-4,-0E0,3.6354107E-3,-5.772176E-3,-0E0,1.6702894E-3,1.1202907E-5,1.5079576E-3,5.0041857E-3,1.6726822E-3,-1.773483E-3,-3.5281788E-4,2.486125E-3,-2.3247458E-3,-4.4555212E-3,1.170742E-3,-2.0450165E-3],"categories":[],"categories_nodes":[],"categories_segments":[],"categories_sizes":[],"default_left":[0,0,0,0,0,0,0,0,0,0,0,0,0,0,0,0,0,0,0,0,0,0,0,0,0,0,0,0,0,0,0,0,0,0,0,0,0,0,0,0,0,0,0,0,0,0,0],"id":0,"left_children":[1,3,5,7,9,11,13,15,17,-1,19,21,23,25,27,29,31,-1,33,35,37,39,-1,41,43,-1,-1,-1,45,-1,-1,-1,-1,-1,-1,-1,-1,-1,-1,-1,-1,-1,-1,-1,-1,-1,-1],"loss_changes":[5.259332E-1,2.0145465E-1,1.552045E-1,5.2464163E-1,1.901928E-1,1.2361945E-1,1.3245249E-1,1.817201E-1,8.131218E-2,0E0,1.6114078E-1,5.3664263E-2,6.446746E-2,2.4516106E-2,3.1979345E-2,5.638884E-2,1.5727463E-1,0E0,2.6715666E-2,7.9849854E-2,1.15801156E-1,4.66416E-2,0E0,1.0513176E-2,2.3447901E-2,0E0,0E0,0E0,1.3312514E-2,0E0,0E0,0E0,0E0,0E0,0E0,0E0,0E0,0E0,0E0,0E0,0E0,0E0,0E0,0E0,0E0,0E0,0E0],"parents":[2147483647,0,0,1,1,2,2,3,3,4,4,5,5,6,6,7,7,8,8,10,10,11,11,12,12,13,13,14,14,15,15,16,16,18,18,19,19,20,20,21,21,23,23,24,24,28,28],"right_children":[2,4,6,8,10,12,14,16,18,-1,20,22,24,26,28,30,32,-1,34,36,38,40,-1,42,44,-1,-1,-1,46,-1,-1,-1,-1,-1,-1,-1,-1,-1,-1,-1,-1,-1,-1,-1,-1,-1,-1],"split_conditions":[1.1986341E0,2.9844928E-1,1.1401728E0,8.5544443E-1,-1.1295328E0,2.0032706E0,1.0057325E0,-1.6375165E-1,-4.076432E-1,1.1358021E-2,5.6003883E-2,1.6249408E0,9.9442504E-2,8.277609E-1,1.6615362E0,2.9259168E-2,1.1016272E0,-1.2285676E-2,6.758274E-1,1.7653364E-1,2.2895844E-1,-1.0738473E0,3.5688577E-3,1.4959158E0,9.4239855E-1,-7.983818E-3,-2.7528787E-3,-3.5302776E-3,1.4485373E0,-9.499873E-3,-2.3742484E-4,-0E0,3.6354107E-3,-5.772176E-3,-0E0,1.6702894E-3,1.1202907E-5,1.5079576E-3,5.0041857E-3,1.6726822E-3,-1.773483E-3,-3.5281788E-4,2.486125E-3,-2.3247458E-3,-4.4555212E-3,1.170742E-3,-2.0450165E-3],"split_indices":[15,0,12,11,19,15,1,7,10,0,7,19,12,2,1,0,12,0,1,12,15,11,0,1,19,0,0,0,12,0,0,0,0,0,0,0,0,0,0,0,0,0,0,0,0,0,0],"split_type":[0,0,0,0,0,0,0,0,0,0,0,0,0,0,0,0,0,0,0,0,0,0,0,0,0,0,0,0,0,0,0,0,0,0,0,0,0,0,0,0,0,0,0,0,0,0,0],"sum_hessian":[1.938E3,1.747E3,1.91E2,1.246E3,5.01E2,1.33E2,5.8E1,1.219E3,2.7E1,4E0,4.97E2,5E1,8.3E1,2.8E1,3E1,9E0,1.21E3,6E0,2.1E1,3.78E2,1.19E2,4E1,1E1,1.2E1,7.1E1,2.3E1,5E0,1.8E1,1.2E1,6E0,3E0,1.18E3,3E1,1.8E1,3E0,9.9E1,2.79E2,8.4E1,3.5E1,1.5E1,2.5E1,8E0,4E0,4E1,3.1E1,7E0,5E0],"tree_param":{"num_deleted":"0","num_feature":"20","num_nodes":"47","size_leaf_vector":"1"}},{"base_weights":[-5.8071373E-4,3.1324227E-3,-6.047794E-2,5.0031487E-3,-7.57811E-2,-7.693528E-2,-1.2791821E-2,-2.0432796E-3,2.3581596E-2,-8.687386E-2,2.138973E-3,-5.9598554E-2,-1.23217955E-1,-2.836978E-2,2.5752622E-3,7.776736E-4,-1.4351821E-1,3.6592549E-3,3.7468225E-2,-1.0107224E-1,-7.5352626E-5,-6.316056E-2,-0E0,-8.087418E-3,-2.444606E-3,-5.0114628E-2,2.8137883E-4,6.53273E-4,-4.5321052E-4,-7.94784E-3,-4.7409403E-4,6.9625177E-3,-1.7247295E-4,6.790822E-4,3.0356918E-3,-5.4889726E-3,-0E0,-1.291972E-3,-3.5163916E-3,-0E0,-3.1112619E-3],"categories":[],"categories_nodes":[],"categories_segments":[],"categories_sizes":[],"default_left":[0,0,0,0,0,0,0,0,0,0,0,0,0,0,0,0,0,0,0,0,0,0,0,0,0,0,0,0,0,0,0,0,0,0,0,0,0,0,0,0,0],"id":1,"left_children":[1,3,5,7,9,11,13,15,17,19,-1,21,23,25,-1,27,29,31,33,35,-1,37,-1,-1,-1,39,-1,-1,-1,-1,-1,-1,-1,-1,-1,-1,-1,-1,-1,-1,-1],"loss_changes":[4.3231785E-1,2.6496017E-1,8.409485E-2,2.3366565E-1,5.864224E-2,5.418694E-2,3.0123143E-2,5.2062744E-1,1.3357392E-1,4.145959E-2,0E0,1.5361533E-2,4.7085702E-2,2.1216685E-2,0E0,1.5281875E-1,4.3592393E-2,2.0317943E-1,1.5550965E-1,2.3513198E-2,0E0,1.0198712E-2,0E0,0E0,0E0,1.0832377E-2,0E0,0E0,0E0,0E0,0E0,0E0,0E0,0E0,0E0,0E0,0E0,0E0,0E0,0E0,0E0],"parents":[2147483647,0,0,1,1,2,2,3,3,4,4,5,5,6,6,7,7,8,8,9,9,11,11,12,12,13,13,15,15,16,16,17,17,18,18,19,19,21,21,25,25],"right_children":[2,4,6,8,10,12,14,16,18,20,-1,22,24,26,-1,28,30,32,34,36,-1,38,-1,-1,-1,40,-1,-1,-1,-1,-1,-1,-1,-1,-1,-1,-1,-1,-1,-1,-1],"split_conditions":[2.0032706E0,2.409317E0,1.26752E0,2.9844928E-1,1.610438E0,1.1787183E0,-2.0416129E-1,8.5544443E-1,-4.5279613E-1,1.6568202E0,2.138973E-3,5.504668E0,2.0194879E0,1.0454593E0,2.5752622E-3,-4.8021907E-1,4.4342446E-1,-1.1083791E0,-6.4953715E-1,1.8725386E0,-7.5352626E-5,-8.611358E-1,-0E0,-8.087418E-3,-2.444606E-3,-1.7780966E-1,2.8137883E-4,6.53273E-4,-4.5321052E-4,-7.94784E-3,-4.7409403E-4,6.9625177E-3,-1.7247295E-4,6.790822E-4,3.0356918E-3,-5.4889726E-3,-0E0,-1.291972E-3,-3.5163916E-3,-0E0,-3.1112619E-3],"split_indices":[15,16,1,0,2,12,8,11,1,0,0,14,16,2,0,11,1,4,8,12,0,0,0,0,0,0,0,0,0,0,0,0,0,0,0,0,0,0,0,0,0],"split_type":[0,0,0,0,0,0,0,0,0,0,0,0,0,0,0,0,0,0,0,0,0,0,0,0,0,0,0,0,0,0,0,0,0,0,0,0,0,0,0,0,0],"sum_hessian":[1.93E3,1.817E3,1.13E2,1.776E3,4.1E1,8.3E1,3E1,1.286E3,4.9E2,3.8E1,3E0,6.2E1,2.1E1,2.5E1,5E0,1.261E3,2.5E1,2.03E2,2.87E2,3.2E1,6E0,5.9E1,3E0,1.3E1,8E0,1.6E1,9E0,5.63E2,6.98E2,2.2E1,3E0,1E1,1.93E2,1.43E2,1.44E2,2.9E1,3E0,1.1E1,4.8E1,3E0,1.3E1],"tree_param":{"num_deleted":"0","num_feature":"20","num_nodes":"41","size_leaf_vector":"1"}},{"base_weights":[7.3304167E-4,4.040323E-3,-5.6091838E-2,5.7328227E-3,-7.472416E-2,4.002157E-4,-6.499082E-2,-1.1985264E-3,2.3075508E-2,-8.297659E-2,1.5052009E-4,-5.4395832E-2,-1.1264347E-1,1.5075856E-3,-1.2963727E-1,1.0543774E-2,2.1278407E-2,-4.6256115E-3,-0E0,-4.5910023E-2,-5.0797635E-3,-7.067084E-3,-2.7171378E-3,1.3891258E-4,-5.9666056E-3,-7.2307684E-3,-0E0,-3.4979294E-5,1.8821029E-3,-2.473158E-3,-0E0],"categories":[],"categories_nodes":[],"categories_segments":[],"categories_sizes":[],"default_left":[0,0,0,0,0,0,0,0,0,0,0,0,0,0,0,0,0,0,0,0,0,0,0,0,0,0,0,0,0,0,0],"id":2,"left_children":[1,3,5,7,9,-1,11,13,15,17,-1,19,21,23,25,-1,27,-1,-1,29,-1,-1,-1,-1,-1,-1,-1,-1,-1,-1,-1],"loss_changes":[3.57314E-1,2.3812026E-1,6.271526E-2,2.1429695E-1,2.8179437E-2,0E0,3.528568E-2,4.4635355E-1,1.5776524E-1,2.3498163E-2,0E0,2.1333292E-2,1.2308791E-2,1.8465945E-1,4.6115488E-2,0E0,1.8329878E-1,0E0,0E0,1.3087586E-2,0E0,0E0,0E0,0E0,0E0,0E0,0E0,0E0,0E0,0E0,0E0],"parents":[2147483647,0,0,1,1,2,2,3,3,4,4,6,6,7,7,8,8,9,9,11,11,12,12,13,13,14,14,16,16,19,19],"right_children":[2,4,6,8,10,-1,12,14,16,18,-1,20,22,24,26,-1,28,-1,-1,30,-1,-1,-1,-1,-1,-1,-1,-1,-1,-1,-1],"split_conditions":[2.0032706E0,2.409317E0,9.9442504E-2,2.9844928E-1,1.5575686E0,4.002157E-4,1.3714463E0,8.5544443E-1,-1.1295328E0,1.6568202E0,1.5052009E-4,3.152796E-1,8.277609E-1,3.283806E0,6.758274E-1,1.0543774E-2,-4.3543267E-1,-4.6256115E-3,-0E0,1.294355E0,-5.0797635E-3,-7.067084E-3,-2.7171378E-3,1.3891258E-4,-5.9666056E-3,-7.2307684E-3,-0E0,-3.4979294E-5,1.8821029E-3,-2.473158E-3,-0E0],"split_indices":[15,16,12,0,2,0,12,11,19,0,0,17,2,8,1,0,1,0,0,12,0,0,0,0,0,0,0,0,0,0,0],"split_type":[0,0,0,0,0,0,0,0,0,0,0,0,0,0,0,0,0,0,0,0,0,0,0,0,0,0,0,0,0,0,0],"sum_hessian":[1.914E3,1.81E3,1.04E2,1.773E3,3.7E1,1.2E1,9.2E1,1.265E3,5.08E2,3.4E1,3E0,7.7E1,1.5E1,1.239E3,2.6E1,4E0,5.04E2,3E1,4E0,6.7E1,1E1,9E0,6E0,1.227E3,1.2E1,2.3E1,3E0,2.14E2,2.9E2,6.3E1,4E0],"tree_param":{"num_deleted":"0","num_feature":"20","num_nodes":"31","size_leaf_vector":"1"}},{"base_weights":[-8.3965325E-4,3.7149433E-3,-4.20391E-2,2.8301586E-4,3.6678024E-2,-1.4910806E-2,-7.13324E-2,2.3740798E-2,-4.5240815E-3,1.2421002E-2,4.4921516E-3,-3.0375637E-2,1.0443592E-1,-1.1094833E-1,-3.3217452E-2,-3.3025157E-2,3.298111E-2,-2.8553405E-3,-8.075106E-2,7.659218E-2,-1.48760555E-2,6.475033E-4,-4.175438E-2,5.835806E-4,6.530368E-3,-5.166926E-2,-1.2814938E-1,-5.103028E-2,3.7331533E-2,5.831133E-4,-2.0013785E-3,4.6856618E-3,9.6136564E-4,-2.3401548E-4,2.4119474E-3,-6.122791E-3,1.5979348E-3,2.559834E-3,6.3719596E-3,-1.9988471E-3,3.69236E-4,3.7545938E-4,-2.6614224E-3,-3.9405054E-3,-0E0,-7.0569566E-3,-2.782139E-3,-2.962496E-3,1.3846557E-3,4.055804E-3,-4.609873E-4],"categories":[],"categories_nodes":[],"categories_segments":[],"categories_sizes":[],"default_left":[0,0,0,0,0,0,0,0,0,0,0,0,0,0,0,0,0,0,0,0,0,0,0,0,0,0,0,0,0,0,0,0,0,0,0,0,0,0,0,0,0,0,0,0,0,0,0,0,0,0,0],"id":3,"left_children":[1,3,5,7,9,11,13,15,17,19,-1,21,23,25,27,29,31,33,35,37,39,-1,41,-1,-1,43,45,47,49,-1,-1,-1,-1,-1,-1,-1,-1,-1,-1,-1,-1,-1,-1,-1,-1,-1,-1,-1,-1,-1,-1],"loss_changes":[3.664983E-1,1.9594915E-1,1.4972076E-1,1.7980161E-1,2.0518246E-1,1.8706502E-1,1.3062021E-1,1.4295368E-1,1.6291282E-1,2.0247167E-1,0E0,4.6819344E-2,2.0043254E-2,3.3073366E-2,6.258628E-2,1.3386168E-2,1.893292E-1,1.17988504E-1,1.357463E-1,3.2355323E-2,4.6199054E-2,0E0,4.4031948E-2,0E0,0E0,1.5881065E-2,1.7785966E-2,2.7957827E-2,2.3331901E-2,0E0,0E0,0E0,0E0,0E0,0E0,0E0,0E0,0E0,0E0,0E0,0E0,0E0,0E0,0E0,0E0,0E0,0E0,0E0,0E0,0E0,0E0],"parents":[2147483647,0,0,1,1,2,2,3,3,4,4,5,5,6,6,7,7,8,8,9,9,11,11,12,12,13,13,14,14,15,15,16,16,17,17,18,18,19,19,20,20,22,22,25,25,26,26,27,27,28,28],"right_children":[2,4,6,8,10,12,14,16,18,20,-1,22,24,26,28,30,32,34,36,38,40,-1,42,-1,-1,44,46,48,50,-1,-1,-1,-1,-1,-1,-1,-1,-1,-1,-1,-1,-1,-1,-1,-1,-1,-1,-1,-1,-1,-1],"split_conditions":[1.1986341E0,1.156062E0,7.203664E-2,-8.221599E-1,-6.8162864E-1,1.5557127E-1,1.0057325E0,-4.172755E-1,1.7571868E0,-3.980009E-1,4.4921516E-3,-1.0738473E0,7.9870707E-1,1.1401728E0,2.670664E0,-5.650231E-1,-6.413048E-1,1.3498441E0,2.096655E0,1.1611544E0,2.4429663E-1,6.475033E-4,9.9442504E-2,5.835806E-4,6.530368E-3,3.9400533E-1,8.992903E-1,3.2760983E0,-4.076432E-1,5.831133E-4,-2.0013785E-3,4.6856618E-3,9.6136564E-4,-2.3401548E-4,2.4119474E-3,-6.122791E-3,1.5979348E-3,2.559834E-3,6.3719596E-3,-1.9988471E-3,3.69236E-4,3.7545938E-4,-2.6614224E-3,-3.9405054E-3,-0E0,-7.0569566E-3,-2.782139E-3,-2.962496E-3,1.3846557E-3,4.055804E-3,-4.609873E-4],"split_indices":[15,6,2,6,11,0,1,15,19,19,0,11,1,12,19,11,19,19,19,3,7,0,12,0,0,1,2,0,10,0,0,0,0,0,0,0,0,0,0,0,0,0,0,0,0,0,0,0,0,0,0],"split_type":[0,0,0,0,0,0,0,0,0,0,0,0,0,0,0,0,0,0,0,0,0,0,0,0,0,0,0,0,0,0,0,0,0,0,0,0,0,0,0,0,0,0,0,0,0,0,0,0,0,0,0],"sum_hessian":[1.942E3,1.748E3,1.94E2,1.585E3,1.63E2,1.02E2,9.2E1,2.71E2,1.314E3,1.13E2,5E1,9.1E1,1.1E1,4.4E1,4.8E1,3.7E1,2.34E2,1.287E3,2.7E1,3.4E1,7.9E1,1.8E1,7.3E1,3E0,8E0,1.1E1,3.3E1,3.9E1,9E0,4E0,3.3E1,4.2E1,1.92E2,1.244E3,4.3E1,2E1,7E0,2.4E1,1E1,3.8E1,4.1E1,1.3E1,6E1,7E0,4E0,2.7E1,6E0,3.6E1,3E0,5E0,4E0],"tree_param":{"num_deleted":"0","num_feature":"20","num_nodes":"51","size_leaf_vector":"1"}},{"base_weights":[6.3544617E-4,4.2872657E-3,-4.5080088E-2,-1.7852896E-3,2.1132812E-2,-6.0616158E-2,7.236553E-2,-6.9033515E-5,-9.045946E-2,1.3879728E-2,8.426448E-2,-6.47743E-3,-5.3057447E-2,2.3787532E-3,7.168113E-3,-4.52964E-2,2.0286113E-3,-9.97184E-3,-6.189225E-2,5.6643803E-2,6.472144E-3,-0E0,9.294721E-2,-6.742233E-2,-2.542582E-2,-4.3947445E-3,-6.469776E-4,2.103917E-4,-1.8753501E-3,-3.9084745E-3,-0E0,9.017228E-3,1.5205905E-3,-7.1589794E-4,1.2993271E-3,3.6441225E-3,6.3557625E-3,-3.8754996E-3,-2.2208305E-4,-2.4812748E-3,2.9236186E-5],"categories":[],"categories_nodes":[],"categories_segments":[],"categories_sizes":[],"default_left":[0,0,0,0,0,0,0,0,0,0,0,0,0,0,0,0,0,0,0,0,0,0,0,0,0,0,0,0,0,0,0,0,0,0,0,0,0,0,0,0,0],"id":4,"left_children":[1,3,5,7,9,11,13,15,17,19,21,-1,23,-1,-1,25,27,-1,29,31,33,-1,35,37,39,-1,-1,-1,-1,-1,-1,-1,-1,-1,-1,-1,-1,-1,-1,-1,-1],"loss_changes":[3.2184663E-1,1.8486242E-1,2.616174E-1,1.9628195E-1,2.1361281E-1,5.3344518E-2,1.608359E-2,1.2511465E-1,5.7034627E-2,1.3303402E-1,3.1430066E-2,0E0,4.034531E-2,0E0,0E0,7.502326E-2,1.0503313E-1,0E0,2.229441E-2,1.8952718E-1,1.5027225E-1,0E0,1.5190333E-2,4.306221E-2,2.8588587E-2,0E0,0E0,0E0,0E0,0E0,0E0,0E0,0E0,0E0,0E0,0E0,0E0,0E0,0E0,0E0,0E0],"parents":[2147483647,0,0,1,1,2,2,3,3,4,4,5,5,6,6,7,7,8,8,9,9,10,10,12,12,15,15,16,16,18,18,19,19,20,20,22,22,23,23,24,24],"right_children":[2,4,6,8,10,12,14,16,18,20,22,-1,24,-1,-1,26,28,-1,30,32,34,-1,36,38,40,-1,-1,-1,-1,-1,-1,-1,-1,-1,-1,-1,-1,-1,-1,-1,-1],"split_conditions":[1.5036906E0,2.9844928E-1,1.610438E0,8.7648374E-1,1.156062E0,4.9227786E-1,1.5656362E0,-5.193771E-2,-7.704538E-2,-7.7959025E-1,3.916296E-1,-6.47743E-3,1.6050531E0,2.3787532E-3,7.168113E-3,-7.5610155E-1,1.4848131E0,-9.97184E-3,6.758274E-1,-4.7245756E-1,-4.5279613E-1,-0E0,2.537623E-1,2.670664E0,7.988631E-1,-4.3947445E-3,-6.469776E-4,2.103917E-4,-1.8753501E-3,-3.9084745E-3,-0E0,9.017228E-3,1.5205905E-3,-7.1589794E-4,1.2993271E-3,3.6441225E-3,6.3557625E-3,-3.8754996E-3,-2.2208305E-4,-2.4812748E-3,2.9236186E-5],"split_indices":[16,0,2,2,6,19,19,7,3,3,0,0,0,0,0,4,15,0,1,19,1,0,1,19,19,0,0,0,0,0,0,0,0,0,0,0,0,0,0,0,0],"split_type":[0,0,0,0,0,0,0,0,0,0,0,0,0,0,0,0,0,0,0,0,0,0,0,0,0,0,0,0,0,0,0,0,0,0,0,0,0,0,0,0,0],"sum_hessian":[1.939E3,1.797E3,1.42E2,1.319E3,4.78E2,1.26E2,1.6E1,1.295E3,2.4E1,4.3E2,4.8E1,1.1E1,1.15E2,1.3E1,3E0,5.8E1,1.237E3,4E0,2E1,6.2E1,3.68E2,5E0,4.3E1,7.4E1,4.1E1,2.4E1,3.4E1,1.174E3,6.3E1,1.6E1,4E0,1E1,5.2E1,1.77E2,1.91E2,2.9E1,1.4E1,6.3E1,1.1E1,2.2E1,1.9E1],"tree_param":{"num_deleted":"0","num_feature":"20","num_nodes":"41","size_leaf_vector":"1"}},{"base_weights":[-0E0,2.7175776E-3,-4.711422E-2,-8.306449E-4,3.204031E-2,-6.158418E-2,-4.1697007E-3,-1.5406392E-3,1.0544277E-1,1.8789344E-2,4.4203675E-3,-1.4853127E-3,-7.501711E-2,1.841884E-3,-3.0034168E-2,-3.3674948E-4,-5.9598796E-2,3.9838426E-2,8.8688815E-3,3.6328014E-2,-1.1626191E-2,-0E0,-3.984566E-3,-2.4160843E-3,4.2464226E-4,-7.860636E-5,2.052302E-3,-5.4708566E-3,-1.462009E-3,4.59882E-3,-1.8525161E-4,3.209228E-4,3.806596E-3,-2.0183083E-3,1.55661E-3],"categories":[],"categories_nodes":[],"categories_segments":[],"categories_sizes":[],"default_left":[0,0,0,0,0,0,0,0,0,0,0,0,0,0,0,0,0,0,0,0,0,0,0,0,0,0,0,0,0,0,0,0,0,0,0],"id":5,"left_children":[1,3,5,7,9,11,13,15,17,19,-1,-1,21,-1,23,25,27,29,-1,31,33,-1,-1,-1,-1,-1,-1,-1,-1,-1,-1,-1,-1,-1,-1],"loss_changes":[2.5230423E-1,1.9431454E-1,6.338501E-2,1.19497605E-1,1.4431353E-1,2.7692616E-2,3.0441089E-2,1.1172684E-1,3.515797E-2,8.919847E-2,0E0,0E0,2.035889E-2,0E0,1.5231058E-2,8.0341645E-2,4.062096E-2,1.9340696E-2,0E0,1.2122771E-1,7.420811E-2,0E0,0E0,0E0,0E0,0E0,0E0,0E0,0E0,0E0,0E0,0E0,0E0,0E0,0E0],"parents":[2147483647,0,0,1,1,2,2,3,3,4,4,5,5,6,6,7,7,8,8,9,9,12,12,14,14,15,15,16,16,17,17,19,19,20,20],"right_children":[2,4,6,8,10,12,14,16,18,20,-1,-1,22,-1,24,26,28,30,-1,32,34,-1,-1,-1,-1,-1,-1,-1,-1,-1,-1,-1,-1,-1,-1],"split_conditions":[2.0032706E0,1.156062E0,1.26752E0,5.8154044E0,8.992903E-1,2.3440804E0,1.7002497E0,2.409317E0,-1.429045E0,-2.3992935E-1,4.4203675E-3,-1.4853127E-3,-1.4708897E0,1.841884E-3,2.8793783E0,1.9943434E0,8.0576724E-1,-1.5347842E0,8.8688815E-3,-9.9987155E-1,1.3289596E0,-0E0,-3.984566E-3,-2.4160843E-3,4.2464226E-4,-7.860636E-5,2.052302E-3,-5.4708566E-3,-1.462009E-3,4.59882E-3,-1.8525161E-4,3.209228E-4,3.806596E-3,-2.0183083E-3,1.55661E-3],"split_indices":[15,6,1,1,2,15,3,16,2,0,0,0,10,0,3,0,0,2,0,0,1,0,0,0,0,0,0,0,0,0,0,0,0,0,0],"split_type":[0,0,0,0,0,0,0,0,0,0,0,0,0,0,0,0,0,0,0,0,0,0,0,0,0,0,0,0,0,0,0,0,0,0,0],"sum_hessian":[1.959E3,1.852E3,1.07E2,1.651E3,2.01E2,7.9E1,2.8E1,1.641E3,1E1,1.64E2,3.7E1,2.5E1,5.4E1,1E1,1.8E1,1.609E3,3.2E1,6E0,4E0,1.05E2,5.9E1,3E0,5.1E1,1.3E1,5E0,1.564E3,4.5E1,1.1E1,2.1E1,3E0,3E0,6.1E1,4.4E1,3.6E1,2.3E1],"tree_param":{"num_deleted":"0","num_feature":"20","num_nodes":"35","size_leaf_vector":"1"}},{"base_weights":[5.2613934E-4,3.3626566E-3,-4.8765894E-2,-0E0,3.0712103E-2,5.697967E-3,-6.3096315E-2,1.3082426E-2,-7.1462807E-3,7.540261E-2,1.3945565E-2,1.7055412E-3,-1.6940575E-3,-5.5786032E-2,-6.8855747E-3,8.670273E-3,1.2011008E-2,-4.715895E-3,-8.710654E-2,2.9086962E-3,6.2792874E-3,1.2277836E-3,4.276601E-3,-5.6644008E-3,-4.667418E-2,8.7365176E-4,-7.0380716E-4,5.250605E-4,-6.622323E-4,-1.9500327E-3,-9.306502E-3,-6.7714765E-3,2.7677152E-4,-2.5417106E-3,1.1779935E-3],"categories":[],"categories_nodes":[],"categories_segments":[],"categories_sizes":[],"default_left":[0,0,0,0,0,0,0,0,0,0,0,0,0,0,0,0,0,0,0,0,0,0,0,0,0,0,0,0,0,0,0,0,0,0,0],"id":6,"left_children":[1,3,5,7,9,11,13,15,17,19,21,-1,-1,23,-1,-1,25,27,29,-1,-1,31,-1,-1,33,-1,-1,-1,-1,-1,-1,-1,-1,-1,-1],"loss_changes":[2.6870865E-1,1.6744283E-1,8.4610865E-2,1.5308502E-1,1.4449319E-1,2.4767287E-2,3.202969E-2,8.923013E-2,2.0032334E-1,3.3414662E-2,1.2898615E-1,0E0,0E0,2.9964179E-2,0E0,0E0,8.243753E-2,1.3329907E-1,1.3040407E-1,0E0,0E0,6.7758396E-2,0E0,0E0,2.197659E-2,0E0,0E0,0E0,0E0,0E0,0E0,0E0,0E0,0E0,0E0],"parents":[2147483647,0,0,1,1,2,2,3,3,4,4,5,5,6,6,7,7,8,8,9,9,10,10,13,13,16,16,17,17,18,18,21,21,24,24],"right_children":[2,4,6,8,10,12,14,16,18,20,22,-1,-1,24,-1,-1,26,28,30,-1,-1,32,-1,-1,34,-1,-1,-1,-1,-1,-1,-1,-1,-1,-1],"split_conditions":[2.0032706E0,1.156062E0,2.5362477E-1,-4.78741E-1,-3.980009E-1,-3.1463706E-1,1.564174E0,-3.254022E0,1.7571868E0,1.1611544E0,8.992903E-1,1.7055412E-3,-1.6940575E-3,1.8732572E-2,-6.8855747E-3,8.670273E-3,7.327319E-2,-2.5181702E-1,8.5160404E-1,2.9086962E-3,6.2792874E-3,-7.114279E-1,4.276601E-3,-5.6644008E-3,3.2760983E0,8.7365176E-4,-7.0380716E-4,5.250605E-4,-6.622323E-4,-1.9500327E-3,-9.306502E-3,-6.7714765E-3,2.7677152E-4,-2.5417106E-3,1.1779935E-3],"split_indices":[15,6,12,12,19,2,12,12,19,3,2,0,0,7,0,0,17,5,2,0,0,10,0,0,0,0,0,0,0,0,0,0,0,0,0],"split_type":[0,0,0,0,0,0,0,0,0,0,0,0,0,0,0,0,0,0,0,0,0,0,0,0,0,0,0,0,0,0,0,0,0,0,0],"sum_hessian":[1.937E3,1.833E3,1.04E2,1.634E3,1.99E2,2.1E1,8.3E1,5.79E2,1.055E3,5.3E1,1.46E2,1.3E1,8E0,7.7E1,6E0,3E0,5.76E2,1.025E3,3E1,4.1E1,1.2E1,1.25E2,2.1E1,9E0,6.8E1,4.78E2,9.8E1,3.66E2,6.59E2,2.1E1,9E0,3E0,1.22E2,6.5E1,3E0],"tree_param":{"num_deleted":"0","num_feature":"20","num_nodes":"35","size_leaf_vector":"1"}},{"base_weights":[-8.175051E-4,2.8786024E-3,-3.3959277E-2,-1.9735016E-3,1.8282836E-2,-1.8689703E-2,-6.599204E-2,5.8547344E-2,-3.9048323E-3,2.7948428E-2,-1.8957375E-2,-3.9843664E-2,3.873099E-4,-8.70458E-2,9.945536E-3,-5.8826595E-3,8.083854E-2,1.2799562E-2,-8.6979475E-3,1.8279357E-2,6.128837E-2,-2.413962E-2,2.5233289E-3,-3.3059684E-4,-3.811535E-3,5.3422574E-2,-1.6029714E-2,-1.0518922E-1,-2.0314164E-3,-1.628105E-3,2.639456E-3,2.9836914E-3,7.0582516E-3,4.221906E-5,3.594574E-3,-3.6191258E-3,-2.5728164E-4,3.9975937E-3,6.422171E-4,1.6936364E-3,4.5567225E-3,-1.6211119E-3,5.900757E-4,4.328929E-3,-0E0,-1.5745318E-3,5.684536E-4,-6.921887E-3,-3.9770207E-3],"categories":[],"categories_nodes":[],"categories_segments":[],"categories_sizes":[],"default_left":[0,0,0,0,0,0,0,0,0,0,0,0,0,0,0,0,0,0,0,0,0,0,0,0,0,0,0,0,0,0,0,0,0,0,0,0,0,0,0,0,0,0,0,0,0,0,0,0,0],"id":7,"left_children":[1,3,5,7,9,11,13,15,17,19,21,23,25,27,29,-1,31,33,35,37,39,41,-1,-1,-1,43,45,47,-1,-1,-1,-1,-1,-1,-1,-1,-1,-1,-1,-1,-1,-1,-1,-1,-1,-1,-1,-1,-1],"loss_changes":[2.4102047E-1,1.3219425E-1,9.175171E-2,1.5336622E-1,1.531527E-1,5.6662157E-2,1.0421112E-1,1.6198744E-1,1.03496134E-1,1.0426009E-1,3.0413052E-2,7.4808724E-2,6.368085E-2,3.2259792E-2,2.6456736E-2,0E0,3.2349065E-2,1.9873208E-1,2.2408795E-1,8.3169565E-2,5.3165704E-2,2.5483806E-2,0E0,0E0,0E0,2.8761927E-2,2.3848247E-2,1.30164325E-2,0E0,0E0,0E0,0E0,0E0,0E0,0E0,0E0,0E0,0E0,0E0,0E0,0E0,0E0,0E0,0E0,0E0,0E0,0E0,0E0,0E0],"parents":[2147483647,0,0,1,1,2,2,3,3,4,4,5,5,6,6,7,7,8,8,9,9,10,10,11,11,12,12,13,13,14,14,16,16,17,17,18,18,19,19,20,20,21,21,25,25,26,26,27,27],"right_children":[2,4,6,8,10,12,14,16,18,20,22,24,26,28,30,-1,32,34,36,38,40,42,-1,-1,-1,44,46,48,-1,-1,-1,-1,-1,-1,-1,-1,-1,-1,-1,-1,-1,-1,-1,-1,-1,-1,-1,-1,-1],"split_conditions":[1.1986341E0,4.6238917E-1,1.1401728E0,-2.0205636E0,2.312568E0,3.9400533E-1,1.6615362E0,-3.165078E-1,-7.873741E-1,2.8323346E-1,1.4959158E0,-9.9964374E-1,2.0032706E0,8.992903E-1,2.6528432E0,-5.8826595E-3,-7.199705E-1,-4.1461092E-1,-4.7884092E-1,-4.516111E-2,-6.660643E-1,2.9217035E-1,2.5233289E-3,-3.3059684E-4,-3.811535E-3,9.47445E-1,-2.7912298E-2,-7.114279E-1,-2.0314164E-3,-1.628105E-3,2.639456E-3,2.9836914E-3,7.0582516E-3,4.221906E-5,3.594574E-3,-3.6191258E-3,-2.5728164E-4,3.9975937E-3,6.422171E-4,1.6936364E-3,4.5567225E-3,-1.6211119E-3,5.900757E-4,4.328929E-3,-0E0,-1.5745318E-3,5.684536E-4,-6.921887E-3,-3.9770207E-3],"split_indices":[15,5,12,12,9,1,1,10,10,15,1,11,15,2,3,0,2,8,9,7,2,12,0,0,0,12,10,10,0,0,0,0,0,0,0,0,0,0,0,0,0,0,0,0,0,0,0,0,0],"split_type":[0,0,0,0,0,0,0,0,0,0,0,0,0,0,0,0,0,0,0,0,0,0,0,0,0,0,0,0,0,0,0,0,0,0,0,0,0,0,0,0,0,0,0,0,0,0,0,0,0],"sum_hessian":[1.954E3,1.757E3,1.97E2,1.334E3,4.23E2,1.35E2,6.2E1,4E1,1.294E3,3.37E2,8.6E1,6.5E1,7E1,4.9E1,1.3E1,4E0,3.6E1,2.86E2,1.008E3,2.63E2,7.4E1,8.1E1,5E0,3.5E1,3E1,1.7E1,5.3E1,3.4E1,1.5E1,6E0,7E0,2.8E1,8E0,2.39E2,4.7E1,5.2E1,9.56E2,2E1,2.43E2,4E1,3.4E1,6.7E1,1.4E1,1E1,7E0,3.5E1,1.8E1,1.3E1,2.1E1],"tree_param":{"num_deleted":"0","num_feature":"20","num_nodes":"49","size_leaf_vector":"1"}},{"base_weights":[3.110933E-4,3.1373487E-3,-4.4782214E-2,2.659333E-4,2.7661197E-2,-4.718986E-2,1.2015149E-3,1.859309E-2,-3.1555626E-3,5.79442E-2,7.917242E-3,-3.261514E-2,-6.929217E-2,7.770834E-3,1.5069169E-1,-1.6179663E-3,-7.757273E-2,4.909642E-2,5.2386853E-3,4.9665704E-2,-1.17214285E-2,-1.3793068E-2,-5.4817248E-2,-5.138661E-3,-3.790807E-2,7.140114E-5,2.3694942E-3,1.1904206E-2,8.8541437E-4,6.061907E-4,-3.365021E-4,-5.1312526E-3,2.5382054E-3,1.5756385E-3,3.518164E-3,-0E0,3.4996436E-3,1.6321986E-3,-1.2424985E-3,-1.8617911E-3,1.716636E-3,-1.5034399E-3,-5.561048E-3,-2.7415508E-3,1.4387052E-4],"categories":[],"categories_nodes":[],"categories_segments":[],"categories_sizes":[],"default_left":[0,0,0,0,0,0,0,0,0,0,0,0,0,0,0,0,0,0,0,0,0,0,0,0,0,0,0,0,0,0,0,0,0,0,0,0,0,0,0,0,0,0,0,0,0],"id":8,"left_children":[1,3,5,7,9,11,-1,13,15,17,19,21,23,25,27,29,31,33,-1,35,37,39,41,-1,43,-1,-1,-1,-1,-1,-1,-1,-1,-1,-1,-1,-1,-1,-1,-1,-1,-1,-1,-1,-1],"loss_changes":[2.4758944E-1,1.2848623E-1,2.0694911E-2,1.04486056E-1,1.1097661E-1,2.9692695E-2,0E0,3.6676258E-1,1.551981E-1,2.0602614E-2,9.85247E-2,2.5234766E-2,3.5675794E-2,5.871588E-2,2.1172637E-1,9.56259E-2,9.361409E-2,1.791723E-2,0E0,3.97553E-2,4.632091E-2,4.53483E-2,3.3838466E-2,0E0,1.8896513E-2,0E0,0E0,0E0,0E0,0E0,0E0,0E0,0E0,0E0,0E0,0E0,0E0,0E0,0E0,0E0,0E0,0E0,0E0,0E0,0E0],"parents":[2147483647,0,0,1,1,2,2,3,3,4,4,5,5,7,7,8,8,9,9,10,10,11,11,12,12,13,13,14,14,15,15,16,16,17,17,19,19,20,20,21,21,22,22,24,24],"right_children":[2,4,6,8,10,12,-1,14,16,18,20,22,24,26,28,30,32,34,-1,36,38,40,42,-1,44,-1,-1,-1,-1,-1,-1,-1,-1,-1,-1,-1,-1,-1,-1,-1,-1,-1,-1,-1,-1],"split_conditions":[2.0032706E0,1.156062E0,3.2760983E0,-8.593075E-1,-3.1766614E-1,6.577488E-1,1.2015149E-3,6.859818E-1,1.7571868E0,1.1611544E0,-4.076432E-1,3.518186E-1,8.8724595E-1,4.9723515E-1,-4.7245756E-1,-6.871769E-1,2.096655E0,-6.4533114E-1,5.2386853E-3,3.916296E-1,-7.2414674E-2,1.2398006E-1,-5.706917E-1,-5.138661E-3,2.8793783E0,7.140114E-5,2.3694942E-3,1.1904206E-2,8.8541437E-4,6.061907E-4,-3.365021E-4,-5.1312526E-3,2.5382054E-3,1.5756385E-3,3.518164E-3,-0E0,3.4996436E-3,1.6321986E-3,-1.2424985E-3,-1.8617911E-3,1.716636E-3,-1.5034399E-3,-5.561048E-3,-2.7415508E-3,1.4387052E-4],"split_indices":[15,6,0,3,19,2,0,10,19,3,10,10,11,0,19,5,19,2,0,0,17,10,2,0,3,0,0,0,0,0,0,0,0,0,0,0,0,0,0,0,0,0,0,0,0],"split_type":[0,0,0,0,0,0,0,0,0,0,0,0,0,0,0,0,0,0,0,0,0,0,0,0,0,0,0,0,0,0,0,0,0,0,0,0,0,0,0,0,0,0,0,0,0],"sum_hessian":[1.958E3,1.844E3,1.14E2,1.653E3,1.91E2,1.11E2,3E0,2.62E2,1.391E3,7.4E1,1.17E2,6.9E1,4.2E1,2.43E2,1.9E1,1.364E3,2.7E1,6.4E1,1E1,3.8E1,7.9E1,3.9E1,3E1,1.9E1,2.3E1,2.11E2,3.2E1,1.1E1,8E0,3.67E2,9.97E2,2.3E1,4E0,3.7E1,2.7E1,1.1E1,2.7E1,1.7E1,6.2E1,2.7E1,1.2E1,2.2E1,8E0,1.7E1,6E0],"tree_param":{"num_deleted":"0","num_feature":"20","num_nodes":"45","size_leaf_vector":"1"}},{"base_weights":[4.9856945E-4,3.0403114E-3,-3.994171E-2,8.261999E-3,2.6075125E-3,-4.7154494E-2,1.0553864E-3,-3.1583816E-2,4.3767514E-3,-4.053834E-2,-5.191499E-3,-4.218159E-3,-7.4140124E-2,2.4810348E-2,1.225004E-3,-5.947129E-2,-2.8171573E-2,-1.2488194E-3,9.834494E-4,-5.031251E-3,1.8966886E-4,2.9846368E-4,2.5622926E-3,-6.500594E-4,3.712976E-4,-1.0691045E-3,-3.9839568E-3,-0E0,-2.0072716E-3],"categories":[],"categories_nodes":[],"categories_segments":[],"categories_sizes":[],"default_left":[0,0,0,0,0,0,0,0,0,0,0,0,0,0,0,0,0,0,0,0,0,0,0,0,0,0,0,0,0],"id":9,"left_children":[1,3,5,-1,7,9,-1,11,13,15,-1,17,19,21,23,25,27,-1,-1,-1,-1,-1,-1,-1,-1,-1,-1,-1,-1],"loss_changes":[1.9572425E-1,1.18418835E-1,5.133784E-2,0E0,1.0792822E-1,2.873689E-2,0E0,9.782658E-2,1.09357074E-1,1.6438037E-2,0E0,2.7535088E-2,7.417846E-2,1.1029796E-1,1.3134348E-1,2.0649768E-2,2.0455908E-2,0E0,0E0,0E0,0E0,0E0,0E0,0E0,0E0,0E0,0E0,0E0,0E0],"parents":[2147483647,0,0,1,1,2,2,4,4,5,5,7,7,8,8,9,9,11,11,12,12,13,13,14,14,15,15,16,16],"right_children":[2,4,6,-1,8,10,-1,12,14,16,-1,18,20,22,24,26,28,-1,-1,-1,-1,-1,-1,-1,-1,-1,-1,-1,-1],"split_conditions":[2.0032706E0,-3.138385E0,1.6615362E0,8.261999E-3,-5.193771E-2,1.487083E0,1.0553864E-3,7.348062E-2,-8.221599E-1,3.9400533E-1,-5.191499E-3,6.643659E-1,-2.405616E-1,-8.651407E-1,-3.5155445E-1,-8.9931244E-1,-3.1463706E-1,-1.2488194E-3,9.834494E-4,-5.031251E-3,1.8966886E-4,2.9846368E-4,2.5622926E-3,-6.500594E-4,3.712976E-4,-1.0691045E-3,-3.9839568E-3,-0E0,-2.0072716E-3],"split_indices":[15,12,1,0,7,12,0,15,6,1,0,19,10,5,6,2,2,0,0,0,0,0,0,0,0,0,0,0,0],"split_type":[0,0,0,0,0,0,0,0,0,0,0,0,0,0,0,0,0,0,0,0,0,0,0,0,0,0,0,0,0],"sum_hessian":[1.921E3,1.809E3,1.12E2,4E0,1.805E3,1.01E2,1.1E1,8.7E1,1.718E3,9.2E1,9E0,5.4E1,3.3E1,2.27E2,1.491E3,3.4E1,5.8E1,3E1,2.4E1,2.5E1,8E0,1.34E2,9.3E1,4.5E2,1.041E3,1.3E1,2.1E1,1.7E1,4.1E1],"tree_param":{"num_deleted":"0","num_feature":"20","num_nodes":"29","size_leaf_vector":"1"}},{"base_weights":[-7.1883824E-4,2.3923982E-3,-2.8530223E-2,-5.971814E-3,1.2125752E-2,-4.1690137E-2,8.211376E-3,8.042497E-2,-7.855176E-3,5.23484E-3,3.6979012E-2,5.661342E-3,-5.7027645E-2,-1.774306E-2,4.4280272E-2,8.203375E-3,2.1238471E-3,-9.895061E-3,6.800373E-2,3.3881846E-3,5.829299E-2,1.5680492E-2,6.057315E-2,4.1267085E-3,-5.8295318E-5,-8.29333E-2,-4.3979745E-2,-4.8823416E-2,2.5968452E-4,4.55047E-3,-4.3481612E-4,-3.5076725E-4,-4.014764E-3,1.6881779E-3,6.6065937E-3,4.0241424E-4,-8.3410804E-4,-0E0,3.7529548E-3,-4.073926E-5,3.2097013E-3,2.1868998E-3,5.520736E-3,-2.2176707E-3,-5.724182E-3,-7.926401E-4,-3.5843533E-3,-8.5338496E-4,-6.1415043E-3],"categories":[],"categories_nodes":[],"categories_segments":[],"categories_sizes":[],"default_left":[0,0,0,0,0,0,0,0,0,0,0,0,0,0,0,0,0,0,0,0,0,0,0,0,0,0,0,0,0,0,0,0,0,0,0,0,0,0,0,0,0,0,0,0,0,0,0,0,0],"id":10,"left_children":[1,3,5,7,9,11,13,15,17,19,21,23,25,27,29,-1,-1,31,33,35,37,39,41,-1,-1,43,45,47,-1,-1,-1,-1,-1,-1,-1,-1,-1,-1,-1,-1,-1,-1,-1,-1,-1,-1,-1,-1,-1],"loss_changes":[1.6976736E-1,1.4277391E-1,9.7339556E-2,1.4939675E-1,1.3677135E-1,1.0912591E-1,4.9931314E-2,4.808259E-2,1.3971761E-1,5.9279505E-2,8.340219E-2,2.2747986E-2,2.951926E-2,2.3338305E-2,6.0211252E-2,0E0,0E0,1.7710264E-1,4.107493E-2,5.73901E-2,2.3298316E-2,7.801795E-2,5.826357E-2,0E0,0E0,3.2730192E-2,5.4672927E-2,2.368372E-2,0E0,0E0,0E0,0E0,0E0,0E0,0E0,0E0,0E0,0E0,0E0,0E0,0E0,0E0,0E0,0E0,0E0,0E0,0E0,0E0,0E0],"parents":[2147483647,0,0,1,1,2,2,3,3,4,4,5,5,6,6,7,7,8,8,9,9,10,10,11,11,12,12,13,13,14,14,17,17,18,18,19,19,20,20,21,21,22,22,25,25,26,26,27,27],"right_children":[2,4,6,8,10,12,14,16,18,20,22,24,26,28,30,-1,-1,32,34,36,38,40,42,-1,-1,44,46,48,-1,-1,-1,-1,-1,-1,-1,-1,-1,-1,-1,-1,-1,-1,-1,-1,-1,-1,-1,-1,-1],"split_conditions":[1.1986341E0,3.4705993E-2,1.3289596E0,-1.173423E0,5.862748E-1,6.037064E-1,1.7853098E0,-1.2110134E0,2.4470544E0,1.0034401E0,-6.6382945E-1,2.3035388E-1,4.1270435E-1,2.3440804E0,-3.9245397E-1,8.203375E-3,2.1238471E-3,1.6686165E0,-1.429045E0,3.3975434E-1,-7.5936353E-1,1.710994E0,1.3191371E0,4.1267085E-3,-5.8295318E-5,1.0309682E0,6.577488E-1,1.2281878E0,2.5968452E-4,4.55047E-3,-4.3481612E-4,-3.5076725E-4,-4.014764E-3,1.6881779E-3,6.6065937E-3,4.0241424E-4,-8.3410804E-4,-0E0,3.7529548E-3,-4.073926E-5,3.2097013E-3,2.1868998E-3,5.520736E-3,-2.2176707E-3,-5.724182E-3,-7.926401E-4,-3.5843533E-3,-8.5338496E-4,-6.1415043E-3],"split_indices":[15,7,1,15,0,3,19,19,19,3,8,3,1,15,10,0,0,19,2,16,2,2,2,0,0,3,2,0,0,0,0,0,0,0,0,0,0,0,0,0,0,0,0,0,0,0,0,0,0],"split_type":[0,0,0,0,0,0,0,0,0,0,0,0,0,0,0,0,0,0,0,0,0,0,0,0,0,0,0,0,0,0,0,0,0,0,0,0,0,0,0,0,0,0,0,0,0,0,0,0,0],"sum_hessian":[1.946E3,1.749E3,1.97E2,9.38E2,8.11E2,1.46E2,5.1E1,1.9E1,9.19E2,6.37E2,1.74E2,3.5E1,1.11E2,2.9E1,2.2E1,5E0,1.4E1,8.96E2,2.3E1,6.17E2,2E1,9.3E1,8.1E1,3E0,3.2E1,3.5E1,7.6E1,1.3E1,1.6E1,1.2E1,1E1,8.62E2,3.4E1,1.6E1,7E0,5.03E2,1.14E2,4E0,1.6E1,6.9E1,2.4E1,6.2E1,1.9E1,1.7E1,1.8E1,3.9E1,3.7E1,1E1,3E0],"tree_param":{"num_deleted":"0","num_feature":"20","num_nodes":"49","size_leaf_vector":"1"}},{"base_weights":[-6.352867E-4,2.6960727E-3,-2.9793719E-2,3.824464E-5,2.4986397E-2,-1.4079254E-2,-6.0831644E-2,1.0988001E-2,-6.612149E-3,5.254345E-2,2.5151062E-3,-3.0676821E-2,2.1218809E-3,-5.015672E-3,-2.2452159E-2,7.535136E-3,1.0053244E-2,-4.0459234E-2,-3.3580717E-3,-5.3442167E-3,6.0566682E-2,3.5146147E-3,-1.498138E-2,-3.7906233E-3,-3.2823787E-3,-8.070946E-3,3.628411E-2,3.2828175E-3,-4.019354E-2,1.1804301E-3,8.8825225E-5,-2.7028096E-4,-4.055908E-3,-2.6527108E-4,2.0665743E-3,-3.093437E-3,2.6612002E-3,3.6460087E-3,1.3908114E-3,1.3195092E-3,-1.3953756E-3,9.766209E-4,-8.743722E-4,-8.416553E-4,1.0674194E-3,-8.377574E-4,2.619744E-3,-2.7440197E-3,-0E0],"categories":[],"categories_nodes":[],"categories_segments":[],"categories_sizes":[],"default_left":[0,0,0,0,0,0,0,0,0,0,0,0,0,0,0,0,0,0,0,0,0,0,0,0,0,0,0,0,0,0,0,0,0,0,0,0,0,0,0,0,0,0,0,0,0,0,0,0,0],"id":11,"left_children":[1,3,5,7,9,11,13,15,17,19,21,23,25,-1,27,-1,29,31,33,35,37,-1,39,41,-1,43,45,-1,47,-1,-1,-1,-1,-1,-1,-1,-1,-1,-1,-1,-1,-1,-1,-1,-1,-1,-1,-1,-1],"loss_changes":[1.8794706E-1,1.0079581E-1,9.264347E-2,1.1250744E-1,1.0957353E-1,3.7358366E-2,9.198718E-2,6.76705E-2,1.0309108E-1,4.031086E-2,1.23657145E-1,5.9869237E-2,2.4713024E-2,0E0,5.397559E-2,0E0,6.406286E-2,1.13037065E-1,7.441275E-2,3.3528823E-2,2.287668E-2,0E0,4.349344E-2,1.2686873E-2,0E0,1.2971649E-2,1.632023E-2,0E0,2.0108934E-2,0E0,0E0,0E0,0E0,0E0,0E0,0E0,0E0,0E0,0E0,0E0,0E0,0E0,0E0,0E0,0E0,0E0,0E0,0E0,0E0],"parents":[2147483647,0,0,1,1,2,2,3,3,4,4,5,5,6,6,7,7,8,8,9,9,10,10,11,11,12,12,14,14,16,16,17,17,18,18,19,19,20,20,22,22,23,23,25,25,26,26,28,28],"right_children":[2,4,6,8,10,12,14,16,18,20,22,24,26,-1,28,-1,30,32,34,36,38,-1,40,42,-1,44,46,-1,48,-1,-1,-1,-1,-1,-1,-1,-1,-1,-1,-1,-1,-1,-1,-1,-1,-1,-1,-1,-1],"split_conditions":[1.1986341E0,1.0992806E0,1.1401728E0,-4.78741E-1,-3.1766614E-1,3.9400533E-1,9.8703355E-1,-3.254022E0,-3.95018E-2,-2.7457136E-1,-1.4405112E0,-9.9964374E-1,3.152796E-1,-5.015672E-3,5.965859E-1,7.535136E-3,-1.7806774E-2,-7.141171E-1,1.9508592E0,-1.1448207E0,7.9549724E-1,3.5146147E-3,-7.2414674E-2,8.0749565E-1,-3.2823787E-3,1.0630816E0,-2.6891887E-1,3.2828175E-3,1.1346118E0,1.1804301E-3,8.8825225E-5,-2.7028096E-4,-4.055908E-3,-2.6527108E-4,2.0665743E-3,-3.093437E-3,2.6612002E-3,3.6460087E-3,1.3908114E-3,1.3195092E-3,-1.3953756E-3,9.766209E-4,-8.743722E-4,-8.416553E-4,1.0674194E-3,-8.377574E-4,2.619744E-3,-2.7440197E-3,-0E0],"split_indices":[15,6,12,12,19,1,1,12,17,16,10,11,17,0,2,0,8,0,0,0,15,0,17,10,0,12,0,0,2,0,0,0,0,0,0,0,0,0,0,0,0,0,0,0,0,0,0,0,0],"split_type":[0,0,0,0,0,0,0,0,0,0,0,0,0,0,0,0,0,0,0,0,0,0,0,0,0,0,0,0,0,0,0,0,0,0,0,0,0,0,0,0,0,0,0,0,0,0,0,0,0],"sum_hessian":[1.92E3,1.722E3,1.98E2,1.541E3,1.81E2,1.33E2,6.5E1,5.85E2,9.56E2,8E1,1.01E2,6.7E1,6.6E1,3.1E1,3.4E1,3E0,5.82E2,8.2E1,8.74E2,9E0,7.1E1,2.1E1,8E1,3.9E1,2.8E1,5E1,1.6E1,5E0,2.9E1,2.18E2,3.64E2,4.5E1,3.7E1,8.39E2,3.5E1,5E0,4E0,5E1,2.1E1,1.8E1,6.2E1,1.3E1,2.6E1,4E1,1E1,3E0,1.3E1,2.2E1,7E0],"tree_param":{"num_deleted":"0","num_feature":"20","num_nodes":"49","size_leaf_vector":"1"}},{"base_weights":[-1.00732E-3,1.2105482E-3,-3.8393427E-2,-1.5484997E-3,2.3797626E-2,-4.4986874E-2,5.285588E-4,-2.514539E-3,6.502423E-2,4.0685724E-2,-1.2171078E-2,-2.3611484E-3,-0E0,-9.039113E-4,-7.214246E-2,3.497649E-2,6.4302534E-3,3.921229E-3,6.456556E-2,-6.4754955E-2,6.6741565E-3,-2.0163627E-3,4.3257925E-5,-0E0,-5.7067745E-3,3.4491916E-3,5.122836E-5,1.3729476E-3,-1.5807108E-3,-0E0,3.572767E-3,-4.125561E-3,1.8858536E-4,1.9746865E-3,-1.6737452E-3],"categories":[],"categories_nodes":[],"categories_segments":[],"categories_sizes":[],"default_left":[0,0,0,0,0,0,0,0,0,0,0,0,0,0,0,0,0,0,0,0,0,0,0,0,0,0,0,0,0,0,0,0,0,0,0],"id":12,"left_children":[1,3,5,7,9,11,-1,13,15,17,19,-1,-1,21,23,25,-1,27,29,31,33,-1,-1,-1,-1,-1,-1,-1,-1,-1,-1,-1,-1,-1,-1],"loss_changes":[1.6212037E-1,1.14769265E-1,3.7310153E-2,1.01366594E-1,1.2346565E-1,1.11834705E-2,0E0,1.7591475E-1,3.2557197E-2,1.1716448E-1,6.60458E-2,0E0,0E0,1.11242406E-1,1.08344495E-1,1.55153815E-2,0E0,4.6647783E-2,3.6468208E-2,2.5386192E-2,6.223385E-2,0E0,0E0,0E0,0E0,0E0,0E0,0E0,0E0,0E0,0E0,0E0,0E0,0E0,0E0],"parents":[2147483647,0,0,1,1,2,2,3,3,4,4,5,5,7,7,8,8,9,9,10,10,13,13,14,14,15,15,17,17,18,18,19,19,20,20],"right_children":[2,4,6,8,10,12,-1,14,16,18,20,-1,-1,22,24,26,-1,28,30,32,34,-1,-1,-1,-1,-1,-1,-1,-1,-1,-1,-1,-1,-1,-1],"split_conditions":[2.0032706E0,1.156062E0,1.6615362E0,2.4470544E0,1.2823764E0,5.504668E0,5.285588E-4,1.7571868E0,5.8154044E0,-9.9987155E-1,1.4724035E0,-2.3611484E-3,-0E0,-5.193771E-2,6.183557E-1,-1.949939E-1,6.4302534E-3,-3.1766614E-1,-7.541802E-1,2.4429663E-1,-3.3169702E-1,-2.0163627E-3,4.3257925E-5,-0E0,-5.7067745E-3,3.4491916E-3,5.122836E-5,1.3729476E-3,-1.5807108E-3,-0E0,3.572767E-3,-4.125561E-3,1.8858536E-4,1.9746865E-3,-1.6737452E-3],"split_indices":[15,6,1,19,19,14,0,19,1,0,19,0,0,7,2,10,0,19,2,7,10,0,0,0,0,0,0,0,0,0,0,0,0,0,0],"split_type":[0,0,0,0,0,0,0,0,0,0,0,0,0,0,0,0,0,0,0,0,0,0,0,0,0,0,0,0,0,0,0,0,0,0,0],"sum_hessian":[1.932E3,1.823E3,1.09E2,1.623E3,2E2,9.7E1,1.2E1,1.601E3,2.2E1,1.37E2,6.3E1,9.3E1,4E0,1.566E3,3.5E1,1.6E1,6E0,5.5E1,8.2E1,1.7E1,4.6E1,6.8E1,1.498E3,1.3E1,2.2E1,7E0,9E0,3.4E1,2.1E1,8E0,7.4E1,1.4E1,3E0,2.6E1,2E1],"tree_param":{"num_deleted":"0","num_feature":"20","num_nodes":"35","size_leaf_vector":"1"}},{"base_weights":[2.9658177E-4,2.9204832E-3,-3.1128822E-2,-1.4383346E-3,1.4979452E-2,-4.273167E-2,5.475355E-2,4.0669617E-4,-1.0153766E-1,1.2272468E-1,1.22354105E-2,-4.621916E-2,1.6454271E-3,1.5678393E-3,6.4787674E-3,-4.1048497E-2,2.4653166E-3,-9.040592E-3,-6.823761E-2,8.427787E-3,1.079622E-3,-9.38392E-3,2.762446E-2,6.6165463E-4,-4.9621053E-2,-3.905757E-3,-3.1869617E-4,6.7022134E-4,-2.2525432E-4,-4.5387596E-3,-5.9773686E-4,-9.588734E-4,1.7573985E-3,2.7770147E-4,2.2300384E-3,-3.113865E-3,-1.5110209E-3],"categories":[],"categories_nodes":[],"categories_segments":[],"categories_sizes":[],"default_left":[0,0,0,0,0,0,0,0,0,0,0,0,0,0,0,0,0,0,0,0,0,0,0,0,0,0,0,0,0,0,0,0,0,0,0,0,0],"id":13,"left_children":[1,3,5,7,9,11,13,15,17,19,21,23,-1,-1,-1,25,27,-1,29,-1,-1,31,33,-1,35,-1,-1,-1,-1,-1,-1,-1,-1,-1,-1,-1,-1],"loss_changes":[1.6012737E-1,9.580031E-2,1.4954254E-1,2.5006363E-1,1.3545156E-1,3.637883E-2,2.0557147E-2,1.0927745E-1,4.6054393E-2,4.197529E-2,1.5824282E-1,2.793461E-2,0E0,0E0,0E0,7.328544E-2,9.52158E-2,0E0,1.7787792E-2,0E0,0E0,8.480099E-2,1.0134053E-1,0E0,2.4267107E-2,0E0,0E0,0E0,0E0,0E0,0E0,0E0,0E0,0E0,0E0,0E0,0E0],"parents":[2147483647,0,0,1,1,2,2,3,3,4,4,5,5,6,6,7,7,8,8,9,9,10,10,11,11,15,15,16,16,18,18,21,21,22,22,24,24],"right_children":[2,4,6,8,10,12,14,16,18,20,22,24,-1,-1,-1,26,28,-1,30,-1,-1,32,34,-1,36,-1,-1,-1,-1,-1,-1,-1,-1,-1,-1,-1,-1],"split_conditions":[1.5036906E0,2.9844928E-1,1.610438E0,8.5544443E-1,-9.817131E-1,2.764842E0,1.5656362E0,-5.193771E-2,-4.076432E-1,-1.0119929E0,-4.5279613E-1,2.9217035E-1,1.6454271E-3,1.5678393E-3,6.4787674E-3,-7.5610155E-1,-4.78741E-1,-9.040592E-3,9.641085E-2,8.427787E-3,1.079622E-3,7.206228E-1,-6.4953715E-1,6.6165463E-4,1.6050531E0,-3.905757E-3,-3.1869617E-4,6.7022134E-4,-2.2525432E-4,-4.5387596E-3,-5.9773686E-4,-9.588734E-4,1.7573985E-3,2.7770147E-4,2.2300384E-3,-3.113865E-3,-1.5110209E-3],"split_indices":[16,0,2,11,1,19,19,7,10,19,1,12,0,0,0,4,12,0,19,0,0,6,8,0,0,0,0,0,0,0,0,0,0,0,0,0,0],"split_type":[0,0,0,0,0,0,0,0,0,0,0,0,0,0,0,0,0,0,0,0,0,0,0,0,0,0,0,0,0,0,0,0,0,0,0,0,0],"sum_hessian":[1.958E3,1.809E3,1.49E2,1.326E3,4.83E2,1.32E2,1.7E1,1.302E3,2.4E1,1.1E1,4.72E2,1.27E2,5E0,1.4E1,3E0,6E1,1.242E3,6E0,1.8E1,7E0,4E0,1.95E2,2.77E2,6E0,1.21E2,2.8E1,3.2E1,4.86E2,7.56E2,1.2E1,6E0,1.61E2,3.4E1,1.22E2,1.55E2,7.1E1,5E1],"tree_param":{"num_deleted":"0","num_feature":"20","num_nodes":"37","size_leaf_vector":"1"}},{"base_weights":[-3.3773508E-4,1.7563739E-3,-3.4324408E-2,2.9448178E-3,-5.24233E-2,-2.830949E-2,-4.702597E-3,-2.2196188E-3,1.570357E-2,-6.2111396E-2,8.2829146E-4,-3.3613555E-2,6.079556E-4,-2.5573355E-4,-9.659972E-2,-1.0067458E-3,2.6987568E-2,-6.9658324E-2,-0E0,1.4491178E-3,-3.709284E-2,-6.849433E-3,2.6410784E-5,-8.609172E-3,-3.5763022E-3,5.7197185E-3,-3.3750702E-4,4.5418483E-4,2.2242863E-3,-5.4785567E-3,-2.5404983E-3,-4.5994172E-4,-2.289429E-3],"categories":[],"categories_nodes":[],"categories_segments":[],"categories_sizes":[],"default_left":[0,0,0,0,0,0,0,0,0,0,0,0,0,0,0,0,0,0,0,0,0,0,0,0,0,0,0,0,0,0,0,0,0],"id":14,"left_children":[1,3,5,7,9,11,-1,13,15,17,-1,19,-1,21,23,25,27,29,-1,-1,31,-1,-1,-1,-1,-1,-1,-1,-1,-1,-1,-1,-1],"loss_changes":[1.403368E-1,1.1572579E-1,3.3685476E-2,1.1906619E-1,2.852413E-2,2.3922466E-2,0E0,2.317463E-1,9.945765E-2,1.4899597E-2,0E0,2.152408E-2,0E0,1.4100957E-1,2.9983342E-2,1.3319646E-1,9.5020995E-2,1.21421665E-2,0E0,0E0,1.899162E-2,0E0,0E0,0E0,0E0,0E0,0E0,0E0,0E0,0E0,0E0,0E0,0E0],"parents":[2147483647,0,0,1,1,2,2,3,3,4,4,5,5,7,7,8,8,9,9,11,11,13,13,14,14,15,15,16,16,17,17,20,20],"right_children":[2,4,6,8,10,12,-1,14,16,18,-1,20,-1,22,24,26,28,30,-1,-1,32,-1,-1,-1,-1,-1,-1,-1,-1,-1,-1,-1,-1],"split_conditions":[2.0032706E0,2.409317E0,1.487083E0,2.9844928E-1,1.5338767E0,1.7243116E0,-4.702597E-3,8.5544443E-1,-4.795091E-1,1.6568202E0,8.2829146E-4,-1.4708897E0,6.079556E-4,-1.6375165E-1,-2.9444274E-2,-1.1083791E0,-6.4953715E-1,6.826944E-1,-0E0,1.4491178E-3,2.5362477E-1,-6.849433E-3,2.6410784E-5,-8.609172E-3,-3.5763022E-3,5.7197185E-3,-3.3750702E-4,4.5418483E-4,2.2242863E-3,-5.4785567E-3,-2.5404983E-3,-4.5994172E-4,-2.289429E-3],"split_indices":[15,16,12,0,11,1,0,11,1,0,0,10,0,7,3,4,8,19,0,0,12,0,0,0,0,0,0,0,0,0,0,0,0],"split_type":[0,0,0,0,0,0,0,0,0,0,0,0,0,0,0,0,0,0,0,0,0,0,0,0,0,0,0,0,0,0,0,0,0],"sum_hessian":[1.948E3,1.834E3,1.14E2,1.796E3,3.8E1,1.05E2,9E0,1.276E3,5.2E2,3.4E1,4E0,9.4E1,1.1E1,1.251E3,2.5E1,2.08E2,3.12E2,3E1,4E0,4E0,9E1,7E0,1.244E3,5E0,2E1,9E0,1.99E2,1.56E2,1.56E2,8E0,2.2E1,2.3E1,6.7E1],"tree_param":{"num_deleted":"0","num_feature":"20","num_nodes":"33","size_leaf_vector":"1"}},{"base_weights":[4.1326028E-4,2.9355013E-3,-2.8248338E-2,-3.707086E-5,2.1463474E-2,-3.670663E-2,6.7336135E-2,-3.0022843E-2,2.217469E-3,1.0338103E-2,6.597421E-2,-4.5820572E-3,-3.1501427E-2,1.8894045E-3,6.181641E-3,-3.8792066E-2,1.1931993E-2,1.433798E-3,5.700543E-2,-1.7928459E-2,2.4029734E-2,8.611024E-2,-0E0,-3.442039E-2,1.5499901E-3,-5.0241514E-3,-1.0195614E-3,-1.6835729E-3,2.275121E-3,-8.0234837E-4,1.803488E-4,-0E0,3.5965757E-3,2.8559493E-4,-2.6258584E-3,-4.0725563E-3,1.5167306E-3,1.7096173E-3,6.662804E-3,-2.5080699E-3,-7.319851E-4],"categories":[],"categories_nodes":[],"categories_segments":[],"categories_sizes":[],"default_left":[0,0,0,0,0,0,0,0,0,0,0,0,0,0,0,0,0,0,0,0,0,0,0,0,0,0,0,0,0,0,0,0,0,0,0,0,0,0,0,0,0],"id":15,"left_children":[1,3,5,7,9,11,13,15,17,19,21,-1,23,-1,-1,25,27,29,31,33,35,37,-1,39,-1,-1,-1,-1,-1,-1,-1,-1,-1,-1,-1,-1,-1,-1,-1,-1,-1],"loss_changes":[1.4093699E-1,1.0073127E-1,1.270402E-1,1.0671697E-1,1.2088098E-1,3.4004524E-2,1.0386236E-2,4.2228624E-2,5.9186652E-2,7.927809E-2,7.0022956E-2,0E0,2.5242582E-2,0E0,0E0,9.79346E-2,2.967977E-2,5.367396E-2,1.6831629E-2,5.6048907E-2,9.0788156E-2,8.3586335E-2,0E0,3.6714897E-2,0E0,0E0,0E0,0E0,0E0,0E0,0E0,0E0,0E0,0E0,0E0,0E0,0E0,0E0,0E0,0E0,0E0],"parents":[2147483647,0,0,1,1,2,2,3,3,4,4,5,5,6,6,7,7,8,8,9,9,10,10,12,12,15,15,16,16,17,17,18,18,19,19,20,20,21,21,23,23],"right_children":[2,4,6,8,10,12,14,16,18,20,22,-1,24,-1,-1,26,28,30,32,34,36,38,-1,40,-1,-1,-1,-1,-1,-1,-1,-1,-1,-1,-1,-1,-1,-1,-1,-1,-1],"split_conditions":[1.5036906E0,1.0356138E0,1.6591612E0,-4.56081E-1,-3.285069E-1,4.9227786E-1,1.5656362E0,5.12878E-1,1.2558095E0,-4.5947438E-1,1.4331871E0,-4.5820572E-3,2.764842E0,1.8894045E-3,6.181641E-3,-2.9337531E-2,-5.4434633E-1,-1.0302585E0,-1.4140092E0,1.0630816E0,-3.7917435E-1,-5.5697674E-1,-0E0,1.5760635E0,1.5499901E-3,-5.0241514E-3,-1.0195614E-3,-1.6835729E-3,2.275121E-3,-8.0234837E-4,1.803488E-4,-0E0,3.5965757E-3,2.8559493E-4,-2.6258584E-3,-4.0725563E-3,1.5167306E-3,1.7096173E-3,6.662804E-3,-2.5080699E-3,-7.319851E-4],"split_indices":[16,0,2,9,8,19,19,1,12,1,0,0,19,0,0,17,10,19,0,12,19,1,0,0,0,0,0,0,0,0,0,0,0,0,0,0,0,0,0,0,0],"split_type":[0,0,0,0,0,0,0,0,0,0,0,0,0,0,0,0,0,0,0,0,0,0,0,0,0,0,0,0,0,0,0,0,0,0,0,0,0,0,0,0,0],"sum_hessian":[1.966E3,1.809E3,1.57E2,1.557E3,2.52E2,1.45E2,1.2E1,1.1E2,1.447E3,2.03E2,4.9E1,1.1E1,1.34E2,9E0,3E0,9.2E1,1.8E1,1.428E3,1.9E1,6.5E1,1.38E2,3.8E1,1.1E1,1.29E2,5E0,2E1,7.2E1,7E0,1.1E1,1.55E2,1.273E3,4E0,1.5E1,3.8E1,2.7E1,7E0,1.31E2,1.9E1,1.9E1,7E1,5.9E1],"tree_param":{"num_deleted":"0","num_feature":"20","num_nodes":"41","size_leaf_vector":"1"}},{"base_weights":[-2.0291215E-4,1.9257013E-3,-2.538015E-2,6.936829E-3,1.5479105E-3,-3.6670048E-2,5.4073445E-2,-4.436782E-3,8.886769E-3,-3.975253E-2,1.4795361E-3,-0E0,3.3550512E-3,-3.7824236E-2,-1.3119415E-3,7.255266E-3,3.5572879E-3,1.0714418E-3,-4.2721126E-2,-5.9103494E-4,-3.7654627E-3,1.1925212E-4,-1.2520507E-3,-1.2548097E-3,4.854117E-4,-2.2796574E-3,2.3950636E-4],"categories":[],"categories_nodes":[],"categories_segments":[],"categories_sizes":[],"default_left":[0,0,0,0,0,0,0,0,0,0,0,0,0,0,0,0,0,0,0,0,0,0,0,0,0,0,0],"id":16,"left_children":[1,3,5,-1,7,9,11,13,15,17,-1,-1,-1,19,21,23,-1,-1,25,-1,-1,-1,-1,-1,-1,-1,-1],"loss_changes":[1.0406816E-1,8.428488E-2,1.3602024E-1,0E0,7.774049E-2,2.8363317E-2,1.5696645E-2,9.9062435E-2,7.6726936E-2,2.4860844E-2,0E0,0E0,0E0,7.463995E-2,7.901949E-2,6.105257E-2,0E0,0E0,1.900135E-2,0E0,0E0,0E0,0E0,0E0,0E0,0E0,0E0],"parents":[2147483647,0,0,1,1,2,2,4,4,5,5,6,6,7,7,8,8,9,9,13,13,14,14,15,15,18,18],"right_children":[2,4,6,-1,8,10,12,14,16,18,-1,-1,-1,20,22,24,-1,-1,26,-1,-1,-1,-1,-1,-1,-1,-1],"split_conditions":[1.5036906E0,-3.138385E0,1.610438E0,6.936829E-3,3.615812E-2,2.764842E0,1.6080801E0,-3.95018E-2,1.294355E0,-8.547361E-1,1.4795361E-3,-0E0,3.3550512E-3,7.203664E-2,9.4239855E-1,-1.046681E0,3.5572879E-3,1.0714418E-3,1.9553788E0,-5.9103494E-4,-3.7654627E-3,1.1925212E-4,-1.2520507E-3,-1.2548097E-3,4.854117E-4,-2.2796574E-3,2.3950636E-4],"split_indices":[16,12,2,0,7,19,11,17,12,2,0,0,0,2,19,19,0,0,1,0,0,0,0,0,0,0,0],"split_type":[0,0,0,0,0,0,0,0,0,0,0,0,0,0,0,0,0,0,0,0,0,0,0,0,0,0,0],"sum_hessian":[1.919E3,1.768E3,1.51E2,4E0,1.764E3,1.33E2,1.8E1,9.68E2,7.96E2,1.28E2,5E0,3E0,1.5E1,8.1E1,8.87E2,7.77E2,1.9E1,5E0,1.23E2,4.9E1,3.2E1,7.66E2,1.21E2,5.3E1,7.24E2,1.17E2,6E0],"tree_param":{"num_deleted":"0","num_feature":"20","num_nodes":"27","size_leaf_vector":"1"}},{"base_weights":[-7.196211E-4,6.834795E-3,-1.1398796E-3,7.3383487E-4,-2.4121733E-2,-4.1840711E-4,3.0096244E-2,-3.276382E-2,5.852859E-2,-3.0298592E-3,1.5104211E-2,4.293764E-2,-4.400076E-3,-1.9342616E-2,-5.1123522E-2,7.828326E-4,4.7900854E-3,9.957588E-5,-8.387617E-4,3.586836E-4,3.2349434E-3,1.0594989E-3,3.7097726E-3,-1.5159228E-3,1.0226788E-3,-3.4578957E-3,-5.7288655E-4],"categories":[],"categories_nodes":[],"categories_segments":[],"categories_sizes":[],"default_left":[0,0,0,0,0,0,0,0,0,0,0,0,0,0,0,0,0,0,0,0,0,0,0,0,0,0,0],"id":17,"left_children":[1,-1,3,5,7,9,11,13,15,17,19,21,-1,23,25,-1,-1,-1,-1,-1,-1,-1,-1,-1,-1,-1,-1],"loss_changes":[1.0426683E-1,0E0,8.3705485E-2,6.1390802E-2,1.04311295E-1,6.843268E-2,1.0351911E-1,2.8877914E-2,1.5249714E-2,1.0156062E-1,9.1552556E-2,3.6931135E-2,0E0,3.5528637E-2,3.4559518E-2,0E0,0E0,0E0,0E0,0E0,0E0,0E0,0E0,0E0,0E0,0E0,0E0],"parents":[2147483647,0,0,2,2,3,3,4,4,5,5,6,6,7,7,8,8,9,9,10,10,11,11,13,13,14,14],"right_children":[2,-1,4,6,8,10,12,14,16,18,20,22,-1,24,26,-1,-1,-1,-1,-1,-1,-1,-1,-1,-1,-1,-1],"split_conditions":[-3.138385E0,6.834795E-3,1.5036906E0,2.0209465E0,1.6080801E0,1.0356138E0,6.685348E-2,1.1787183E0,1.78978E0,-2.9444274E-2,1.156062E0,1.1611544E0,-4.400076E-3,1.5473903E0,8.5160404E-1,7.828326E-4,4.7900854E-3,9.957588E-5,-8.387617E-4,3.586836E-4,3.2349434E-3,1.0594989E-3,3.7097726E-3,-1.5159228E-3,1.0226788E-3,-3.4578957E-3,-5.7288655E-4],"split_indices":[12,0,16,4,11,0,2,12,2,3,6,3,0,19,2,0,0,0,0,0,0,0,0,0,0,0,0],"split_type":[0,0,0,0,0,0,0,0,0,0,0,0,0,0,0,0,0,0,0,0,0,0,0,0,0,0,0],"sum_hessian":[1.921E3,5E0,1.916E3,1.77E3,1.46E2,1.702E3,6.8E1,1.33E2,1.3E1,1.46E3,2.42E2,6.2E1,6E0,7.9E1,5.4E1,7E0,6E0,1.067E3,3.93E2,2.1E2,3.2E1,3.8E1,2.4E1,6.3E1,1.6E1,3.6E1,1.8E1],"tree_param":{"num_deleted":"0","num_feature":"20","num_nodes":"27","size_leaf_vector":"1"}},{"base_weights":[-1.4619557E-4,1.5744157E-3,-2.9729879E-2,-7.3272677E-4,1.9255308E-2,-4.1757893E-2,-0E0,1.0342288E-2,-6.8976763E-3,4.4347327E-2,3.4903118E-3,-5.4044694E-2,-1.0149403E-3,2.3395973E-3,-5.756919E-4,1.5915602E-2,-4.2529483E-3,-5.34015E-3,-5.8754507E-2,3.4360222E-3,3.0014474E-2,-2.861932E-2,1.9994596E-2,-6.0581625E-4,-6.663856E-2,1.9234885E-3,3.9984222E-4,-1.3879482E-3,1.2495172E-3,1.7304515E-4,-6.896587E-4,1.6314129E-5,-4.35697E-3,-0E0,1.8067064E-3,-1.8915484E-3,1.5523963E-3,1.3720645E-3,-3.4756255E-3,-3.8660958E-3,-1.1136241E-3],"categories":[],"categories_nodes":[],"categories_segments":[],"categories_sizes":[],"default_left":[0,0,0,0,0,0,0,0,0,0,0,0,0,0,0,0,0,0,0,0,0,0,0,0,0,0,0,0,0,0,0,0,0,0,0,0,0,0,0,0,0],"id":18,"left_children":[1,3,5,7,9,11,13,15,17,19,21,23,-1,-1,-1,25,27,29,31,-1,33,35,37,-1,39,-1,-1,-1,-1,-1,-1,-1,-1,-1,-1,-1,-1,-1,-1,-1,-1],"loss_changes":[1.00410156E-1,7.584831E-2,3.9238997E-2,1.10642724E-1,8.238169E-2,1.6168222E-2,1.7612156E-2,4.7593042E-2,8.108172E-2,2.2502854E-2,7.060272E-2,2.074045E-2,0E0,0E0,0E0,7.262456E-2,1.0874973E-1,7.616351E-2,5.3826436E-2,0E0,1.1211742E-2,2.5385141E-2,5.8504805E-2,0E0,1.0985449E-2,0E0,0E0,0E0,0E0,0E0,0E0,0E0,0E0,0E0,0E0,0E0,0E0,0E0,0E0,0E0,0E0],"parents":[2147483647,0,0,1,1,2,2,3,3,4,4,5,5,6,6,7,7,8,8,9,9,10,10,11,11,15,15,16,16,17,17,18,18,20,20,21,21,22,22,24,24],"right_children":[2,4,6,8,10,12,14,16,18,20,22,24,-1,-1,-1,26,28,30,32,-1,34,36,38,-1,40,-1,-1,-1,-1,-1,-1,-1,-1,-1,-1,-1,-1,-1,-1,-1,-1],"split_conditions":[2.0032706E0,1.14867E0,1.2341287E0,-4.78741E-1,-3.1766614E-1,1.4700398E-1,1.8732572E-2,3.381664E-1,1.7571868E0,9.8976654E-1,-6.847242E-1,-1.3189974E0,-1.0149403E-3,2.3395973E-3,-5.756919E-4,1.7764485E-2,6.4462066E-2,-1.208814E-1,-1.0119362E-1,3.4360222E-3,-2.7457136E-1,-1.343238E-1,1.487083E0,-6.0581625E-4,8.8724595E-1,1.9234885E-3,3.9984222E-4,-1.3879482E-3,1.2495172E-3,1.7304515E-4,-6.896587E-4,1.6314129E-5,-4.35697E-3,-0E0,1.8067064E-3,-1.8915484E-3,1.5523963E-3,1.3720645E-3,-3.4756255E-3,-3.8660958E-3,-1.1136241E-3],"split_indices":[15,6,1,12,19,7,7,8,19,10,2,10,0,0,0,7,0,5,0,0,16,0,12,0,11,0,0,0,0,0,0,0,0,0,0,0,0,0,0,0,0],"split_type":[0,0,0,0,0,0,0,0,0,0,0,0,0,0,0,0,0,0,0,0,0,0,0,0,0,0,0,0,0,0,0,0,0,0,0,0,0,0,0,0,0],"sum_hessian":[1.944E3,1.836E3,1.08E2,1.622E3,2.14E2,7.7E1,3.1E1,5.77E2,1.045E3,8.1E1,1.33E2,4.7E1,3E1,6E0,2.5E1,4.2E2,1.57E2,1.016E3,2.9E1,2.8E1,5.3E1,4.4E1,8.9E1,1.2E1,3.5E1,1.07E2,3.13E2,8.8E1,6.9E1,4.95E2,5.21E2,9E0,2E1,8E0,4.5E1,3.9E1,5E0,8.3E1,6E0,2.7E1,8E0],"tree_param":{"num_deleted":"0","num_feature":"20","num_nodes":"41","size_leaf_vector":"1"}},{"base_weights":[2.9909267E-4,1.9633246E-3,-2.7498165E-2,2.9927134E-3,-4.455652E-2,-1.5936444E-3,9.7235054E-4,-1.8032689E-3,1.5392584E-2,3.825992E-4,-5.2169852E-2,-1.7720065E-4,-8.706436E-2,9.613155E-2,1.3212944E-2,-4.691999E-3,-3.5932835E-2,-5.097357E-3,3.1773117E-5,-5.138907E-3,-0E0,6.8554427E-3,1.1211638E-3,-2.367819E-4,1.2240774E-3,5.133828E-4,-2.7672502E-3],"categories":[],"categories_nodes":[],"categories_segments":[],"categories_sizes":[],"default_left":[0,0,0,0,0,0,0,0,0,0,0,0,0,0,0,0,0,0,0,0,0,0,0,0,0,0,0],"id":19,"left_children":[1,3,5,7,9,-1,-1,11,13,-1,15,17,19,21,23,-1,25,-1,-1,-1,-1,-1,-1,-1,-1,-1,-1],"loss_changes":[8.814979E-2,8.5406214E-2,2.3008712E-2,1.0699518E-1,1.77285E-2,0E0,0E0,1.7399101E-1,8.215256E-2,0E0,1.5168041E-2,1.0959532E-1,2.7850479E-2,2.8240748E-2,1.0004932E-1,0E0,2.630457E-2,0E0,0E0,0E0,0E0,0E0,0E0,0E0,0E0,0E0,0E0],"parents":[2147483647,0,0,1,1,2,2,3,3,4,4,7,7,8,8,10,10,11,11,12,12,13,13,14,14,16,16],"right_children":[2,4,6,8,10,-1,-1,12,14,-1,16,18,20,22,24,-1,26,-1,-1,-1,-1,-1,-1,-1,-1,-1,-1],"split_conditions":[2.0032706E0,2.409317E0,1.6615362E0,2.9844928E-1,-2.017702E0,-1.5936444E-3,9.7235054E-4,8.5544443E-1,-9.817131E-1,3.825992E-4,9.0709114E-1,-1.6375165E-1,4.4342446E-1,-1.0119929E0,-4.9820822E-1,-4.691999E-3,2.7617617E-2,-5.097357E-3,3.1773117E-5,-5.138907E-3,-0E0,6.8554427E-3,1.1211638E-3,-2.367819E-4,1.2240774E-3,5.133828E-4,-2.7672502E-3],"split_indices":[15,16,1,0,10,0,0,11,1,0,3,7,1,19,1,0,4,0,0,0,0,0,0,0,0,0,0],"split_type":[0,0,0,0,0,0,0,0,0,0,0,0,0,0,0,0,0,0,0,0,0,0,0,0,0,0,0],"sum_hessian":[1.932E3,1.825E3,1.07E2,1.787E3,3.8E1,9.9E1,8E0,1.286E3,5.01E2,4E0,3.4E1,1.263E3,2.3E1,1.2E1,4.89E2,8E0,2.6E1,1E1,1.253E3,1.9E1,4E0,7E0,5E0,1.87E2,3.02E2,7E0,1.9E1],"tree_param":{"num_deleted":"0","num_feature":"20","num_nodes":"27","size_leaf_vector":"1"}},{"base_weights":[2.514674E-4,3.2628465E-2,-9.29545E-4,1.7102242E-2,6.3079945E-3,7.386505E-4,-2.1905117E-2,-5.0901375E-3,2.71287E-2,-6.4105396E-3,6.181654E-3,-3.1040924E-2,3.1080914E-3,6.469154E-3,1.5205587E-2,1.4689128E-2,-1.3893552E-2,5.99607E-2,2.9584947E-3,-4.4220285E-3,-2.6958471E-2,-1.4436994E-3,1.0601055E-3,2.5422324E-3,-1.7739169E-4,-1.2180357E-3,1.5256058E-4,6.607087E-3,2.0772866E-3,-1.0216957E-3,2.9501438E-4,-1.989612E-3,-3.439569E-4],"categories":[],"categories_nodes":[],"categories_segments":[],"categories_sizes":[],"default_left":[0,0,0,0,0,0,0,0,0,0,0,0,0,0,0,0,0,0,0,0,0,0,0,0,0,0,0,0,0,0,0,0,0],"id":20,"left_children":[1,3,5,7,-1,9,11,-1,13,15,17,19,-1,-1,21,23,25,27,29,-1,31,-1,-1,-1,-1,-1,-1,-1,-1,-1,-1,-1,-1],"loss_changes":[7.6565E-2,9.413747E-2,6.721757E-2,7.0967235E-2,0E0,6.808678E-2,1.0808347E-1,0E0,6.1890345E-2,1.188738E-1,1.6967046E-1,2.3149505E-2,0E0,0E0,1.3799521E-2,1.3136125E-1,9.998283E-2,6.2341914E-2,6.4192325E-2,0E0,2.8839305E-2,0E0,0E0,0E0,0E0,0E0,0E0,0E0,0E0,0E0,0E0,0E0,0E0],"parents":[2147483647,0,0,1,1,2,2,3,3,5,5,6,6,8,8,9,9,10,10,11,11,14,14,15,15,16,16,17,17,18,18,20,20],"right_children":[2,4,6,8,-1,10,12,-1,14,16,18,20,-1,-1,22,24,26,28,30,-1,32,-1,-1,-1,-1,-1,-1,-1,-1,-1,-1,-1,-1],"split_conditions":[-2.0205636E0,-6.8782914E-1,1.5036906E0,-3.165078E-1,6.3079945E-3,-3.1710607E-1,1.6080801E0,-5.0901375E-3,-3.138385E0,-6.149939E-1,-1.9475278E-1,4.5592433E-1,3.1080914E-3,6.469154E-3,-5.0290763E-1,-4.7245756E-1,7.852405E-2,-5.438221E-1,-9.566311E-1,-4.4220285E-3,1.6050531E0,-1.4436994E-3,1.0601055E-3,2.5422324E-3,-1.7739169E-4,-1.2180357E-3,1.5256058E-4,6.607087E-3,2.0772866E-3,-1.0216957E-3,2.9501438E-4,-1.989612E-3,-3.439569E-4],"split_indices":[12,3,16,10,0,6,11,0,12,3,6,19,0,0,0,19,16,11,19,0,0,0,0,0,0,0,0,0,0,0,0,0,0],"split_type":[0,0,0,0,0,0,0,0,0,0,0,0,0,0,0,0,0,0,0,0,0,0,0,0,0,0,0,0,0,0,0,0,0],"sum_hessian":[1.96E3,7E1,1.89E3,6.1E1,9E0,1.749E3,1.41E2,4E0,5.7E1,7.52E2,9.97E2,1.28E2,1.3E1,5E0,5.2E1,1.95E2,5.57E2,5.5E1,9.42E2,7E0,1.21E2,5E0,4.7E1,6.6E1,1.29E2,3.46E2,2.11E2,1E1,4.5E1,1.03E2,8.39E2,7.2E1,4.9E1],"tree_param":{"num_deleted":"0","num_feature":"20","num_nodes":"33","size_leaf_vector":"1"}},{"base_weights":[-0E0,2.0099971E-3,-2.4921888E-2,1.5317153E-2,-2.1564426E-4,-3.2074347E-2,1.892395E-3,7.075279E-3,1.1485541E-1,-4.454965E-3,1.2549334E-2,1.1116877E-3,-3.4683425E-2,4.3171565E-3,4.9595977E-3,1.0383335E-2,2.0652073E-2,6.015561E-2,-5.5429894E-3,1.8545758E-2,-2.5083536E-2,-4.6546366E-2,-1.7449155E-2,8.349575E-4,-5.3314253E-4,2.8699676E-3,-4.440878E-4,7.6751335E-4,7.778638E-3,-1.8899499E-3,-2.0481118E-4,-4.894579E-4,1.4368375E-3,5.9769995E-4,-1.7678544E-3,-3.2814404E-3,-1.1287247E-3,-2.5582649E-3,-0E0],"categories":[],"categories_nodes":[],"categories_segments":[],"categories_sizes":[],"default_left":[0,0,0,0,0,0,0,0,0,0,0,0,0,0,0,0,0,0,0,0,0,0,0,0,0,0,0,0,0,0,0,0,0,0,0,0,0,0,0],"id":21,"left_children":[1,3,5,7,9,11,-1,13,15,17,19,-1,21,23,-1,-1,25,27,29,31,33,35,37,-1,-1,-1,-1,-1,-1,-1,-1,-1,-1,-1,-1,-1,-1,-1,-1],"loss_changes":[9.8273486E-2,5.414129E-2,6.60907E-2,2.0802698E-1,8.304125E-2,1.9782498E-2,0E0,5.6222185E-2,1.569308E-1,7.90168E-2,8.5996E-2,0E0,2.24614E-2,4.425742E-2,0E0,0E0,1.4076306E-2,6.935098E-2,5.1144745E-2,9.652351E-2,2.0977594E-2,2.8471023E-2,3.1837143E-2,0E0,0E0,0E0,0E0,0E0,0E0,0E0,0E0,0E0,0E0,0E0,0E0,0E0,0E0,0E0,0E0],"parents":[2147483647,0,0,1,1,2,2,3,3,4,4,5,5,7,7,8,8,9,9,10,10,12,12,13,13,16,16,17,17,18,18,19,19,20,20,21,21,22,22],"right_children":[2,4,6,8,10,12,-1,14,16,18,20,-1,22,24,-1,-1,26,28,30,32,34,36,38,-1,-1,-1,-1,-1,-1,-1,-1,-1,-1,-1,-1,-1,-1,-1,-1],"split_conditions":[1.5036906E0,-8.593075E-1,1.610438E0,6.859818E-1,3.1585225E-1,-8.547361E-1,1.892395E-3,7.250105E-1,-4.7245756E-1,-2.0205636E0,1.4918574E0,1.1116877E-3,1.6050531E0,8.537726E-4,4.9595977E-3,1.0383335E-2,6.670315E-1,4.4163138E-1,-1.4140092E0,-5.623193E-1,9.9442504E-2,9.8703355E-1,5.9840703E-1,8.349575E-4,-5.3314253E-4,2.8699676E-3,-4.440878E-4,7.6751335E-4,7.778638E-3,-1.8899499E-3,-2.0481118E-4,-4.894579E-4,1.4368375E-3,5.9769995E-4,-1.7678544E-3,-3.2814404E-3,-1.1287247E-3,-2.5582649E-3,-0E0],"split_indices":[16,3,2,10,15,2,0,0,19,12,15,0,0,15,0,0,0,19,0,1,12,1,19,0,0,0,0,0,0,0,0,0,0,0,0,0,0,0,0],"split_type":[0,0,0,0,0,0,0,0,0,0,0,0,0,0,0,0,0,0,0,0,0,0,0,0,0,0,0,0,0,0,0,0,0,0,0,0,0,0,0],"sum_hessian":[1.948E3,1.802E3,1.46E2,2.61E2,1.541E3,1.32E2,1.4E1,2.42E2,1.9E1,1.16E3,3.81E2,5E0,1.27E2,2.36E2,6E0,9E0,1E1,1.8E1,1.142E3,3.3E2,5.1E1,7.3E1,5.4E1,1.31E2,1.05E2,5E0,5E0,1.3E1,5E0,4.7E1,1.095E3,8.6E1,2.44E2,1E1,4.1E1,3.9E1,3.4E1,1.8E1,3.6E1],"tree_param":{"num_deleted":"0","num_feature":"20","num_nodes":"39","size_leaf_vector":"1"}},{"base_weights":[-3.4659836E-4,1.0937162E-3,-2.4387507E-2,-8.935089E-4,1.7834803E-2,8.9006353E-4,-3.18973E-2,-2.0752377E-3,2.9485209E-2,-3.413289E-2,2.3130164E-2,2.393148E-3,-6.4676395E-4,-3.2849794E-3,-2.433156E-2,2.761915E-4,-2.3810042E-2,4.1561846E-2,-2.1638676E-4,-0E0,-3.178731E-3,-0E0,3.624948E-2,-1.7350439E-2,-3.5406821E-3,-7.601681E-5,1.9360312E-3,-2.4738812E-3,-7.1368733E-4,9.680534E-4,3.2912672E-3,-3.6943674E-3,2.0318923E-3,1.7564091E-3,-2.66531E-3,-1.5550371E-3,1.1124279E-3,2.4205928E-3,2.3134226E-4,-1.078125E-3,1.0734317E-3],"categories":[],"categories_nodes":[],"categories_segments":[],"categories_sizes":[],"default_left":[0,0,0,0,0,0,0,0,0,0,0,0,0,0,0,0,0,0,0,0,0,0,0,0,0,0,0,0,0,0,0,0,0,0,0,0,0,0,0,0,0],"id":22,"left_children":[1,3,5,7,9,11,13,15,17,19,21,-1,-1,-1,23,25,27,29,31,33,-1,35,37,39,-1,-1,-1,-1,-1,-1,-1,-1,-1,-1,-1,-1,-1,-1,-1,-1,-1],"loss_changes":[6.826682E-2,6.16196E-2,2.2730514E-2,5.719408E-2,5.3918995E-2,1.7966645E-2,1.707635E-2,8.149598E-2,2.3414142E-2,1.8008009E-2,5.4422535E-2,0E0,0E0,0E0,1.8828E-2,9.972213E-2,3.452161E-2,1.853554E-2,5.2825E-2,1.6732369E-2,0E0,4.5656975E-2,4.127349E-2,1.0945944E-2,0E0,0E0,0E0,0E0,0E0,0E0,0E0,0E0,0E0,0E0,0E0,0E0,0E0,0E0,0E0,0E0,0E0],"parents":[2147483647,0,0,1,1,2,2,3,3,4,4,5,5,6,6,7,7,8,8,9,9,10,10,14,14,15,15,16,16,17,17,18,18,19,19,21,21,22,22,23,23],"right_children":[2,4,6,8,10,12,14,16,18,20,22,-1,-1,-1,24,26,28,30,32,34,-1,36,38,40,-1,-1,-1,-1,-1,-1,-1,-1,-1,-1,-1,-1,-1,-1,-1,-1,-1],"split_conditions":[2.0032706E0,1.156062E0,2.5362477E-1,1.9508592E0,-8.20683E-1,-4.6080583E-1,8.179115E-1,7.763314E-1,1.26752E0,-8.143065E-1,-9.9987155E-1,2.393148E-3,-6.4676395E-4,-3.2849794E-3,1.564174E0,1.1660681E0,-4.795091E-1,8.668252E-1,1.6928842E0,4.794868E-1,-3.178731E-3,1.3972898E0,2.06672E0,1.8926036E0,-3.5406821E-3,-7.601681E-5,1.9360312E-3,-2.4738812E-3,-7.1368733E-4,9.680534E-4,3.2912672E-3,-3.6943674E-3,2.0318923E-3,1.7564091E-3,-2.66531E-3,-1.5550371E-3,1.1124279E-3,2.4205928E-3,2.3134226E-4,-1.078125E-3,1.0734317E-3],"split_indices":[15,6,12,0,5,2,16,3,1,2,0,0,0,0,12,0,1,1,11,1,0,4,3,1,0,0,0,0,0,0,0,0,0,0,0,0,0,0,0,0,0],"split_type":[0,0,0,0,0,0,0,0,0,0,0,0,0,0,0,0,0,0,0,0,0,0,0,0,0,0,0,0,0,0,0,0,0,0,0,0,0,0,0,0,0],"sum_hessian":[1.937E3,1.826E3,1.11E2,1.63E3,1.96E2,2.4E1,8.7E1,1.571E3,5.9E1,1.7E1,1.79E2,6E0,1.8E1,1.4E1,7.3E1,1.416E3,1.55E2,4.3E1,1.6E1,8E0,9E0,6.5E1,1.14E2,6.5E1,8E0,1.352E3,6.4E1,4E1,1.15E2,2.4E1,1.9E1,6E0,1E1,5E0,3E0,2.7E1,3.8E1,8.1E1,3.3E1,6E1,5E0],"tree_param":{"num_deleted":"0","num_feature":"20","num_nodes":"41","size_leaf_vector":"1"}},{"base_weights":[4.4337584E-4,2.1630395E-3,-2.0222157E-2,-1.546153E-3,1.2529431E-2,-2.6629448E-2,1.8230018E-3,1.1800613E-4,-7.422793E-2,5.2105165E-3,1.03684245E-2,-3.3832803E-2,5.987103E-3,-3.5708368E-2,2.0241363E-3,-8.02899E-3,-4.2961843E-2,-5.903614E-3,2.0063506E-2,1.0339795E-3,-3.7504975E-2,-2.46902E-3,1.461913E-3,-3.1688733E-3,-3.8328342E-4,3.0058427E-3,5.508935E-5,-0E0,-3.3863343E-3,-1.7146645E-3,5.9573224E-4,-9.814361E-6,1.5853003E-3,-2.5136215E-3,-1.0475366E-3],"categories":[],"categories_nodes":[],"categories_segments":[],"categories_sizes":[],"default_left":[0,0,0,0,0,0,0,0,0,0,0,0,0,0,0,0,0,0,0,0,0,0,0,0,0,0,0,0,0,0,0,0,0,0,0],"id":23,"left_children":[1,3,5,7,9,11,-1,13,15,-1,17,19,21,23,25,-1,27,29,31,-1,33,-1,-1,-1,-1,-1,-1,-1,-1,-1,-1,-1,-1,-1,-1],"loss_changes":[6.882624E-2,7.028963E-2,5.3926047E-2,1.6488113E-1,8.9127004E-2,3.309416E-2,0E0,8.729931E-2,6.871998E-2,0E0,7.515045E-2,2.3549005E-2,2.9967716E-2,4.6251513E-2,6.3266985E-2,0E0,2.7722578E-2,8.959485E-2,7.1751304E-2,0E0,1.8210217E-2,0E0,0E0,0E0,0E0,0E0,0E0,0E0,0E0,0E0,0E0,0E0,0E0,0E0,0E0],"parents":[2147483647,0,0,1,1,2,2,3,3,4,4,5,5,7,7,8,8,10,10,11,11,12,12,13,13,14,14,16,16,17,17,18,18,20,20],"right_children":[2,4,6,8,10,12,-1,14,16,-1,18,20,22,24,26,-1,28,30,32,-1,34,-1,-1,-1,-1,-1,-1,-1,-1,-1,-1,-1,-1,-1,-1],"split_conditions":[1.5036906E0,2.9844928E-1,1.610438E0,8.7648374E-1,-9.817131E-1,2.7549272E0,1.8230018E-3,-5.193771E-2,8.407116E-3,5.2105165E-3,-5.3827757E-1,2.9217035E-1,1.0872072E0,-2.90792E-1,-4.516111E-2,-8.02899E-3,3.462019E-1,-3.5155445E-1,-6.6382945E-1,1.0339795E-3,1.6050531E0,-2.46902E-3,1.461913E-3,-3.1688733E-3,-3.8328342E-4,3.0058427E-3,5.508935E-5,-0E0,-3.3863343E-3,-1.7146645E-3,5.9573224E-4,-9.814361E-6,1.5853003E-3,-2.5136215E-3,-1.0475366E-3],"split_indices":[16,0,2,2,1,3,0,7,3,0,1,12,1,5,7,0,3,6,8,0,0,0,0,0,0,0,0,0,0,0,0,0,0,0,0],"split_type":[0,0,0,0,0,0,0,0,0,0,0,0,0,0,0,0,0,0,0,0,0,0,0,0,0,0,0,0,0,0,0,0,0,0,0],"sum_hessian":[1.961E3,1.813E3,1.48E2,1.332E3,4.81E2,1.34E2,1.4E1,1.302E3,3E1,1E1,4.71E2,1.11E2,2.3E1,6.4E1,1.238E3,7E0,2.3E1,1.74E2,2.97E2,6E0,1.05E2,6E0,1.7E1,3.1E1,3.3E1,1.8E1,1.22E3,8E0,1.5E1,6.8E1,1.06E2,1.07E2,1.9E2,5.7E1,4.8E1],"tree_param":{"num_deleted":"0","num_feature":"20","num_nodes":"35","size_leaf_vector":"1"}},{"base_weights":[-4.5735177E-4,6.9216494E-3,-3.9733327E-3,1.2113116E-2,-1.6688267E-2,-7.305929E-3,1.0119648E-2,-8.015638E-3,1.5970144E-2,1.7990693E-2,-3.3546E-2,-2.0370182E-2,-0E0,1.9681355E-2,-1.09786E-2,-5.10804E-3,2.3876955E-3,1.4318838E-2,4.571116E-3,2.9527627E-2,-3.8711184E-3,-2.5678867E-2,-4.8248037E-3,-6.152908E-2,-1.4277169E-2,4.8779193E-2,-1.4461398E-3,2.554151E-2,1.4132727E-4,-2.6819263E-2,4.4406213E-2,-1.4959387E-3,1.6302671E-3,1.8069914E-3,4.5977588E-4,-0E0,2.1056745E-3,-3.182996E-4,-2.2134474E-3,-4.4098618E-3,-1.1831085E-3,-1.3823073E-3,-3.1567496E-4,7.0329765E-3,-5.825299E-4,-1.5365986E-4,2.4943305E-3,2.2427146E-3,8.458923E-4,-6.378353E-4,9.960695E-4,-1.7540373E-3,2.49469E-3,1.2129763E-3,5.07427E-3],"categories":[],"categories_nodes":[],"categories_segments":[],"categories_sizes":[],"default_left":[0,0,0,0,0,0,0,0,0,0,0,0,0,0,0,0,0,0,0,0,0,0,0,0,0,0,0,0,0,0,0,0,0,0,0,0,0,0,0,0,0,0,0,0,0,0,0,0,0,0,0,0,0,0,0],"id":24,"left_children":[1,3,5,7,9,11,13,15,17,19,21,23,25,27,29,-1,31,33,-1,35,-1,37,-1,39,41,43,45,47,49,51,53,-1,-1,-1,-1,-1,-1,-1,-1,-1,-1,-1,-1,-1,-1,-1,-1,-1,-1,-1,-1,-1,-1,-1,-1],"loss_changes":[5.018555E-2,7.604961E-2,6.1821245E-2,4.017315E-2,6.5678775E-2,1.02874756E-1,5.087612E-2,8.395421E-2,4.7821045E-2,3.7825793E-2,3.0042648E-2,9.244679E-2,5.0167587E-2,1.8581122E-2,6.683204E-2,0E0,7.139844E-2,4.491263E-2,0E0,1.1568662E-2,0E0,2.1920763E-2,0E0,4.2340815E-2,3.4147047E-2,1.2109217E-1,5.323591E-2,1.84329E-2,1.1328066E-2,3.847719E-2,1.14560425E-2,0E0,0E0,0E0,0E0,0E0,0E0,0E0,0E0,0E0,0E0,0E0,0E0,0E0,0E0,0E0,0E0,0E0,0E0,0E0,0E0,0E0,0E0,0E0,0E0],"parents":[2147483647,0,0,1,1,2,2,3,3,4,4,5,5,6,6,7,7,8,8,9,9,10,10,11,11,12,12,13,13,14,14,16,16,17,17,19,19,21,21,23,23,24,24,25,25,26,26,27,27,28,28,29,29,30,30],"right_children":[2,4,6,8,10,12,14,16,18,20,22,24,26,28,30,-1,32,34,-1,36,-1,38,-1,40,42,44,46,48,50,52,54,-1,-1,-1,-1,-1,-1,-1,-1,-1,-1,-1,-1,-1,-1,-1,-1,-1,-1,-1,-1,-1,-1,-1,-1],"split_conditions":[-4.0164986E-1,7.327319E-2,1.2794646E0,-1.1807209E0,6.3223116E-2,-1.3423695E-1,1.1330522E0,-5.4434633E-1,1.4192828E0,-6.7146885E-1,-2.0460597E-1,-2.9337531E-2,-8.593075E-1,8.2181895E-1,1.3498441E0,-5.10804E-3,9.552113E-2,-9.825967E-3,4.571116E-3,-8.217938E-1,-3.8711184E-3,-2.365387E-1,-4.8248037E-3,2.0341946E-2,3.3737905E-2,-4.7245756E-1,2.3702765E0,1.5338767E0,1.5974797E0,-1.0911589E0,1.5656362E0,-1.4959387E-3,1.6302671E-3,1.8069914E-3,4.5977588E-4,-0E0,2.1056745E-3,-3.182996E-4,-2.2134474E-3,-4.4098618E-3,-1.1831085E-3,-1.3823073E-3,-3.1567496E-4,7.0329765E-3,-5.825299E-4,-1.5365986E-4,2.4943305E-3,2.2427146E-3,8.458923E-4,-6.378353E-4,9.960695E-4,-1.7540373E-3,2.49469E-3,1.2129763E-3,5.07427E-3],"split_indices":[12,17,11,5,10,10,3,10,19,12,11,17,3,16,19,0,0,7,0,0,0,19,0,19,7,19,4,11,11,10,19,0,0,0,0,0,0,0,0,0,0,0,0,0,0,0,0,0,0,0,0,0,0,0,0],"split_type":[0,0,0,0,0,0,0,0,0,0,0,0,0,0,0,0,0,0,0,0,0,0,0,0,0,0,0,0,0,0,0,0,0,0,0,0,0,0,0,0,0,0,0,0,0,0,0,0,0,0,0,0,0,0,0],"sum_hessian":[1.939E3,6.21E2,1.318E3,5.11E2,1.1E2,1.069E3,2.49E2,8E1,4.31E2,3.5E1,7.5E1,3.85E2,6.84E2,1.73E2,7.6E1,8E0,7.2E1,4.23E2,8E0,3.2E1,3E0,6.8E1,7E0,4.8E1,3.37E2,2E1,6.64E2,1.31E2,4.2E1,6E1,1.6E1,3.4E1,3.8E1,7.8E1,3.45E2,1E1,2.2E1,3.5E1,3.3E1,2.7E1,2.1E1,1.23E2,2.14E2,8E0,1.2E1,6.45E2,1.9E1,3.8E1,9.3E1,2.4E1,1.8E1,5.5E1,5E0,1.3E1,3E0],"tree_param":{"num_deleted":"0","num_feature":"20","num_nodes":"55","size_leaf_vector":"1"}},{"base_weights":[-3.5038794E-4,9.600817E-3,-3.3767456E-3,4.290916E-3,3.605493E-2,-1.7376212E-2,2.5223094E-4,-1.3761356E-2,1.0160323E-2,9.884818E-2,3.6011531E-3,-3.5225496E-2,-0E0,2.2002559E-3,-1.9006653E-2,4.375059E-3,-1.3941358E-3,2.2897797E-2,4.764365E-4,9.681611E-3,2.3354622E-2,2.8853798E-3,-1.1308579E-2,-4.8825324E-2,-1.2489417E-2,2.055584E-2,-3.8820736E-2,1.752428E-4,3.22638E-2,-3.217287E-2,-0E0,-1.7114232E-3,8.3505193E-4,4.2492175E-4,2.2477962E-3,-4.8647556E-3,2.7084022E-4,2.2284484E-3,-3.1602883E-4,-1.1581182E-3,2.056897E-3,-2.754266E-3,2.4194797E-3,1.5571446E-4,-3.4738325E-3,5.254633E-4,2.6202844E-3,-5.767622E-3,-1.4457492E-3,1.1476311E-4,-2.190366E-3,3.3577103E-3,6.568237E-4,-8.0025673E-4,-2.4429117E-3,-4.0991465E-4,2.1404282E-3],"categories":[],"categories_nodes":[],"categories_segments":[],"categories_sizes":[],"default_left":[0,0,0,0,0,0,0,0,0,0,0,0,0,0,0,0,0,0,0,0,0,0,0,0,0,0,0,0,0,0,0,0,0,0,0,0,0,0,0,0,0,0,0,0,0,0,0,0,0,0,0,0,0,0,0,0,0],"id":25,"left_children":[1,3,5,7,9,11,13,15,17,19,21,23,25,27,29,31,-1,33,35,-1,37,-1,39,41,43,45,47,49,51,53,55,-1,-1,-1,-1,-1,-1,-1,-1,-1,-1,-1,-1,-1,-1,-1,-1,-1,-1,-1,-1,-1,-1,-1,-1,-1,-1],"loss_changes":[5.823527E-2,6.1046045E-2,7.678457E-2,3.9782338E-2,1.444836E-1,9.671813E-2,4.3619227E-2,2.4414402E-2,3.4165107E-2,1.6220137E-1,4.257852E-2,4.409261E-2,1.2586735E-1,6.40333E-2,2.5184829E-2,1.7728768E-2,0E0,3.5727434E-2,7.561064E-2,0E0,1.1181599E-2,0E0,2.3512702E-2,5.917692E-2,5.633441E-2,2.9697005E-2,3.2435596E-2,9.23841E-2,3.992383E-2,1.29563585E-2,1.4566599E-2,0E0,0E0,0E0,0E0,0E0,0E0,0E0,0E0,0E0,0E0,0E0,0E0,0E0,0E0,0E0,0E0,0E0,0E0,0E0,0E0,0E0,0E0,0E0,0E0,0E0,0E0],"parents":[2147483647,0,0,1,1,2,2,3,3,4,4,5,5,6,6,7,7,8,8,9,9,10,10,11,11,12,12,13,13,14,14,15,15,17,17,18,18,20,20,22,22,23,23,24,24,25,25,26,26,27,27,28,28,29,29,30,30],"right_children":[2,4,6,8,10,12,14,16,18,20,22,24,26,28,30,32,-1,34,36,-1,38,-1,40,42,44,46,48,50,52,54,56,-1,-1,-1,-1,-1,-1,-1,-1,-1,-1,-1,-1,-1,-1,-1,-1,-1,-1,-1,-1,-1,-1,-1,-1,-1,-1],"split_conditions":[-6.035239E-1,6.4041406E-1,-5.5565494E-1,-8.217938E-1,-8.593075E-1,-3.736419E-1,1.4918574E0,-3.5990855E-1,-3.7410524E-1,-4.7245756E-1,-1.9697027E-1,3.2670292E-1,-1.8700252E-1,8.668252E-1,1.2341287E0,-1.0364747E0,-1.3941358E-3,-8.922325E-1,-3.0131856E-1,9.681611E-3,6.670315E-1,2.8853798E-3,2.6070842E-1,2.096655E0,5.6363285E-1,4.4163138E-1,-6.919808E-1,1.3790864E0,5.1769394E-2,6.416585E-1,-2.0416129E-1,-1.7114232E-3,8.3505193E-4,4.2492175E-4,2.2477962E-3,-4.8647556E-3,2.7084022E-4,2.2284484E-3,-3.1602883E-4,-1.1581182E-3,2.056897E-3,-2.754266E-3,2.4194797E-3,1.5571446E-4,-3.4738325E-3,5.254633E-4,2.6202844E-3,-5.767622E-3,-1.4457492E-3,1.1476311E-4,-2.190366E-3,3.3577103E-3,6.568237E-4,-8.0025673E-4,-2.4429117E-3,-4.0991465E-4,2.1404282E-3],"split_indices":[3,10,4,0,3,9,15,15,16,19,8,3,9,1,1,1,0,16,10,0,0,0,2,19,1,19,2,3,4,5,8,0,0,0,0,0,0,0,0,0,0,0,0,0,0,0,0,0,0,0,0,0,0,0,0,0,0],"split_type":[0,0,0,0,0,0,0,0,0,0,0,0,0,0,0,0,0,0,0,0,0,0,0,0,0,0,0,0,0,0,0,0,0,0,0,0,0,0,0,0,0,0,0,0,0,0,0,0,0,0,0,0,0,0,0,0,0],"sum_hessian":[1.943E3,4.49E2,1.494E3,3.76E2,7.3E1,3.1E2,1.184E3,9E1,2.86E2,2.4E1,4.9E1,1.53E2,1.57E2,1.078E3,1.06E2,3.8E1,5.2E1,1.21E2,1.65E2,1E1,1.4E1,1.1E1,3.8E1,9.4E1,5.9E1,1.03E2,5.4E1,1.012E3,6.6E1,6.1E1,4.5E1,8E0,3E1,7.5E1,4.6E1,7E0,1.58E2,9E0,5E0,3.2E1,6E0,8.9E1,5E0,4.6E1,1.3E1,8E1,2.3E1,5E0,4.9E1,9.67E2,4.5E1,2.2E1,4.4E1,3.3E1,2.8E1,3.9E1,6E0],"tree_param":{"num_deleted":"0","num_feature":"20","num_nodes":"57","size_leaf_vector":"1"}},{"base_weights":[6.936187E-4,1.718866E-3,-3.5659254E-2,1.4654105E-2,-3.470927E-4,-4.176692E-2,1.0830796E-3,-3.1491432E-3,3.9067216E-2,-1.9439058E-2,2.0371065E-3,5.6876964E-4,-2.3966874E-3,-1.0862672E-2,3.1262513E-2,6.787392E-2,1.0554192E-2,1.4212799E-2,-4.2087827E-2,1.5098431E-2,-9.4617286E-4,-1.0125868E-3,9.6822757E-4,2.3658834E-3,-0E0,1.3016561E-3,5.6493166E-3,-3.212108E-3,1.3063572E-3,5.536893E-3,2.750887E-4,-3.074399E-3,-0E0,3.0438037E-4,2.483622E-3,-1.3446175E-3,3.659291E-5],"categories":[],"categories_nodes":[],"categories_segments":[],"categories_sizes":[],"default_left":[0,0,0,0,0,0,0,0,0,0,0,0,0,0,0,0,0,0,0,0,0,0,0,0,0,0,0,0,0,0,0,0,0,0,0,0,0],"id":26,"left_children":[1,3,5,7,9,11,-1,13,15,17,19,-1,-1,21,23,25,27,29,31,33,35,-1,-1,-1,-1,-1,-1,-1,-1,-1,-1,-1,-1,-1,-1,-1,-1],"loss_changes":[7.009833E-2,5.081141E-2,1.9487604E-2,1.1551386E-1,7.433488E-2,1.7667226E-2,0E0,3.9097816E-2,8.7302744E-2,1.4002725E-1,5.6532953E-2,0E0,0E0,3.5574198E-2,1.3282198E-2,9.444919E-2,6.590949E-2,5.484373E-2,8.77008E-2,8.102091E-2,5.19749E-2,0E0,0E0,0E0,0E0,0E0,0E0,0E0,0E0,0E0,0E0,0E0,0E0,0E0,0E0,0E0,0E0],"parents":[2147483647,0,0,1,1,2,2,3,3,4,4,5,5,7,7,8,8,9,9,10,10,13,13,14,14,15,15,16,16,17,17,18,18,19,19,20,20],"right_children":[2,4,6,8,10,12,-1,14,16,18,20,-1,-1,22,24,26,28,30,32,34,36,-1,-1,-1,-1,-1,-1,-1,-1,-1,-1,-1,-1,-1,-1,-1,-1],"split_conditions":[2.409317E0,-8.221599E-1,1.610438E0,-9.0237826E-1,-6.0335547E-1,-2.017702E0,1.0830796E-3,1.5242963E0,8.530634E-1,-6.035239E-1,-7.873741E-1,5.6876964E-4,-2.3966874E-3,1.6686165E0,2.06672E0,6.859818E-1,9.59388E-1,-8.515203E-1,2.2895844E-1,-4.1461092E-1,-4.9389088E-1,-1.0125868E-3,9.6822757E-4,2.3658834E-3,-0E0,1.3016561E-3,5.6493166E-3,-3.212108E-3,1.3063572E-3,5.536893E-3,2.750887E-4,-3.074399E-3,-0E0,3.0438037E-4,2.483622E-3,-1.3446175E-3,3.659291E-5],"split_indices":[16,6,2,5,4,10,0,0,10,3,10,0,0,19,3,10,10,19,15,8,8,0,0,0,0,0,0,0,0,0,0,0,0,0,0,0,0],"split_type":[0,0,0,0,0,0,0,0,0,0,0,0,0,0,0,0,0,0,0,0,0,0,0,0,0,0,0,0,0,0,0,0,0,0,0,0,0],"sum_hessian":[1.925E3,1.874E3,5.1E1,2.61E2,1.613E3,4.7E1,4E0,1.5E2,1.11E2,1.81E2,1.432E3,4E0,4.3E1,1.24E2,2.6E1,5.4E1,5.7E1,7.2E1,1.09E2,2.69E2,1.163E3,9.6E1,2.8E1,1.7E1,9E0,2.9E1,2.5E1,9E0,4.8E1,5E0,6.7E1,7.4E1,3.5E1,2.15E2,5.4E1,7.2E1,1.091E3],"tree_param":{"num_deleted":"0","num_feature":"20","num_nodes":"37","size_leaf_vector":"1"}},{"base_weights":[2.508079E-4,5.2478495E-3,-0E0,-2.4995212E-2,1.2186948E-3,-4.820204E-2,-4.148084E-4,6.077432E-2,5.9762865E-4,-2.7263684E-2,-6.592969E-3,2.6759221E-3,-3.0139805E-4,1.17363706E-1,-0E0,1.649683E-2,-1.5265511E-3,5.167501E-5,-3.7816395E-3,1.2923819E-3,7.496065E-3,3.5895829E-3,4.1896585E-4,-1.4749121E-4,1.3412767E-3],"categories":[],"categories_nodes":[],"categories_segments":[],"categories_sizes":[],"default_left":[0,0,0,0,0,0,0,0,0,0,0,0,0,0,0,0,0,0,0,0,0,0,0,0,0],"id":27,"left_children":[1,-1,3,5,7,9,11,13,15,17,-1,-1,-1,19,-1,21,23,-1,-1,-1,-1,-1,-1,-1,-1],"loss_changes":[4.94481E-2,0E0,5.932339E-2,4.9183372E-2,6.6210225E-2,6.994632E-2,1.1561246E-2,6.2525205E-2,6.3426465E-2,5.5095658E-2,0E0,0E0,0E0,1.7579645E-2,0E0,9.511237E-2,6.480237E-2,0E0,0E0,0E0,0E0,0E0,0E0,0E0,0E0],"parents":[2147483647,0,0,2,2,3,3,4,4,5,5,6,6,7,7,8,8,9,9,13,13,15,15,16,16],"right_children":[2,-1,4,6,8,10,12,14,16,18,-1,-1,-1,20,-1,22,24,-1,-1,-1,-1,-1,-1,-1,-1],"split_conditions":[-3.254022E0,5.2478495E-3,-5.193771E-2,-2.405616E-1,-4.516111E-2,3.3523673E-1,-2.9842029E0,-5.438221E-1,-8.221599E-1,-1.9121148E-2,-6.592969E-3,2.6759221E-3,-3.0139805E-4,6.556033E-1,-0E0,-8.593075E-1,1.6214669E0,5.167501E-5,-3.7816395E-3,1.2923819E-3,7.496065E-3,3.5895829E-3,4.1896585E-4,-1.4749121E-4,1.3412767E-3],"split_indices":[12,0,7,10,7,1,12,11,6,3,0,0,0,10,0,3,1,0,0,0,0,0,0,0,0],"split_type":[0,0,0,0,0,0,0,0,0,0,0,0,0,0,0,0,0,0,0,0,0,0,0,0,0],"sum_hessian":[1.967E3,4E0,1.963E3,9E1,1.873E3,4.5E1,4.5E1,1.8E1,1.855E3,3.7E1,8E0,3E0,4.2E1,9E0,9E0,2.21E2,1.634E3,2.3E1,1.4E1,3E0,6E0,2.7E1,1.94E2,1.558E3,7.6E1],"tree_param":{"num_deleted":"0","num_feature":"20","num_nodes":"25","size_leaf_vector":"1"}},{"base_weights":[-5.7803356E-4,-2.4371871E-3,1.5095705E-2,-2.395594E-4,-1.626477E-2,2.5481476E-2,-3.2664058E-3,-4.0152096E-3,1.0403283E-2,-2.0768998E-2,1.3540211E-2,-8.644871E-4,3.154393E-2,-2.3983638E-3,-0E0,-2.4527002E-3,-8.041214E-2,5.968859E-3,8.980638E-3,-0E0,-2.4268653E-2,-5.0537754E-3,2.6094518E-3,2.647813E-3,1.8733408E-2,8.026642E-3,-1.4783457E-3,-1.5695108E-3,-3.169021E-5,-7.0007616E-3,-2.7538708E-3,-2.6542688E-4,1.0363504E-3,-1.385318E-3,-0E0,7.0318487E-4,-2.162299E-3,3.2811507E-3,5.923634E-4,-0E0,1.9235021E-3],"categories":[],"categories_nodes":[],"categories_segments":[],"categories_sizes":[],"default_left":[0,0,0,0,0,0,0,0,0,0,0,0,0,0,0,0,0,0,0,0,0,0,0,0,0,0,0,0,0,0,0,0,0,0,0,0,0,0,0,0,0],"id":28,"left_children":[1,3,5,7,9,11,13,15,17,19,21,-1,23,-1,25,27,29,-1,31,-1,33,35,-1,-1,37,39,-1,-1,-1,-1,-1,-1,-1,-1,-1,-1,-1,-1,-1,-1,-1],"loss_changes":[5.552346E-2,5.1607117E-2,3.957937E-2,5.967558E-2,3.1849064E-2,3.482385E-2,1.1891865E-2,1.2772273E-1,5.3120628E-2,1.5152469E-2,2.3688393E-2,0E0,2.7601495E-2,0E0,1.5248575E-2,5.5470783E-2,1.8855125E-2,0E0,6.519485E-2,0E0,1.3701655E-2,1.6000912E-2,0E0,0E0,1.9792944E-2,1.3572514E-2,0E0,0E0,0E0,0E0,0E0,0E0,0E0,0E0,0E0,0E0,0E0,0E0,0E0,0E0,0E0],"parents":[2147483647,0,0,1,1,2,2,3,3,4,4,5,5,6,6,7,7,8,8,9,9,10,10,12,12,14,14,15,15,16,16,18,18,20,20,21,21,24,24,25,25],"right_children":[2,4,6,8,10,12,14,16,18,20,22,-1,24,-1,26,28,30,-1,32,-1,34,36,-1,-1,38,40,-1,-1,-1,-1,-1,-1,-1,-1,-1,-1,-1,-1,-1,-1,-1],"split_conditions":[2.7140304E-1,9.076077E-1,7.9549724E-1,2.9844928E-1,1.610438E0,-1.0495692E0,-6.699601E-1,8.5544443E-1,-1.1295328E0,-1.1354116E-1,-1.5924037E0,-8.644871E-4,-5.8780503E-1,-2.3983638E-3,-3.2068607E-1,-5.193771E-2,8.407116E-3,5.968859E-3,-4.9820822E-1,-0E0,2.7549272E0,1.0682462E0,2.6094518E-3,2.647813E-3,-2.078008E0,1.5075254E0,-1.4783457E-3,-1.5695108E-3,-3.169021E-5,-7.0007616E-3,-2.7538708E-3,-2.6542688E-4,1.0363504E-3,-1.385318E-3,-0E0,7.0318487E-4,-2.162299E-3,3.2811507E-3,5.923634E-4,-0E0,1.9235021E-3],"split_indices":[7,16,15,0,2,0,19,11,19,1,10,0,0,0,0,7,3,0,1,0,3,3,0,0,3,19,0,0,0,0,0,0,0,0,0,0,0,0,0,0,0],"split_type":[0,0,0,0,0,0,0,0,0,0,0,0,0,0,0,0,0,0,0,0,0,0,0,0,0,0,0,0,0,0,0,0,0,0,0,0,0,0,0,0,0],"sum_hessian":[1.926E3,1.725E3,2.01E2,1.492E3,2.33E2,1.3E2,7.1E1,1.105E3,3.87E2,2.04E2,2.9E1,1.5E1,1.15E2,5E0,6.6E1,1.084E3,2.1E1,4E0,3.83E2,2.9E1,1.75E2,1.9E1,1E1,4.1E1,7.4E1,5.3E1,1.3E1,6.2E1,1.022E3,5E0,1.6E1,1.71E2,2.12E2,1.52E2,2.3E1,1.2E1,7E0,8E0,6.6E1,4.2E1,1.1E1],"tree_param":{"num_deleted":"0","num_feature":"20","num_nodes":"41","size_leaf_vector":"1"}},{"base_weights":[8.936131E-4,7.995957E-3,-2.1608558E-3,1.2353639E-2,-1.0292377E-2,-6.1403196E-3,7.6132296E-3,2.6479216E-2,5.8990405E-3,-5.090735E-2,5.7470296E-3,-2.2542863E-3,-2.8071178E-2,1.3138168E-2,-1.5474179E-2,1.0444547E-2,9.7610265E-2,-2.7659885E-3,1.8193439E-2,-0E0,-6.095026E-2,1.8743023E-2,-2.2646328E-3,-8.587335E-3,8.966346E-3,-1.1448501E-2,-5.948211E-2,2.4174362E-4,2.1561112E-2,-3.1900927E-2,-0E0,4.763046E-3,3.7367057E-4,6.5071257E-3,1.8539081E-3,3.8262457E-3,-4.5001088E-4,2.3245512E-4,1.5734116E-3,-1.2659602E-3,-4.0453374E-3,-1.6371053E-4,1.909175E-3,-6.033801E-4,1.1776446E-3,2.0407942E-4,4.1655665E-3,-4.575934E-3,-4.8178827E-5,1.1412184E-3,-3.4130246E-3,7.7371456E-4,-7.2225946E-4,-5.133096E-4,1.4717986E-3,3.548261E-4,-2.330547E-3],"categories":[],"categories_nodes":[],"categories_segments":[],"categories_sizes":[],"default_left":[0,0,0,0,0,0,0,0,0,0,0,0,0,0,0,0,0,0,0,0,0,0,0,0,0,0,0,0,0,0,0,0,0,0,0,0,0,0,0,0,0,0,0,0,0,0,0,0,0,0,0,0,0,0,0,0,0],"id":29,"left_children":[1,3,5,7,9,11,13,15,17,19,21,23,25,27,29,31,33,35,37,-1,39,41,-1,43,45,47,49,51,53,55,-1,-1,-1,-1,-1,-1,-1,-1,-1,-1,-1,-1,-1,-1,-1,-1,-1,-1,-1,-1,-1,-1,-1,-1,-1,-1,-1],"loss_changes":[4.2462464E-2,4.7146693E-2,5.2633848E-2,4.19302E-2,7.503987E-2,8.082113E-2,4.9540557E-2,1.6232054E-1,3.611166E-2,1.7935053E-2,5.1830243E-2,5.853812E-2,7.103917E-2,3.317871E-2,1.9545339E-2,2.5125436E-2,4.141122E-2,9.212428E-2,2.3202844E-2,0E0,1.3218902E-2,2.941562E-2,0E0,5.879589E-2,1.02410115E-1,7.550688E-2,3.8092926E-2,2.8687444E-2,4.8354395E-2,2.307944E-2,0E0,0E0,0E0,0E0,0E0,0E0,0E0,0E0,0E0,0E0,0E0,0E0,0E0,0E0,0E0,0E0,0E0,0E0,0E0,0E0,0E0,0E0,0E0,0E0,0E0,0E0,0E0],"parents":[2147483647,0,0,1,1,2,2,3,3,4,4,5,5,6,6,7,7,8,8,9,9,10,10,11,11,12,12,13,13,14,14,15,15,16,16,17,17,18,18,20,20,21,21,23,23,24,24,25,25,26,26,27,27,28,28,29,29],"right_children":[2,4,6,8,10,12,14,16,18,20,22,24,26,28,30,32,34,36,38,-1,40,42,-1,44,46,48,50,52,54,56,-1,-1,-1,-1,-1,-1,-1,-1,-1,-1,-1,-1,-1,-1,-1,-1,-1,-1,-1,-1,-1,-1,-1,-1,-1,-1,-1],"split_conditions":[-4.78741E-1,7.327319E-2,7.206228E-1,1.7764485E-2,-4.9820822E-1,-1.2225667E-2,1.4918574E0,6.859818E-1,-4.194049E-1,-1.7892903E0,-7.100144E-1,-2.2314006E-1,7.203664E-2,-9.915902E-1,1.2341287E0,-3.254022E0,7.923064E-1,-2.0205636E0,-1.4809258E0,-0E0,4.2048715E-2,-8.217938E-1,-2.2646328E-3,8.4144783E-1,1.1287956E0,-1.3270407E0,-1.0119362E-1,1.3855896E0,-8.20683E-1,1.7653364E-1,-0E0,4.763046E-3,3.7367057E-4,6.5071257E-3,1.8539081E-3,3.8262457E-3,-4.5001088E-4,2.3245512E-4,1.5734116E-3,-1.2659602E-3,-4.0453374E-3,-1.6371053E-4,1.909175E-3,-6.033801E-4,1.1776446E-3,2.0407942E-4,4.1655665E-3,-4.575934E-3,-4.8178827E-5,1.1412184E-3,-3.4130246E-3,7.7371456E-4,-7.2225946E-4,-5.133096E-4,1.4717986E-3,3.548261E-4,-2.330547E-3],"split_indices":[12,17,6,7,1,8,15,10,1,12,12,8,2,0,1,12,10,12,12,0,8,0,0,1,0,0,0,9,5,12,0,0,0,0,0,0,0,0,0,0,0,0,0,0,0,0,0,0,0,0,0,0,0,0,0,0,0],"split_type":[0,0,0,0,0,0,0,0,0,0,0,0,0,0,0,0,0,0,0,0,0,0,0,0,0,0,0,0,0,0,0,0,0,0,0,0,0,0,0,0,0,0,0,0,0,0,0,0,0,0,0,0,0,0,0,0,0],"sum_hessian":[1.943E3,5.89E2,1.354E3,4.78E2,1.11E2,9.66E2,3.88E2,1.47E2,3.31E2,3.2E1,7.9E1,8.23E2,1.43E2,3.15E2,7.3E1,1.21E2,2.6E1,1.92E2,1.39E2,5E0,2.7E1,6.4E1,1.5E1,5.29E2,2.94E2,9.5E1,4.8E1,1.27E2,1.88E2,3.6E1,3.7E1,3E0,1.18E2,1.6E1,1E1,1.3E1,1.79E2,7.1E1,6.8E1,1.1E1,1.6E1,2.9E1,3.5E1,4.79E2,5E1,2.77E2,1.7E1,1E1,8.5E1,4E0,4.4E1,6.4E1,6.3E1,3.6E1,1.52E2,9E0,2.7E1],"tree_param":{"num_deleted":"0","num_feature":"20","num_nodes":"57","size_leaf_vector":"1"}},{"base_weights":[7.6928915E-4,5.441969E-3,4.3753197E-4,-2.6545485E-3,9.496161E-4,2.3946106E-3,-1.5899563E-2,-2.042156E-2,3.5053643E-3,-2.1860754E-2,3.3115264E-2,-2.6730138E-3,-6.696924E-5,-9.258888E-5,4.4947836E-4,-3.7220735E-3,-8.923E-4,2.460256E-3,-2.8580635E-5],"categories":[],"categories_nodes":[],"categories_segments":[],"categories_sizes":[],"default_left":[0,0,0,0,0,0,0,0,0,0,0,0,0,0,0,0,0,0,0],"id":30,"left_children":[1,-1,3,-1,5,7,9,11,13,15,17,-1,-1,-1,-1,-1,-1,-1,-1],"loss_changes":[6.437197E-2,0E0,5.069161E-2,0E0,4.6248227E-2,4.4237424E-2,4.3481145E-2,4.7975495E-2,5.0237175E-2,2.311416E-2,1.0846999E-2,0E0,0E0,0E0,0E0,0E0,0E0,0E0,0E0],"parents":[2147483647,0,0,2,2,4,4,5,5,6,6,7,7,8,8,9,9,10,10],"right_children":[2,-1,4,-1,6,8,10,12,14,16,18,-1,-1,-1,-1,-1,-1,-1,-1],"split_conditions":[-3.138385E0,5.441969E-3,-1.554816E0,-2.6545485E-3,1.5036906E0,-5.193771E-2,1.6080801E0,-2.5884E-1,-4.9820822E-1,4.9227786E-1,2.7617617E-2,-2.6730138E-3,-6.696924E-5,-9.258888E-5,4.4947836E-4,-3.7220735E-3,-8.923E-4,2.460256E-3,-2.8580635E-5],"split_indices":[12,0,0,0,16,7,11,16,1,19,4,0,0,0,0,0,0,0,0],"split_type":[0,0,0,0,0,0,0,0,0,0,0,0,0,0,0,0,0,0,0],"sum_hessian":[1.948E3,5E0,1.943E3,1.7E1,1.926E3,1.777E3,1.49E2,8E1,1.697E3,1.34E2,1.5E1,2.8E1,5.2E1,8.54E2,8.43E2,8E0,1.26E2,1.1E1,4E0],"tree_param":{"num_deleted":"0","num_feature":"20","num_nodes":"19","size_leaf_vector":"1"}},{"base_weights":[7.555905E-4,2.032913E-3,-2.0400736E-2,-4.8912298E-2,2.545321E-3,-1.6167648E-2,-2.739046E-3,-3.2709353E-3,-0E0,-2.001218E-3,7.3852246E-3,-3.4565426E-2,-5.5904393E-3,1.3373606E-2,-5.760145E-3,5.5162543E-3,3.1842038E-2,-9.17543E-5,-2.4879302E-3,1.4159287E-3,-7.197719E-4,3.224883E-3,3.4242807E-5,-9.213803E-5,-1.5616516E-3,4.225395E-4,-8.473868E-4,2.928861E-3,8.523522E-4],"categories":[],"categories_nodes":[],"categories_segments":[],"categories_sizes":[],"default_left":[0,0,0,0,0,0,0,0,0,0,0,0,0,0,0,0,0,0,0,0,0,0,0,0,0,0,0,0,0],"id":31,"left_children":[1,3,5,7,9,11,-1,-1,-1,13,15,17,19,21,23,25,27,-1,-1,-1,-1,-1,-1,-1,-1,-1,-1,-1,-1],"loss_changes":[5.2108847E-2,4.610291E-2,1.1945747E-2,1.1627868E-2,4.0666424E-2,1.7258003E-2,0E0,0E0,0E0,5.4069795E-2,3.8931E-2,1.4530748E-2,1.9063927E-2,1.15106605E-1,7.410572E-2,5.459223E-2,2.0045634E-2,0E0,0E0,0E0,0E0,0E0,0E0,0E0,0E0,0E0,0E0,0E0,0E0],"parents":[2147483647,0,0,1,1,2,2,3,3,4,4,5,5,9,9,10,10,11,11,12,12,13,13,14,14,15,15,16,16],"right_children":[2,4,6,8,10,12,-1,-1,-1,14,16,18,20,22,24,26,28,-1,-1,-1,-1,-1,-1,-1,-1,-1,-1,-1,-1],"split_conditions":[2.0032706E0,-1.554816E0,1.487083E0,1.3916929E-1,3.4705993E-2,3.9400533E-1,-2.739046E-3,-3.2709353E-3,-0E0,-8.221599E-1,1.6214669E0,-8.611358E-1,7.065472E-1,-6.580088E-1,7.923064E-1,2.312568E0,1.6176157E-1,-9.17543E-5,-2.4879302E-3,1.4159287E-3,-7.197719E-4,3.224883E-3,3.4242807E-5,-9.213803E-5,-1.5616516E-3,4.225395E-4,-8.473868E-4,2.928861E-3,8.523522E-4],"split_indices":[15,0,12,10,7,1,0,0,0,6,1,0,1,19,10,9,19,0,0,0,0,0,0,0,0,0,0,0,0],"split_type":[0,0,0,0,0,0,0,0,0,0,0,0,0,0,0,0,0,0,0,0,0,0,0,0,0,0,0,0,0],"sum_hessian":[1.961E3,1.852E3,1.09E2,1.7E1,1.835E3,9.9E1,1E1,1.2E1,5E0,9.41E2,8.94E2,3.4E1,6.5E1,1.82E2,7.59E2,8.33E2,6.1E1,1.2E1,2.2E1,1.2E1,5.3E1,3.5E1,1.47E2,6.6E2,9.9E1,7.39E2,9.4E1,2E1,4.1E1],"tree_param":{"num_deleted":"0","num_feature":"20","num_nodes":"29","size_leaf_vector":"1"}},{"base_weights":[-6.0416216E-5,2.5895325E-2,-1.1249038E-3,5.4078517E-3,1.443409E-2,-6.426248E-4,-4.912294E-2,4.5424276E-3,8.016776E-3,-3.9372398E-3,8.073656E-3,1.4516648E-3,-4.7755125E-3,-2.9977919E-3,3.699731E-2,-2.8893594E-3,-4.8903957E-2,1.595286E-2,-1.2956927E-2,-3.501714E-3,2.5542633E-4,-0E0,2.4890555E-3,9.102569E-5,-6.038295E-4,-1.6803589E-3,-5.9520416E-3,6.37407E-3,7.2063407E-4,-1.9823941E-3,3.616898E-4],"categories":[],"categories_nodes":[],"categories_segments":[],"categories_sizes":[],"default_left":[0,0,0,0,0,0,0,0,0,0,0,0,0,0,0,0,0,0,0,0,0,0,0,0,0,0,0,0,0,0,0],"id":32,"left_children":[1,3,5,-1,7,9,11,-1,13,15,17,-1,-1,19,21,23,25,27,29,-1,-1,-1,-1,-1,-1,-1,-1,-1,-1,-1,-1],"loss_changes":[5.230833E-2,6.3330024E-2,4.063306E-2,0E0,2.7302556E-2,5.2834626E-2,6.815584E-2,0E0,2.1705933E-2,6.069219E-2,8.351952E-2,0E0,0E0,2.7607324E-2,1.0610484E-2,5.74464E-2,2.2016898E-2,5.51135E-2,7.4786365E-2,0E0,0E0,0E0,0E0,0E0,0E0,0E0,0E0,0E0,0E0,0E0,0E0],"parents":[2147483647,0,0,1,1,2,2,4,4,5,5,6,6,8,8,9,9,10,10,13,13,14,14,15,15,16,16,17,17,18,18],"right_children":[2,4,6,-1,8,10,12,-1,14,16,18,-1,-1,20,22,24,26,28,30,-1,-1,-1,-1,-1,-1,-1,-1,-1,-1,-1,-1],"split_conditions":[-2.0205636E0,-1.8700252E-1,2.7672977E0,5.4078517E-3,-3.254022E0,4.6238917E-1,-1.7912938E-1,4.5424276E-3,5.862748E-1,5.833522E-1,1.1986341E0,1.4516648E-3,-4.7755125E-3,-2.9456573E0,-2.4496398E0,-7.3955305E-2,-1.6329257E-1,-1.2426676E0,6.277439E-1,-3.501714E-3,2.5542633E-4,-0E0,2.4890555E-3,9.102569E-5,-6.038295E-4,-1.6803589E-3,-5.9520416E-3,6.37407E-3,7.2063407E-4,-1.9823941E-3,3.616898E-4],"split_indices":[12,9,9,0,12,5,3,0,0,8,15,0,0,12,3,5,15,19,1,0,0,0,0,0,0,0,0,0,0,0,0],"split_type":[0,0,0,0,0,0,0,0,0,0,0,0,0,0,0,0,0,0,0,0,0,0,0,0,0,0,0,0,0,0,0],"sum_hessian":[1.937E3,7.4E1,1.863E3,8E0,6.6E1,1.846E3,1.7E1,4E0,6.2E1,1.344E3,5.02E2,6E0,1.1E1,4.4E1,1.8E1,1.315E3,2.9E1,3.67E2,1.35E2,5E0,3.9E1,4E0,1.4E1,8.66E2,4.49E2,2.5E1,4E0,4E0,3.63E2,5.9E1,7.6E1],"tree_param":{"num_deleted":"0","num_feature":"20","num_nodes":"31","size_leaf_vector":"1"}},{"base_weights":[2.7005473E-5,-4.6671398E-2,4.7138598E-4,-3.311937E-3,-3.8492322E-5,1.6972946E-3,-1.474628E-2,-3.302385E-4,1.0465078E-2,-2.1031912E-2,1.5430063E-3,6.492049E-3,-4.910456E-3,1.44949425E-2,-1.792761E-2,-1.3769333E-2,-2.6927262E-3,1.1850425E-5,7.8071025E-4,-3.216249E-4,1.3600586E-3,-8.084596E-5,1.1451488E-3,1.5191226E-5,-2.587249E-3,-9.816833E-4,1.1609228E-3],"categories":[],"categories_nodes":[],"categories_segments":[],"categories_sizes":[],"default_left":[0,0,0,0,0,0,0,0,0,0,0,0,0,0,0,0,0,0,0,0,0,0,0,0,0,0,0],"id":33,"left_children":[1,3,5,-1,-1,7,9,11,13,15,-1,17,19,21,23,25,-1,-1,-1,-1,-1,-1,-1,-1,-1,-1,-1],"loss_changes":[3.8551036E-2,1.2342069E-2,3.5766218E-2,0E0,0E0,3.2675896E-2,4.068289E-2,4.573016E-2,3.9375536E-2,2.6402704E-2,0E0,3.255684E-2,4.213257E-2,4.2197675E-2,2.8166294E-2,2.2932546E-2,0E0,0E0,0E0,0E0,0E0,0E0,0E0,0E0,0E0,0E0,0E0],"parents":[2147483647,0,0,1,1,2,2,5,5,6,6,7,7,8,8,9,9,11,11,12,12,13,13,14,14,15,15],"right_children":[2,4,6,-1,-1,8,10,12,14,16,-1,18,20,22,24,26,-1,-1,-1,-1,-1,-1,-1,-1,-1,-1,-1],"split_conditions":[-1.554816E0,1.3916929E-1,1.5036906E0,-3.311937E-3,-3.8492322E-5,7.206228E-1,1.610438E0,-4.78741E-1,2.038069E0,1.487083E0,1.5430063E-3,4.5814326E-1,8.668252E-1,-7.541802E-1,2.5362477E-1,2.141175E0,-2.6927262E-3,1.1850425E-5,7.8071025E-4,-3.216249E-4,1.3600586E-3,-8.084596E-5,1.1451488E-3,1.5191226E-5,-2.587249E-3,-9.816833E-4,1.1609228E-3],"split_indices":[0,10,16,0,0,6,2,12,15,12,0,10,1,2,12,5,0,0,0,0,0,0,0,0,0,0,0],"split_type":[0,0,0,0,0,0,0,0,0,0,0,0,0,0,0,0,0,0,0,0,0,0,0,0,0,0,0],"sum_hessian":[1.968E3,1.7E1,1.951E3,1.1E1,6E0,1.809E3,1.42E2,1.465E3,3.44E2,1.26E2,1.6E1,5.84E2,8.81E2,3.03E2,4.1E1,1.05E2,2.1E1,3.5E2,2.34E2,8.43E2,3.8E1,1.02E2,2.01E2,2.6E1,1.5E1,9.2E1,1.3E1],"tree_param":{"num_deleted":"0","num_feature":"20","num_nodes":"27","size_leaf_vector":"1"}},{"base_weights":[1.027294E-3,1.3608612E-2,-8.09591E-4,-2.1926635E-3,3.404876E-2,-9.897674E-3,2.4294618E-3,4.3400154E-3,-5.460824E-3,1.877723E-2,1.3211423E-1,1.5619399E-4,-2.3684844E-2,2.415703E-2,7.126169E-4,-3.691865E-2,4.171402E-3,1.0354264E-2,6.410499E-3,2.8174666E-3,8.819917E-3,-5.6357373E-2,3.4537804E-3,-3.6881458E-2,-5.638477E-3,5.3264224E-3,1.4804448E-2,-2.1372437E-2,3.1717324E-3,-6.3083963E-3,-1.049185E-3,-1.8557782E-3,5.393288E-4,1.9928685E-3,-5.49477E-4,-0E0,-3.7660364E-3,5.7000463E-5,3.522164E-3,-4.5276765E-4,-2.6055954E-3,1.3006825E-3,-1.0523257E-3,1.6129849E-3,1.0921447E-4,-4.7798694E-5,-2.0026767E-3,6.368186E-4,-6.8827525E-5],"categories":[],"categories_nodes":[],"categories_segments":[],"categories_sizes":[],"default_left":[0,0,0,0,0,0,0,0,0,0,0,0,0,0,0,0,0,0,0,0,0,0,0,0,0,0,0,0,0,0,0,0,0,0,0,0,0,0,0,0,0,0,0,0,0,0,0,0,0],"id":34,"left_children":[1,3,5,7,9,11,13,-1,15,17,19,21,23,25,27,29,31,33,-1,-1,-1,35,37,39,41,-1,43,45,47,-1,-1,-1,-1,-1,-1,-1,-1,-1,-1,-1,-1,-1,-1,-1,-1,-1,-1,-1,-1],"loss_changes":[4.58148E-2,8.318266E-2,5.0501555E-2,3.732435E-2,1.5819854E-1,6.376268E-2,4.5432445E-2,0E0,4.3378092E-2,8.227849E-2,3.204274E-2,4.581214E-2,4.361409E-2,6.2094312E-2,6.225888E-2,3.8961794E-2,2.7424809E-2,5.928073E-2,0E0,0E0,0E0,1.10174455E-2,3.458778E-2,4.311225E-2,4.0748104E-2,0E0,1.6196046E-2,4.160089E-2,4.618932E-2,0E0,0E0,0E0,0E0,0E0,0E0,0E0,0E0,0E0,0E0,0E0,0E0,0E0,0E0,0E0,0E0,0E0,0E0,0E0,0E0],"parents":[2147483647,0,0,1,1,2,2,3,3,4,4,5,5,6,6,8,8,9,9,10,10,11,11,12,12,13,13,14,14,15,15,16,16,17,17,21,21,22,22,23,23,24,24,26,26,27,27,28,28],"right_children":[2,4,6,8,10,12,14,-1,16,18,20,22,24,26,28,30,32,34,-1,-1,-1,36,38,40,42,-1,44,46,48,-1,-1,-1,-1,-1,-1,-1,-1,-1,-1,-1,-1,-1,-1,-1,-1,-1,-1,-1,-1],"split_conditions":[-8.221599E-1,-9.0237826E-1,-3.1669855E-1,-3.254022E0,-5.115646E-1,9.220815E-2,-1.0866313E0,4.3400154E-3,6.712633E-4,4.6618202E-1,-1.027469E0,-9.3966544E-1,2.0835021E-1,-1.0119929E0,-1.0302585E0,-2.405616E-1,-1.3493758E0,-1.11067005E-1,6.410499E-3,2.8174666E-3,8.819917E-3,7.771172E-1,1.4192828E0,-4.8427063E-1,-1.2827425E-1,5.3264224E-3,-1.6436334E0,-7.3955305E-2,2.6323942E-2,-6.3083963E-3,-1.049185E-3,-1.8557782E-3,5.393288E-4,1.9928685E-3,-5.49477E-4,-0E0,-3.7660364E-3,5.7000463E-5,3.522164E-3,-4.5276765E-4,-2.6055954E-3,1.3006825E-3,-1.0523257E-3,1.6129849E-3,1.0921447E-4,-4.7798694E-5,-2.0026767E-3,6.368186E-4,-6.8827525E-5],"split_indices":[6,5,4,12,1,11,15,0,17,19,4,19,1,19,19,10,10,8,0,0,0,10,19,0,15,0,2,5,17,0,0,0,0,0,0,0,0,0,0,0,0,0,0,0,0,0,0,0,0],"split_type":[0,0,0,0,0,0,0,0,0,0,0,0,0,0,0,0,0,0,0,0,0,0,0,0,0,0,0,0,0,0,0,0,0,0,0,0,0,0,0,0,0,0,0,0,0,0,0,0,0],"sum_hessian":[1.954E3,2.52E2,1.702E3,1.41E2,1.11E2,4.51E2,1.251E3,4E0,1.37E2,9.7E1,1.4E1,2.59E2,1.92E2,8.9E1,1.162E3,3.3E1,1.04E2,9.1E1,6E0,6E0,8E0,1.3E1,2.46E2,1.09E2,8.3E1,8E0,8.1E1,1.14E2,1.048E3,4E0,2.9E1,1.3E1,9.1E1,3.9E1,5.2E1,4E0,9E0,2.39E2,7E0,4E1,6.9E1,2.6E1,5.7E1,3.2E1,4.9E1,5.6E1,5.8E1,3.41E2,7.07E2],"tree_param":{"num_deleted":"0","num_feature":"20","num_nodes":"49","size_leaf_vector":"1"}},{"base_weights":[-4.4024855E-4,2.0477632E-2,-1.5699114E-3,-3.5728037E-3,2.6249023E-2,-2.372147E-4,-1.6829899E-2,1.7094942E-2,7.683666E-2,-2.3703E-2,5.7887024E-4,-2.0624258E-2,2.4606155E-3,4.8553096E-3,1.1693677E-2,1.2826206E-3,6.1146296E-3,-4.296042E-4,-3.2035212E-3,-4.375757E-3,6.0263933E-3,1.1032614E-3,-2.3299789E-2,-1.5678395E-3,8.1124407E-4,-1.23646E-4,-1.895948E-3,1.206943E-3,1.819006E-5,-1.290605E-3,1.4440494E-3],"categories":[],"categories_nodes":[],"categories_segments":[],"categories_sizes":[],"default_left":[0,0,0,0,0,0,0,0,0,0,0,0,0,0,0,0,0,0,0,0,0,0,0,0,0,0,0,0,0,0,0],"id":35,"left_children":[1,3,5,-1,7,9,11,13,15,17,19,21,-1,-1,23,-1,-1,-1,-1,25,27,-1,29,-1,-1,-1,-1,-1,-1,-1,-1],"loss_changes":[4.5988355E-2,5.147073E-2,3.7510276E-2,0E0,3.840804E-2,3.4455467E-2,3.6290366E-2,2.9213447E-2,2.2443675E-2,3.2995947E-2,4.5399185E-2,1.6480505E-2,0E0,0E0,1.4615749E-2,0E0,0E0,0E0,0E0,5.3750463E-2,8.128282E-2,0E0,1.7851487E-2,0E0,0E0,0E0,0E0,0E0,0E0,0E0,0E0],"parents":[2147483647,0,0,1,1,2,2,4,4,5,5,6,6,7,7,8,8,9,9,10,10,11,11,14,14,19,19,20,20,22,22],"right_children":[2,4,6,-1,8,10,12,14,16,18,20,22,-1,-1,24,-1,-1,-1,-1,26,28,-1,30,-1,-1,-1,-1,-1,-1,-1,-1],"split_conditions":[-1.8278358E0,-4.076432E-1,1.5036906E0,-3.5728037E-3,6.859818E-1,-5.193771E-2,1.6819675E0,-3.138385E0,4.4163138E-1,-1.9121148E-2,-4.9820822E-1,-8.3814967E-1,2.4606155E-3,4.8553096E-3,-1.0912477E0,1.2826206E-3,6.1146296E-3,-4.296042E-4,-3.2035212E-3,7.281571E-1,-4.56594E-1,1.1032614E-3,2.764842E0,-1.5678395E-3,8.1124407E-4,-1.23646E-4,-1.895948E-3,1.206943E-3,1.819006E-5,-1.290605E-3,1.4440494E-3],"split_indices":[12,10,16,0,10,7,2,12,19,3,1,2,0,0,19,0,0,0,0,3,19,0,19,0,0,0,0,0,0,0,0],"split_type":[0,0,0,0,0,0,0,0,0,0,0,0,0,0,0,0,0,0,0,0,0,0,0,0,0,0,0,0,0,0,0],"sum_hessian":[1.985E3,9.9E1,1.886E3,5E0,9.4E1,1.738E3,1.48E2,8.1E1,1.3E1,6E1,1.678E3,1.41E2,7E0,4E0,7.7E1,7E0,6E0,4.5E1,1.5E1,8.74E2,8.04E2,7E0,1.34E2,6E0,7.1E1,8.29E2,4.5E1,1.89E2,6.15E2,1.29E2,5E0],"tree_param":{"num_deleted":"0","num_feature":"20","num_nodes":"31","size_leaf_vector":"1"}},{"base_weights":[-1.4872757E-4,6.138695E-4,-2.6116392E-2,-2.527261E-3,1.0352163E-3,-4.1825E-2,-1.8113725E-4,-1.34598045E-2,2.3533665E-3,-5.0440725E-2,1.1241268E-3,7.460794E-2,-1.8263752E-2,2.5905546E-2,1.3935083E-3,-3.3844684E-3,-8.076004E-4,5.8364957E-3,-0E0,-0E0,-2.2134883E-3,-3.895775E-3,1.7052301E-3,2.5123448E-4,-2.4111856E-4],"categories":[],"categories_nodes":[],"categories_segments":[],"categories_sizes":[],"default_left":[0,0,0,0,0,0,0,0,0,0,0,0,0,0,0,0,0,0,0,0,0,0,0,0,0],"id":36,"left_children":[1,3,5,-1,7,9,-1,11,13,15,-1,17,19,21,23,-1,-1,-1,-1,-1,-1,-1,-1,-1,-1],"loss_changes":[3.9888825E-2,3.8344845E-2,1.7969124E-2,0E0,3.5352293E-2,1.997175E-2,0E0,6.280576E-2,3.7624944E-2,1.2708567E-2,0E0,1.9568853E-2,6.77416E-2,5.489396E-2,3.7501354E-2,0E0,0E0,0E0,0E0,0E0,0E0,0E0,0E0,0E0,0E0],"parents":[2147483647,0,0,1,1,2,2,4,4,5,5,7,7,8,8,9,9,11,11,12,12,13,13,14,14],"right_children":[2,4,6,-1,8,10,-1,12,14,16,-1,18,20,22,24,-1,-1,-1,-1,-1,-1,-1,-1,-1,-1],"split_conditions":[2.409317E0,-1.554816E0,1.6568202E0,-2.527261E-3,-1.0302585E0,1.5575686E0,-1.8113725E-4,-4.516111E-2,-2.0205636E0,1.5256284E0,1.1241268E-3,-1.2110134E0,-7.3955305E-2,-3.165078E-1,-1.0602209E-2,-3.3844684E-3,-8.076004E-4,5.8364957E-3,-0E0,-0E0,-2.2134883E-3,-3.895775E-3,1.7052301E-3,2.5123448E-4,-2.4111856E-4],"split_indices":[16,0,0,0,19,2,0,7,12,12,0,19,5,10,8,0,0,0,0,0,0,0,0,0,0],"split_type":[0,0,0,0,0,0,0,0,0,0,0,0,0,0,0,0,0,0,0,0,0,0,0,0,0],"sum_hessian":[1.949E3,1.892E3,5.7E1,1.4E1,1.878E3,3.2E1,2.5E1,1.53E2,1.725E3,2.9E1,3E0,7E0,1.46E2,6.5E1,1.66E3,1.8E1,1.1E1,4E0,3E0,8.7E1,5.9E1,4E0,6.1E1,1.053E3,6.07E2],"tree_param":{"num_deleted":"0","num_feature":"20","num_nodes":"25","size_leaf_vector":"1"}},{"base_weights":[-4.0940402E-4,1.0176233E-2,-2.123507E-3,-3.4129183E-4,3.2782167E-2,-9.955686E-3,1.6559248E-3,-6.2964214E-3,1.6136582E-3,1.6770491E-2,1.0715761E-1,-4.1529587E-3,-2.3194615E-2,3.5373807E-2,-7.3882635E-4,-3.49003E-2,1.8772994E-3,4.6867166E-2,-1.3001731E-2,7.5057014E-3,1.7524309E-3,-7.546513E-4,-4.459589E-2,-2.8622843E-2,2.2724527E-3,9.9649385E-2,2.5173733E-2,-1.0009226E-3,9.5281727E-4,-4.1073165E-3,1.7039414E-4,5.6254625E-4,-8.982758E-4,3.4628058E-5,4.4536195E-3,-1.7753534E-3,1.5580946E-3,1.1310282E-4,-1.665554E-3,-3.796609E-3,2.0770591E-3,-4.2102966E-3,-1.2247482E-3,1.0812313E-3,6.3152537E-3,1.5693557E-3,-2.6404595E-3,5.7818735E-4,-1.9496765E-4],"categories":[],"categories_nodes":[],"categories_segments":[],"categories_sizes":[],"default_left":[0,0,0,0,0,0,0,0,0,0,0,0,0,0,0,0,0,0,0,0,0,0,0,0,0,0,0,0,0,0,0,0,0,0,0,0,0,0,0,0,0,0,0,0,0,0,0,0,0],"id":37,"left_children":[1,3,5,7,9,11,13,15,-1,17,19,21,23,25,27,29,31,33,35,-1,-1,37,39,41,-1,43,45,-1,47,-1,-1,-1,-1,-1,-1,-1,-1,-1,-1,-1,-1,-1,-1,-1,-1,-1,-1,-1,-1],"loss_changes":[3.4564264E-2,6.4514756E-2,4.96352E-2,3.366585E-2,9.47249E-2,4.0490802E-2,9.19784E-2,3.7572224E-2,0E0,6.606516E-2,3.3025607E-2,5.0285496E-2,6.0731433E-2,4.200355E-2,3.496318E-2,6.832868E-2,2.180623E-2,6.661245E-2,3.6054555E-2,0E0,0E0,3.640672E-2,8.022436E-2,2.8523281E-2,0E0,1.0995999E-2,3.1979408E-2,0E0,4.965216E-2,0E0,0E0,0E0,0E0,0E0,0E0,0E0,0E0,0E0,0E0,0E0,0E0,0E0,0E0,0E0,0E0,0E0,0E0,0E0,0E0],"parents":[2147483647,0,0,1,1,2,2,3,3,4,4,5,5,6,6,7,7,9,9,10,10,11,11,12,12,13,13,14,14,15,15,16,16,17,17,18,18,21,21,22,22,23,23,25,25,26,26,28,28],"right_children":[2,4,6,8,10,12,14,16,-1,18,20,22,24,26,28,30,32,34,36,-1,-1,38,40,42,-1,44,46,-1,48,-1,-1,-1,-1,-1,-1,-1,-1,-1,-1,-1,-1,-1,-1,-1,-1,-1,-1,-1,-1],"split_conditions":[-8.221599E-1,-8.651407E-1,-3.1710607E-1,1.5242963E0,-5.115646E-1,-1.58137E-1,-1.9441546E-1,-2.405616E-1,1.6136582E-3,8.530634E-1,-9.195256E-1,1.6686165E0,1.8926036E0,-5.438221E-1,-1.0028987E0,-9.825967E-3,-1.4100294E-1,6.859818E-1,1.7701218E-1,7.5057014E-3,1.7524309E-3,2.4685518E-1,2.096655E0,-1.1295328E0,2.2724527E-3,6.556033E-1,1.4331871E0,-1.0009226E-3,2.6323942E-2,-4.1073165E-3,1.7039414E-4,5.6254625E-4,-8.982758E-4,3.4628058E-5,4.4536195E-3,-1.7753534E-3,1.5580946E-3,1.1310282E-4,-1.665554E-3,-3.796609E-3,2.0770591E-3,-4.2102966E-3,-1.2247482E-3,1.0812313E-3,6.3152537E-3,1.5693557E-3,-2.6404595E-3,5.7818735E-4,-1.9496765E-4],"split_indices":[6,5,6,0,1,5,6,10,0,10,3,19,1,11,19,7,11,10,11,0,0,8,19,19,0,10,0,0,17,0,0,0,0,0,0,0,0,0,0,0,0,0,0,0,0,0,0,0,0],"split_type":[0,0,0,0,0,0,0,0,0,0,0,0,0,0,0,0,0,0,0,0,0,0,0,0,0,0,0,0,0,0,0,0,0,0,0,0,0,0,0,0,0,0,0,0,0,0,0,0,0],"sum_hessian":[1.926E3,2.64E2,1.662E3,1.79E2,8.5E1,5.45E2,1.117E3,1.53E2,2.6E1,7.1E1,1.4E1,3.82E2,1.63E2,7.5E1,1.042E3,3.5E1,1.18E2,3.6E1,3.5E1,8E0,6E0,3.54E2,2.8E1,1.52E2,1.1E1,9E0,6.6E1,8.6E1,9.56E2,1.6E1,1.9E1,8.2E1,3.6E1,1.8E1,1.8E1,2.4E1,1.1E1,3.23E2,3.1E1,2.1E1,7E0,9E0,1.43E2,3E0,6E0,6.2E1,4E0,3.03E2,6.53E2],"tree_param":{"num_deleted":"0","num_feature":"20","num_nodes":"49","size_leaf_vector":"1"}},{"base_weights":[6.312022E-4,-4.3145286E-5,3.8189083E-2,9.614214E-4,-2.4040788E-2,-7.21781E-4,4.8692077E-2,1.1269633E-4,3.539014E-2,-5.3081654E-2,1.4269057E-2,2.7405021E-3,-0E0,1.7758026E-3,-2.3050051E-2,2.922117E-3,-7.691431E-3,-2.6377717E-2,-7.339161E-2,5.3906027E-2,-6.78195E-3,-6.7280525E-6,7.650353E-4,-4.0708035E-3,-7.460594E-4,-2.671737E-3,3.7585996E-4,-2.1624386E-3,-0E0,-5.2426415E-3,-1.7497359E-3,4.0046913E-3,-5.295141E-4,5.210069E-4,-1.7161245E-3],"categories":[],"categories_nodes":[],"categories_segments":[],"categories_sizes":[],"default_left":[0,0,0,0,0,0,0,0,0,0,0,0,0,0,0,0,0,0,0,0,0,0,0,0,0,0,0,0,0,0,0,0,0,0,0],"id":38,"left_children":[1,3,5,7,9,-1,11,13,15,17,19,-1,-1,21,23,-1,25,27,29,31,33,-1,-1,-1,-1,-1,-1,-1,-1,-1,-1,-1,-1,-1,-1],"loss_changes":[5.100463E-2,4.7053643E-2,2.1685723E-2,5.1564917E-2,8.9654595E-2,0E0,1.0300845E-2,6.766094E-2,4.4970106E-2,1.8720776E-2,3.0491333E-2,0E0,0E0,4.3817498E-2,5.032353E-2,0E0,1.2584267E-2,1.02918055E-2,2.0769283E-2,2.5011986E-2,1.1559667E-2,0E0,0E0,0E0,0E0,0E0,0E0,0E0,0E0,0E0,0E0,0E0,0E0,0E0,0E0],"parents":[2147483647,0,0,1,1,2,2,3,3,4,4,6,6,7,7,8,8,9,9,10,10,13,13,14,14,16,16,17,17,18,18,19,19,20,20],"right_children":[2,4,6,8,10,-1,12,14,16,18,20,-1,-1,22,24,-1,26,28,30,32,34,-1,-1,-1,-1,-1,-1,-1,-1,-1,-1,-1,-1,-1,-1],"split_conditions":[2.4470544E0,1.7285109E0,-2.3555849E0,1.5473903E0,2.1121684E-1,-7.21781E-4,1.4104095E0,1.3790864E0,2.06672E0,4.8489818E-1,1.7604655E-1,2.7405021E-3,-0E0,1.290065E0,4.1517073E-1,2.922117E-3,7.547172E-1,-8.040967E-3,-4.076432E-1,4.2890206E-1,-3.9541504E-1,-6.7280525E-6,7.650353E-4,-4.0708035E-3,-7.460594E-4,-2.671737E-3,3.7585996E-4,-2.1624386E-3,-0E0,-5.2426415E-3,-1.7497359E-3,4.0046913E-3,-5.295141E-4,5.210069E-4,-1.7161245E-3],"split_indices":[19,19,3,19,17,0,0,3,3,12,7,0,0,11,2,0,12,17,10,0,11,0,0,0,0,0,0,0,0,0,0,0,0,0,0],"split_type":[0,0,0,0,0,0,0,0,0,0,0,0,0,0,0,0,0,0,0,0,0,0,0,0,0,0,0,0,0,0,0,0,0,0,0],"sum_hessian":[1.938E3,1.903E3,3.5E1,1.825E3,7.8E1,5E0,3E1,1.783E3,4.2E1,4.5E1,3.3E1,2.7E1,3E0,1.666E3,1.17E2,2.8E1,1.4E1,2.1E1,2.4E1,1.2E1,2.1E1,1.457E3,2.09E2,1.3E1,1.04E2,4E0,1E1,1.3E1,8E0,1.2E1,1.2E1,9E0,3E0,1.2E1,9E0],"tree_param":{"num_deleted":"0","num_feature":"20","num_nodes":"35","size_leaf_vector":"1"}},{"base_weights":[4.0702196E-4,2.2551378E-3,-9.131292E-3,1.4467211E-2,1.08404325E-4,-1.3393773E-2,2.2972092E-2,-8.4251387E-4,3.3484824E-2,1.3172503E-3,-6.13855E-2,-9.325963E-3,-3.878173E-2,3.7993267E-3,1.8236162E-4,-4.41974E-3,2.627035E-3,4.1081538E-4,4.909986E-2,-2.4014235E-2,3.3684333E-3,-3.5230655E-3,-0E0,-1.2157906E-2,2.3587781E-3,3.1277622E-4,-4.790678E-2,1.0435561E-3,-6.345074E-4,3.1494838E-3,6.433608E-4,-4.4131736E-4,-2.3634424E-3,5.0531174E-3,1.4855484E-4,-7.3327066E-4,1.202935E-3,-4.2557094E-4,-3.093717E-3],"categories":[],"categories_nodes":[],"categories_segments":[],"categories_sizes":[],"default_left":[0,0,0,0,0,0,0,0,0,0,0,0,0,0,0,0,0,0,0,0,0,0,0,0,0,0,0,0,0,0,0,0,0,0,0,0,0,0,0],"id":39,"left_children":[1,3,5,7,9,11,13,15,17,19,21,23,25,-1,-1,-1,27,-1,29,31,33,-1,-1,35,-1,-1,37,-1,-1,-1,-1,-1,-1,-1,-1,-1,-1,-1,-1],"loss_changes":[3.3203587E-2,4.117682E-2,4.1342724E-2,7.0213094E-2,9.839505E-2,2.5349222E-2,3.1224875E-2,4.3742314E-2,3.8954057E-2,6.8555966E-2,1.5619338E-2,3.6218032E-2,1.6821746E-2,0E0,0E0,0E0,3.5332758E-2,0E0,2.8262496E-2,3.1775694E-2,4.2801157E-2,0E0,0E0,2.0185173E-2,0E0,0E0,1.300022E-2,0E0,0E0,0E0,0E0,0E0,0E0,0E0,0E0,0E0,0E0,0E0,0E0],"parents":[2147483647,0,0,1,1,2,2,3,3,4,4,5,5,6,6,7,7,8,8,9,9,10,10,11,11,12,12,16,16,18,18,19,19,20,20,23,23,26,26],"right_children":[2,4,6,8,10,12,14,16,18,20,22,24,26,-1,-1,-1,28,-1,30,32,34,-1,-1,36,-1,-1,38,-1,-1,-1,-1,-1,-1,-1,-1,-1,-1,-1,-1],"split_conditions":[8.2181895E-1,-7.873741E-1,2.59786E-1,-6.4953715E-1,8.5544443E-1,1.487083E0,-1.362472E-1,-3.7917435E-1,-5.7968277E-1,-5.5953556E-1,6.758274E-1,1.7776883E0,5.4802984E-1,3.7993267E-3,1.8236162E-4,-4.41974E-3,3.2484636E-1,4.1081538E-4,1.1016272E0,2.245184E-2,-3.138385E0,-3.5230655E-3,-0E0,2.141175E0,2.3587781E-3,3.1277622E-4,9.175846E-1,1.0435561E-3,-6.345074E-4,3.1494838E-3,6.433608E-4,-4.4131736E-4,-2.3634424E-3,5.0531174E-3,1.4855484E-4,-7.3327066E-4,1.202935E-3,-4.2557094E-4,-3.093717E-3],"split_indices":[16,10,7,8,11,12,1,19,1,10,1,11,11,0,0,0,19,0,12,17,12,0,0,5,0,0,0,0,0,0,0,0,0,0,0,0,0,0,0],"split_type":[0,0,0,0,0,0,0,0,0,0,0,0,0,0,0,0,0,0,0,0,0,0,0,0,0,0,0,0,0,0,0,0,0,0,0,0,0,0,0],"sum_hessian":[1.902E3,1.598E3,3.04E2,2.35E2,1.363E3,2.7E2,3.4E1,1.29E2,1.06E2,1.338E3,2.5E1,2.35E2,3.5E1,8E0,2.6E1,5E0,1.24E2,4.2E1,6.4E1,9.8E1,1.24E3,2.2E1,3E0,2.25E2,1E1,5E0,3E1,5.8E1,6.6E1,4.5E1,1.9E1,6.1E1,3.7E1,4E0,1.236E3,2.12E2,1.3E1,9E0,2.1E1],"tree_param":{"num_deleted":"0","num_feature":"20","num_nodes":"39","size_leaf_vector":"1"}},{"base_weights":[5.369209E-4,5.23124E-3,-2.8305752E-3,2.0061752E-3,1.8949775E-2,-1.5353343E-2,1.8004499E-3,-4.304032E-3,3.098782E-3,6.942701E-2,9.179656E-3,-3.1182284E-2,-1.853913E-3,4.8532546E-2,4.5824997E-4,-1.4695461E-2,6.441406E-3,4.1683638E-3,9.4313466E-4,3.921184E-3,4.416835E-3,2.273538E-3,-3.58513E-2,-5.5404766E-3,2.6855897E-3,-1.827788E-4,1.08141795E-1,9.333674E-3,-4.3048467E-3,-3.8903498E-3,-4.8738005E-4,7.460183E-4,-8.282348E-5,-3.803991E-4,7.845578E-4,-1.9191282E-3,2.3597446E-3,-1.2473188E-3,5.2753114E-4,8.785999E-3,-1.8915866E-3,1.1719031E-4,1.5423831E-3,-4.1234787E-4,1.3522347E-3],"categories":[],"categories_nodes":[],"categories_segments":[],"categories_sizes":[],"default_left":[0,0,0,0,0,0,0,0,0,0,0,0,0,0,0,0,0,0,0,0,0,0,0,0,0,0,0,0,0,0,0,0,0,0,0,0,0,0,0,0,0,0,0,0,0],"id":40,"left_children":[1,3,5,7,9,11,13,-1,15,17,19,21,23,25,27,29,31,-1,-1,-1,33,-1,35,37,-1,-1,39,41,43,-1,-1,-1,-1,-1,-1,-1,-1,-1,-1,-1,-1,-1,-1,-1,-1],"loss_changes":[3.0407855E-2,3.4615304E-2,6.503498E-2,5.916862E-2,6.997287E-2,6.295798E-2,4.8188824E-2,0E0,3.826654E-2,1.0666907E-2,3.7733898E-2,4.9544588E-2,3.164233E-2,7.23062E-2,3.352043E-2,2.6625883E-2,3.8405083E-2,0E0,0E0,0E0,1.6800232E-2,0E0,2.7897745E-2,4.9720425E-2,0E0,0E0,1.137969E-1,4.0185094E-2,6.2013768E-2,0E0,0E0,0E0,0E0,0E0,0E0,0E0,0E0,0E0,0E0,0E0,0E0,0E0,0E0,0E0,0E0],"parents":[2147483647,0,0,1,1,2,2,3,3,4,4,5,5,6,6,8,8,9,9,10,10,11,11,12,12,13,13,14,14,15,15,16,16,20,20,22,22,23,23,26,26,27,27,28,28],"right_children":[2,4,6,8,10,12,14,-1,16,18,20,22,24,26,28,30,32,-1,-1,-1,34,-1,36,38,-1,-1,40,42,44,-1,-1,-1,-1,-1,-1,-1,-1,-1,-1,-1,-1,-1,-1,-1,-1],"split_conditions":[-4.9455768E-1,1.5557127E-1,-3.5155445E-1,-1.6375165E-1,-1.9697027E-1,-6.8495914E-2,-1.182554E0,-4.304032E-3,-2.0769368E-1,6.168564E-1,2.1562143E-1,-8.088347E-1,2.3495755E0,-5.9042245E-1,-1.9737426E-2,-9.837583E-1,-1.0602209E-2,4.1683638E-3,9.4313466E-4,3.921184E-3,-4.9820822E-1,2.273538E-3,2.096655E0,3.5520185E-2,2.6855897E-3,-1.827788E-4,1.4331871E0,-1.71722E-1,1.6080801E0,-3.8903498E-3,-4.8738005E-4,7.460183E-4,-8.282348E-5,-3.803991E-4,7.845578E-4,-1.9191282E-3,2.3597446E-3,-1.2473188E-3,5.2753114E-4,8.785999E-3,-1.8915866E-3,1.1719031E-4,