{"learner":{"attributes":{"best_iteration":"16","best_score":"0.03094360717398283","scikit_learn":"{\"_estimator_type\": \"regressor\"}"},"feature_names":[],"feature_types":[],"gradient_booster":{"model":{"cats":{"enc":[],"feature_segments":[],"sorted_idx":[]},"gbtree_model_param":{"num_parallel_tree":"1","num_trees":"57"},"iteration_indptr":[0,1,2,3,4,5,6,7,8,9,10,11,12,13,14,15,16,17,18,19,20,21,22,23,24,25,26,27,28,29,30,31,32,33,34,35,36,37,38,39,40,41,42,43,44,45,46,47,48,49,50,51,52,53,54,55,56,57],"tree_info":[0,0,0,0,0,0,0,0,0,0,0,0,0,0,0,0,0,0,0,0,0,0,0,0,0,0,0,0,0,0,0,0,0,0,0,0,0,0,0,0,0,0,0,0,0,0,0,0,0,0,0,0,0,0,0,0,0],"trees":[{"base_weights":[-2.3420365E-4,1.4378453E-3,-2.8086692E-2,2.2846616E-3,-3.768065E-2,-1.937819E-3,1.6954153E-4,1.7622354E-3,2.7684849E-3,-2.1469384E-3,2.6232973E-4,-4.1907016E-2,2.3004734E-3,-6.0512493E-3,4.7847402E-4,3.717413E-5,7.7584316E-4],"categories":[],"categories_nodes":[],"categories_segments":[],"categories_sizes":[],"default_left":[0,0,0,0,0,0,0,0,0,0,0,0,0,0,0,0,0],"id":0,"left_children":[1,3,5,7,9,-1,-1,11,-1,-1,-1,13,15,-1,-1,-1,-1],"loss_changes":[9.162998E-2,5.881134E-2,3.9281853E-2,4.6750583E-2,1.0461621E-2,0E0,0E0,3.9776523E-2,0E0,0E0,0E0,8.9642525E-2,3.5284955E-2,0E0,0E0,0E0,0E0],"parents":[2147483647,0,0,1,1,2,2,3,3,4,4,7,7,11,11,12,12],"right_children":[2,4,6,8,10,-1,-1,12,-1,-1,-1,14,16,-1,-1,-1,-1],"split_conditions":[2.0032706E0,2.409317E0,1.3289596E0,4.4031315E0,1.610438E0,-1.937819E-3,1.6954153E-4,-1.6375165E-1,2.7684849E-3,-2.1469384E-3,2.6232973E-4,6.4462066E-2,2.7140304E-1,-6.0512493E-3,4.7847402E-4,3.717413E-5,7.7584316E-4],"split_indices":[15,16,1,19,2,0,0,7,0,0,0,0,7,0,0,0,0],"split_type":[0,0,0,0,0,0,0,0,0,0,0,0,0,0,0,0,0],"sum_hessian":[1.938E3,1.827E3,1.11E2,1.79E3,3.7E1,8.4E1,2.7E1,1.774E3,1.6E1,3.4E1,3E0,2E1,1.754E3,8E0,1.2E1,1.573E3,1.81E2],"tree_param":{"num_deleted":"0","num_feature":"20","num_nodes":"17","size_leaf_vector":"1"}},{"base_weights":[-0E0,1.6292934E-3,-2.5727933E-2,2.501028E-3,-1.7251024E-3,-1.7795084E-3,2.717348E-4,-2.8035758E-4,1.368124E-2,-3.0837338E-3,9.741501E-3,1.1334758E-2,2.8044523E-3,-5.92724E-4,-2.1336393E-5,3.9311388E-4,1.6664088E-3,6.3263543E-4,-1.2963568E-3],"categories":[],"categories_nodes":[],"categories_segments":[],"categories_sizes":[],"default_left":[0,0,0,0,0,0,0,0,0,0,0,0,0,0,0,0,0,0,0],"id":1,"left_children":[1,3,5,7,-1,-1,-1,9,11,13,15,17,-1,-1,-1,-1,-1,-1,-1],"loss_changes":[7.9953395E-2,5.5688765E-2,3.6486804E-2,5.5914856E-2,0E0,0E0,0E0,3.9563045E-2,3.188546E-2,2.533233E-2,1.1394961E-2,1.6222022E-2,0E0,0E0,0E0,0E0,0E0,0E0,0E0],"parents":[2147483647,0,0,1,1,2,2,3,3,7,7,8,8,9,9,10,10,11,11],"right_children":[2,4,6,8,-1,-1,-1,10,12,14,16,18,-1,-1,-1,-1,-1,-1,-1],"split_conditions":[2.0032706E0,2.409317E0,1.2995754E0,4.6880162E-1,-1.7251024E-3,-1.7795084E-3,2.717348E-4,3.267963E-1,4.333831E0,-6.0335547E-1,1.2558095E0,1.4485373E0,2.8044523E-3,-5.92724E-4,-2.1336393E-5,3.9311388E-4,1.6664088E-3,6.3263543E-4,-1.2963568E-3],"split_indices":[15,16,1,1,0,0,0,15,19,4,12,12,0,0,0,0,0,0,0],"split_type":[0,0,0,0,0,0,0,0,0,0,0,0,0,0,0,0,0,0,0],"sum_hessian":[1.93E3,1.817E3,1.13E2,1.776E3,4.1E1,8.7E1,2.6E1,1.419E3,3.57E2,1.113E3,3.06E2,3.4E2,1.7E1,2.54E2,8.59E2,2.86E2,2E1,3.3E2,1E1],"tree_param":{"num_deleted":"0","num_feature":"20","num_nodes":"19","size_leaf_vector":"1"}},{"base_weights":[1.1291288E-4,1.5283515E-3,-2.393214E-2,9.432917E-4,2.7735943E-3,-3.2122135E-2,7.127187E-5,1.740038E-3,-1.7517152E-3,-1.688454E-2,-2.2185612E-3,-8.155619E-4,1.0236237E-2,-1.3153063E-3,8.5725414E-4,-7.625154E-4,6.4611195E-5,-1.7562377E-5,6.7044044E-4],"categories":[],"categories_nodes":[],"categories_segments":[],"categories_sizes":[],"default_left":[0,0,0,0,0,0,0,0,0,0,0,0,0,0,0,0,0,0,0],"id":2,"left_children":[1,3,5,7,-1,9,-1,11,-1,13,-1,15,17,-1,-1,-1,-1,-1,-1],"loss_changes":[6.4056754E-2,5.4292798E-2,2.3260124E-2,4.9747806E-2,0E0,1.1587672E-2,0E0,3.8592182E-2,0E0,1.302716E-2,0E0,4.164507E-2,1.444374E-2,0E0,0E0,0E0,0E0,0E0,0E0],"parents":[2147483647,0,0,1,1,2,2,3,3,5,5,7,7,9,9,11,11,12,12],"right_children":[2,4,6,8,-1,10,-1,12,-1,14,-1,16,18,-1,-1,-1,-1,-1,-1],"split_conditions":[2.0032706E0,4.4031315E0,1.3289596E0,2.409317E0,2.7735943E-3,5.36912E-1,7.127187E-5,3.267963E-1,-1.7517152E-3,7.0296985E-1,-2.2185612E-3,-1.0313135E0,-1.0178481E0,-1.3153063E-3,8.5725414E-4,-7.625154E-4,6.4611195E-5,-1.7562377E-5,6.7044044E-4],"split_indices":[15,19,1,16,0,6,0,15,0,19,0,5,16,0,0,0,0,0,0],"split_type":[0,0,0,0,0,0,0,0,0,0,0,0,0,0,0,0,0,0,0],"sum_hessian":[1.914E3,1.81E3,1.04E2,1.792E3,1.8E1,8E1,2.4E1,1.755E3,3.7E1,3.8E1,4.2E1,1.345E3,4.1E2,3.1E1,7E0,1.74E2,1.171E3,9.1E1,3.19E2],"tree_param":{"num_deleted":"0","num_feature":"20","num_nodes":"19","size_leaf_vector":"1"}},{"base_weights":[-8.9789195E-5,1.3404094E-3,-2.425987E-2,8.318976E-4,2.4238431E-3,-3.2807186E-2,2.185835E-4,-4.6519798E-4,1.3154136E-2,-1.398493E-3,-3.7614529E-3,-8.513785E-3,1.7412808E-3,8.3347235E-4,-2.0671654E-2,-1.2137686E-3,-4.8757352E-5,1.4506548E-4,-7.481194E-4,5.933257E-4,-2.07465E-3],"categories":[],"categories_nodes":[],"categories_segments":[],"categories_sizes":[],"default_left":[0,0,0,0,0,0,0,0,0,0,0,0,0,0,0,0,0,0,0,0,0],"id":3,"left_children":[1,3,5,7,-1,9,-1,11,13,-1,-1,15,17,-1,19,-1,-1,-1,-1,-1,-1],"loss_changes":[6.83106E-2,4.14384E-2,2.8535359E-2,2.963888E-2,0E0,1.1538513E-2,0E0,2.944422E-2,2.095947E-2,0E0,0E0,4.120411E-2,2.424994E-2,0E0,1.2228583E-2,0E0,0E0,0E0,0E0,0E0,0E0],"parents":[2147483647,0,0,1,1,2,2,3,3,5,5,7,7,8,8,11,11,12,12,14,14],"right_children":[2,4,6,8,-1,10,-1,12,14,-1,-1,16,18,-1,20,-1,-1,-1,-1,-1,-1],"split_conditions":[2.0032706E0,4.4031315E0,1.3289596E0,2.7140304E-1,2.4238431E-3,2.7549272E0,2.185835E-4,-6.0335547E-1,2.1690488E0,-1.398493E-3,-3.7614529E-3,3.0913274E-3,1.4485373E0,8.3347235E-4,-1.018379E0,-1.2137686E-3,-4.8757352E-5,1.4506548E-4,-7.481194E-4,5.933257E-4,-2.07465E-3],"split_indices":[15,19,1,7,0,3,0,4,17,0,0,17,12,0,12,0,0,0,0,0,0],"split_type":[0,0,0,0,0,0,0,0,0,0,0,0,0,0,0,0,0,0,0,0,0],"sum_hessian":[1.942E3,1.832E3,1.1E2,1.814E3,1.8E1,8.6E1,2.4E1,1.638E3,1.76E2,7.9E1,7E0,3.57E2,1.281E3,1.61E2,1.5E1,1.13E2,2.44E2,1.201E3,8E1,5E0,1E1],"tree_param":{"num_deleted":"0","num_feature":"20","num_nodes":"21","size_leaf_vector":"1"}},{"base_weights":[4.0142756E-4,1.7801344E-3,-2.1552239E-2,2.552199E-3,-1.5967243E-3,-3.02613E-2,8.846057E-5,-3.9354287E-4,9.520075E-3,-1.2483277E-3,-3.4814347E-3,-1.9753268E-3,5.61122E-5,4.0973146E-3,1.7606828E-2,-7.90447E-5,3.473589E-4,-5.273268E-3,3.590758E-4,1.231025E-4,1.3889218E-3],"categories":[],"categories_nodes":[],"categories_segments":[],"categories_sizes":[],"default_left":[0,0,0,0,0,0,0,0,0,0,0,0,0,0,0,0,0,0,0,0,0],"id":4,"left_children":[1,3,5,7,-1,9,-1,11,13,-1,-1,-1,15,17,19,-1,-1,-1,-1,-1,-1],"loss_changes":[5.7734717E-2,4.6141207E-2,2.4301011E-2,3.7168168E-2,0E0,1.1805825E-2,0E0,2.4001794E-2,2.2405602E-2,0E0,0E0,0E0,1.42336935E-2,1.0545533E-1,3.1034656E-2,0E0,0E0,0E0,0E0,0E0,0E0],"parents":[2147483647,0,0,1,1,2,2,3,3,5,5,7,7,8,8,12,12,13,13,14,14],"right_children":[2,4,6,8,-1,10,-1,12,14,-1,-1,-1,16,18,20,-1,-1,-1,-1,-1,-1],"split_conditions":[2.0032706E0,2.409317E0,1.26752E0,8.54705E-2,-1.5967243E-3,2.7549272E0,8.846057E-5,-1.5009793E0,1.5557127E-1,-1.2483277E-3,-3.4814347E-3,-1.9753268E-3,3.267963E-1,-1.6353045E0,-6.772506E-1,-7.90447E-5,3.473589E-4,-5.273268E-3,3.590758E-4,1.231025E-4,1.3889218E-3],"split_indices":[15,16,1,1,0,3,0,0,0,0,0,0,15,4,8,0,0,0,0,0,0],"split_type":[0,0,0,0,0,0,0,0,0,0,0,0,0,0,0,0,0,0,0,0,0],"sum_hessian":[1.939E3,1.827E3,1.12E2,1.788E3,3.9E1,8.3E1,2.9E1,1.252E3,5.36E2,7.5E1,8E0,1.5E1,1.237E3,3.25E2,2.11E2,9.94E2,2.43E2,8E0,3.17E2,8.7E1,1.24E2],"tree_param":{"num_deleted":"0","num_feature":"20","num_nodes":"21","size_leaf_vector":"1"}},{"base_weights":[-2.594305E-4,4.4005687E-4,-1.3574783E-3,1.3386087E-3,-1.727095E-2,-9.4645034E-4,9.157123E-3,-2.9253047E-2,4.747747E-3,1.3999345E-3,-1.6252662E-3,-2.0088414E-3,6.4231124E-4,-8.615313E-4,-2.5454254E-3,-9.17372E-4,9.450108E-4,-8.2301314E-4,1.5506366E-5,-6.0778734E-4,4.6456628E-4],"categories":[],"categories_nodes":[],"categories_segments":[],"categories_sizes":[],"default_left":[0,0,0,0,0,0,0,0,0,0,0,0,0,0,0,0,0,0,0,0,0],"id":5,"left_children":[1,3,-1,5,7,9,11,13,15,-1,17,19,-1,-1,-1,-1,-1,-1,-1,-1,-1],"loss_changes":[3.8198292E-2,2.9587304E-2,0E0,3.2921627E-2,2.4907507E-2,2.6280636E-2,1.7711401E-2,1.1645339E-2,1.0170068E-2,0E0,4.0245377E-2,1.1723195E-2,0E0,0E0,0E0,0E0,0E0,0E0,0E0,0E0,0E0],"parents":[2147483647,0,0,1,1,3,3,4,4,5,5,6,6,7,7,8,8,10,10,11,11],"right_children":[2,4,-1,6,8,10,12,14,16,-1,18,20,-1,-1,-1,-1,-1,-1,-1,-1,-1],"split_conditions":[2.409317E0,2.0032706E0,-1.3574783E-3,3.267963E-1,1.0364524E0,-2.3024223E0,-1.0178481E0,2.3951101E0,2.3951101E0,1.3999345E-3,-1.0313135E0,1.3916929E-1,6.4231124E-4,-8.615313E-4,-2.5454254E-3,-9.17372E-4,9.450108E-4,-8.2301314E-4,1.5506366E-5,-6.0778734E-4,4.6456628E-4],"split_indices":[16,15,0,15,1,5,16,15,15,0,5,10,0,0,0,0,0,0,0,0,0],"split_type":[0,0,0,0,0,0,0,0,0,0,0,0,0,0,0,0,0,0,0,0,0],"sum_hessian":[1.959E3,1.908E3,5.1E1,1.819E3,8.9E1,1.403E3,4.16E2,5.9E1,3E1,3E1,1.373E3,1E2,3.16E2,4E1,1.9E1,1E1,2E1,1.61E2,1.212E3,5.5E1,4.5E1],"tree_param":{"num_deleted":"0","num_feature":"20","num_nodes":"21","size_leaf_vector":"1"}},{"base_weights":[-2.1865188E-5,1.2553384E-3,-1.1454674E-3,1.8855329E-3,-1.557073E-3,-1.1978305E-3,7.6037324E-3,-1.8898253E-3,2.19876E-3,1.5371852E-2,3.3331178E-3,-5.1031937E-4,5.7921792E-5,6.8772415E-4,3.005955E-3,-3.8924278E-4,3.264403E-4],"categories":[],"categories_nodes":[],"categories_segments":[],"categories_sizes":[],"default_left":[0,0,0,0,0,0,0,0,0,0,0,0,0,0,0,0,0],"id":6,"left_children":[1,3,-1,5,-1,7,9,11,-1,13,15,-1,-1,-1,-1,-1,-1],"loss_changes":[5.7734028E-2,3.5999816E-2,0E0,3.206998E-2,0E0,3.433897E-2,2.0154793E-2,2.9573996E-2,0E0,1.19234435E-2,1.4725149E-2,0E0,0E0,0E0,0E0,0E0,0E0],"parents":[2147483647,0,0,1,1,3,3,5,5,6,6,7,7,9,9,10,10],"right_children":[2,4,-1,6,-1,8,10,12,-1,14,16,-1,-1,-1,-1,-1,-1],"split_conditions":[2.0032706E0,2.409317E0,-1.1454674E-3,5.7940055E-2,-1.557073E-3,4.4031315E0,2.7617617E-2,-6.0335547E-1,2.19876E-3,1.8730928E0,3.334673E-1,-5.1031937E-4,5.7921792E-5,6.8772415E-4,3.005955E-3,-3.8924278E-4,3.264403E-4],"split_indices":[15,16,0,7,0,19,4,4,0,11,5,0,0,0,0,0,0],"split_type":[0,0,0,0,0,0,0,0,0,0,0,0,0,0,0,0,0],"sum_hessian":[1.937E3,1.833E3,1.04E2,1.8E3,3.3E1,1.164E3,6.36E2,1.148E3,1.6E1,2.21E2,4.15E2,3.12E2,8.36E2,2.15E2,6E0,8.9E1,3.26E2],"tree_param":{"num_deleted":"0","num_feature":"20","num_nodes":"17","size_leaf_vector":"1"}},{"base_weights":[-3.968222E-4,7.4586936E-4,-1.8206526E-2,1.4754223E-3,1.341335E-4,-1.2756917E-3,2.0376006E-4,-5.1470036E-3,5.935192E-4,1.188126E-3,-1.4128144E-3,-2.6692069E-5,4.974348E-4],"categories":[],"categories_nodes":[],"categories_segments":[],"categories_sizes":[],"default_left":[0,0,0,0,0,0,0,0,0,0,0,0,0],"id":7,"left_children":[1,3,5,-1,7,-1,-1,-1,9,11,-1,-1,-1],"loss_changes":[4.0655848E-2,3.0794105E-2,2.0743657E-2,0E0,8.007365E-2,0E0,0E0,0E0,2.9395297E-2,2.6986018E-2,0E0,0E0,0E0],"parents":[2147483647,0,0,1,1,2,2,4,4,8,8,9,9],"right_children":[2,4,6,-1,8,-1,-1,-1,10,12,-1,-1,-1],"split_conditions":[2.0032706E0,-1.7235811E0,1.3289596E0,1.4754223E-3,-1.6375165E-1,-1.2756917E-3,2.0376006E-4,-5.1470036E-3,2.409317E0,5.289059E-1,-1.4128144E-3,-2.6692069E-5,4.974348E-4],"split_indices":[15,3,1,0,7,0,0,0,16,1,0,0,0],"split_type":[0,0,0,0,0,0,0,0,0,0,0,0,0],"sum_hessian":[1.954E3,1.834E3,1.2E2,3.6E1,1.798E3,9.2E1,2.8E1,7E0,1.791E3,1.757E3,3.4E1,1.464E3,2.93E2],"tree_param":{"num_deleted":"0","num_feature":"20","num_nodes":"13","size_leaf_vector":"1"}},{"base_weights":[-0E0,1.0970958E-3,-1.7827014E-2,7.359225E-4,1.9029056E-3,-1.4783573E-2,-2.978273E-3,-3.2670885E-2,1.1607514E-3,-1.3490199E-3,-5.135471E-5,-5.152239E-3,7.038559E-5,-0E0,1.1548557E-2,-1.1231703E-3,6.4738886E-4,-4.577313E-5,7.2104717E-4,7.559597E-4,-6.8635185E-4],"categories":[],"categories_nodes":[],"categories_segments":[],"categories_sizes":[],"default_left":[0,0,0,0,0,0,0,0,0,0,0,0,0,0,0,0,0,0,0,0,0],"id":8,"left_children":[1,3,5,7,-1,9,-1,11,13,-1,15,-1,-1,17,19,-1,-1,-1,-1,-1,-1],"loss_changes":[3.8608458E-2,2.2669137E-2,1.0387015E-2,2.4393857E-2,0E0,1.814368E-2,0E0,5.671662E-2,2.1237703E-2,0E0,1.5625073E-2,0E0,0E0,2.2183012E-2,1.619275E-2,0E0,0E0,0E0,0E0,0E0,0E0],"parents":[2147483647,0,0,1,1,2,2,3,3,5,5,7,7,8,8,10,10,13,13,14,14],"right_children":[2,4,6,8,-1,10,-1,12,14,-1,16,-1,-1,18,20,-1,-1,-1,-1,-1,-1],"split_conditions":[2.0032706E0,4.4031315E0,1.7582972E0,-1.6375165E-1,1.9029056E-3,7.0296985E-1,-2.978273E-3,6.4462066E-2,2.7140304E-1,-1.3490199E-3,2.3440804E0,-5.152239E-3,7.038559E-5,1.2011981E0,2.1690488E0,-1.1231703E-3,6.4738886E-4,-4.577313E-5,7.2104717E-4,7.559597E-4,-6.8635185E-4],"split_indices":[15,19,19,7,0,19,0,0,7,0,15,0,0,19,17,0,0,0,0,0,0],"split_type":[0,0,0,0,0,0,0,0,0,0,0,0,0,0,0,0,0,0,0,0,0],"sum_hessian":[1.958E3,1.844E3,1.14E2,1.828E3,1.6E1,1.08E2,6E0,2.1E1,1.807E3,5.7E1,5.1E1,7E0,1.4E1,1.63E3,1.77E2,2E1,3.1E1,1.53E3,1E2,1.57E2,2E1],"tree_param":{"num_deleted":"0","num_feature":"20","num_nodes":"21","size_leaf_vector":"1"}},{"base_weights":[-1.5733678E-5,9.828655E-4,-1.652202E-2,5.956838E-4,2.1275496E-3,-1.2333707E-3,3.6424838E-4,-3.158358E-2,9.770963E-4,7.6301274E-4,-4.347961E-3,5.6167063E-4,1.4904398E-3,-1.8345894E-5,4.5687644E-4],"categories":[],"categories_nodes":[],"categories_segments":[],"categories_sizes":[],"default_left":[0,0,0,0,0,0,0,0,0,0,0,0,0,0,0],"id":9,"left_children":[1,3,5,7,-1,-1,-1,9,11,-1,-1,13,-1,-1,-1],"loss_changes":[3.245747E-2,2.6952831E-2,2.2774665E-2,2.0510035E-2,0E0,0E0,0E0,5.4831594E-2,1.973903E-2,0E0,0E0,1.439614E-2,0E0,0E0,0E0],"parents":[2147483647,0,0,1,1,2,2,3,3,7,7,8,8,11,11],"right_children":[2,4,6,8,-1,-1,-1,10,12,-1,-1,14,-1,-1,-1],"split_conditions":[2.0032706E0,4.4031315E0,1.3289596E0,-1.6375165E-1,2.1275496E-3,-1.2333707E-3,3.6424838E-4,-1.6674755E0,2.0809302E0,7.6301274E-4,-4.347961E-3,2.7140304E-1,1.4904398E-3,-1.8345894E-5,4.5687644E-4],"split_indices":[15,19,1,7,0,0,0,11,1,0,0,7,0,0,0],"split_type":[0,0,0,0,0,0,0,0,0,0,0,0,0,0,0],"sum_hessian":[1.921E3,1.809E3,1.12E2,1.794E3,1.5E1,8.5E1,2.7E1,1.9E1,1.775E3,1E1,9E0,1.752E3,2.3E1,1.576E3,1.76E2],"tree_param":{"num_deleted":"0","num_feature":"20","num_nodes":"15","size_leaf_vector":"1"}},{"base_weights":[-3.067196E-4,4.071088E-4,-1.1894518E-3,1.3444753E-3,-8.806326E-5,-7.349179E-3,1.6636904E-3,8.922498E-3,-1.3102306E-2,2.4675594E-3,-1.8563362E-2,6.9644186E-4,-1.0037868E-3,-6.95741E-5,-1.1199098E-3,9.3103234E-5,1.1534154E-3,-2.0090628E-3,7.869344E-5],"categories":[],"categories_nodes":[],"categories_segments":[],"categories_sizes":[],"default_left":[0,0,0,0,0,0,0,0,0,0,0,0,0,0,0,0,0,0,0],"id":10,"left_children":[1,3,-1,-1,5,7,9,11,13,15,17,-1,-1,-1,-1,-1,-1,-1,-1],"loss_changes":[3.3801842E-2,2.6092695E-2,0E0,0E0,2.3840886E-2,3.4483004E-2,2.3388457E-2,1.3406333E-2,2.8459981E-2,1.66005E-2,2.5687177E-2,0E0,0E0,0E0,0E0,0E0,0E0,0E0,0E0],"parents":[2147483647,0,0,1,1,4,4,5,5,6,6,7,7,8,8,9,9,10,10],"right_children":[2,4,-1,-1,6,8,10,12,14,16,18,-1,-1,-1,-1,-1,-1,-1,-1],"split_conditions":[2.409317E0,-2.3024223E0,-1.1894518E-3,1.3444753E-3,-6.0335547E-1,-4.858867E-1,2.038069E0,-1.09735206E-1,-6.149939E-1,1.7790735E0,1.0872072E0,6.9644186E-4,-1.0037868E-3,-6.95741E-5,-1.1199098E-3,9.3103234E-5,1.1534154E-3,-2.0090628E-3,7.869344E-5],"split_indices":[16,5,0,0,4,16,15,3,3,1,1,0,0,0,0,0,0,0,0],"split_type":[0,0,0,0,0,0,0,0,0,0,0,0,0,0,0,0,0,0,0],"sum_hessian":[1.946E3,1.887E3,5.9E1,3.6E1,1.851E3,3.65E2,1.486E3,9.3E1,2.72E2,1.432E3,5.4E1,8.1E1,1.2E1,1.23E2,1.49E2,1.394E3,3.8E1,2.7E1,2.7E1],"tree_param":{"num_deleted":"0","num_feature":"20","num_nodes":"19","size_leaf_vector":"1"}},{"base_weights":[-3.9022995E-4,3.6504658E-4,-2.5287792E-2,-0E0,1.9081127E-3,-1.5672864E-3,-0E0,7.4556586E-4,-1.2293238E-2,-8.9815777E-4,6.6216844E-3,-6.9653415E-3,-2.8209635E-3,2.466685E-5,-5.6580774E-4,-2.8970122E-4,5.3120713E-4,-1.2991687E-3,1.0955209E-4],"categories":[],"categories_nodes":[],"categories_segments":[],"categories_sizes":[],"default_left":[0,0,0,0,0,0,0,0,0,0,0,0,0,0,0,0,0,0,0],"id":11,"left_children":[1,3,5,7,-1,-1,-1,9,11,13,15,17,-1,-1,-1,-1,-1,-1,-1],"loss_changes":[3.7364878E-2,2.6694419E-2,1.0244768E-2,1.721162E-2,0E0,0E0,0E0,1.7071167E-2,2.1907417E-2,2.0136071E-2,1.9478766E-2,1.819638E-2,0E0,0E0,0E0,0E0,0E0,0E0,0E0],"parents":[2147483647,0,0,1,1,2,2,3,3,7,7,8,8,9,9,10,10,11,11],"right_children":[2,4,6,8,-1,-1,-1,10,12,14,16,18,-1,-1,-1,-1,-1,-1,-1],"split_conditions":[2.409317E0,4.4031315E0,1.4596732E0,1.4918574E0,1.9081127E-3,-1.5672864E-3,-0E0,3.267963E-1,1.487083E0,1.2258161E-1,-1.0178481E0,3.9400533E-1,-2.8209635E-3,2.466685E-5,-5.6580774E-4,-2.8970122E-4,5.3120713E-4,-1.2991687E-3,1.0955209E-4],"split_indices":[16,19,11,15,0,0,0,15,12,15,16,1,0,0,0,0,0,0,0],"split_type":[0,0,0,0,0,0,0,0,0,0,0,0,0,0,0,0,0,0,0],"sum_hessian":[1.92E3,1.862E3,5.8E1,1.844E3,1.8E1,4.8E1,1E1,1.737E3,1.07E2,1.351E3,3.86E2,9.7E1,1E1,1.188E3,1.63E2,9.1E1,2.95E2,3.3E1,6.4E1],"tree_param":{"num_deleted":"0","num_feature":"20","num_nodes":"19","size_leaf_vector":"1"}},{"base_weights":[-1.6065537E-4,8.865721E-4,-1.5381745E-2,4.725236E-4,2.1367425E-3,-2.7879044E-2,-1.662891E-4,-4.096053E-3,3.8417338E-3,-7.602132E-4,-2.9093712E-3,-1.3179067E-2,-1.9573602E-4,2.6820574E-3,2.1701287E-2,-1.324024E-3,-2.7078195E-4,-1.0061549E-4,6.963542E-4,1.708281E-4,-1.9870813E-3,3.5504845E-4,1.982046E-3],"categories":[],"categories_nodes":[],"categories_segments":[],"categories_sizes":[],"default_left":[0,0,0,0,0,0,0,0,0,0,0,0,0,0,0,0,0,0,0,0,0,0,0],"id":12,"left_children":[1,3,5,7,-1,9,-1,11,13,-1,-1,15,17,19,21,-1,-1,-1,-1,-1,-1,-1,-1],"loss_changes":[3.1535517E-2,2.9113825E-2,1.7603438E-2,2.7540024E-2,0E0,1.9129269E-2,0E0,2.6023937E-2,2.0218994E-2,0E0,0E0,2.1309856E-2,1.30539825E-2,2.8679749E-2,1.33685805E-2,0E0,0E0,0E0,0E0,0E0,0E0,0E0,0E0],"parents":[2147483647,0,0,1,1,2,2,3,3,5,5,7,7,8,8,11,11,12,12,13,13,14,14],"right_children":[2,4,6,8,-1,10,-1,12,14,-1,-1,16,18,20,22,-1,-1,-1,-1,-1,-1,-1,-1],"split_conditions":[1.4918574E0,4.4031315E0,9.8703355E-1,2.5025131E-2,2.1367425E-3,6.010323E-1,-1.662891E-4,-6.0335547E-1,1.2011981E0,-7.602132E-4,-2.9093712E-3,-3.0131856E-1,2.2437786E-1,2.3615024E0,1.3670428E0,-1.324024E-3,-2.7078195E-4,-1.0061549E-4,6.963542E-4,1.708281E-4,-1.9870813E-3,3.5504845E-4,1.982046E-3],"split_indices":[15,19,1,7,0,11,0,4,19,0,0,10,1,3,3,0,0,0,0,0,0,0,0],"split_type":[0,0,0,0,0,0,0,0,0,0,0,0,0,0,0,0,0,0,0,0,0,0,0],"sum_hessian":[1.932E3,1.805E3,1.27E2,1.789E3,1.6E1,6E1,6.7E1,7.53E2,1.036E3,4.4E1,1.6E1,2.22E2,5.31E2,9.76E2,6E1,7.9E1,1.43E2,4.74E2,5.7E1,9.61E2,1.5E1,3.5E1,2.5E1],"tree_param":{"num_deleted":"0","num_feature":"20","num_nodes":"23","size_leaf_vector":"1"}},{"base_weights":[9.694792E-5,1.0239215E-3,-1.8276514E-2,6.6986936E-4,2.0040018E-3,-1.652056E-3,-2.486085E-4,-8.390248E-3,2.1040258E-3,-3.9803017E-2,-3.4243804E-3,9.4204966E-4,2.4049308E-2,-3.8734898E-3,3.0894167E-4,3.0159843E-4,-6.752925E-4,7.038367E-5,-1.5429781E-3,1.3834321E-3,-1.371591E-3],"categories":[],"categories_nodes":[],"categories_segments":[],"categories_sizes":[],"default_left":[0,0,0,0,0,0,0,0,0,0,0,0,0,0,0,0,0,0,0,0,0],"id":13,"left_children":[1,3,5,7,-1,-1,-1,9,11,13,15,17,19,-1,-1,-1,-1,-1,-1,-1,-1],"loss_changes":[3.250334E-2,2.3772689E-2,1.5990848E-2,2.3765204E-2,0E0,0E0,0E0,3.6534403E-2,3.965369E-2,6.00935E-2,2.1054216E-2,2.11529E-2,1.5018042E-2,0E0,0E0,0E0,0E0,0E0,0E0,0E0,0E0],"parents":[2147483647,0,0,1,1,2,2,3,3,7,7,8,8,9,9,10,10,11,11,12,12],"right_children":[2,4,6,8,-1,-1,-1,10,12,14,16,18,20,-1,-1,-1,-1,-1,-1,-1,-1],"split_conditions":[2.038069E0,4.4031315E0,9.8703355E-1,-9.8443055E-1,2.0040018E-3,-1.652056E-3,-2.486085E-4,-1.2496524E0,1.2390363E0,-3.0131856E-1,-1.182554E0,2.409317E0,1.4485373E0,-3.8734898E-3,3.0894167E-4,3.0159843E-4,-6.752925E-4,7.038367E-5,-1.5429781E-3,1.3834321E-3,-1.371591E-3],"split_indices":[15,19,1,5,0,0,0,12,19,10,5,16,12,0,0,0,0,0,0,0,0],"split_type":[0,0,0,0,0,0,0,0,0,0,0,0,0,0,0,0,0,0,0,0,0],"sum_hessian":[1.958E3,1.867E3,9.1E1,1.852E3,1.5E1,4.1E1,5E1,2.48E2,1.604E3,3.2E1,2.16E2,1.526E3,7.8E1,1.8E1,1.4E1,1.09E2,1.07E2,1.506E3,2E1,7.4E1,4E0],"tree_param":{"num_deleted":"0","num_feature":"20","num_nodes":"21","size_leaf_vector":"1"}},{"base_weights":[-8.756692E-5,1.118302E-3,-1.0618592E-2,1.6123326E-2,3.6224103E-4,-5.3926427E-3,-2.0521064E-3,-2.8070533E-3,1.0461193E-3,-3.5058493E-3,3.2372046E-3,-1.0660636E-2,1.016598E-2,-2.4469695E-3,-3.0717976E-2,2.6244933E-3,1.5864201E-3,-2.9195356E-4,-1.5591471E-3,1.1899616E-3,-1.3532685E-2,-2.3071656E-3,-9.083151E-5,-4.864357E-3,-8.420592E-4,9.738979E-5,1.3488089E-3,5.149831E-4,-2.156476E-3],"categories":[],"categories_nodes":[],"categories_segments":[],"categories_sizes":[],"default_left":[0,0,0,0,0,0,0,0,0,0,0,0,0,0,0,0,0,0,0,0,0,0,0,0,0,0,0,0,0],"id":14,"left_children":[1,3,5,7,9,11,-1,-1,-1,13,15,17,19,21,23,25,-1,-1,-1,-1,27,-1,-1,-1,-1,-1,-1,-1,-1],"loss_changes":[2.5225027E-2,1.8963654E-2,3.0081429E-2,2.6743859E-2,1.8502511E-2,1.4545342E-2,0E0,0E0,0E0,1.8546268E-2,1.50429625E-2,1.1366588E-2,1.440568E-2,1.6248366E-2,1.6106643E-2,1.4091685E-2,0E0,0E0,0E0,0E0,1.2091352E-2,0E0,0E0,0E0,0E0,0E0,0E0,0E0,0E0],"parents":[2147483647,0,0,1,1,2,2,3,3,4,4,5,5,9,9,10,10,11,11,12,12,13,13,14,14,15,15,20,20],"right_children":[2,4,6,8,10,12,-1,-1,-1,14,16,18,20,22,24,26,-1,-1,-1,-1,28,-1,-1,-1,-1,-1,-1,-1,-1],"split_conditions":[1.1986341E0,-1.9434725E0,1.487083E0,-3.165078E-1,2.4541087E-2,1.3596795E0,-2.0521064E-3,-2.8070533E-3,1.0461193E-3,5.187649E-1,1.0483204E0,1.1401728E0,-3.3169702E-1,-1.554816E0,-2.405616E-1,1.5803871E0,1.5864201E-3,-2.9195356E-4,-1.5591471E-3,1.1899616E-3,-1.1361724E-1,-2.3071656E-3,-9.083151E-5,-4.864357E-3,-8.420592E-4,9.738979E-5,1.3488089E-3,5.149831E-4,-2.156476E-3],"split_indices":[15,12,12,10,7,1,0,0,0,8,15,12,10,0,10,3,0,0,0,0,0,0,0,0,0,0,0,0,0],"split_type":[0,0,0,0,0,0,0,0,0,0,0,0,0,0,0,0,0,0,0,0,0,0,0,0,0,0,0,0,0],"sum_hessian":[1.948E3,1.744E3,2.04E2,8E1,1.664E3,1.76E2,2.8E1,4E0,7.6E1,7.02E2,9.62E2,1.34E2,4.2E1,6.78E2,2.4E1,9.44E2,1.8E1,1.11E2,2.3E1,2.8E1,1.4E1,8E0,6.7E2,3E0,2.1E1,9.21E2,2.3E1,7E0,7E0],"tree_param":{"num_deleted":"0","num_feature":"20","num_nodes":"29","size_leaf_vector":"1"}},{"base_weights":[6.0563056E-5,6.9403084E-4,-9.0707914E-4,1.4691945E-3,-1.1322362E-2,-9.5882184E-5,8.869417E-3,-3.8993678E-3,-3.31716E-2,-2.0962693E-3,6.98235E-3,-1.2317332E-3,1.5922243E-2,-1.0434476E-3,6.013599E-3,-2.2267797E-3,-0E0,-7.10956E-4,-4.0232888E-5,1.5939545E-4,1.0191954E-3,-1.520605E-3,2.234716E-4,4.916785E-4,1.679824E-3,1.1947276E-3,-2.3495064E-4],"categories":[],"categories_nodes":[],"categories_segments":[],"categories_sizes":[],"default_left":[0,0,0,0,0,0,0,0,0,0,0,0,0,0,0,0,0,0,0,0,0,0,0,0,0,0,0],"id":15,"left_children":[1,3,-1,5,7,9,11,13,15,17,19,21,23,-1,25,-1,-1,-1,-1,-1,-1,-1,-1,-1,-1,-1,-1],"loss_changes":[2.1808593E-2,1.7246136E-2,0E0,2.1199688E-2,1.6165603E-2,2.0640759E-2,2.3434794E-2,1.5188236E-2,1.1500673E-2,1.7335925E-2,1.5035945E-2,2.2742625E-2,1.8163517E-2,0E0,1.10723805E-2,0E0,0E0,0E0,0E0,0E0,0E0,0E0,0E0,0E0,0E0,0E0,0E0],"parents":[2147483647,0,0,1,1,3,3,4,4,5,5,6,6,7,7,8,8,9,9,10,10,11,11,12,12,14,14],"right_children":[2,4,-1,6,8,10,12,14,16,18,20,22,24,-1,26,-1,-1,-1,-1,-1,-1,-1,-1,-1,-1,-1,-1],"split_conditions":[2.409317E0,1.4918574E0,-9.0707914E-4,5.289059E-1,1.1787183E0,3.267963E-1,-1.3595885E-1,3.9400533E-1,8.5544443E-1,-1.0313135E0,9.921295E-1,-1.2451661E0,1.2011981E0,-1.0434476E-3,-3.6207548E-1,-2.2267797E-3,-0E0,-7.10956E-4,-4.0232888E-5,1.5939545E-4,1.0191954E-3,-1.520605E-3,2.234716E-4,4.916785E-4,1.679824E-3,1.1947276E-3,-2.3495064E-4],"split_indices":[16,15,0,1,12,15,16,1,11,5,0,5,19,0,10,0,0,0,0,0,0,0,0,0,0,0,0],"split_type":[0,0,0,0,0,0,0,0,0,0,0,0,0,0,0,0,0,0,0,0,0,0,0,0,0,0,0],"sum_hessian":[1.966E3,1.903E3,6.3E1,1.792E3,1.11E2,1.474E3,3.18E2,8.5E1,2.6E1,1.155E3,3.19E2,1.28E2,1.9E2,3.3E1,5.2E1,2E1,6E0,1.07E2,1.048E3,2.52E2,6.7E1,2.2E1,1.06E2,1.44E2,4.6E1,2.1E1,3.1E1],"tree_param":{"num_deleted":"0","num_feature":"20","num_nodes":"27","size_leaf_vector":"1"}},{"base_weights":[2.4219188E-4,9.434068E-4,-3.9916034E-4,3.1085886E-4,-1.4620027E-2,-6.114723E-3,1.986484E-3,-1.1793409E-3,2.9661154E-4,-1.812303E-2,-7.709834E-4,1.1689194E-3,9.093648E-4,-5.720543E-4,-2.2709994E-3,-6.834529E-4,3.523724E-4,1.0847692E-4,-6.748046E-4],"categories":[],"categories_nodes":[],"categories_segments":[],"categories_sizes":[],"default_left":[0,0,0,0,0,0,0,0,0,0,0,0,0,0,0,0,0,0,0],"id":16,"left_children":[1,-1,3,5,7,9,11,-1,-1,13,15,17,-1,-1,-1,-1,-1,-1,-1],"loss_changes":[2.385716E-2,0E0,1.9432683E-2,1.8776264E-2,1.7815022E-2,2.2052996E-2,1.762446E-2,0E0,0E0,1.6504772E-2,2.5741184E-2,1.9118927E-2,0E0,0E0,0E0,0E0,0E0,0E0,0E0],"parents":[2147483647,0,0,2,2,3,3,4,4,5,5,6,6,9,9,10,10,11,11],"right_children":[2,-1,4,6,8,10,12,-1,-1,14,16,18,-1,-1,-1,-1,-1,-1,-1],"split_conditions":[-2.0205636E0,9.434068E-4,1.4485373E0,-6.0335547E-1,2.3077135E0,3.0913274E-3,1.4959158E0,-1.1793409E-3,2.9661154E-4,5.965859E-1,-7.889795E-3,1.4848131E0,9.093648E-4,-5.720543E-4,-2.2709994E-3,-6.834529E-4,3.523724E-4,1.0847692E-4,-6.748046E-4],"split_indices":[12,0,12,4,11,17,1,0,0,2,7,15,0,0,0,0,0,0,0],"split_type":[0,0,0,0,0,0,0,0,0,0,0,0,0,0,0,0,0,0,0],"sum_hessian":[1.919E3,6.6E1,1.853E3,1.762E3,9.1E1,3.58E2,1.404E3,6.5E1,2.6E1,1.07E2,2.51E2,1.34E3,6.4E1,8.8E1,1.9E1,9.7E1,1.54E2,1.258E3,8.2E1],"tree_param":{"num_deleted":"0","num_feature":"20","num_nodes":"19","size_leaf_vector":"1"}},{"base_weights":[-3.9503083E-4,1.07245E-3,-8.798338E-4,-3.8348667E-3,-4.6846143E-4,1.4889668E-5,-8.6012547E-4,-3.9103496E-4,9.783843E-4,2.1044862E-5,-5.84236E-4],"categories":[],"categories_nodes":[],"categories_segments":[],"categories_sizes":[],"default_left":[0,0,0,0,0,0,0,0,0,0,0],"id":17,"left_children":[1,-1,3,-1,5,7,-1,9,-1,-1,-1],"loss_changes":[1.9329756E-2,0E0,5.4837465E-2,0E0,1.6013164E-2,1.5396021E-2,0E0,1.6883142E-2,0E0,0E0,0E0],"parents":[2147483647,0,0,2,2,4,4,5,5,7,7],"right_children":[2,-1,4,-1,6,8,-1,10,-1,-1,-1],"split_conditions":[-1.7235811E0,1.07245E-3,-1.6375165E-1,-3.8348667E-3,2.409317E0,1.7790735E0,-8.6012547E-4,1.5515225E0,9.783843E-4,2.1044862E-5,-5.84236E-4],"split_indices":[3,0,7,0,16,1,0,5,0,0,0],"split_type":[0,0,0,0,0,0,0,0,0,0,0],"sum_hessian":[1.921E3,3.9E1,1.882E3,9E0,1.873E3,1.818E3,5.5E1,1.779E3,3.9E1,1.656E3,1.23E2],"tree_param":{"num_deleted":"0","num_feature":"20","num_nodes":"11","size_leaf_vector":"1"}},{"base_weights":[-2.2743907E-5,1.0388225E-3,-4.6898442E-4,1.8544414E-4,-1.1886749E-2,-1.8564113E-4,2.0621916E-2,-9.135874E-4,4.038071E-4,6.695431E-4,-8.990906E-3,-1.4869904E-3,1.3738817E-3,-1.3922065E-4,1.7518434E-4,-5.3972466E-4,2.2011236E-3],"categories":[],"categories_nodes":[],"categories_segments":[],"categories_sizes":[],"default_left":[0,0,0,0,0,0,0,0,0,0,0,0,0,0,0,0,0],"id":18,"left_children":[1,-1,3,5,7,9,11,-1,-1,13,15,-1,-1,-1,-1,-1,-1],"loss_changes":[1.7037263E-2,0E0,1.4831746E-2,1.467055E-2,1.4285841E-2,1.3713513E-2,1.2207147E-2,0E0,0E0,1.5747305E-2,1.401789E-2,0E0,0E0,0E0,0E0,0E0,0E0],"parents":[2147483647,0,0,2,2,3,3,4,4,5,5,6,6,9,9,10,10],"right_children":[2,-1,4,6,8,10,12,-1,-1,14,16,-1,-1,-1,-1,-1,-1],"split_conditions":[-2.3024223E0,1.0388225E-3,2.0032706E0,2.422582E0,1.3596795E0,9.076077E-1,-6.354817E-1,-9.135874E-4,4.038071E-4,2.4541087E-2,1.917289E0,-1.4869904E-3,1.3738817E-3,-1.3922065E-4,1.7518434E-4,-5.3972466E-4,2.2011236E-3],"split_indices":[5,0,15,4,1,16,10,0,0,7,2,0,0,0,0,0,0],"split_type":[0,0,0,0,0,0,0,0,0,0,0,0,0,0,0,0,0],"sum_hessian":[1.944E3,3.8E1,1.906E3,1.799E3,1.07E2,1.765E3,3.4E1,8.3E1,2.4E1,1.604E3,1.61E2,3E0,3.1E1,7.15E2,8.89E2,1.57E2,4E0],"tree_param":{"num_deleted":"0","num_feature":"20","num_nodes":"17","size_leaf_vector":"1"}},{"base_weights":[1.6341438E-4,7.7389344E-4,-9.27235E-4,-8.381923E-4,6.1521917E-3,-4.0865663E-4,-1.5512276E-3,-3.706336E-4,1.1911333E-2,-6.282961E-3,1.3098569E-3,5.8047735E-4,-7.4080112E-3,5.2198775E-5,1.2746507E-3,4.419542E-4,-6.165848E-4,2.6090687E-5,1.1986996E-3,-6.1045046E-4,6.2919804E-4],"categories":[],"categories_nodes":[],"categories_segments":[],"categories_sizes":[],"default_left":[0,0,0,0,0,0,0,0,0,0,0,0,0,0,0,0,0,0,0,0,0],"id":19,"left_children":[1,3,-1,5,7,9,-1,11,13,15,17,-1,19,-1,-1,-1,-1,-1,-1,-1,-1],"loss_changes":[2.1189548E-2,1.6520714E-2,0E0,1.7034862E-2,1.7089443E-2,1.4562535E-2,0E0,1.690551E-2,3.3714123E-2,3.0185305E-2,1.824563E-2,0E0,1.2583647E-2,0E0,0E0,0E0,0E0,0E0,0E0,0E0,0E0],"parents":[2147483647,0,0,1,1,3,3,4,4,5,5,7,7,8,8,9,9,10,10,12,12],"right_children":[2,4,-1,6,8,10,-1,12,14,16,18,-1,20,-1,-1,-1,-1,-1,-1,-1,-1],"split_conditions":[2.409317E0,5.862748E-1,-9.27235E-4,9.324632E-1,-6.4953715E-1,-6.0335547E-1,-1.5512276E-3,2.6137945E-1,-5.5697674E-1,-4.858867E-1,1.6615362E0,5.8047735E-4,1.4959158E0,5.2198775E-5,1.2746507E-3,4.419542E-4,-6.165848E-4,2.6090687E-5,1.1986996E-3,-6.1045046E-4,6.2919804E-4],"split_indices":[16,0,0,2,8,4,0,6,1,16,1,0,1,0,0,0,0,0,0,0,0],"split_type":[0,0,0,0,0,0,0,0,0,0,0,0,0,0,0,0,0,0,0,0,0],"sum_hessian":[1.932E3,1.874E3,5.8E1,1.435E3,4.39E2,1.417E3,1.8E1,2.02E2,2.37E2,3.27E2,1.09E3,7.2E1,1.3E2,1.34E2,1.03E2,9.1E1,2.36E2,1.056E3,3.4E1,1.07E2,2.3E1],"tree_param":{"num_deleted":"0","num_feature":"20","num_nodes":"21","size_leaf_vector":"1"}},{"base_weights":[1.04324434E-4,9.488146E-4,-9.1842925E-3,-1.1600131E-4,7.473165E-3,-1.3162062E-2,1.5161838E-3,-9.979316E-3,1.0319396E-3,-0E0,2.0472389E-2,-9.87218E-4,-0E0,-1.9952783E-2,6.8973546E-5,3.448372E-4,1.0979627E-3,4.8694905E-4,-4.2379965E-4,5.5129378E-5,1.3543228E-3,-2.073027E-3,-4.5928132E-4,4.6244223E-4,-3.4988974E-5],"categories":[],"categories_nodes":[],"categories_segments":[],"categories_sizes":[],"default_left":[0,0,0,0,0,0,0,0,0,0,0,0,0,0,0,0,0,0,0,0,0,0,0,0,0],"id":20,"left_children":[1,3,5,7,9,11,-1,13,15,17,19,-1,-1,21,-1,23,-1,-1,-1,-1,-1,-1,-1,-1,-1],"loss_changes":[1.497103E-2,1.2890678E-2,2.4250325E-2,1.7928801E-2,2.5114112E-2,1.1633454E-2,0E0,1.9691344E-2,1.870275E-2,1.3708757E-2,1.0682307E-2,0E0,0E0,1.8235024E-2,0E0,1.2871143E-2,0E0,0E0,0E0,0E0,0E0,0E0,0E0,0E0,0E0],"parents":[2147483647,0,0,1,1,2,2,3,3,4,4,5,5,7,7,8,8,9,9,10,10,13,13,15,15],"right_children":[2,4,6,8,10,12,-1,14,16,18,20,-1,-1,22,-1,24,-1,-1,-1,-1,-1,-1,-1,-1,-1],"split_conditions":[1.4141641E0,9.921295E-1,1.6080801E0,-9.8443055E-1,5.9535284E-2,1.0364524E0,1.5161838E-3,7.852405E-2,1.7243116E0,8.7325406E-1,-4.848517E-1,-9.87218E-4,-0E0,-1.2496524E0,6.8973546E-5,-7.9060405E-1,1.0979627E-3,4.8694905E-4,-4.2379965E-4,5.5129378E-5,1.3543228E-3,-2.073027E-3,-4.5928132E-4,4.6244223E-4,-3.4988974E-5],"split_indices":[16,0,11,5,15,1,0,16,1,3,1,0,0,12,0,6,0,0,0,0,0,0,0,0,0],"split_type":[0,0,0,0,0,0,0,0,0,0,0,0,0,0,0,0,0,0,0,0,0,0,0,0,0],"sum_hessian":[1.96E3,1.802E3,1.58E2,1.543E3,2.59E2,1.45E2,1.3E1,1.65E2,1.378E3,1.65E2,9.4E1,9.4E1,5.1E1,9E1,7.5E1,1.337E3,4.1E1,7.7E1,8.8E1,2.6E1,6.8E1,2.8E1,6.2E1,1.45E2,1.192E3],"tree_param":{"num_deleted":"0","num_feature":"20","num_nodes":"25","size_leaf_vector":"1"}},{"base_weights":[-5.0569266E-5,-3.9560258E-4,1.7587775E-3,5.766723E-4,-9.492452E-3,-8.778062E-4,6.147932E-3,-1.3172388E-4,-2.1057613E-2,-1.7562704E-3,5.516609E-4,-2.6988601E-3,4.6011023E-4,-2.0130388E-3,-1.15029245E-4,-2.029497E-5,-6.026473E-4,7.0292904E-4,-8.550687E-4],"categories":[],"categories_nodes":[],"categories_segments":[],"categories_sizes":[],"default_left":[0,0,0,0,0,0,0,0,0,0,0,0,0,0,0,0,0,0,0],"id":21,"left_children":[1,3,-1,5,7,9,11,-1,13,15,-1,17,-1,-1,-1,-1,-1,-1,-1],"loss_changes":[2.195039E-2,1.7531944E-2,0E0,1.4369959E-2,1.3976209E-2,1.3917331E-2,1.0267626E-2,0E0,2.2498924E-2,1.7220823E-2,0E0,2.2114458E-2,0E0,0E0,0E0,0E0,0E0,0E0,0E0],"parents":[2147483647,0,0,1,1,3,3,4,4,5,5,6,6,8,8,9,9,11,11],"right_children":[2,4,-1,6,8,10,12,-1,14,16,-1,18,-1,-1,-1,-1,-1,-1,-1],"split_conditions":[4.4031315E0,1.1986341E0,1.7587775E-3,3.267963E-1,1.1401728E0,2.59786E-1,-1.0178481E0,-1.3172388E-4,9.8703355E-1,1.2258161E-1,5.516609E-4,-7.100144E-1,4.6011023E-4,-2.0130388E-3,-1.15029245E-4,-2.029497E-5,-6.026473E-4,7.0292904E-4,-8.550687E-4],"split_indices":[19,15,0,15,12,7,16,0,1,15,0,12,0,0,0,0,0,0,0],"split_type":[0,0,0,0,0,0,0,0,0,0,0,0,0,0,0,0,0,0,0],"sum_hessian":[1.948E3,1.931E3,1.7E1,1.74E3,1.91E2,1.373E3,3.67E2,1.23E2,6.8E1,1.283E3,9E1,9E1,2.77E2,3.2E1,3.6E1,1.139E3,1.44E2,4E1,5E1],"tree_param":{"num_deleted":"0","num_feature":"20","num_nodes":"19","size_leaf_vector":"1"}},{"base_weights":[-1.9858893E-5,9.519347E-4,-4.1198474E-4,-9.112945E-3,5.954589E-4,-3.7251472E-2,-4.0141377E-3,1.3156247E-3,-1.1808169E-2,4.6134632E-4,-3.391968E-3,3.8418972E-3,-1.232888E-2,5.3300196E-4,4.7149975E-4,-1.2259245E-3,-0E0,6.931548E-4,-4.6707792E-4,-1.0165982E-3,1.8419433E-4,-4.6626366E-5,3.5791565E-4],"categories":[],"categories_nodes":[],"categories_segments":[],"categories_sizes":[],"default_left":[0,0,0,0,0,0,0,0,0,0,0,0,0,0,0,0,0,0,0,0,0,0,0],"id":22,"left_children":[1,-1,3,5,7,9,11,13,15,-1,-1,17,19,-1,21,-1,-1,-1,-1,-1,-1,-1,-1],"loss_changes":[1.3552205E-2,0E0,1.7096616E-2,2.6915224E-2,1.4664209E-2,4.5183036E-2,1.1781208E-2,1.2144298E-2,1.30699E-2,0E0,0E0,1.1718692E-2,1.2083114E-2,0E0,1.42330285E-2,0E0,0E0,0E0,0E0,0E0,0E0,0E0,0E0],"parents":[2147483647,0,0,2,2,3,3,4,4,5,5,6,6,7,7,8,8,11,11,12,12,14,14],"right_children":[2,-1,4,6,8,10,12,14,16,-1,-1,18,20,-1,22,-1,-1,-1,-1,-1,-1,-1,-1],"split_conditions":[-2.3024223E0,9.519347E-4,-1.0313135E0,-1.2496524E0,2.038069E0,-1.7235811E0,-1.182554E0,-8.2551557E-1,9.8703355E-1,4.6134632E-4,-3.391968E-3,1.3270783E-1,1.6928842E0,5.3300196E-4,5.4493356E-1,-1.2259245E-3,-0E0,6.931548E-4,-4.6707792E-4,-1.0165982E-3,1.8419433E-4,-4.6626366E-5,3.5791565E-4],"split_indices":[5,0,5,12,15,3,5,6,1,0,0,16,11,0,1,0,0,0,0,0,0,0,0],"split_type":[0,0,0,0,0,0,0,0,0,0,0,0,0,0,0,0,0,0,0,0,0,0,0],"sum_hessian":[1.937E3,3.6E1,1.901E3,2.02E2,1.699E3,2.9E1,1.73E2,1.61E3,8.9E1,1.1E1,1.8E1,8.6E1,8.7E1,1.28E2,1.482E3,4.2E1,4.7E1,5.1E1,3.5E1,6E1,2.7E1,1.219E3,2.63E2],"tree_param":{"num_deleted":"0","num_feature":"20","num_nodes":"23","size_leaf_vector":"1"}},{"base_weights":[-0E0,4.548079E-4,-7.2768325E-4,8.1871636E-4,2.0205582E-5,-9.4644455E-3,1.3163192E-3,6.2385213E-4,-1.3955947E-2,5.797427E-4,1.1967469E-2,-1.6382592E-3,-4.9237075E-4,4.9878727E-5,-1.1118808E-3,1.3686398E-3,1.8080982E-4],"categories":[],"categories_nodes":[],"categories_segments":[],"categories_sizes":[],"default_left":[0,0,0,0,0,0,0,0,0,0,0,0,0,0,0,0,0],"id":23,"left_children":[1,3,-1,-1,5,7,9,-1,11,13,15,-1,-1,-1,-1,-1,-1],"loss_changes":[1.2996176E-2,1.2342858E-2,0E0,0E0,2.2408828E-2,2.169424E-2,1.22159915E-2,0E0,1.1888623E-2,1.3597801E-2,1.1459447E-2,0E0,0E0,0E0,0E0,0E0,0E0],"parents":[2147483647,0,0,1,1,4,4,5,5,6,6,8,8,9,9,10,10],"right_children":[2,4,-1,-1,6,8,10,-1,12,14,16,-1,-1,-1,-1,-1,-1],"split_conditions":[2.409317E0,-1.716679E0,-7.2768325E-4,8.1871636E-4,-9.8443055E-1,-1.4557005E0,1.3596795E0,6.2385213E-4,-1.2496524E0,2.3440804E0,-3.3169702E-1,-1.6382592E-3,-4.9237075E-4,4.9878727E-5,-1.1118808E-3,1.3686398E-3,1.8080982E-4],"split_indices":[16,5,0,0,5,10,1,0,12,15,10,0,0,0,0,0,0],"split_type":[0,0,0,0,0,0,0,0,0,0,0,0,0,0,0,0,0],"sum_hessian":[1.961E3,1.902E3,5.9E1,4.7E1,1.855E3,2.18E2,1.637E3,3.5E1,1.83E2,1.536E3,1.01E2,3E1,1.53E2,1.511E3,2.5E1,3.3E1,6.8E1],"tree_param":{"num_deleted":"0","num_feature":"20","num_nodes":"17","size_leaf_vector":"1"}},{"base_weights":[-9.5523275E-5,-3.514535E-4,1.3356163E-3,-8.4366424E-5,-2.5149219E-2,-7.049451E-3,7.647253E-4,7.554431E-5,-2.1003252E-3,6.161624E-3,-7.218992E-4,4.945375E-4,-3.4570205E-4,-0E0,1.5901289E-3,-6.600062E-4,3.6351717E-5],"categories":[],"categories_nodes":[],"categories_segments":[],"categories_sizes":[],"default_left":[0,0,0,0,0,0,0,0,0,0,0,0,0,0,0,0,0],"id":24,"left_children":[1,3,-1,5,7,9,11,-1,-1,13,-1,-1,15,-1,-1,-1,-1],"loss_changes":[1.199344E-2,1.1476913E-2,0E0,1.158605E-2,1.0370728E-2,2.1298133E-2,1.7630396E-2,0E0,0E0,1.1836917E-2,0E0,0E0,2.1374615E-2,0E0,0E0,0E0,0E0],"parents":[2147483647,0,0,1,1,3,3,4,4,5,5,6,6,9,9,12,12],"right_children":[2,4,-1,6,8,10,12,-1,-1,14,-1,-1,16,-1,-1,-1,-1],"split_conditions":[4.4031315E0,2.7672977E0,1.3356163E-3,-6.688096E-1,-2.0092267E-1,2.7617617E-2,-7.873741E-1,7.554431E-5,-2.1003252E-3,-1.5924037E0,-7.218992E-4,4.945375E-4,-1.0313135E0,-0E0,1.5901289E-3,-6.600062E-4,3.6351717E-5],"split_indices":[19,9,0,8,3,4,10,0,0,10,0,0,5,0,0,0,0],"split_type":[0,0,0,0,0,0,0,0,0,0,0,0,0,0,0,0,0],"sum_hessian":[1.939E3,1.923E3,1.6E1,1.905E3,1.8E1,2.13E2,1.692E3,6E0,1.2E1,7.4E1,1.39E2,1.88E2,1.504E3,6E1,1.4E1,1.19E2,1.385E3],"tree_param":{"num_deleted":"0","num_feature":"20","num_nodes":"17","size_leaf_vector":"1"}},{"base_weights":[-2.0694437E-5,-1.5661752E-5,1.3143619E-3],"categories":[],"categories_nodes":[],"categories_segments":[],"categories_sizes":[],"default_left":[0,0,0],"id":25,"left_children":[1,-1,-1],"loss_changes":[1.3662859E-2,0E0,0E0],"parents":[2147483647,0,0],"right_children":[2,-1,-1],"split_conditions":[4.4031315E0,-1.5661752E-5,1.3143619E-3],"split_indices":[19,0,0],"split_type":[0,0,0],"sum_hessian":[1.943E3,1.924E3,1.9E1],"tree_param":{"num_deleted":"0","num_feature":"20","num_nodes":"3","size_leaf_vector":"1"}},{"base_weights":[-0E0,-1.6365238E-3,2.5184103E-4,1.2737863E-2,-3.2679283E-4,7.887003E-4,-2.4482384E-3,-4.582109E-5,-2.6464622E-2,1.8746006E-5,-7.6791074E-4,-3.8179893E-3,-0E0],"categories":[],"categories_nodes":[],"categories_segments":[],"categories_sizes":[],"default_left":[0,0,0,0,0,0,0,0,0,0,0,0,0],"id":26,"left_children":[1,-1,3,5,7,-1,-1,9,11,-1,-1,-1,-1],"loss_changes":[1.5654853E-2,0E0,1.4432905E-2,1.5306064E-2,1.2065641E-2,0E0,0E0,1.23905195E-2,2.5643729E-2,0E0,0E0,0E0,0E0],"parents":[2147483647,0,0,2,2,3,3,4,4,7,7,8,8],"right_children":[2,-1,4,6,8,-1,-1,10,12,-1,-1,-1,-1],"split_conditions":[-1.554816E0,-1.6365238E-3,-1.699277E0,-7.8710556E-1,3.283806E0,7.887003E-4,-2.4482384E-3,2.409317E0,6.4462066E-2,1.8746006E-5,-7.6791074E-4,-3.8179893E-3,-0E0],"split_indices":[0,0,11,12,8,0,0,16,0,0,0,0,0],"split_type":[0,0,0,0,0,0,0,0,0,0,0,0,0],"sum_hessian":[1.925E3,1.4E1,1.911E3,8.8E1,1.823E3,8.5E1,3E0,1.806E3,1.7E1,1.755E3,5.1E1,6E0,1.1E1],"tree_param":{"num_deleted":"0","num_feature":"20","num_nodes":"13","size_leaf_vector":"1"}},{"base_weights":[6.6114204E-5,-3.2496103E-4,8.6504547E-4,-4.4306558E-2,-0E0,-3.5980798E-3,-0E0,-5.6577276E-4,6.6046044E-4,1.8293771E-5,-1.1796257E-2,-8.5847697E-4,1.7676788E-4],"categories":[],"categories_nodes":[],"categories_segments":[],"categories_sizes":[],"default_left":[0,0,0,0,0,0,0,0,0,0,0,0,0],"id":27,"left_children":[1,3,-1,5,7,-1,-1,9,-1,-1,11,-1,-1],"loss_changes":[1.4112758E-2,2.629855E-2,0E0,1.7515546E-2,1.3934547E-2,0E0,0E0,1.974687E-2,0E0,0E0,1.2616122E-2,0E0,0E0],"parents":[2147483647,0,0,1,1,3,3,4,4,7,7,10,10],"right_children":[2,4,-1,6,8,-1,-1,10,-1,-1,12,-1,-1],"split_conditions":[2.2128131E0,-1.6375165E-1,8.6504547E-4,6.4462066E-2,1.6214669E0,-3.5980798E-3,-0E0,1.4831563E0,6.6046044E-4,1.8293771E-5,1.2935512E0,-8.5847697E-4,1.7676788E-4],"split_indices":[19,7,0,0,1,0,0,5,0,0,10,0,0],"split_type":[0,0,0,0,0,0,0,0,0,0,0,0,0],"sum_hessian":[1.967E3,1.921E3,4.6E1,1.3E1,1.908E3,8E0,5E0,1.832E3,7.6E1,1.688E3,1.44E2,1.09E2,3.5E1],"tree_param":{"num_deleted":"0","num_feature":"20","num_nodes":"13","size_leaf_vector":"1"}},{"base_weights":[1.7587248E-5,7.374737E-4,-2.3696177E-5],"categories":[],"categories_nodes":[],"categories_segments":[],"categories_sizes":[],"default_left":[0,0,0],"id":28,"left_children":[1,-1,-1],"loss_changes":[1.466683E-2,0E0,0E0],"parents":[2147483647,0,0],"right_children":[2,-1,-1],"split_conditions":[-1.6363767E0,7.374737E-4,-2.3696177E-5],"split_indices":[2,0,0],"split_type":[0,0,0],"sum_hessian":[1.926E3,6.5E1,1.861E3],"tree_param":{"num_deleted":"0","num_feature":"20","num_nodes":"3","size_leaf_vector":"1"}},{"base_weights":[1.7683757E-4,7.7875523E-4,-1.0829705E-2,-5.6532345E-4,2.7297853E-4,7.1164705E-3,-1.196667E-3,-1.22120585E-2,2.4143029E-4,-5.721402E-4,1.1807771E-3,-1.3062682E-3,-1.6638276E-5,9.707183E-5,-5.1907026E-3,-9.825929E-4,8.501677E-6],"categories":[],"categories_nodes":[],"categories_segments":[],"categories_sizes":[],"default_left":[0,0,0,0,0,0,0,0,0,0,0,0,0,0,0,0,0],"id":29,"left_children":[1,3,5,7,-1,9,-1,11,13,-1,-1,-1,-1,-1,15,-1,-1],"loss_changes":[1.23774195E-2,1.1869589E-2,2.3618957E-2,1.4012862E-2,0E0,1.2839077E-2,0E0,1.462229E-2,1.2138526E-2,0E0,0E0,0E0,0E0,0E0,2.5046477E-2,0E0,0E0],"parents":[2147483647,0,0,1,1,2,2,3,3,5,5,7,7,8,8,14,14],"right_children":[2,4,6,8,-1,10,-1,12,14,-1,-1,-1,-1,-1,16,-1,-1],"split_conditions":[1.4485373E0,4.794868E-1,1.3102658E0,-1.1448207E0,2.7297853E-4,1.2840973E0,-1.196667E-3,2.5688611E-2,7.085312E-2,-5.721402E-4,1.1807771E-3,-1.3062682E-3,-1.6638276E-5,9.707183E-5,-5.667693E-1,-9.825929E-4,8.501677E-6],"split_indices":[12,1,3,0,0,0,0,15,17,0,0,0,0,0,5,0,0],"split_type":[0,0,0,0,0,0,0,0,0,0,0,0,0,0,0,0,0],"sum_hessian":[1.943E3,1.847E3,9.6E1,1.427E3,4.2E2,3.9E1,5.7E1,9.6E1,1.331E3,1.7E1,2.2E1,4.2E1,5.4E1,1.021E3,3.1E2,8.6E1,2.24E2],"tree_param":{"num_deleted":"0","num_feature":"20","num_nodes":"17","size_leaf_vector":"1"}},{"base_weights":[-5.5554797E-6,6.100424E-4,-5.10577E-4,-5.6519313E-3,6.7125546E-4,-1.6378328E-2,-1.1596049E-3,1.6897504E-3,-8.666035E-3,-5.080156E-4,-1.9281779E-3,-1.6253658E-2,2.0267786E-3,-1.4257617E-3,2.048064E-3,-8.9299196E-4,1.2132666E-3,-2.4583738E-3,-2.1455181E-4,-4.345106E-4,4.2034243E-4,2.2989756E-4,-5.6680026E-5,3.7036982E-4,-1.8167328E-3],"categories":[],"categories_nodes":[],"categories_segments":[],"categories_sizes":[],"default_left":[0,0,0,0,0,0,0,0,0,0,0,0,0,0,0,0,0,0,0,0,0,0,0,0,0],"id":30,"left_children":[1,-1,3,5,7,9,11,13,15,-1,-1,17,19,-1,21,-1,23,-1,-1,-1,-1,-1,-1,-1,-1],"loss_changes":[1.1430123E-2,0E0,1.1646881E-2,1.638846E-2,1.4089906E-2,1.1507582E-2,1.3064295E-2,1.3571037E-2,1.3967861E-2,0E0,0E0,1.5924023E-2,1.4346954E-2,0E0,1.1205291E-2,0E0,1.4387136E-2,0E0,0E0,0E0,0E0,0E0,0E0,0E0,0E0],"parents":[2147483647,0,0,2,2,3,3,4,4,5,5,6,6,7,7,8,8,11,11,12,12,14,14,16,16],"right_children":[2,-1,4,6,8,10,12,14,16,-1,-1,18,20,-1,22,-1,24,-1,-1,-1,-1,-1,-1,-1,-1],"split_conditions":[-2.0205636E0,6.100424E-4,-6.0335547E-1,3.0913274E-3,1.4318488E0,5.4802984E-1,-1.2496524E0,-1.554816E0,1.2011981E0,-5.080156E-4,-1.9281779E-3,-3.3169702E-1,-7.889795E-3,-1.4257617E-3,-7.5034894E-2,-8.9299196E-4,1.487083E0,-2.4583738E-3,-2.1455181E-4,-4.345106E-4,4.2034243E-4,2.2989756E-4,-5.6680026E-5,3.7036982E-4,-1.8167328E-3],"split_indices":[12,0,4,17,3,11,12,0,19,0,0,10,7,0,8,0,12,0,0,0,0,0,0,0,0],"split_type":[0,0,0,0,0,0,0,0,0,0,0,0,0,0,0,0,0,0,0,0,0,0,0,0,0],"sum_hessian":[1.948E3,7.3E1,1.875E3,3.58E2,1.517E3,1.02E2,2.56E2,1.373E3,1.44E2,8.2E1,2E1,4.7E1,2.09E2,1.4E1,1.359E3,7.7E1,6.7E1,1.1E1,3.6E1,7.5E1,1.34E2,7.63E2,5.96E2,5.9E1,8E0],"tree_param":{"num_deleted":"0","num_feature":"20","num_nodes":"25","size_leaf_vector":"1"}},{"base_weights":[1.7965915E-4,8.102451E-4,-1.0773164E-2,-3.5921502E-4,3.7303937E-4,-2.2893456E-4,-1.8936321E-3,-5.797349E-4,1.4586903E-5],"categories":[],"categories_nodes":[],"categories_segments":[],"categories_sizes":[],"default_left":[0,0,0,0,0,0,0,0,0],"id":31,"left_children":[1,3,5,7,-1,-1,-1,-1,-1],"loss_changes":[1.3053703E-2,1.4818761E-2,1.4997094E-2,1.2089687E-2,0E0,0E0,0E0,0E0,0E0],"parents":[2147483647,0,0,1,1,2,2,3,3],"right_children":[2,4,6,8,-1,-1,-1,-1,-1],"split_conditions":[1.4485373E0,9.921295E-1,5.9539115E-1,-4.9057716E-1,3.7303937E-4,-2.2893456E-4,-1.8936321E-3,-5.797349E-4,1.4586903E-5],"split_indices":[12,0,19,8,0,0,0,0,0],"split_type":[0,0,0,0,0,0,0,0,0],"sum_hessian":[1.961E3,1.859E3,1.02E2,1.575E3,2.84E2,8.5E1,1.7E1,9E1,1.485E3],"tree_param":{"num_deleted":"0","num_feature":"20","num_nodes":"9","size_leaf_vector":"1"}},{"base_weights":[1.1996351E-5,6.387798E-4,-4.7144562E-4,-9.876369E-6,-1.3251561E-3],"categories":[],"categories_nodes":[],"categories_segments":[],"categories_sizes":[],"default_left":[0,0,0,0,0],"id":32,"left_children":[1,-1,3,-1,-1],"loss_changes":[1.2573485E-2,0E0,1.1950132E-2,0E0,0E0],"parents":[2147483647,0,0,2,2],"right_children":[2,-1,4,-1,-1],"split_conditions":[-2.0205636E0,6.387798E-4,2.7672977E0,-9.876369E-6,-1.3251561E-3],"split_indices":[12,0,9,0,0],"split_type":[0,0,0,0,0],"sum_hessian":[1.937E3,7.4E1,1.863E3,1.846E3,1.7E1],"tree_param":{"num_deleted":"0","num_feature":"20","num_nodes":"5","size_leaf_vector":"1"}},{"base_weights":[-0E0],"categories":[],"categories_nodes":[],"categories_segments":[],"categories_sizes":[],"default_left":[0],"id":33,"left_children":[-1],"loss_changes":[0E0],"parents":[2147483647],"right_children":[-1],"split_conditions":[-0E0],"split_indices":[0],"split_type":[0],"sum_hessian":[1.968E3],"tree_param":{"num_deleted":"0","num_feature":"20","num_nodes":"1","size_leaf_vector":"1"}},{"base_weights":[5.9729373E-5,3.2501286E-4,-2.807857E-2,6.6719594E-4,-2.4131767E-4,1.5366478E-4,-2.3052155E-3,3.693829E-4,-4.891399E-4,-4.099716E-3,2.2258628E-3,-1.0550804E-4,-9.7587163E-4,6.008657E-4,1.8618795E-5],"categories":[],"categories_nodes":[],"categories_segments":[],"categories_sizes":[],"default_left":[0,0,0,0,0,0,0,0,0,0,0,0,0,0,0],"id":34,"left_children":[1,3,5,-1,7,-1,-1,9,-1,11,13,-1,-1,-1,-1],"loss_changes":[1.3206497E-2,1.4949309E-2,1.1487731E-2,0E0,1.1278624E-2,0E0,0E0,1.4334843E-2,0E0,1.4311914E-2,2.181868E-2,0E0,0E0,0E0,0E0],"parents":[2147483647,0,0,1,1,2,2,4,4,7,7,9,9,10,10],"right_children":[2,4,6,-1,8,-1,-1,10,-1,12,14,-1,-1,-1,-1],"split_conditions":[2.1690488E0,-1.6674755E0,-1.018379E0,6.6719594E-4,2.0032706E0,1.5366478E-4,-2.3052155E-3,-4.6794975E-1,-4.891399E-4,7.085312E-2,-2.7735877E-1,-1.0550804E-4,-9.7587163E-4,6.008657E-4,1.8618795E-5],"split_indices":[17,11,12,0,15,0,0,15,0,17,15,0,0,0,0],"split_type":[0,0,0,0,0,0,0,0,0,0,0,0,0,0,0],"sum_hessian":[1.954E3,1.938E3,1.6E1,8.4E1,1.854E3,5E0,1.1E1,1.738E3,1.16E2,5.02E2,1.236E3,4.48E2,5.4E1,1.92E2,1.044E3],"tree_param":{"num_deleted":"0","num_feature":"20","num_nodes":"15","size_leaf_vector":"1"}},{"base_weights":[-3.2843952E-4,1.1083218E-2,-8.995768E-4,-2.286822E-3,7.276562E-4,-2.2698333E-4,-4.8061644E-4,-8.583009E-4,5.0890894E-4,-5.785948E-4,-2.2219825E-3,-3.7617155E-4,4.1337073E-5],"categories":[],"categories_nodes":[],"categories_segments":[],"categories_sizes":[],"default_left":[0,0,0,0,0,0,0,0,0,0,0,0,0],"id":35,"left_children":[1,3,5,-1,-1,7,-1,9,-1,11,-1,-1,-1],"loss_changes":[1.2436544E-2,1.6616512E-2,1.0614839E-2,0E0,0E0,1.1135875E-2,0E0,1.8087383E-2,0E0,1.654414E-2,0E0,0E0,0E0],"parents":[2147483647,0,0,1,1,2,2,5,5,7,7,9,9],"right_children":[2,4,6,-1,-1,8,-1,10,-1,12,-1,-1,-1],"split_conditions":[-1.8663814E0,-4.076432E-1,1.4918574E0,-2.286822E-3,7.276562E-4,1.2390363E0,-4.8061644E-4,2.1690488E0,5.0890894E-4,-6.0335547E-1,-2.2219825E-3,-3.7617155E-4,4.1337073E-5],"split_indices":[12,10,15,0,0,19,0,17,0,4,0,0,0],"split_type":[0,0,0,0,0,0,0,0,0,0,0,0,0],"sum_hessian":[1.985E3,9E1,1.895E3,4E0,8.6E1,1.765E3,1.3E2,1.669E3,9.6E1,1.66E3,9E0,2.85E2,1.375E3],"tree_param":{"num_deleted":"0","num_feature":"20","num_nodes":"13","size_leaf_vector":"1"}},{"base_weights":[-8.30498E-5,-1.4593987E-3,5.459056E-6],"categories":[],"categories_nodes":[],"categories_segments":[],"categories_sizes":[],"default_left":[0,0,0],"id":36,"left_children":[1,-1,-1],"loss_changes":[1.2362725E-2,0E0,0E0],"parents":[2147483647,0,0],"right_children":[2,-1,-1],"split_conditions":[-1.554816E0,-1.4593987E-3,5.459056E-6],"split_indices":[0,0,0],"split_type":[0,0,0],"sum_hessian":[1.949E3,1.4E1,1.935E3],"tree_param":{"num_deleted":"0","num_feature":"20","num_nodes":"3","size_leaf_vector":"1"}},{"base_weights":[-2.5563847E-4,8.173045E-4,-3.0127474E-5],"categories":[],"categories_nodes":[],"categories_segments":[],"categories_sizes":[],"default_left":[0,0,0],"id":37,"left_children":[1,-1,-1],"loss_changes":[1.03130825E-2,0E0,0E0],"parents":[2147483647,0,0],"right_children":[2,-1,-1],"split_conditions":[-2.3024223E0,8.173045E-4,-3.0127474E-5],"split_indices":[5,0,0],"split_type":[0,0,0],"sum_hessian":[1.926E3,3.6E1,1.89E3],"tree_param":{"num_deleted":"0","num_feature":"20","num_nodes":"3","size_leaf_vector":"1"}},{"base_weights":[3.9635602E-4,-3.912904E-4,9.950009E-3,4.993326E-6,-1.902388E-2,-3.571509E-4,1.6627356E-2,-3.1689044E-2,-0E0,9.784586E-4,-1.8702198E-2,1.238745E-3,-6.033903E-5,2.4972344E-4,-2.065911E-3,-2.9972536E-3,-3.9513464E-4],"categories":[],"categories_nodes":[],"categories_segments":[],"categories_sizes":[],"default_left":[0,0,0,0,0,0,0,0,0,0,0,0,0,0,0,0,0],"id":38,"left_children":[1,3,5,-1,7,9,11,13,-1,-1,15,-1,-1,-1,-1,-1,-1],"loss_changes":[1.5066903E-2,1.7296351E-2,1.1312215E-2,0E0,1.2071228E-2,2.1158732E-2,1.5069928E-2,1.2339709E-2,0E0,0E0,1.04009295E-2,0E0,0E0,0E0,0E0,0E0,0E0],"parents":[2147483647,0,0,1,1,2,2,4,4,5,5,6,6,7,7,10,10],"right_children":[2,4,6,-1,8,10,12,14,-1,-1,16,-1,-1,-1,-1,-1,-1],"split_conditions":[1.2896056E0,2.141175E0,-1.0557468E0,4.993326E-6,1.1112804E0,-1.7235811E0,2.0032706E0,-2.6458186E-1,-0E0,9.784586E-4,-1.3668455E0,1.238745E-3,-6.033903E-5,2.4972344E-4,-2.065911E-3,-2.9972536E-3,-3.9513464E-4],"split_indices":[19,5,5,0,10,3,15,3,0,0,2,0,0,0,0,0,0],"split_type":[0,0,0,0,0,0,0,0,0,0,0,0,0,0,0,0,0],"sum_hessian":[1.938E3,1.786E3,1.52E2,1.738E3,4.8E1,5.7E1,9.5E1,2.9E1,1.9E1,2.6E1,3.1E1,6.7E1,2.8E1,5E0,2.4E1,5E0,2.6E1],"tree_param":{"num_deleted":"0","num_feature":"20","num_nodes":"17","size_leaf_vector":"1"}},{"base_weights":[-2.1186135E-4],"categories":[],"categories_nodes":[],"categories_segments":[],"categories_sizes":[],"default_left":[0],"id":39,"left_children":[-1],"loss_changes":[0E0],"parents":[2147483647],"right_children":[-1],"split_conditions":[-1.0593068E-5],"split_indices":[0],"split_type":[0],"sum_hessian":[1.902E3],"tree_param":{"num_deleted":"0","num_feature":"20","num_nodes":"1","size_leaf_vector":"1"}},{"base_weights":[1.365683E-4,-2.632078E-3,2.0302276E-3,-6.4515456E-4,-1.1369818E-2,-6.135362E-3,1.6550269E-4,-1.3746595E-2,1.3172574E-3,-8.8623987E-4,3.5655414E-4,-8.348291E-3,1.497385E-3,-1.865216E-2,1.2953443E-3,-1.4748477E-3,1.03627586E-4,2.6292194E-4,-6.6972687E-4,-3.143012E-4,-2.022287E-3],"categories":[],"categories_nodes":[],"categories_segments":[],"categories_sizes":[],"default_left":[0,0,0,0,0,0,0,0,0,0,0,0,0,0,0,0,0,0,0,0,0],"id":40,"left_children":[1,3,5,7,9,11,-1,13,15,-1,-1,17,-1,19,-1,-1,-1,-1,-1,-1,-1],"loss_changes":[1.0015303E-2,1.2720319E-2,1.1871327E-2,1.684094E-2,1.675915E-2,1.1062349E-2,0E0,1.6510569E-2,1.1355203E-2,0E0,0E0,1.0295151E-2,0E0,1.8422727E-2,0E0,0E0,0E0,0E0,0E0,0E0,0E0],"parents":[2147483647,0,0,1,1,2,2,3,3,4,4,5,5,7,7,8,8,11,11,13,13],"right_children":[2,4,6,8,10,12,-1,14,16,-1,-1,18,-1,20,-1,-1,-1,-1,-1,-1,-1],"split_conditions":[2.4541087E-2,4.7136493E-2,-6.688096E-1,-2.9337531E-2,3.4057942E-1,3.2760983E0,1.6550269E-4,8.7285715E-1,-1.5009793E0,-8.8623987E-4,3.5655414E-4,2.7617617E-2,1.497385E-3,-7.207565E-1,1.2953443E-3,-1.4748477E-3,1.03627586E-4,2.6292194E-4,-6.6972687E-4,-3.143012E-4,-2.022287E-3],"split_indices":[7,17,8,17,1,0,0,19,0,0,0,4,0,16,0,0,0,0,0,0,0],"split_type":[0,0,0,0,0,0,0,0,0,0,0,0,0,0,0,0,0,0,0,0,0],"sum_hessian":[1.915E3,7.67E2,1.148E3,6.3E2,1.37E2,1.5E2,9.98E2,8.5E1,5.45E2,1.04E2,3.3E1,1.43E2,7E0,7.7E1,8E0,1.1E1,5.34E2,3.6E1,1.07E2,5.1E1,2.6E1],"tree_param":{"num_deleted":"0","num_feature":"20","num_nodes":"21","size_leaf_vector":"1"}},{"base_weights":[5.3158736E-5],"categories":[],"categories_nodes":[],"categories_segments":[],"categories_sizes":[],"default_left":[0],"id":41,"left_children":[-1],"loss_changes":[0E0],"parents":[2147483647],"right_children":[-1],"split_conditions":[2.6579369E-6],"split_indices":[0],"split_type":[0],"sum_hessian":[1.922E3],"tree_param":{"num_deleted":"0","num_feature":"20","num_nodes":"1","size_leaf_vector":"1"}},{"base_weights":[-0E0],"categories":[],"categories_nodes":[],"categories_segments":[],"categories_sizes":[],"default_left":[0],"id":42,"left_children":[-1],"loss_changes":[0E0],"parents":[2147483647],"right_children":[-1],"split_conditions":[-0E0],"split_indices":[0],"split_type":[0],"sum_hessian":[1.939E3],"tree_param":{"num_deleted":"0","num_feature":"20","num_nodes":"1","size_leaf_vector":"1"}},{"base_weights":[-8.701177E-5],"categories":[],"categories_nodes":[],"categories_segments":[],"categories_sizes":[],"default_left":[0],"id":43,"left_children":[-1],"loss_changes":[0E0],"parents":[2147483647],"right_children":[-1],"split_conditions":[-4.350589E-6],"split_indices":[0],"split_type":[0],"sum_hessian":[1.949E3],"tree_param":{"num_deleted":"0","num_feature":"20","num_nodes":"1","size_leaf_vector":"1"}},{"base_weights":[-1.6355263E-4],"categories":[],"categories_nodes":[],"categories_segments":[],"categories_sizes":[],"default_left":[0],"id":44,"left_children":[-1],"loss_changes":[0E0],"parents":[2147483647],"right_children":[-1],"split_conditions":[-8.177632E-6],"split_indices":[0],"split_type":[0],"sum_hessian":[1.9E3],"tree_param":{"num_deleted":"0","num_feature":"20","num_nodes":"1","size_leaf_vector":"1"}},{"base_weights":[-0E0],"categories":[],"categories_nodes":[],"categories_segments":[],"categories_sizes":[],"default_left":[0],"id":45,"left_children":[-1],"loss_changes":[0E0],"parents":[2147483647],"right_children":[-1],"split_conditions":[-0E0],"split_indices":[0],"split_type":[0],"sum_hessian":[1.932E3],"tree_param":{"num_deleted":"0","num_feature":"20","num_nodes":"1","size_leaf_vector":"1"}},{"base_weights":[-2.6383018E-4],"categories":[],"categories_nodes":[],"categories_segments":[],"categories_sizes":[],"default_left":[0],"id":46,"left_children":[-1],"loss_changes":[0E0],"parents":[2147483647],"right_children":[-1],"split_conditions":[-1.3191509E-5],"split_indices":[0],"split_type":[0],"sum_hessian":[1.937E3],"tree_param":{"num_deleted":"0","num_feature":"20","num_nodes":"1","size_leaf_vector":"1"}},{"base_weights":[2.0323023E-5],"categories":[],"categories_nodes":[],"categories_segments":[],"categories_sizes":[],"default_left":[0],"id":47,"left_children":[-1],"loss_changes":[0E0],"parents":[2147483647],"right_children":[-1],"split_conditions":[1.0161511E-6],"split_indices":[0],"split_type":[0],"sum_hessian":[1.938E3],"tree_param":{"num_deleted":"0","num_feature":"20","num_nodes":"1","size_leaf_vector":"1"}},{"base_weights":[2.6750285E-4],"categories":[],"categories_nodes":[],"categories_segments":[],"categories_sizes":[],"default_left":[0],"id":48,"left_children":[-1],"loss_changes":[0E0],"parents":[2147483647],"right_children":[-1],"split_conditions":[1.3375143E-5],"split_indices":[0],"split_type":[0],"sum_hessian":[1.938E3],"tree_param":{"num_deleted":"0","num_feature":"20","num_nodes":"1","size_leaf_vector":"1"}},{"base_weights":[-3.256574E-5],"categories":[],"categories_nodes":[],"categories_segments":[],"categories_sizes":[],"default_left":[0],"id":49,"left_children":[-1],"loss_changes":[0E0],"parents":[2147483647],"right_children":[-1],"split_conditions":[-1.6282869E-6],"split_indices":[0],"split_type":[0],"sum_hessian":[1.955E3],"tree_param":{"num_deleted":"0","num_feature":"20","num_nodes":"1","size_leaf_vector":"1"}},{"base_weights":[5.931013E-5,7.44895E-4,-4.5181785E-4,-6.48498E-5,1.1507345E-2,1.8582004E-4,-1.3417022E-3,-2.1850045E-3,1.055301E-3,4.1281292E-4,-1.9156596E-3,-3.9221458E-2,3.4498077E-4,-2.0735568E-5,4.204839E-4,-3.3233333E-3,-0E0],"categories":[],"categories_nodes":[],"categories_segments":[],"categories_sizes":[],"default_left":[0,0,0,0,0,0,0,0,0,0,0,0,0,0,0,0,0],"id":50,"left_children":[1,3,-1,5,7,9,-1,11,-1,13,-1,15,-1,-1,-1,-1,-1],"loss_changes":[1.1739349E-2,1.6411718E-2,0E0,1.2651705E-2,1.8251944E-2,1.2702652E-2,0E0,1.9415658E-2,0E0,1.1396634E-2,0E0,1.1025103E-2,0E0,0E0,0E0,0E0,0E0],"parents":[2147483647,0,0,1,1,3,3,4,4,5,5,7,7,9,9,11,11],"right_children":[2,4,-1,6,8,10,-1,12,-1,14,-1,16,-1,-1,-1,-1,-1],"split_conditions":[1.4918574E0,1.2390363E0,-4.5181785E-4,2.3615024E0,-1.3219233E0,2.1690488E0,-1.3417022E-3,2.2128131E0,1.055301E-3,2.7140304E-1,-1.9156596E-3,6.0319807E-2,3.4498077E-4,-2.0735568E-5,4.204839E-4,-3.3233333E-3,-0E0],"split_indices":[15,19,0,3,4,17,0,19,0,7,0,0,0,0,0,0,0],"split_type":[0,0,0,0,0,0,0,0,0,0,0,0,0,0,0,0,0],"sum_hessian":[1.948E3,1.817E3,1.31E2,1.686E3,1.31E2,1.669E3,1.7E1,5.2E1,7.9E1,1.661E3,8E0,1.1E1,4.1E1,1.5E3,1.61E2,6E0,5E0],"tree_param":{"num_deleted":"0","num_feature":"20","num_nodes":"17","size_leaf_vector":"1"}},{"base_weights":[-5.19416E-4],"categories":[],"categories_nodes":[],"categories_segments":[],"categories_sizes":[],"default_left":[0],"id":51,"left_children":[-1],"loss_changes":[0E0],"parents":[2147483647],"right_children":[-1],"split_conditions":[-2.5970801E-5],"split_indices":[0],"split_type":[0],"sum_hessian":[1.924E3],"tree_param":{"num_deleted":"0","num_feature":"20","num_nodes":"1","size_leaf_vector":"1"}},{"base_weights":[-1.653181E-4],"categories":[],"categories_nodes":[],"categories_segments":[],"categories_sizes":[],"default_left":[0],"id":52,"left_children":[-1],"loss_changes":[0E0],"parents":[2147483647],"right_children":[-1],"split_conditions":[-8.265905E-6],"split_indices":[0],"split_type":[0],"sum_hessian":[1.943E3],"tree_param":{"num_deleted":"0","num_feature":"20","num_nodes":"1","size_leaf_vector":"1"}},{"base_weights":[5.325369E-5],"categories":[],"categories_nodes":[],"categories_segments":[],"categories_sizes":[],"default_left":[0],"id":53,"left_children":[-1],"loss_changes":[0E0],"parents":[2147483647],"right_children":[-1],"split_conditions":[2.6626847E-6],"split_indices":[0],"split_type":[0],"sum_hessian":[1.94E3],"tree_param":{"num_deleted":"0","num_feature":"20","num_nodes":"1","size_leaf_vector":"1"}},{"base_weights":[9.256961E-5],"categories":[],"categories_nodes":[],"categories_segments":[],"categories_sizes":[],"default_left":[0],"id":54,"left_children":[-1],"loss_changes":[0E0],"parents":[2147483647],"right_children":[-1],"split_conditions":[4.6284804E-6],"split_indices":[0],"split_type":[0],"sum_hessian":[1.935E3],"tree_param":{"num_deleted":"0","num_feature":"20","num_nodes":"1","size_leaf_vector":"1"}},{"base_weights":[-4.0250634E-5],"categories":[],"categories_nodes":[],"categories_segments":[],"categories_sizes":[],"default_left":[0],"id":55,"left_children":[-1],"loss_changes":[0E0],"parents":[2147483647],"right_children":[-1],"split_conditions":[-2.0125317E-6],"split_indices":[0],"split_type":[0],"sum_hessian":[1.915E3],"tree_param":{"num_deleted":"0","num_feature":"20","num_nodes":"1","size_leaf_vector":"1"}},{"base_weights":[-1.7352706E-4],"categories":[],"categories_nodes":[],"categories_segments":[],"categories_sizes":[],"default_left":[0],"id":56,"left_children":[-1],"loss_changes":[0E0],"parents":[2147483647],"right_children":[-1],"split_conditions":[-8.676353E-6],"split_indices":[0],"split_type":[0],"sum_hessian":[1.926E3],"tree_param":{"num_deleted":"0","num_feature":"20","num_nodes":"1","size_leaf_vector":"1"}}]},"name":"gbtree"},"learner_model_param":{"base_score":"[5.187521E-3]","boost_from_average":"1","num_class":"0","num_feature":"20","num_target":"1"},"objective":{"name":"reg:squarederror","reg_loss_param":{"scale_pos_weight":"1"}}},"version":[3,2,0]}