{"learner":{"attributes":{"best_iteration":"5","best_score":"0.05689580023633448","scikit_learn":"{\"_estimator_type\": \"regressor\"}"},"feature_names":[],"feature_types":[],"gradient_booster":{"model":{"cats":{"enc":[],"feature_segments":[],"sorted_idx":[]},"gbtree_model_param":{"num_parallel_tree":"1","num_trees":"46"},"iteration_indptr":[0,1,2,3,4,5,6,7,8,9,10,11,12,13,14,15,16,17,18,19,20,21,22,23,24,25,26,27,28,29,30,31,32,33,34,35,36,37,38,39,40,41,42,43,44,45,46],"tree_info":[0,0,0,0,0,0,0,0,0,0,0,0,0,0,0,0,0,0,0,0,0,0,0,0,0,0,0,0,0,0,0,0,0,0,0,0,0,0,0,0,0,0,0,0,0,0],"trees":[{"base_weights":[-8.3723E-4,1.7764969E-3,-4.412124E-2,6.698287E-2,3.8240163E-4,7.400005E-4,-2.4615065E-3,9.2721425E-2,2.0609104E-5,-7.207917E-4,4.2841103E-2,-0E0,1.0404099E-1,-7.005744E-2,-0E0,9.719623E-3,2.1035006E-2,3.7745826E-3,7.204956E-3,-6.2094587E-3,-6.3366926E-4,-5.7988544E-4,2.1889398E-4,-7.7324035E-4,1.6459514E-3],"categories":[],"categories_nodes":[],"categories_segments":[],"categories_sizes":[],"default_left":[0,0,0,0,0,0,0,0,0,0,0,0,0,0,0,0,0,0,0,0,0,0,0,0,0],"id":0,"left_children":[1,3,5,7,9,-1,-1,11,-1,13,15,-1,17,19,21,-1,23,-1,-1,-1,-1,-1,-1,-1,-1],"loss_changes":[2.2146393E-1,1.627458E-1,3.564976E-2,5.9577942E-2,8.598875E-2,0E0,0E0,2.6548937E-2,0E0,8.498443E-2,1.4085467E-1,0E0,1.0456681E-2,4.673013E-2,8.7963216E-2,0E0,1.9128487E-2,0E0,0E0,0E0,0E0,0E0,0E0,0E0,0E0],"parents":[2147483647,0,0,1,1,2,2,3,3,4,4,7,7,9,9,10,10,12,12,13,13,14,14,16,16],"right_children":[2,4,6,8,10,-1,-1,12,-1,14,16,-1,18,20,22,-1,24,-1,-1,-1,-1,-1,-1,-1,-1],"split_conditions":[2.0032706E0,-1.6195704E-1,-1.0285599E-1,-1.6197902E0,2.6399534E0,7.400005E-4,-2.4615065E-3,-5.277549E-1,2.0609104E-5,-1.6375165E-1,-1.5468359E0,-0E0,-4.177963E-2,6.4462066E-2,-3.0480078E-1,9.719623E-3,-1.3498183E0,3.7745826E-3,7.204956E-3,-6.2094587E-3,-6.3366926E-4,-5.7988544E-4,2.1889398E-4,-7.7324035E-4,1.6459514E-3],"split_indices":[15,17,1,2,19,0,0,0,0,7,10,0,19,0,8,0,0,0,0,0,0,0,0,0,0],"split_type":[0,0,0,0,0,0,0,0,0,0,0,0,0,0,0,0,0,0,0,0,0,0,0,0,0],"sum_hessian":[1.938E3,1.827E3,1.11E2,3.7E1,1.79E3,8E0,1.03E2,2.6E1,1.1E1,1.744E3,4.6E1,3E0,2.3E1,1.7E1,1.727E3,5E0,4.1E1,1.5E1,8E0,8E0,9E0,4.75E2,1.252E3,9E0,3.2E1],"tree_param":{"num_deleted":"0","num_feature":"20","num_nodes":"25","size_leaf_vector":"1"}},{"base_weights":[-0E0,2.5070228E-3,-4.0457506E-2,6.2218945E-2,1.3232185E-3,3.6110575E-4,-2.2047383E-3,8.253808E-2,-0E0,-0E0,5.1170498E-2,1.0780109E-1,1.452648E-3,-1.0498954E-2,3.9732284E-3,9.019251E-3,2.4722548E-2,2.9274274E-3,7.241502E-3,3.226256E-3,-6.890086E-4,1.11954825E-4,2.9559813E-3,-2.5097115E-4,2.0647224E-3],"categories":[],"categories_nodes":[],"categories_segments":[],"categories_sizes":[],"default_left":[0,0,0,0,0,0,0,0,0,0,0,0,0,0,0,0,0,0,0,0,0,0,0,0,0],"id":1,"left_children":[1,3,5,7,9,-1,-1,11,-1,13,15,17,-1,19,21,-1,23,-1,-1,-1,-1,-1,-1,-1,-1],"loss_changes":[1.972012E-1,1.2525576E-1,2.1686405E-2,4.0163323E-2,1.1863379E-1,0E0,0E0,2.6046798E-2,0E0,7.262726E-2,1.4642668E-1,1.5683472E-2,0E0,1.1569987E-1,1.1731328E-1,0E0,2.1386188E-2,0E0,0E0,0E0,0E0,0E0,0E0,0E0,0E0],"parents":[2147483647,0,0,1,1,2,2,3,3,4,4,7,7,9,9,10,10,11,11,13,13,14,14,16,16],"right_children":[2,4,6,8,10,-1,-1,12,-1,14,16,18,-1,20,22,-1,24,-1,-1,-1,-1,-1,-1,-1,-1],"split_conditions":[2.0032706E0,-1.6195704E-1,-1.429256E-1,2.5514042E-1,2.6399534E0,3.6110575E-4,-2.2047383E-3,-1.7416791E0,-0E0,-3.0480078E-1,-7.9020864E-1,-8.591663E-2,1.452648E-3,-7.8589183E-1,1.237241E0,9.019251E-3,3.1278267E0,2.9274274E-3,7.241502E-3,3.226256E-3,-6.890086E-4,1.11954825E-4,2.9559813E-3,-2.5097115E-4,2.0647224E-3],"split_indices":[15,17,1,19,19,0,0,11,0,8,9,19,0,16,2,0,19,0,0,0,0,0,0,0,0],"split_type":[0,0,0,0,0,0,0,0,0,0,0,0,0,0,0,0,0,0,0,0,0,0,0,0,0],"sum_hessian":[1.93E3,1.817E3,1.13E2,3.4E1,1.783E3,7E0,1.06E2,2.5E1,9E0,1.737E3,4.6E1,1.6E1,9E0,4.78E2,1.259E3,7E0,3.9E1,8E0,8E0,1.9E1,4.59E2,1.222E3,3.7E1,1.3E1,2.6E1],"tree_param":{"num_deleted":"0","num_feature":"20","num_nodes":"25","size_leaf_vector":"1"}},{"base_weights":[2.5049332E-4,2.3799634E-3,-3.616607E-2,1.2280768E-3,4.5950644E-2,6.9589075E-4,-1.9897565E-3,7.348753E-2,5.593332E-4,8.173291E-3,2.4765225E-2,-0E0,9.1720544E-2,-4.5106452E-2,1.3437716E-3,-1.5472545E-3,1.736847E-3,5.7700616E-3,2.7873089E-6,-2.656512E-4,-5.4154424E-3,1.0351922E-3,-2.4562061E-5],"categories":[],"categories_nodes":[],"categories_segments":[],"categories_sizes":[],"default_left":[0,0,0,0,0,0,0,0,0,0,0,0,0,0,0,0,0,0,0,0,0,0,0],"id":2,"left_children":[1,3,5,7,9,-1,-1,11,13,-1,15,-1,17,19,21,-1,-1,-1,-1,-1,-1,-1,-1],"loss_changes":[1.4681934E-1,8.8479094E-2,2.0564437E-2,8.159142E-2,1.0184148E-1,0E0,0E0,2.1451771E-2,6.054857E-2,0E0,2.2670388E-2,0E0,2.1357507E-2,6.5709814E-2,6.220922E-2,0E0,0E0,0E0,0E0,0E0,0E0,0E0,0E0],"parents":[2147483647,0,0,1,1,2,2,3,3,4,4,7,7,8,8,10,10,12,12,13,13,14,14],"right_children":[2,4,6,8,10,-1,-1,12,14,-1,16,-1,18,20,22,-1,-1,-1,-1,-1,-1,-1,-1],"split_conditions":[2.0032706E0,2.6399534E0,-1.0285599E-1,-2.9370005E0,-7.9020864E-1,6.9589075E-4,-1.9897565E-3,-6.747736E-1,-1.6353045E0,8.173291E-3,-1.3498183E0,-0E0,1.4371471E0,-2.414005E0,-1.0738473E0,-1.5472545E-3,1.736847E-3,5.7700616E-3,2.7873089E-6,-2.656512E-4,-5.4154424E-3,1.0351922E-3,-2.4562061E-5],"split_indices":[15,19,1,15,9,0,0,0,4,0,0,0,1,4,11,0,0,0,0,0,0,0,0],"split_type":[0,0,0,0,0,0,0,0,0,0,0,0,0,0,0,0,0,0,0,0,0,0,0],"sum_hessian":[1.914E3,1.81E3,1.04E2,1.765E3,4.5E1,6E0,9.8E1,1.5E1,1.75E3,6E0,3.9E1,3E0,1.2E1,2.8E1,1.722E3,5E0,3.4E1,9E0,3E0,1.8E1,1E1,1.51E2,1.571E3],"tree_param":{"num_deleted":"0","num_feature":"20","num_nodes":"23","size_leaf_vector":"1"}},{"base_weights":[-4.781142E-4,1.7203162E-3,-3.7386574E-2,5.623819E-2,5.843505E-4,-9.890455E-3,-4.9405366E-2,7.675997E-2,-4.318565E-5,-9.744789E-3,4.869402E-3,-1.5573311E-3,1.3233379E-3,-6.692092E-2,-3.304418E-2,4.6593845E-3,4.4126072E-4,-5.586933E-2,-7.7578477E-3,-1.3765948E-3,6.950222E-3,-0E0,-3.646296E-3,-3.1552021E-3,-1.0456209E-3,-5.678756E-4,-3.9951294E-3,-1.3951388E-3,-1.9007118E-4,5.819827E-4,-3.7775983E-4],"categories":[],"categories_nodes":[],"categories_segments":[],"categories_sizes":[],"default_left":[0,0,0,0,0,0,0,0,0,0,0,0,0,0,0,0,0,0,0,0,0,0,0,0,0,0,0,0,0,0,0],"id":3,"left_children":[1,3,5,7,9,11,13,15,-1,17,19,-1,-1,21,23,-1,-1,25,27,-1,29,-1,-1,-1,-1,-1,-1,-1,-1,-1,-1],"loss_changes":[1.5943126E-1,1.10629976E-1,3.3307835E-2,4.6599858E-2,7.929465E-2,2.80811E-2,1.5532494E-2,2.5178522E-2,0E0,4.457902E-2,8.492758E-2,0E0,0E0,1.3017848E-2,1.0273535E-2,0E0,0E0,1.6913414E-2,3.849165E-2,0E0,8.1772774E-2,0E0,0E0,0E0,0E0,0E0,0E0,0E0,0E0,0E0,0E0],"parents":[2147483647,0,0,1,1,2,2,3,3,4,4,5,5,6,6,7,7,9,9,10,10,13,13,14,14,17,17,18,18,20,20],"right_children":[2,4,6,8,10,12,14,16,-1,18,20,-1,-1,22,24,-1,-1,26,28,-1,30,-1,-1,-1,-1,-1,-1,-1,-1,-1,-1],"split_conditions":[2.0032706E0,-1.6195704E-1,-5.120206E-1,2.5514042E-1,3.0913274E-3,-2.8755587E-1,1.5450028E0,-1.6197902E0,-4.318565E-5,-1.5009793E0,-1.8658098E0,-1.5573311E-3,1.3233379E-3,-3.2068607E-1,7.440568E-2,4.6593845E-3,4.4126072E-4,-7.836929E-1,-7.5610155E-1,-1.3765948E-3,7.923064E-1,-0E0,-3.646296E-3,-3.1552021E-3,-1.0456209E-3,-5.678756E-4,-3.9951294E-3,-1.3951388E-3,-1.9007118E-4,5.819827E-4,-3.7775983E-4],"split_indices":[15,17,11,19,17,0,0,2,0,0,10,0,0,0,19,0,0,4,4,0,10,0,0,0,0,0,0,0,0,0,0],"split_type":[0,0,0,0,0,0,0,0,0,0,0,0,0,0,0,0,0,0,0,0,0,0,0,0,0,0,0,0,0,0,0],"sum_hessian":[1.942E3,1.832E3,1.1E2,3.6E1,1.796E3,3.5E1,7.5E1,2.7E1,9E0,5.23E2,1.273E3,2.3E1,1.2E1,3.4E1,4.1E1,2.1E1,6E0,2E1,5.03E2,7.5E1,1.198E3,3E0,3.1E1,1E1,3.1E1,8E0,1.2E1,8E1,4.23E2,9.08E2,2.9E2],"tree_param":{"num_deleted":"0","num_feature":"20","num_nodes":"31","size_leaf_vector":"1"}},{"base_weights":[5.0567015E-4,3.363306E-3,-2.4454752E-2,2.292063E-3,4.3089695E-2,4.3295464E-4,-2.8283842E-2,-5.90199E-2,3.03302E-3,8.729473E-3,9.515066E-4,-3.292162E-2,1.19039025E-4,-6.2613874E-3,-1.0626209E-3,2.8785935E-2,5.207386E-4,-2.5512055E-2,-2.4809223E-3,3.7416784E-4,2.0257127E-3,-1.11400395E-5,2.755338E-3,-1.4071872E-4,-1.7000799E-3],"categories":[],"categories_nodes":[],"categories_segments":[],"categories_sizes":[],"default_left":[0,0,0,0,0,0,0,0,0,0,0,0,0,0,0,0,0,0,0,0,0,0,0,0,0],"id":4,"left_children":[1,3,5,7,9,-1,11,13,15,-1,-1,17,-1,-1,-1,19,21,23,-1,-1,-1,-1,-1,-1,-1],"loss_changes":[1.373268E-1,7.183642E-2,2.6145875E-2,7.4452214E-2,1.2944807E-1,0E0,2.6951745E-2,4.010512E-2,1.07188426E-1,0E0,0E0,1.4972106E-2,0E0,0E0,0E0,3.430044E-2,6.49497E-2,1.9596614E-2,0E0,0E0,0E0,0E0,0E0,0E0,0E0],"parents":[2147483647,0,0,1,1,2,2,3,3,4,4,6,6,7,7,8,8,11,11,15,15,16,16,17,17],"right_children":[2,4,6,8,10,-1,12,14,16,-1,-1,18,-1,-1,-1,20,22,24,-1,-1,-1,-1,-1,-1,-1],"split_conditions":[1.1986341E0,2.6399534E0,-1.0019417E0,-1.6375165E-1,-7.9020864E-1,4.3295464E-4,1.6615362E0,2.9259168E-2,-1.122194E0,8.729473E-3,9.515066E-4,6.577488E-1,1.19039025E-4,-6.2613874E-3,-1.0626209E-3,3.5630137E-1,1.0483204E0,7.2461344E-2,-2.4809223E-3,3.7416784E-4,2.0257127E-3,-1.11400395E-5,2.755338E-3,-1.4071872E-4,-1.7000799E-3],"split_indices":[15,19,2,7,9,0,1,0,2,0,0,2,0,0,0,5,15,7,0,0,0,0,0,0,0],"split_type":[0,0,0,0,0,0,0,0,0,0,0,0,0,0,0,0,0,0,0,0,0,0,0,0,0],"sum_hessian":[1.939E3,1.742E3,1.97E2,1.698E3,4.4E1,1.9E1,1.78E2,1.9E1,1.679E3,6E0,3.8E1,1.56E2,2.2E1,6E0,1.3E1,1.47E2,1.532E3,1.11E2,4.5E1,5.4E1,9.3E1,1.511E3,2.1E1,3.2E1,7.9E1],"tree_param":{"num_deleted":"0","num_feature":"20","num_nodes":"25","size_leaf_vector":"1"}},{"base_weights":[3.3549138E-4,-2.9881287E-2,2.0813541E-3,-5.685436E-3,-2.3166456E-3,1.4754756E-3,8.326574E-3,-1.0506808E-3,5.166627E-4,7.260513E-2,8.073298E-4,-0E0,8.8707246E-2,-7.5227222E-3,4.2291624E-3,6.4769858E-3,2.0369312E-3,-6.873463E-4,3.5181973E-4,3.9369214E-4,-4.632801E-4],"categories":[],"categories_nodes":[],"categories_segments":[],"categories_sizes":[],"default_left":[0,0,0,0,0,0,0,0,0,0,0,0,0,0,0,0,0,0,0,0,0],"id":5,"left_children":[1,3,5,7,-1,9,-1,-1,-1,11,13,-1,15,17,19,-1,-1,-1,-1,-1,-1],"loss_changes":[1.02013245E-1,3.9262794E-2,1.7625323E-1,1.1569001E-2,0E0,8.4149994E-2,0E0,0E0,0E0,1.9251324E-2,5.2084893E-2,0E0,1.528959E-2,4.8366614E-2,6.407836E-2,0E0,0E0,0E0,0E0,0E0,0E0],"parents":[2147483647,0,0,1,1,2,2,3,3,5,5,9,9,10,10,12,12,13,13,14,14],"right_children":[2,4,6,8,-1,10,-1,-1,-1,12,14,-1,16,18,20,-1,-1,-1,-1,-1,-1],"split_conditions":[-8.739224E-1,1.0498941E0,2.6010551E0,-1.683539E0,-2.3166456E-3,-2.9370005E0,8.326574E-3,-1.0506808E-3,5.166627E-4,-5.277549E-1,3.0913274E-3,-0E0,-1.4467788E-1,8.1713796E-2,8.64175E-1,6.4769858E-3,2.0369312E-3,-6.873463E-4,3.5181973E-4,3.9369214E-4,-4.632801E-4],"split_indices":[8,3,0,10,0,15,0,0,0,0,17,0,0,16,5,0,0,0,0,0,0],"split_type":[0,0,0,0,0,0,0,0,0,0,0,0,0,0,0,0,0,0,0,0,0],"sum_hessian":[1.959E3,1.05E2,1.854E3,4.4E1,6.1E1,1.848E3,6E0,2.4E1,2E1,1.6E1,1.832E3,3E0,1.3E1,5.29E2,1.303E3,6E0,7E0,3.73E2,1.56E2,1.029E3,2.74E2],"tree_param":{"num_deleted":"0","num_feature":"20","num_nodes":"21","size_leaf_vector":"1"}},{"base_weights":[3.193782E-4,2.1861622E-3,-3.1957254E-2,5.0012693E-2,1.1593945E-3,-1.0794781E-2,-3.8615182E-2,6.888876E-2,-0E0,2.6313724E-5,4.1827712E-2,-1.4940292E-3,1.0838648E-3,-1.2146961E-2,-2.283998E-3,4.323461E-3,2.2563383E-5,-8.691462E-3,3.6770992E-3,7.4467096E-3,2.024222E-2,4.9480394E-4,-1.7087403E-3,-4.5287902E-3,-3.684526E-4,-1.3327705E-3,2.8581786E-4,-1.490245E-3,1.5413649E-3],"categories":[],"categories_nodes":[],"categories_segments":[],"categories_sizes":[],"default_left":[0,0,0,0,0,0,0,0,0,0,0,0,0,0,0,0,0,0,0,0,0,0,0,0,0,0,0,0,0],"id":6,"left_children":[1,3,5,7,9,11,13,15,-1,17,19,-1,-1,21,-1,-1,-1,23,25,-1,27,-1,-1,-1,-1,-1,-1,-1,-1],"loss_changes":[1.1528752E-1,8.7449595E-2,1.2044951E-2,3.1962425E-2,8.0690354E-2,1.777731E-2,1.1323117E-2,2.7518272E-2,0E0,5.544612E-2,9.985122E-2,0E0,0E0,1.0365905E-2,0E0,0E0,0E0,5.0264936E-2,7.55758E-2,0E0,2.1965506E-2,0E0,0E0,0E0,0E0,0E0,0E0,0E0,0E0],"parents":[2147483647,0,0,1,1,2,2,3,3,4,4,5,5,6,6,7,7,9,9,10,10,13,13,17,17,18,18,20,20],"right_children":[2,4,6,8,10,12,14,16,-1,18,20,-1,-1,22,-1,-1,-1,24,26,-1,28,-1,-1,-1,-1,-1,-1,-1,-1],"split_conditions":[2.0032706E0,-1.6195704E-1,1.0034401E0,2.5514042E-1,2.6399534E0,5.36912E-1,-6.454931E-1,-1.6197902E0,-0E0,3.0913274E-3,-7.9020864E-1,-1.4940292E-3,1.0838648E-3,1.9694946E0,-2.283998E-3,4.323461E-3,2.2563383E-5,-1.259033E0,-1.8658098E0,7.4467096E-3,-1.3498183E0,4.9480394E-4,-1.7087403E-3,-4.5287902E-3,-3.684526E-4,-1.3327705E-3,2.8581786E-4,-1.490245E-3,1.5413649E-3],"split_indices":[15,17,3,19,19,6,4,2,0,17,9,0,0,0,0,0,0,2,10,0,0,0,0,0,0,0,0,0,0],"split_type":[0,0,0,0,0,0,0,0,0,0,0,0,0,0,0,0,0,0,0,0,0,0,0,0,0,0,0,0,0],"sum_hessian":[1.937E3,1.833E3,1.04E2,3.7E1,1.796E3,2.7E1,7.7E1,2.6E1,1.1E1,1.749E3,4.7E1,1.8E1,9E0,1.8E1,5.9E1,2E1,6E0,5.12E2,1.237E3,7E0,4E1,8E0,1E1,7E0,5.05E2,7.6E1,1.161E3,6E0,3.4E1],"tree_param":{"num_deleted":"0","num_feature":"20","num_nodes":"29","size_leaf_vector":"1"}},{"base_weights":[-6.453568E-4,1.9073315E-3,-2.3612581E-2,4.5689445E-2,8.7134255E-4,2.4200475E-3,-2.5104824E-2,6.5151654E-2,1.0449677E-4,2.8759713E-4,5.4746035E-2,-2.9426033E-2,-2.4054954E-3,3.785774E-3,-0E0,-1.8450854E-2,1.7980841E-3,6.9252384E-4,5.7598087E-3,-1.20207296E-4,-1.6334819E-3,-3.723122E-2,7.78619E-4,5.104286E-5,-1.316216E-3,3.6749076E-5,4.433173E-3,-4.1034846E-3,-0E0],"categories":[],"categories_nodes":[],"categories_segments":[],"categories_sizes":[],"default_left":[0,0,0,0,0,0,0,0,0,0,0,0,0,0,0,0,0,0,0,0,0,0,0,0,0,0,0,0,0],"id":7,"left_children":[1,3,5,7,9,-1,11,13,-1,15,17,19,21,-1,-1,23,25,-1,-1,-1,-1,27,-1,-1,-1,-1,-1,-1,-1],"loss_changes":[1.15696535E-1,7.7368364E-2,2.0666413E-2,3.0087292E-2,5.1285733E-2,0E0,1.7451249E-2,1.6503185E-2,0E0,4.7343522E-2,3.601239E-2,1.2362257E-2,2.2346932E-2,0E0,0E0,2.0365689E-2,1.411746E-1,0E0,0E0,0E0,0E0,1.9717839E-2,0E0,0E0,0E0,0E0,0E0,0E0,0E0],"parents":[2147483647,0,0,1,1,2,2,3,3,4,4,6,6,7,7,9,9,10,10,11,11,12,12,15,15,16,16,21,21],"right_children":[2,4,6,8,10,-1,12,14,-1,16,18,20,22,-1,-1,24,26,-1,-1,-1,-1,28,-1,-1,-1,-1,-1,-1,-1],"split_conditions":[1.1986341E0,-1.6195704E-1,2.3035388E-1,-1.6197902E0,1.0483204E0,2.4200475E-3,3.152796E-1,-1.5580169E0,1.0449677E-4,-1.7139175E0,3.3523673E-1,-1.0632467E0,4.8489818E-1,3.785774E-3,-0E0,-4.0410706E-1,2.054108E0,6.9252384E-4,5.7598087E-3,-1.20207296E-4,-1.6334819E-3,7.9870707E-1,7.78619E-4,5.104286E-5,-1.316216E-3,3.6749076E-5,4.433173E-3,-4.1034846E-3,-0E0],"split_indices":[15,17,3,2,15,0,17,12,0,10,1,11,12,0,0,15,16,0,0,0,0,1,0,0,0,0,0,0,0],"split_type":[0,0,0,0,0,0,0,0,0,0,0,0,0,0,0,0,0,0,0,0,0,0,0,0,0,0,0,0,0],"sum_hessian":[1.954E3,1.757E3,1.97E2,3.9E1,1.718E3,3E0,1.94E2,2.6E1,1.3E1,1.701E3,1.7E1,1.61E2,3.3E1,2.2E1,4E0,1.24E2,1.577E3,1.1E1,6E0,1.9E1,1.42E2,1.2E1,2.1E1,3.4E1,9E1,1.559E3,1.8E1,5E0,7E0],"tree_param":{"num_deleted":"0","num_feature":"20","num_nodes":"29","size_leaf_vector":"1"}},{"base_weights":[-0E0,1.7901217E-3,-2.9120902E-2,4.3516256E-2,8.490652E-4,-5.999767E-3,-3.564971E-2,6.2389012E-2,-0E0,-2.4001779E-4,2.3344303E-2,-1.6795747E-3,1.0077151E-3,-1.09710125E-2,-4.2608615E-2,5.8513386E-3,1.9219442E-3,-5.8734484E-2,3.3161306E-4,7.1847527E-3,1.1060189E-2,-1.4534624E-3,9.0418226E-4,-2.3073794E-3,-0E0,-5.3992136E-3,-1.1998074E-3,3.8898557E-5,-4.1420422E-3,-1.3391642E-3,8.7551045E-4],"categories":[],"categories_nodes":[],"categories_segments":[],"categories_sizes":[],"default_left":[0,0,0,0,0,0,0,0,0,0,0,0,0,0,0,0,0,0,0,0,0,0,0,0,0,0,0,0,0,0,0],"id":8,"left_children":[1,3,5,7,9,11,13,15,-1,17,19,-1,-1,21,23,-1,-1,25,27,-1,29,-1,-1,-1,-1,-1,-1,-1,-1,-1,-1],"loss_changes":[1.0300985E-1,7.019059E-2,1.509475E-2,3.2240935E-2,4.5391284E-2,2.0855354E-2,1.2114249E-2,2.596353E-2,0E0,6.045866E-2,1.1787097E-1,0E0,0E0,1.2117636E-2,1.0240041E-2,0E0,0E0,2.2045344E-2,5.9171002E-2,0E0,1.8931994E-2,0E0,0E0,0E0,0E0,0E0,0E0,0E0,0E0,0E0,0E0],"parents":[2147483647,0,0,1,1,2,2,3,3,4,4,5,5,6,6,7,7,9,9,10,10,13,13,14,14,17,17,18,18,20,20],"right_children":[2,4,6,8,10,12,14,16,-1,18,20,-1,-1,22,24,-1,-1,26,28,-1,30,-1,-1,-1,-1,-1,-1,-1,-1,-1,-1],"split_conditions":[2.0032706E0,-1.6195704E-1,1.0034401E0,2.5514042E-1,2.2414112E0,-2.5440815E-1,-6.454931E-1,-1.4467788E-1,-0E0,-1.6375165E-1,-7.9020864E-1,-1.6795747E-3,1.0077151E-3,4.9610242E-1,2.1734447E0,5.8513386E-3,1.9219442E-3,6.0319807E-2,2.7672977E0,7.1847527E-3,-1.3498183E0,-1.4534624E-3,9.0418226E-4,-2.3073794E-3,-0E0,-5.3992136E-3,-1.1998074E-3,3.8898557E-5,-4.1420422E-3,-1.3391642E-3,8.7551045E-4],"split_indices":[15,17,3,19,19,19,4,0,0,7,9,0,0,19,19,0,0,0,9,0,0,0,0,0,0,0,0,0,0,0,0],"split_type":[0,0,0,0,0,0,0,0,0,0,0,0,0,0,0,0,0,0,0,0,0,0,0,0,0,0,0,0,0,0,0],"sum_hessian":[1.958E3,1.844E3,1.14E2,3.9E1,1.805E3,2.7E1,8.7E1,2.7E1,1.2E1,1.72E3,8.5E1,1.4E1,1.3E1,2.1E1,6.6E1,7E0,2E1,1.7E1,1.703E3,7E0,7.8E1,1.4E1,7E0,6.1E1,5E0,6E0,1.1E1,1.695E3,8E0,1E1,6.8E1],"tree_param":{"num_deleted":"0","num_feature":"20","num_nodes":"31","size_leaf_vector":"1"}},{"base_weights":[-3.5841044E-4,1.3010623E-3,-2.7492959E-2,3.5104904E-4,3.62408E-2,9.3959563E-4,-1.5563493E-3,7.8929705E-4,-3.767088E-3,5.896814E-3,2.1447195E-2,-2.0927162E-4,3.9397176E-2,-0E0,1.7723602E-3,-1.6607154E-3,3.9276063E-5,1.0750353E-3,3.5058062E-3],"categories":[],"categories_nodes":[],"categories_segments":[],"categories_sizes":[],"default_left":[0,0,0,0,0,0,0,0,0,0,0,0,0,0,0,0,0,0,0],"id":9,"left_children":[1,3,5,7,9,-1,-1,11,-1,-1,13,15,17,-1,-1,-1,-1,-1,-1],"loss_changes":[8.785079E-2,5.8227167E-2,1.9831777E-2,5.4801334E-2,4.7964666E-2,0E0,0E0,6.9604084E-2,0E0,0E0,1.2155075E-2,5.7762794E-2,1.9679502E-2,0E0,0E0,0E0,0E0,0E0,0E0],"parents":[2147483647,0,0,1,1,2,2,3,3,4,4,7,7,10,10,11,11,12,12],"right_children":[2,4,6,8,10,-1,-1,12,-1,-1,14,16,18,-1,-1,-1,-1,-1,-1],"split_conditions":[2.0032706E0,2.6399534E0,-1.0285599E-1,2.7672977E0,-7.9020864E-1,9.3959563E-4,-1.5563493E-3,2.4053695E0,-3.767088E-3,5.896814E-3,3.1278267E0,-5.193771E-2,-1.318309E-1,-0E0,1.7723602E-3,-1.6607154E-3,3.9276063E-5,1.0750353E-3,3.5058062E-3],"split_indices":[15,19,1,9,9,0,0,9,0,0,19,7,12,0,0,0,0,0,0],"split_type":[0,0,0,0,0,0,0,0,0,0,0,0,0,0,0,0,0,0,0],"sum_hessian":[1.921E3,1.809E3,1.12E2,1.763E3,4.6E1,7E0,1.05E2,1.754E3,9E0,6E0,4E1,1.709E3,4.5E1,1.6E1,2.4E1,5.1E1,1.658E3,3E1,1.5E1],"tree_param":{"num_deleted":"0","num_feature":"20","num_nodes":"19","size_leaf_vector":"1"}},{"base_weights":[-2.2876328E-4,1.2418499E-3,-2.5607638E-2,4.3921687E-2,3.9780707E-4,-9.675898E-5,-1.6130522E-3,5.9430275E-2,-4.6022912E-4,-3.4528965E-4,3.400263E-2,-1.0138132E-3,1.3784815E-3,3.8305798E-3,9.196535E-5,-4.5130096E-2,1.7839602E-4,6.9391998E-3,1.9248726E-2,-4.668741E-3,-1.3294505E-4,-4.08114E-4,1.7642944E-4,-7.2749896E-4,1.4605141E-3],"categories":[],"categories_nodes":[],"categories_segments":[],"categories_sizes":[],"default_left":[0,0,0,0,0,0,0,0,0,0,0,0,0,0,0,0,0,0,0,0,0,0,0,0,0],"id":10,"left_children":[1,3,5,7,9,11,-1,13,-1,15,17,-1,-1,-1,-1,19,21,-1,23,-1,-1,-1,-1,-1,-1],"loss_changes":[7.388245E-2,6.40047E-2,1.6796716E-2,3.1209812E-2,4.675005E-2,1.3593039E-2,0E0,2.3217939E-2,0E0,4.3634716E-2,5.337299E-2,0E0,0E0,0E0,0E0,3.9127912E-2,4.8501108E-2,0E0,1.3234619E-2,0E0,0E0,0E0,0E0,0E0,0E0],"parents":[2147483647,0,0,1,1,2,2,3,3,4,4,5,5,7,7,9,9,10,10,15,15,16,16,18,18],"right_children":[2,4,6,8,10,12,-1,14,-1,16,18,-1,-1,-1,-1,20,22,-1,24,-1,-1,-1,-1,-1,-1],"split_conditions":[2.0032706E0,-1.6195704E-1,1.0309682E0,2.5514042E-1,2.7220495E0,5.36912E-1,-1.6130522E-3,-1.6197902E0,-4.6022912E-4,-1.6375165E-1,-7.9020864E-1,-1.0138132E-3,1.3784815E-3,3.8305798E-3,9.196535E-5,9.552113E-2,-3.0480078E-1,6.9391998E-3,-1.3498183E0,-4.668741E-3,-1.3294505E-4,-4.08114E-4,1.7642944E-4,-7.2749896E-4,1.4605141E-3],"split_indices":[15,17,3,19,19,6,0,2,0,7,9,0,0,0,0,0,8,0,0,0,0,0,0,0,0],"split_type":[0,0,0,0,0,0,0,0,0,0,0,0,0,0,0,0,0,0,0,0,0,0,0,0,0],"sum_hessian":[1.946E3,1.838E3,1.08E2,3.4E1,1.804E3,2.4E1,8.4E1,2.7E1,7E0,1.764E3,4E1,1.5E1,9E0,2E1,7E0,2.1E1,1.743E3,4E0,3.6E1,9E0,1.2E1,4.95E2,1.248E3,7E0,2.9E1],"tree_param":{"num_deleted":"0","num_feature":"20","num_nodes":"25","size_leaf_vector":"1"}},{"base_weights":[-7.7920165E-5,2.0570632E-3,-1.8856106E-2,5.6819335E-2,1.4002433E-3,-2.347104E-2,1.9724336E-3,7.029583E-2,-0E0,7.998762E-4,5.3358007E-2,9.2732377E-4,-2.5714824E-2,-1.233363E-3,1.3819134E-2,4.5882645E-3,-0E0,-1.2995847E-4,3.189581E-2,5.3862785E-3,1.0217051E-4,-1.4090718E-3,1.2389368E-4,1.6494239E-3,-5.18731E-4,-4.757378E-4,1.4509766E-4,5.9958184E-3,8.778449E-4],"categories":[],"categories_nodes":[],"categories_segments":[],"categories_sizes":[],"default_left":[0,0,0,0,0,0,0,0,0,0,0,0,0,0,0,0,0,0,0,0,0,0,0,0,0,0,0,0,0],"id":11,"left_children":[1,3,5,7,9,11,13,15,-1,17,19,-1,21,-1,23,-1,-1,25,27,-1,-1,-1,-1,-1,-1,-1,-1,-1,-1],"loss_changes":[7.7854335E-2,5.900576E-2,2.0178363E-2,1.3638794E-2,5.0409283E-2,1.610563E-2,1.0515973E-2,2.0246677E-2,0E0,5.0325043E-2,4.6013705E-2,0E0,1.2272716E-2,0E0,1.3128163E-2,0E0,0E0,4.6880756E-2,5.581066E-2,0E0,0E0,0E0,0E0,0E0,0E0,0E0,0E0,0E0,0E0],"parents":[2147483647,0,0,1,1,2,2,3,3,4,4,5,5,6,6,7,7,9,9,10,10,12,12,14,14,17,17,18,18],"right_children":[2,4,6,8,10,12,14,16,-1,18,20,-1,22,-1,24,-1,-1,26,28,-1,-1,-1,-1,-1,-1,-1,-1,-1,-1],"split_conditions":[1.1986341E0,-2.9370005E0,3.152796E-1,-1.5580169E0,1.0483204E0,3.462019E-1,-2.2750573E-1,1.4371471E0,-0E0,2.6399534E0,4.6262318E-1,9.2732377E-4,2.1239686E0,-1.233363E-3,1.0630816E0,4.5882645E-3,-0E0,-3.0480078E-1,-1.5012681E0,5.3862785E-3,1.0217051E-4,-1.4090718E-3,1.2389368E-4,1.6494239E-3,-5.18731E-4,-4.757378E-4,1.4509766E-4,5.9958184E-3,8.778449E-4],"split_indices":[15,15,17,12,15,3,0,1,0,19,19,0,19,0,12,0,0,8,10,0,0,0,0,0,0,0,0,0,0],"split_type":[0,0,0,0,0,0,0,0,0,0,0,0,0,0,0,0,0,0,0,0,0,0,0,0,0,0,0,0,0],"sum_hessian":[1.92E3,1.722E3,1.98E2,1.9E1,1.703E3,1.64E2,3.4E1,1.5E1,4E0,1.685E3,1.8E1,7E0,1.57E2,9E0,2.5E1,1.1E1,4E0,1.635E3,5E1,8E0,1E1,1.46E2,1.1E1,1.5E1,1E1,4.03E2,1.232E3,6E0,4.4E1],"tree_param":{"num_deleted":"0","num_feature":"20","num_nodes":"29","size_leaf_vector":"1"}},{"base_weights":[-7.996399E-5,1.3427244E-3,-2.4228204E-2,3.9675925E-2,5.0971773E-4,-1.9753715E-3,-3.3574015E-2,5.3826902E-2,-0E0,-3.3312195E-4,3.3127084E-2,-9.713013E-4,1.1092935E-3,-2.553362E-3,-9.845169E-4,6.8326406E-2,1.9698993E-4,-4.974353E-2,2.266455E-4,5.825154E-3,1.5611046E-2,2.0306157E-3,5.3495006E-3,-4.9543586E-3,-8.392169E-4,-3.732786E-4,1.517389E-4,-6.5634423E-4,1.5921685E-3],"categories":[],"categories_nodes":[],"categories_segments":[],"categories_sizes":[],"default_left":[0,0,0,0,0,0,0,0,0,0,0,0,0,0,0,0,0,0,0,0,0,0,0,0,0,0,0,0,0],"id":12,"left_children":[1,3,5,7,9,11,13,15,-1,17,19,-1,-1,-1,-1,21,-1,23,25,-1,27,-1,-1,-1,-1,-1,-1,-1,-1],"loss_changes":[6.755239E-2,5.6208268E-2,2.0962164E-2,2.0645004E-2,5.0758265E-2,1.4623715E-2,1.4296062E-2,1.6143888E-2,0E0,5.0620817E-2,6.0394324E-2,0E0,0E0,0E0,0E0,1.2413628E-2,0E0,2.671456E-2,3.6953904E-2,0E0,1.9570917E-2,0E0,0E0,0E0,0E0,0E0,0E0,0E0,0E0],"parents":[2147483647,0,0,1,1,2,2,3,3,4,4,5,5,6,6,7,7,9,9,10,10,15,15,17,17,18,18,20,20],"right_children":[2,4,6,8,10,12,14,16,-1,18,20,-1,-1,-1,-1,22,-1,24,26,-1,28,-1,-1,-1,-1,-1,-1,-1,-1],"split_conditions":[2.0032706E0,-1.6195704E-1,-5.120206E-1,2.5514042E-1,2.6399534E0,-2.958388E-1,1.5450028E0,-1.6197902E0,-0E0,-1.6375165E-1,-1.5012681E0,-9.713013E-4,1.1092935E-3,-2.553362E-3,-9.845169E-4,-4.961637E-2,1.9698993E-4,6.0319807E-2,-3.0480078E-1,5.825154E-3,-1.264921E0,2.0306157E-3,5.3495006E-3,-4.9543586E-3,-8.392169E-4,-3.732786E-4,1.517389E-4,-6.5634423E-4,1.5921685E-3],"split_indices":[15,17,11,19,19,0,0,2,0,7,10,0,0,0,0,19,0,0,8,0,0,0,0,0,0,0,0,0,0],"split_type":[0,0,0,0,0,0,0,0,0,0,0,0,0,0,0,0,0,0,0,0,0,0,0,0,0,0,0,0,0],"sum_hessian":[1.932E3,1.823E3,1.09E2,3.7E1,1.786E3,3.4E1,7.5E1,2.7E1,1E1,1.74E3,4.6E1,2.1E1,1.3E1,3.1E1,4.4E1,2E1,7E0,2E1,1.72E3,7E0,3.9E1,1.3E1,7E0,7E0,1.3E1,4.55E2,1.265E3,1.3E1,2.6E1],"tree_param":{"num_deleted":"0","num_feature":"20","num_nodes":"29","size_leaf_vector":"1"}},{"base_weights":[8.59328E-5,-2.3606038E-2,1.6384758E-3,-5.8887675E-3,-3.2641083E-2,1.0961432E-3,7.344155E-3,4.6327226E-3,-1.4907077E-3,-1.7903609E-3,1.19757955E-4,-1.0549079E-3,1.4648945E-2,-9.5594535E-4,1.1482858E-3,-2.400786E-2,8.7311823E-4,-5.5858674E-3,3.7233498E-2,-4.1982E-3,-1.0097944E-3,2.4129469E-4,-3.4793452E-4,5.222787E-4,-7.4675033E-4,8.4700633E-4,2.5071267E-3],"categories":[],"categories_nodes":[],"categories_segments":[],"categories_sizes":[],"default_left":[0,0,0,0,0,0,0,0,0,0,0,0,0,0,0,0,0,0,0,0,0,0,0,0,0,0,0],"id":13,"left_children":[1,3,5,7,9,11,-1,13,-1,-1,-1,15,17,-1,-1,19,21,23,25,-1,-1,-1,-1,-1,-1,-1,-1],"loss_changes":[7.0960075E-2,1.694645E-2,1.374984E-1,1.2026686E-2,1.01995915E-2,5.4168187E-2,0E0,1.28218755E-2,0E0,0E0,0E0,7.11105E-2,1.1799139E-1,0E0,0E0,2.239877E-2,4.4999573E-2,2.0311479E-2,2.8050259E-2,0E0,0E0,0E0,0E0,0E0,0E0,0E0,0E0],"parents":[2147483647,0,0,1,1,2,2,3,3,4,4,5,5,7,7,11,11,12,12,15,15,16,16,17,17,18,18],"right_children":[2,4,6,8,10,12,-1,14,-1,-1,-1,16,18,-1,-1,20,22,24,26,-1,-1,-1,-1,-1,-1,-1,-1],"split_conditions":[-8.739224E-1,-4.4661555E-1,2.6010551E0,5.256715E-1,2.7220495E0,1.0356138E0,7.344155E-3,3.9400533E-1,-1.4907077E-3,-1.7903609E-3,1.19757955E-4,-4.527316E-1,-6.4953715E-1,-9.5594535E-4,1.1482858E-3,-1.5009793E0,7.771172E-1,2.6137945E-1,-5.957105E-1,-4.1982E-3,-1.0097944E-3,2.4129469E-4,-3.4793452E-4,5.222787E-4,-7.4675033E-4,8.4700633E-4,2.5071267E-3],"split_indices":[8,4,0,19,19,0,0,1,0,0,0,9,8,0,0,0,10,6,1,0,0,0,0,0,0,0,0],"split_type":[0,0,0,0,0,0,0,0,0,0,0,0,0,0,0,0,0,0,0,0,0,0,0,0,0,0,0],"sum_hessian":[1.958E3,1.18E2,1.84E3,4.2E1,7.6E1,1.834E3,6E0,2.8E1,1.4E1,7.1E1,5E0,1.58E3,2.54E2,1.1E1,1.7E1,1.24E2,1.456E3,1.33E2,1.21E2,6E0,1.18E2,9.72E2,4.84E2,4.7E1,8.6E1,4.9E1,7.2E1],"tree_param":{"num_deleted":"0","num_feature":"20","num_nodes":"27","size_leaf_vector":"1"}},{"base_weights":[-4.586463E-4,1.4640308E-3,-1.7103542E-2,8.6834107E-4,5.4314103E-2,-3.0397275E-3,-2.3433445E-2,-7.467709E-3,3.7961698E-3,4.747392E-3,2.7792872E-4,-6.552841E-4,1.6630078E-3,-2.7908234E-2,2.7233755E-4,-9.758106E-3,6.807875E-2,3.789475E-2,1.8004965E-3,-3.145425E-2,-0E0,-3.6289392E-3,-3.880079E-4,5.2560656E-3,1.1431437E-4,2.3036385E-3,-5.4588093E-4,1.6023809E-3,4.3631186E-5,-1.8569942E-3,-2.6289775E-4],"categories":[],"categories_nodes":[],"categories_segments":[],"categories_sizes":[],"default_left":[0,0,0,0,0,0,0,0,0,0,0,0,0,0,0,0,0,0,0,0,0,0,0,0,0,0,0,0,0,0,0],"id":14,"left_children":[1,3,5,7,9,11,13,15,17,-1,-1,-1,-1,19,-1,21,23,25,27,29,-1,-1,-1,-1,-1,-1,-1,-1,-1,-1,-1],"loss_changes":[6.315187E-2,5.213807E-2,1.6845848E-2,4.1968465E-2,3.1361498E-2,2.3508854E-2,1.9097805E-2,7.4328594E-2,8.525476E-2,0E0,0E0,0E0,0E0,1.2713976E-2,0E0,4.9985595E-2,2.4973467E-2,2.9752865E-2,3.2397468E-2,1.3942748E-2,0E0,0E0,0E0,0E0,0E0,0E0,0E0,0E0,0E0,0E0,0E0],"parents":[2147483647,0,0,1,1,2,2,3,3,4,4,5,5,6,6,7,7,8,8,13,13,15,15,16,16,17,17,18,18,19,19],"right_children":[2,4,6,8,10,12,14,16,18,-1,-1,-1,-1,20,-1,22,24,26,28,30,-1,-1,-1,-1,-1,-1,-1,-1,-1,-1,-1],"split_conditions":[1.1986341E0,1.0483204E0,1.0309682E0,-3.0480078E-1,4.6262318E-1,-7.38966E-1,1.7790735E0,2.6399534E0,-7.114279E-1,4.747392E-3,2.7792872E-4,-6.552841E-4,1.6630078E-3,3.2399184E-1,2.7233755E-4,-1.5009793E0,2.7617617E-2,1.4331871E0,-1.6195704E-1,1.994771E0,-0E0,-3.6289392E-3,-3.880079E-4,5.2560656E-3,1.1431437E-4,2.3036385E-3,-5.4588093E-4,1.6023809E-3,4.3631186E-5,-1.8569942E-3,-2.6289775E-4],"split_indices":[15,15,3,8,19,0,1,19,10,0,0,0,0,17,0,0,4,0,17,19,0,0,0,0,0,0,0,0,0,0,0],"split_type":[0,0,0,0,0,0,0,0,0,0,0,0,0,0,0,0,0,0,0,0,0,0,0,0,0,0,0,0,0,0,0],"sum_hessian":[1.948E3,1.744E3,2.04E2,1.726E3,1.8E1,6.6E1,1.38E2,4.44E2,1.282E3,9E0,9E0,5.3E1,1.3E1,1.21E2,1.7E1,4.32E2,1.2E1,6.9E1,1.213E3,1.08E2,1.3E1,1.2E1,4.2E2,7E0,5E0,6E1,9E0,3.4E1,1.179E3,8.7E1,2.1E1],"tree_param":{"num_deleted":"0","num_feature":"20","num_nodes":"31","size_leaf_vector":"1"}},{"base_weights":[1.6472327E-4,-2.2206334E-2,1.5103752E-3,-2.0633456E-3,-1.6991862E-3,1.1051921E-3,5.4558367E-3,-8.1594166E-4,1.4168608E-2,4.0473314E-3,-6.9830962E-3,-1.3592518E-4,2.0039033E-3,2.038832E-3,2.5910484E-2,-2.9571453E-4,-5.069747E-2,-1.9396602E-3,1.464213E-4,1.7995915E-3,1.528144E-4,-0E0,-3.7666447E-3],"categories":[],"categories_nodes":[],"categories_segments":[],"categories_sizes":[],"default_left":[0,0,0,0,0,0,0,0,0,0,0,0,0,0,0,0,0,0,0,0,0,0,0],"id":15,"left_children":[1,3,5,7,-1,9,-1,-1,11,13,15,-1,-1,17,19,-1,21,-1,-1,-1,-1,-1,-1],"loss_changes":[5.8180813E-2,2.4139471E-2,7.541611E-2,1.0057382E-2,0E0,4.3927245E-2,0E0,0E0,1.0016868E-2,5.8406387E-2,1.989E-2,0E0,0E0,4.3686643E-2,2.3912705E-2,0E0,1.5575387E-2,0E0,0E0,0E0,0E0,0E0,0E0],"parents":[2147483647,0,0,1,1,2,2,3,3,5,5,8,8,9,9,10,10,13,13,14,14,16,16],"right_children":[2,4,6,8,-1,10,-1,-1,12,14,16,-1,-1,18,20,-1,22,-1,-1,-1,-1,-1,-1],"split_conditions":[-8.739224E-1,7.4725226E-2,2.6010551E0,1.4279863E0,-1.6991862E-3,7.923064E-1,5.4558367E-3,-8.1594166E-4,4.6880162E-1,2.2607923E0,2.4053695E0,-1.3592518E-4,2.0039033E-3,-1.5009793E0,6.942616E-1,-2.9571453E-4,-1.0019417E0,-1.9396602E-3,1.464213E-4,1.7995915E-3,1.528144E-4,-0E0,-3.7666447E-3],"split_indices":[8,17,0,2,0,10,0,0,1,9,9,0,0,0,17,0,2,0,0,0,0,0,0],"split_type":[0,0,0,0,0,0,0,0,0,0,0,0,0,0,0,0,0,0,0,0,0,0,0],"sum_hessian":[1.966E3,1.09E2,1.857E3,4.2E1,6.7E1,1.851E3,6E0,2.4E1,1.8E1,1.362E3,4.89E2,1E1,8E0,1.25E3,1.12E2,4.79E2,1E1,2.5E1,1.225E3,7.6E1,3.6E1,3E0,7E0],"tree_param":{"num_deleted":"0","num_feature":"20","num_nodes":"23","size_leaf_vector":"1"}},{"base_weights":[2.8520307E-4,1.4785574E-2,-1.5957138E-3,-1.7184324E-3,2.6292838E-2,-2.19695E-3,5.665732E-2,-1.0125843E-2,1.0846714E-3,3.6985982E-2,1.2972677E-4,1.3428561E-2,-3.799187E-3,-0E0,5.5678673E-3,-3.6177952E-3,-4.7264548E-4,1.564936E-2,2.8871193E-3,1.5995292E-3,3.7975275E-4,1.4786666E-2,-5.1274286E-3,-8.6014107E-4,4.6969048E-4,2.1631948E-3,2.5374713E-4,1.5065356E-3,-2.9081118E-4,2.4447215E-4,-4.2631463E-4],"categories":[],"categories_nodes":[],"categories_segments":[],"categories_sizes":[],"default_left":[0,0,0,0,0,0,0,0,0,0,0,0,0,0,0,0,0,0,0,0,0,0,0,0,0,0,0,0,0,0,0],"id":16,"left_children":[1,3,5,7,9,11,13,15,-1,17,-1,19,21,-1,-1,-1,23,25,-1,-1,-1,27,29,-1,-1,-1,-1,-1,-1,-1,-1],"loss_changes":[5.3023715E-2,4.3697525E-2,5.675714E-2,1.734485E-2,3.1803146E-2,4.1616663E-2,5.2438032E-2,3.7490726E-2,0E0,3.595847E-2,0E0,1.452047E-2,3.7263572E-2,0E0,0E0,0E0,1.0457834E-2,1.10516315E-2,0E0,0E0,0E0,3.2758445E-2,4.8837375E-2,0E0,0E0,0E0,0E0,0E0,0E0,0E0,0E0],"parents":[2147483647,0,0,1,1,2,2,3,3,4,4,5,5,6,6,7,7,9,9,11,11,12,12,16,16,17,17,21,21,22,22],"right_children":[2,4,6,8,10,12,14,16,-1,18,-1,20,22,-1,-1,-1,24,26,-1,-1,-1,28,30,-1,-1,-1,-1,-1,-1,-1,-1],"split_conditions":[-1.0950483E0,3.5630137E-1,2.5052154E0,2.3314342E0,5.3917056E-1,-1.1725612E0,-1.0557468E0,4.9836177E-1,1.0846714E-3,2.23072E0,1.2972677E-4,-9.341924E-3,-1.182554E0,-0E0,5.5678673E-3,-3.6177952E-3,1.072515E0,-4.961637E-2,2.8871193E-3,1.5995292E-3,3.7975275E-4,6.001914E-1,-8.317554E-1,-8.6014107E-4,4.6969048E-4,2.1631948E-3,2.5374713E-4,1.5065356E-3,-2.9081118E-4,2.4447215E-4,-4.2631463E-4],"split_indices":[11,5,19,19,19,12,5,9,0,9,0,7,5,0,0,0,1,19,0,0,0,19,19,0,0,0,0,0,0,0,0],"split_type":[0,0,0,0,0,0,0,0,0,0,0,0,0,0,0,0,0,0,0,0,0,0,0,0,0,0,0,0,0,0,0],"sum_hessian":[1.919E3,2.23E2,1.696E3,9E1,1.33E2,1.68E3,1.6E1,6.8E1,2.2E1,9E1,4.3E1,1.53E2,1.527E3,8E0,8E0,8E0,6E1,4.6E1,4.4E1,3.4E1,1.19E2,9.9E1,1.428E3,2.4E1,3.6E1,1.1E1,3.5E1,5.8E1,4.1E1,3.58E2,1.07E3],"tree_param":{"num_deleted":"0","num_feature":"20","num_nodes":"31","size_leaf_vector":"1"}},{"base_weights":[-7.4174626E-5,-1.9912342E-2,1.0736017E-3,-2.5077254E-4,-3.5686895E-2,6.9390854E-4,4.94705E-3,-2.4014313E-3,-7.007687E-4,-1.1190295E-3,1.19113345E-2,-2.2688476E-2,5.946402E-4,-4.59257E-3,3.1131646E-2,-3.6699553E-3,-9.5751736E-4,-7.699186E-4,1.0210767E-4,4.083687E-4,-5.7295157E-4,1.0162934E-3,2.910336E-3],"categories":[],"categories_nodes":[],"categories_segments":[],"categories_sizes":[],"default_left":[0,0,0,0,0,0,0,0,0,0,0,0,0,0,0,0,0,0,0,0,0,0,0],"id":17,"left_children":[1,3,5,-1,7,9,-1,-1,-1,11,13,15,17,19,21,-1,-1,-1,-1,-1,-1,-1,-1],"loss_changes":[4.470475E-2,2.3137003E-2,6.2409967E-2,0E0,1.0068171E-2,3.732484E-2,0E0,0E0,0E0,5.8533315E-2,8.244564E-2,1.5572239E-2,3.262617E-2,1.21709155E-2,3.0443609E-2,0E0,0E0,0E0,0E0,0E0,0E0,0E0,0E0],"parents":[2147483647,0,0,1,1,2,2,4,4,5,5,9,9,10,10,11,11,12,12,13,13,14,14],"right_children":[2,4,6,-1,8,10,-1,-1,-1,12,14,16,18,20,22,-1,-1,-1,-1,-1,-1,-1,-1],"split_conditions":[-8.739224E-1,1.1904029E0,2.6010551E0,-2.5077254E-4,1.294355E0,1.0356138E0,4.94705E-3,-2.4014313E-3,-7.007687E-4,-4.527316E-1,-6.4953715E-1,-1.5009793E0,-1.0313135E0,2.6137945E-1,9.304253E-1,-3.6699553E-3,-9.5751736E-4,-7.699186E-4,1.0210767E-4,4.083687E-4,-5.7295157E-4,1.0162934E-3,2.910336E-3],"split_indices":[8,3,0,0,12,0,0,0,0,9,8,0,5,6,6,0,0,0,0,0,0,0,0],"split_type":[0,0,0,0,0,0,0,0,0,0,0,0,0,0,0,0,0,0,0,0,0,0,0],"sum_hessian":[1.921E3,1.07E2,1.814E3,5.7E1,5E1,1.808E3,6E0,3E1,2E1,1.553E3,2.55E2,1.16E2,1.437E3,1.36E2,1.19E2,6E0,1.1E2,1.16E2,1.321E3,4.5E1,9.1E1,8.7E1,3.2E1],"tree_param":{"num_deleted":"0","num_feature":"20","num_nodes":"23","size_leaf_vector":"1"}},{"base_weights":[3.1218232E-4,1.0091328E-2,-2.1675373E-3,1.2128755E-2,-1.7145984E-3,-4.7285957E-3,7.0831743E-3,8.924565E-3,3.849257E-2,-2.1213964E-2,-2.4236252E-3,-5.7204766E-3,3.4254134E-2,1.5603746E-2,-0E0,8.475709E-3,5.8761407E-2,-3.6702424E-3,-1.7973544E-2,1.1776939E-2,-4.3090833E-3,-8.869868E-3,4.864955E-2,4.1029595E-2,-3.584412E-4,1.2930774E-3,9.945089E-5,-1.2986334E-3,1.9027309E-4,1.8373393E-3,-8.8687986E-4,3.543858E-4,3.715338E-3,-4.7073318E-4,-1.6452244E-3,1.3211387E-3,-0E0,6.697042E-4,-3.1499198E-4,-2.1946698E-4,-1.530189E-3,4.6546566E-3,-0E0,1.0993433E-3,3.3920126E-3],"categories":[],"categories_nodes":[],"categories_segments":[],"categories_sizes":[],"default_left":[0,0,0,0,0,0,0,0,0,0,0,0,0,0,0,0,0,0,0,0,0,0,0,0,0,0,0,0,0,0,0,0,0,0,0,0,0,0,0,0,0,0,0,0,0],"id":18,"left_children":[1,3,5,7,-1,9,11,13,15,17,19,21,23,25,27,29,31,-1,33,35,37,39,41,43,-1,-1,-1,-1,-1,-1,-1,-1,-1,-1,-1,-1,-1,-1,-1,-1,-1,-1,-1,-1,-1],"loss_changes":[4.7560357E-2,3.504484E-2,3.6561787E-2,2.9684465E-2,0E0,4.5017328E-2,1.1684937E-1,2.0807292E-2,2.0421188E-2,1.9547544E-2,2.8314158E-2,3.6668472E-2,3.2011017E-2,2.6164047E-2,1.4986214E-2,1.4245231E-2,1.3740867E-2,0E0,1.5556153E-2,2.1059588E-2,3.3115163E-2,1.8973684E-2,2.0446869E-2,4.249908E-2,0E0,0E0,0E0,0E0,0E0,0E0,0E0,0E0,0E0,0E0,0E0,0E0,0E0,0E0,0E0,0E0,0E0,0E0,0E0,0E0,0E0],"parents":[2147483647,0,0,1,1,2,2,3,3,5,5,6,6,7,7,8,8,9,9,10,10,11,11,12,12,13,13,14,14,15,15,16,16,18,18,19,19,20,20,21,21,22,22,23,23],"right_children":[2,4,6,8,-1,10,12,14,16,18,20,22,24,26,28,30,32,-1,34,36,38,40,42,44,-1,-1,-1,-1,-1,-1,-1,-1,-1,-1,-1,-1,-1,-1,-1,-1,-1,-1,-1,-1,-1],"split_conditions":[-8.6419666E-1,5.1444376E-1,1.0666744E0,2.2607923E0,-1.7145984E-3,-4.527316E-1,-6.4953715E-1,5.70462E-3,-7.30683E-1,-1.5009793E0,-4.1740638E-1,2.6399534E0,7.940856E-1,4.0514506E-2,-3.0131856E-1,4.770089E-1,-1.3034587E-1,-3.6702424E-3,7.057904E-1,-9.573861E-1,-1.0950483E0,2.2573202E0,1.0057325E0,-5.115646E-1,-3.584412E-4,1.2930774E-3,9.945089E-5,-1.2986334E-3,1.9027309E-4,1.8373393E-3,-8.8687986E-4,3.543858E-4,3.715338E-3,-4.7073318E-4,-1.6452244E-3,1.3211387E-3,-0E0,6.697042E-4,-3.1499198E-4,-2.1946698E-4,-1.530189E-3,4.6546566E-3,-0E0,1.0993433E-3,3.3920126E-3],"split_indices":[12,6,0,9,0,9,8,9,0,0,9,19,19,7,10,19,19,0,3,19,11,0,1,1,0,0,0,0,0,0,0,0,0,0,0,0,0,0,0,0,0,0,0,0,0],"split_type":[0,0,0,0,0,0,0,0,0,0,0,0,0,0,0,0,0,0,0,0,0,0,0,0,0,0,0,0,0,0,0,0,0,0,0,0,0,0,0,0,0,0,0,0,0],"sum_hessian":[1.944E3,3.97E2,1.547E3,3.81E2,1.6E1,1.216E3,3.31E2,3.42E2,3.9E1,1.46E2,1.07E3,2.24E2,1.07E2,1.97E2,1.45E2,1.7E1,2.2E1,7E0,1.39E2,1.22E2,9.48E2,2.13E2,1.1E1,9.3E1,1.4E1,1.1E2,8.7E1,1.9E1,1.26E2,9E0,8E0,6E0,1.6E1,9.1E1,4.8E1,5.4E1,6.8E1,9.3E1,8.55E2,1.79E2,3.4E1,5E0,6E0,5.6E1,3.7E1],"tree_param":{"num_deleted":"0","num_feature":"20","num_nodes":"45","size_leaf_vector":"1"}},{"base_weights":[9.914725E-5,1.8171464E-3,-1.51747605E-2,-2.9496234E-4,1.4009348E-2,-1.8250626E-2,5.0087733E-4,-1.3170539E-2,1.9658532E-3,-0E0,3.428475E-2,1.9322453E-3,-9.829152E-4,-3.1057566E-3,-1.0269144E-2,2.4267808E-2,9.12681E-4,-2.510384E-2,7.490336E-3,1.5992403E-2,4.9182512E-2,-7.7686325E-4,5.9340586E-4,1.6377826E-3,-2.2728364E-4,-6.059438E-5,5.383481E-4,-3.7597652E-4,-2.7282466E-3,-3.225844E-4,1.1230683E-3,3.3206292E-3,4.3115072E-4,3.142232E-3,5.149757E-4],"categories":[],"categories_nodes":[],"categories_segments":[],"categories_sizes":[],"default_left":[0,0,0,0,0,0,0,0,0,0,0,0,0,0,0,0,0,0,0,0,0,0,0,0,0,0,0,0,0,0,0,0,0,0,0],"id":19,"left_children":[1,3,5,7,9,11,-1,13,15,17,19,-1,-1,-1,21,23,25,27,29,31,33,-1,-1,-1,-1,-1,-1,-1,-1,-1,-1,-1,-1,-1,-1],"loss_changes":[5.0055794E-2,4.550785E-2,1.5419535E-2,4.36695E-2,7.523404E-2,1.3326231E-2,0E0,2.7942572E-2,2.8242318E-2,2.9594753E-2,2.5643349E-2,0E0,0E0,0E0,2.5174407E-2,1.4813699E-2,2.565993E-2,1.5599562E-2,2.5398301E-2,1.4725961E-2,2.6564553E-2,0E0,0E0,0E0,0E0,0E0,0E0,0E0,0E0,0E0,0E0,0E0,0E0,0E0,0E0],"parents":[2147483647,0,0,1,1,2,2,3,3,4,4,5,5,7,7,8,8,9,9,10,10,14,14,15,15,16,16,17,17,18,18,19,19,20,20],"right_children":[2,4,6,8,10,12,-1,14,16,18,20,-1,-1,-1,22,24,26,28,30,32,34,-1,-1,-1,-1,-1,-1,-1,-1,-1,-1,-1,-1,-1,-1],"split_conditions":[1.1986341E0,1.0666744E0,1.7790735E0,-3.0480078E-1,-6.4953715E-1,2.441179E-1,5.0087733E-4,-1.5009793E0,-1.5638037E0,7.932627E-1,-5.623193E-1,1.9322453E-3,-9.829152E-4,-3.1057566E-3,6.383569E-1,2.5514042E-1,4.6134746E-1,2.913427E-1,-1.8202422E0,1.1080891E0,6.117654E-1,-7.7686325E-4,5.9340586E-4,1.6377826E-3,-2.2728364E-4,-6.059438E-5,5.383481E-4,-3.7597652E-4,-2.7282466E-3,-3.225844E-4,1.1230683E-3,3.3206292E-3,4.3115072E-4,3.142232E-3,5.149757E-4],"split_indices":[15,0,1,8,8,3,0,0,15,12,1,0,0,0,6,19,16,4,10,0,19,0,0,0,0,0,0,0,0,0,0,0,0,0,0],"split_type":[0,0,0,0,0,0,0,0,0,0,0,0,0,0,0,0,0,0,0,0,0,0,0,0,0,0,0,0,0,0,0,0,0,0,0],"sum_hessian":[1.932E3,1.74E3,1.92E2,1.48E3,2.6E2,1.73E2,1.9E1,2.24E2,1.256E3,1.53E2,1.07E2,3E0,1.7E2,1.1E1,2.13E2,5.4E1,1.202E3,3.6E1,1.17E2,5E1,5.7E1,1.74E2,3.9E1,4.3E1,1.1E1,9.85E2,2.17E2,2.4E1,1.2E1,5.9E1,5.8E1,5E0,4.5E1,4.1E1,1.6E1],"tree_param":{"num_deleted":"0","num_feature":"20","num_nodes":"35","size_leaf_vector":"1"}},{"base_weights":[-2.137047E-4,1.3348681E-3,-1.4214979E-2,3.8887633E-3,-5.8449735E-3,-1.7544432E-2,4.4122236E-4,4.1525948E-4,1.8175464E-2,-3.8216468E-2,-4.2847306E-3,-9.03056E-3,-1.5023814E-3,-6.5445615E-4,3.0739482E-2,3.0539751E-2,4.7320398E-3,-3.2871969E-3,-2.5840707E-5,-8.911591E-4,-1.3901435E-2,-1.2311596E-2,1.4435345E-3,-9.0386566E-5,1.4915967E-3,5.0728116E-3,7.0359535E-4,1.8830098E-3,-1.8891557E-4,6.612131E-4,-7.1604946E-4,-8.1820163E-4,8.037608E-5,-1.034792E-3,6.9967104E-4,1.1147041E-3,-7.778187E-4],"categories":[],"categories_nodes":[],"categories_segments":[],"categories_sizes":[],"default_left":[0,0,0,0,0,0,0,0,0,0,0,0,0,0,0,0,0,0,0,0,0,0,0,0,0,0,0,0,0,0,0,0,0,0,0,0,0],"id":20,"left_children":[1,3,5,7,9,11,-1,13,15,17,19,21,-1,23,25,27,29,-1,-1,31,33,35,-1,-1,-1,-1,-1,-1,-1,-1,-1,-1,-1,-1,-1,-1,-1],"loss_changes":[4.316104E-2,3.2231748E-2,1.574009E-2,6.385201E-2,2.0900203E-2,1.6592495E-2,0E0,3.5688054E-2,4.013429E-2,1.690661E-2,1.3564613E-2,1.2717968E-2,0E0,3.4365077E-2,3.7710123E-2,3.340984E-2,2.0022474E-2,0E0,0E0,1.345137E-2,2.1422874E-2,1.112144E-2,0E0,0E0,0E0,0E0,0E0,0E0,0E0,0E0,0E0,0E0,0E0,0E0,0E0,0E0,0E0],"parents":[2147483647,0,0,1,1,2,2,3,3,4,4,5,5,7,7,8,8,9,9,10,10,11,11,13,13,14,14,15,15,16,16,19,19,20,20,21,21],"right_children":[2,4,6,8,10,12,-1,14,16,18,20,22,-1,24,26,28,30,-1,-1,32,34,36,-1,-1,-1,-1,-1,-1,-1,-1,-1,-1,-1,-1,-1,-1,-1],"split_conditions":[1.1986341E0,7.771172E-1,1.6615362E0,3.967505E-1,-8.143065E-1,1.0245361E0,4.4122236E-4,2.3314342E0,7.688399E-1,2.5362477E-1,1.4150652E0,9.859905E-1,-1.5023814E-3,1.156062E0,-1.5468359E0,5.4806596E-1,4.1647843E-1,-3.2871969E-3,-2.5840707E-5,-9.234666E-1,8.54705E-2,3.462019E-1,1.4435345E-3,-9.0386566E-5,1.4915967E-3,5.0728116E-3,7.0359535E-4,1.8830098E-3,-1.8891557E-4,6.612131E-4,-7.1604946E-4,-8.1820163E-4,8.037608E-5,-1.034792E-3,6.9967104E-4,1.1147041E-3,-7.778187E-4],"split_indices":[15,10,1,5,2,12,0,19,5,12,10,12,0,6,10,19,0,0,0,15,1,3,0,0,0,0,0,0,0,0,0,0,0,0,0,0,0],"split_type":[0,0,0,0,0,0,0,0,0,0,0,0,0,0,0,0,0,0,0,0,0,0,0,0,0,0,0,0,0,0,0,0,0,0,0,0,0],"sum_hessian":[1.96E3,1.762E3,1.98E2,1.305E3,4.57E2,1.75E2,2.3E1,1.053E3,2.52E2,1.9E1,4.38E2,1.07E2,6.8E1,1.016E3,3.7E1,1.29E2,1.23E2,1E1,9E0,3.28E2,1.1E2,1E2,7E0,9.81E2,3.5E1,6E0,3.1E1,1.08E2,2.1E1,8.7E1,3.6E1,4.8E1,2.8E2,9E1,2E1,7E0,9.3E1],"tree_param":{"num_deleted":"0","num_feature":"20","num_nodes":"37","size_leaf_vector":"1"}},{"base_weights":[-2.8070653E-4,1.0972539E-2,-2.1005715E-3,-4.4340016E-3,8.348738E-4,7.8268297E-4,-3.477499E-3,2.1027222E-3,-2.905984E-3,3.8346052E-3,-6.8634776E-3,-9.781325E-3,8.6287217E-4,1.6236894E-2,-6.180327E-3,1.8164831E-3,-1.066699E-2,-2.7930054E-3,-4.4582917E-5,4.922063E-4,2.3069743E-3,2.9758885E-4,-8.848232E-4,-1.2449976E-3,2.6370547E-4,-5.001113E-4,-3.111307E-3],"categories":[],"categories_nodes":[],"categories_segments":[],"categories_sizes":[],"default_left":[0,0,0,0,0,0,0,0,0,0,0,0,0,0,0,0,0,0,0,0,0,0,0,0,0,0,0],"id":21,"left_children":[1,3,5,7,-1,-1,9,11,-1,13,15,17,-1,19,21,23,25,-1,-1,-1,-1,-1,-1,-1,-1,-1,-1],"loss_changes":[3.9472014E-2,2.4244085E-2,4.052484E-2,2.7602406E-2,0E0,0E0,3.8874723E-2,1.1714419E-2,0E0,6.1477065E-2,3.5893094E-2,1.0859948E-2,0E0,3.9315738E-2,3.8293086E-2,2.8967826E-2,2.1800466E-2,0E0,0E0,0E0,0E0,0E0,0E0,0E0,0E0,0E0,0E0],"parents":[2147483647,0,0,1,1,2,2,3,3,6,6,7,7,9,9,10,10,11,11,13,13,14,14,15,15,16,16],"right_children":[2,4,6,8,-1,-1,10,12,-1,14,16,18,-1,20,22,24,26,-1,-1,-1,-1,-1,-1,-1,-1,-1,-1],"split_conditions":[-1.1725612E0,-1.19047716E-1,-1.0950483E0,1.317423E-1,8.348738E-4,7.8268297E-4,-5.291571E-1,-6.5495545E-1,-2.905984E-3,7.878018E-1,-8.317554E-1,-4.194049E-1,8.6287217E-4,2.6137945E-1,2.0227657E-1,-9.514113E-1,2.4053695E0,-2.7930054E-3,-4.4582917E-5,4.922063E-4,2.3069743E-3,2.9758885E-4,-8.848232E-4,-1.2449976E-3,2.6370547E-4,-5.001113E-4,-3.111307E-3],"split_indices":[12,10,11,15,0,0,10,4,0,3,19,1,0,6,4,16,9,0,0,0,0,0,0,0,0,0,0],"split_type":[0,0,0,0,0,0,0,0,0,0,0,0,0,0,0,0,0,0,0,0,0,0,0,0,0,0,0],"sum_hessian":[1.948E3,2.67E2,1.681E3,7E1,1.97E2,1.18E2,1.563E3,6.2E1,8E0,4.9E2,1.073E3,3.3E1,2.9E1,2.21E2,2.69E2,3.23E2,7.5E2,4E0,2.9E1,1.84E2,3.7E1,1.29E2,1.4E2,3.5E1,2.88E2,7.42E2,8E0],"tree_param":{"num_deleted":"0","num_feature":"20","num_nodes":"27","size_leaf_vector":"1"}},{"base_weights":[-0E0,-1.8391293E-2,1.1341177E-3,-1.0180388E-2,-3.3528738E-2,6.866536E-4,5.150315E-3,-8.499068E-4,8.775797E-4,-2.015338E-3,-0E0,-1.0153088E-3,1.1656443E-2,-1.9065494E-2,4.0784778E-4,-3.209754E-3,2.8400835E-2,-1.1416133E-3,6.1496004E-4,2.997249E-4,-1.3892766E-4,-5.351525E-4,4.68317E-4,1.4594237E-4,1.7163953E-3],"categories":[],"categories_nodes":[],"categories_segments":[],"categories_sizes":[],"default_left":[0,0,0,0,0,0,0,0,0,0,0,0,0,0,0,0,0,0,0,0,0,0,0,0,0],"id":22,"left_children":[1,3,5,7,9,11,-1,-1,-1,-1,-1,13,15,17,19,21,23,-1,-1,-1,-1,-1,-1,-1,-1],"loss_changes":[3.972605E-2,1.1378158E-2,7.808501E-2,1.4207193E-2,1.0143574E-2,3.452702E-2,0E0,0E0,0E0,0E0,0E0,4.1331526E-2,6.31631E-2,1.4548946E-2,2.6078926E-2,1.2414809E-2,1.598505E-2,0E0,0E0,0E0,0E0,0E0,0E0,0E0,0E0],"parents":[2147483647,0,0,1,1,2,2,3,3,4,4,5,5,11,11,12,12,13,13,14,14,15,15,16,16],"right_children":[2,4,6,8,10,12,-1,-1,-1,-1,-1,14,16,18,20,22,24,-1,-1,-1,-1,-1,-1,-1,-1],"split_conditions":[-8.739224E-1,1.4877918E-1,2.6010551E0,1.5575686E0,1.8926036E0,1.0356138E0,5.150315E-3,-8.499068E-4,8.775797E-4,-2.015338E-3,-0E0,-4.527316E-1,-6.4953715E-1,6.4076945E-2,-5.5583215E-1,3.6862794E-1,-6.9454855E-1,-1.1416133E-3,6.1496004E-4,2.997249E-4,-1.3892766E-4,-5.351525E-4,4.68317E-4,1.4594237E-4,1.7163953E-3],"split_indices":[8,17,0,2,1,0,0,0,0,0,0,9,8,17,12,1,1,0,0,0,0,0,0,0,0],"split_type":[0,0,0,0,0,0,0,0,0,0,0,0,0,0,0,0,0,0,0,0,0,0,0,0,0],"sum_hessian":[1.937E3,1.1E2,1.827E3,7.4E1,3.6E1,1.82E3,7E0,6.1E1,1.3E1,3.1E1,5E0,1.572E3,2.48E2,1.17E2,1.455E3,1.3E2,1.18E2,1.06E2,1.1E1,5.34E2,9.21E2,8.4E1,4.6E1,2.4E1,9.4E1],"tree_param":{"num_deleted":"0","num_feature":"20","num_nodes":"25","size_leaf_vector":"1"}},{"base_weights":[8.205753E-5,7.781294E-4,-2.1335047E-2,-1.0117342E-3,1.0722464E-2,-1.2699977E-3,1.0029117E-3,-1.6629692E-2,5.5413804E-4,-1.5374733E-3,3.129948E-2,-2.0753479E-2,5.2146876E-4,-1.4459509E-2,1.9174181E-3,1.4703621E-2,-1.30369505E-2,4.09057E-2,7.8174E-3,-1.3296705E-3,-1.0229912E-5,-2.2196658E-3,-3.247167E-4,7.762233E-4,-6.398831E-6,3.73223E-4,4.7876346E-3,-2.6161391E-3,-4.1615925E-4,-0E0,2.6345481E-3,-2.988482E-4,2.219695E-3],"categories":[],"categories_nodes":[],"categories_segments":[],"categories_sizes":[],"default_left":[0,0,0,0,0,0,0,0,0,0,0,0,0,0,0,0,0,0,0,0,0,0,0,0,0,0,0,0,0,0,0,0,0],"id":23,"left_children":[1,3,5,7,9,-1,-1,11,13,15,17,19,-1,21,23,25,27,29,31,-1,-1,-1,-1,-1,-1,-1,-1,-1,-1,-1,-1,-1,-1],"loss_changes":[2.822219E-2,3.4353565E-2,1.05332825E-2,4.0145423E-2,7.580655E-2,0E0,0E0,1.730651E-2,2.925952E-2,3.4283724E-2,2.2555456E-2,1.4437906E-2,0E0,2.556518E-2,3.8107153E-2,3.819295E-2,1.7027626E-2,3.8289502E-2,1.9460475E-2,0E0,0E0,0E0,0E0,0E0,0E0,0E0,0E0,0E0,0E0,0E0,0E0,0E0,0E0],"parents":[2147483647,0,0,1,1,2,2,3,3,4,4,7,7,8,8,9,9,10,10,11,11,13,13,14,14,15,15,16,16,17,17,18,18],"right_children":[2,4,6,8,10,-1,-1,12,14,16,18,20,-1,22,24,26,28,30,32,-1,-1,-1,-1,-1,-1,-1,-1,-1,-1,-1,-1,-1,-1],"split_conditions":[2.409317E0,1.0666744E0,1.610438E0,-4.527316E-1,-6.4953715E-1,-1.2699977E-3,1.0029117E-3,4.5354936E-2,-1.0313135E0,2.6137945E-1,1.9411324E0,3.3523673E-1,5.2146876E-4,-3.0131856E-1,-1.2881979E0,2.3939862E0,6.77626E-1,5.4889965E-1,1.5242963E0,-1.3296705E-3,-1.0229912E-5,-2.2196658E-3,-3.247167E-4,7.762233E-4,-6.398831E-6,3.73223E-4,4.7876346E-3,-2.6161391E-3,-4.1615925E-4,-0E0,2.6345481E-3,-2.988482E-4,2.219695E-3],"split_indices":[16,0,2,9,8,0,0,7,5,6,2,1,0,10,12,0,12,2,0,0,0,0,0,0,0,0,0,0,0,0,0,0,0],"split_type":[0,0,0,0,0,0,0,0,0,0,0,0,0,0,0,0,0,0,0,0,0,0,0,0,0,0,0,0,0,0,0,0,0],"sum_hessian":[1.961E3,1.902E3,5.9E1,1.608E3,2.94E2,5.5E1,4E0,1.49E2,1.459E3,1.83E2,1.11E2,1.31E2,1.8E1,1.18E2,1.341E3,7.4E1,1.09E2,7.7E1,3.4E1,1E2,3.1E1,2.3E1,9.5E1,1.78E2,1.163E3,6.9E1,5E0,1E1,9.9E1,1.7E1,6E1,2.4E1,1E1],"tree_param":{"num_deleted":"0","num_feature":"20","num_nodes":"33","size_leaf_vector":"1"}},{"base_weights":[-1.13660644E-4,2.8263377E-2,-6.840337E-4,4.3024044E-2,-6.739057E-5,-1.5500868E-3,1.6121816E-2,2.8594912E-3,-0E0,-4.7820766E-2,-1.0971014E-3,4.6501844E-3,8.520918E-3,-4.671616E-3,-9.789778E-4,-7.775901E-4,-3.1208375E-3,-1.0256659E-3,1.4236547E-2,-8.334651E-5,1.731133E-3,1.178504E-3,-1.6007597E-4],"categories":[],"categories_nodes":[],"categories_segments":[],"categories_sizes":[],"default_left":[0,0,0,0,0,0,0,0,0,0,0,0,0,0,0,0,0,0,0,0,0,0,0],"id":24,"left_children":[1,3,5,7,-1,9,11,-1,-1,13,15,-1,17,-1,-1,19,-1,-1,21,-1,-1,-1,-1],"loss_changes":[3.002247E-2,1.8066257E-2,2.6988892E-2,1.3305262E-2,0E0,3.5538733E-2,4.7413126E-2,0E0,0E0,1.4688794E-2,3.203322E-2,0E0,1.36889145E-2,0E0,0E0,5.4719646E-2,0E0,0E0,1.2693408E-2,0E0,0E0,0E0,0E0],"parents":[2147483647,0,0,1,1,2,2,3,3,5,5,6,6,9,9,10,10,12,12,15,15,18,18],"right_children":[2,4,6,8,-1,10,12,-1,-1,14,16,-1,18,-1,-1,20,-1,-1,22,-1,-1,-1,-1],"split_conditions":[-1.6195704E-1,2.4343012E-1,2.2414112E0,-1.7098775E0,-6.739057E-5,-1.6375165E-1,-7.9020864E-1,2.8594912E-3,-0E0,-4.5285735E-2,2.7672977E0,4.6501844E-3,-1.3498183E0,-4.671616E-3,-9.789778E-4,2.4053695E0,-3.1208375E-3,-1.0256659E-3,-1.4100294E-1,-8.334651E-5,1.731133E-3,1.178504E-3,-1.6007597E-4],"split_indices":[17,19,19,11,0,7,9,0,0,0,9,0,0,0,0,9,0,0,11,0,0,0,0],"split_type":[0,0,0,0,0,0,0,0,0,0,0,0,0,0,0,0,0,0,0,0,0,0,0],"sum_hessian":[1.939E3,3.6E1,1.903E3,2.5E1,1.1E1,1.813E3,9E1,1.8E1,7E0,1.6E1,1.797E3,7E0,8.3E1,5E0,1.1E1,1.789E3,8E0,1.2E1,7.1E1,1.747E3,4.2E1,4.8E1,2.3E1],"tree_param":{"num_deleted":"0","num_feature":"20","num_nodes":"23","size_leaf_vector":"1"}},{"base_weights":[-0E0,2.7875142E-2,-6.192592E-4,2.0827595E-3,-0E0,2.9428347E-4,-1.634828E-2,-6.101644E-3,2.891994E-3,8.0897444E-4,-9.773698E-4,-1.9869867E-3,-4.4538155E-3,-1.0312943E-3,4.3188664E-3,-4.0754426E-4,4.649608E-4,3.000408E-4,-9.3745237E-4],"categories":[],"categories_nodes":[],"categories_segments":[],"categories_sizes":[],"default_left":[0,0,0,0,0,0,0,0,0,0,0,0,0,0,0,0,0,0,0],"id":25,"left_children":[1,3,5,-1,-1,7,9,11,13,-1,-1,-1,15,-1,17,-1,-1,-1,-1],"loss_changes":[3.2199413E-2,1.6247306E-2,2.8156748E-2,0E0,0E0,2.9696776E-2,1.1512985E-2,2.6165029E-2,4.229961E-2,0E0,0E0,0E0,2.497125E-2,0E0,4.6462707E-2,0E0,0E0,0E0,0E0],"parents":[2147483647,0,0,1,1,2,2,5,5,6,6,7,7,8,8,12,12,14,14],"right_children":[2,4,6,-1,-1,8,10,12,14,-1,-1,-1,16,-1,18,-1,-1,-1,-1],"split_conditions":[-1.6195704E-1,-1.6197902E0,2.0032706E0,2.0827595E-3,-0E0,3.0913274E-3,-1.0285599E-1,-1.4595646E0,-1.8658098E0,8.0897444E-4,-9.773698E-4,-1.9869867E-3,1.3537088E-1,-1.0312943E-3,1.4150652E0,-4.0754426E-4,4.649608E-4,3.000408E-4,-9.3745237E-4],"split_indices":[17,2,15,0,0,17,1,0,10,0,0,0,16,0,10,0,0,0,0],"split_type":[0,0,0,0,0,0,0,0,0,0,0,0,0,0,0,0,0,0,0],"sum_hessian":[1.943E3,4E1,1.903E3,2.7E1,1.3E1,1.796E3,1.07E2,5.13E2,1.283E3,8E0,9.9E1,2.2E1,4.91E2,7.1E1,1.212E3,3.9E2,1.01E2,1.132E3,8E1],"tree_param":{"num_deleted":"0","num_feature":"20","num_nodes":"19","size_leaf_vector":"1"}},{"base_weights":[-0E0,-1.7494781E-2,1.0065518E-3,-4.081869E-2,-1.1625482E-2,6.897132E-4,4.0817396E-3,-3.0141773E-3,-0E0,-9.381384E-4,6.3995324E-4,8.050539E-3,-1.4549148E-3,1.0669709E-2,-1.2927975E-3,-2.3508012E-2,-2.1229556E-4,-3.066382E-4,8.2806236E-4,-7.008879E-4,-2.8768696E-3,5.208421E-4,-1.1295604E-4],"categories":[],"categories_nodes":[],"categories_segments":[],"categories_sizes":[],"default_left":[0,0,0,0,0,0,0,0,0,0,0,0,0,0,0,0,0,0,0,0,0,0,0],"id":26,"left_children":[1,3,5,7,9,11,-1,-1,-1,-1,-1,13,15,17,-1,19,21,-1,-1,-1,-1,-1,-1],"loss_changes":[3.4439594E-2,1.1719838E-2,4.2336825E-2,1.2936097E-2,1.5671693E-2,2.896397E-2,0E0,0E0,0E0,0E0,0E0,3.618908E-2,3.7162833E-2,3.8832773E-2,0E0,1.9432668E-2,2.8484955E-2,0E0,0E0,0E0,0E0,0E0,0E0],"parents":[2147483647,0,0,1,1,2,2,3,3,4,4,5,5,11,11,12,12,13,13,15,15,16,16],"right_children":[2,4,6,8,10,12,-1,-1,-1,-1,-1,14,16,18,-1,20,22,-1,-1,-1,-1,-1,-1],"split_conditions":[-8.739224E-1,-8.165775E-1,2.6010551E0,-1.3949435E0,1.4596732E0,-5.291571E-1,4.0817396E-3,-3.0141773E-3,-0E0,-9.381384E-4,6.3995324E-4,-3.487684E-2,-4.527316E-1,-1.8202422E0,-1.2927975E-3,5.549585E-1,-1.0195649E0,-3.066382E-4,8.2806236E-4,-7.008879E-4,-2.8768696E-3,5.208421E-4,-1.1295604E-4],"split_indices":[8,15,0,10,11,10,0,0,0,0,0,9,9,10,0,3,2,0,0,0,0,0,0],"split_type":[0,0,0,0,0,0,0,0,0,0,0,0,0,0,0,0,0,0,0,0,0,0,0],"sum_hessian":[1.925E3,1.06E2,1.819E3,1.9E1,8.7E1,1.813E3,6E0,1.2E1,7E0,6.9E1,1.8E1,4.14E2,1.399E3,3.86E2,2.8E1,7.2E1,1.327E3,9.8E1,2.88E2,5.8E1,1.4E1,2.1E2,1.117E3],"tree_param":{"num_deleted":"0","num_feature":"20","num_nodes":"23","size_leaf_vector":"1"}},{"base_weights":[1.9737445E-4,1.403956E-3,-1.036643E-2,9.852827E-4,4.5550983E-2,6.743374E-4,-1.5912196E-2,-1.2972797E-2,2.053141E-3,7.5105176E-4,4.530176E-3,2.3952909E-2,-5.37494E-4,-2.106072E-3,-1.0436823E-2,-0E0,-1.082327E-3,2.1203881E-2,1.764008E-4,-7.4585597E-4,1.9170989E-3,-1.7067702E-2,3.1241606E-4,1.7978629E-3,-3.7645485E-4,5.6642474E-4,3.0417952E-3,-1.0500099E-3,8.8723355E-5,4.600589E-4,-1.1343043E-3],"categories":[],"categories_nodes":[],"categories_segments":[],"categories_sizes":[],"default_left":[0,0,0,0,0,0,0,0,0,0,0,0,0,0,0,0,0,0,0,0,0,0,0,0,0,0,0,0,0,0,0],"id":27,"left_children":[1,3,5,7,9,11,13,15,17,-1,-1,19,-1,-1,21,23,-1,25,27,-1,-1,29,-1,-1,-1,-1,-1,-1,-1,-1,-1],"loss_changes":[2.4637086E-2,3.037522E-2,1.2860084E-2,2.5633499E-2,1.5357792E-2,1.7676052E-2,1.6453754E-2,1.3523862E-2,5.767461E-2,0E0,0E0,1.4041547E-2,0E0,0E0,1.3151611E-2,1.3342381E-2,0E0,5.221045E-2,4.9532108E-2,0E0,0E0,1.3102267E-2,0E0,0E0,0E0,0E0,0E0,0E0,0E0,0E0,0E0],"parents":[2147483647,0,0,1,1,2,2,3,3,4,4,5,5,6,6,7,7,8,8,11,11,14,14,15,15,17,17,18,18,21,21],"right_children":[2,4,6,8,10,12,14,16,18,-1,-1,20,-1,-1,22,24,-1,26,28,-1,-1,30,-1,-1,-1,-1,-1,-1,-1,-1,-1],"split_conditions":[1.1986341E0,1.0483204E0,1.0309682E0,-1.7139175E0,1.1080891E0,7.923064E-1,4.1270435E-1,-2.1985812E-1,-7.9020864E-1,7.5105176E-4,4.530176E-3,-1.1374503E0,-5.37494E-4,-2.106072E-3,2.141175E0,1.4808742E0,-1.082327E-3,4.5354936E-2,-4.527316E-1,-7.4585597E-4,1.9170989E-3,-9.966162E-1,3.1241606E-4,1.7978629E-3,-3.7645485E-4,5.6642474E-4,3.0417952E-3,-1.0500099E-3,8.8723355E-5,4.600589E-4,-1.1343043E-3],"split_indices":[15,15,3,10,0,10,1,15,9,0,0,11,0,0,5,11,0,7,9,0,0,5,0,0,0,0,0,0,0,0,0],"split_type":[0,0,0,0,0,0,0,0,0,0,0,0,0,0,0,0,0,0,0,0,0,0,0,0,0,0,0,0,0,0,0],"sum_hessian":[1.967E3,1.77E3,1.97E2,1.755E3,1.5E1,6.3E1,1.34E2,1.21E2,1.634E3,1E1,5E0,2.2E1,4.1E1,2.1E1,1.13E2,4.9E1,7.2E1,1.43E2,1.491E3,5E0,1.7E1,8.3E1,3E1,8E0,4.1E1,1.16E2,2.7E1,1.02E2,1.389E3,1.3E1,7E1],"tree_param":{"num_deleted":"0","num_feature":"20","num_nodes":"31","size_leaf_vector":"1"}},{"base_weights":[3.9267383E-4,1.6958581E-3,-1.0959322E-2,7.776719E-5,1.0370491E-2,1.5182657E-3,-1.33156795E-2,-1.5442644E-2,1.7865845E-3,-3.5530614E-4,2.7316052E-2,-8.4368326E-4,3.6895066E-4,-1.9425068E-2,5.350546E-4,4.9915914E-3,-3.8852815E-3,3.7809464E-3,-2.146538E-3,3.6498386E-2,-1.2306768E-5,-1.2760814E-3,8.998769E-7,6.890655E-5,8.052016E-4,-7.233579E-5,-1.0828854E-3,-1.37363E-4,2.4633654E-3,1.0448348E-3,3.1421818E-3],"categories":[],"categories_nodes":[],"categories_segments":[],"categories_sizes":[],"default_left":[0,0,0,0,0,0,0,0,0,0,0,0,0,0,0,0,0,0,0,0,0,0,0,0,0,0,0,0,0,0,0],"id":28,"left_children":[1,3,5,7,9,-1,11,13,15,17,19,-1,-1,21,-1,23,25,27,-1,29,-1,-1,-1,-1,-1,-1,-1,-1,-1,-1,-1],"loss_changes":[2.8046263E-2,2.3795152E-2,1.8289242E-2,3.8198322E-2,4.997226E-2,0E0,1.4195625E-2,1.5376579E-2,2.4124086E-2,3.065536E-2,2.8517589E-2,0E0,0E0,1.6151663E-2,0E0,3.330624E-2,1.93069E-2,4.6192966E-2,0E0,2.8244331E-2,0E0,0E0,0E0,0E0,0E0,0E0,0E0,0E0,0E0,0E0,0E0],"parents":[2147483647,0,0,1,1,2,2,3,3,4,4,6,6,7,7,8,8,9,9,10,10,13,13,15,15,16,16,17,17,19,19],"right_children":[2,4,6,8,10,-1,12,14,16,18,20,-1,-1,22,-1,24,26,28,-1,30,-1,-1,-1,-1,-1,-1,-1,-1,-1,-1,-1],"split_conditions":[1.1986341E0,1.0666744E0,3.462019E-1,-4.527316E-1,-6.4953715E-1,1.5182657E-3,1.6615362E0,4.5354936E-2,7.315495E-1,1.26752E0,5.863638E-1,-8.4368326E-4,3.6895066E-4,3.552714E-1,5.350546E-4,3.967505E-1,1.3855896E0,7.426098E-1,-2.146538E-3,-2.6194348E-3,-1.2306768E-5,-1.2760814E-3,8.998769E-7,6.890655E-5,8.052016E-4,-7.233579E-5,-1.0828854E-3,-1.37363E-4,2.4633654E-3,1.0448348E-3,3.1421818E-3],"split_indices":[15,0,3,9,8,0,1,7,10,1,19,0,0,1,0,5,9,1,0,4,0,0,0,0,0,0,0,0,0,0,0],"split_type":[0,0,0,0,0,0,0,0,0,0,0,0,0,0,0,0,0,0,0,0,0,0,0,0,0,0,0,0,0,0,0],"sum_hessian":[1.926E3,1.732E3,1.94E2,1.465E3,2.67E2,9E0,1.85E2,1.42E2,1.323E3,1.62E2,1.05E2,1.6E2,2.5E1,1.25E2,1.7E1,8.51E2,4.72E2,1.47E2,1.5E1,8E1,2.5E1,9.7E1,2.8E1,6.46E2,2.05E2,4.18E2,5.4E1,1.28E2,1.9E1,5.2E1,2.8E1],"tree_param":{"num_deleted":"0","num_feature":"20","num_nodes":"31","size_leaf_vector":"1"}},{"base_weights":[4.8387167E-4,-5.295141E-4,1.3545608E-2,-2.8745351E-2,-1.5056164E-5,2.2029955E-2,-2.244245E-2,-3.14076E-3,-1.1227912E-4,-1.4045876E-2,8.88535E-4,1.3247858E-2,2.5025296E-3,-2.1524583E-3,2.5530187E-3,-5.692403E-3,-1.5102717E-3,-1.1294406E-3,1.1730345E-2,-1.2562477E-2,1.3376704E-3,-6.0583727E-4,8.170539E-4,-1.8083647E-5,-1.1411681E-3,3.9303486E-5,1.2294155E-3,-1.2397148E-3,1.3408054E-3],"categories":[],"categories_nodes":[],"categories_segments":[],"categories_sizes":[],"default_left":[0,0,0,0,0,0,0,0,0,0,0,0,0,0,0,0,0,0,0,0,0,0,0,0,0,0,0,0,0],"id":29,"left_children":[1,3,5,7,9,11,13,-1,-1,15,17,19,-1,-1,-1,21,-1,23,25,27,-1,-1,-1,-1,-1,-1,-1,-1,-1],"loss_changes":[2.637968E-2,2.4697572E-2,4.4042177E-2,2.4213145E-2,2.3110729E-2,2.5417946E-2,4.0836763E-2,0E0,0E0,1.3035363E-2,3.6865935E-2,3.2772914E-2,0E0,0E0,0E0,1.0574856E-2,0E0,2.2096574E-2,3.594235E-2,1.4922341E-2,0E0,0E0,0E0,0E0,0E0,0E0,0E0,0E0,0E0],"parents":[2147483647,0,0,1,1,2,2,3,3,4,4,5,5,6,6,9,9,10,10,11,11,15,15,17,17,18,18,19,19],"right_children":[2,4,6,8,10,12,14,-1,-1,16,18,20,-1,-1,-1,22,-1,24,26,28,-1,-1,-1,-1,-1,-1,-1,-1,-1],"split_conditions":[2.2607923E0,-1.5009793E0,-1.3554302E-1,-1.264788E-3,-8.739224E-1,-6.934106E-1,-1.0495692E0,-3.14076E-3,-1.1227912E-4,1.4877918E-1,1.0356138E0,2.3711302E0,2.5025296E-3,-2.1524583E-3,2.5530187E-3,1.5067723E0,-1.5102717E-3,1.6601044E0,-6.4953715E-1,1.5319784E0,1.3376704E-3,-6.0583727E-4,8.170539E-4,-1.8083647E-5,-1.1411681E-3,3.9303486E-5,1.2294155E-3,-1.2397148E-3,1.3408054E-3],"split_indices":[9,0,3,17,8,0,0,0,0,17,0,9,0,0,0,2,0,3,8,1,0,0,0,0,0,0,0,0,0],"split_type":[0,0,0,0,0,0,0,0,0,0,0,0,0,0,0,0,0,0,0,0,0,0,0,0,0,0,0,0,0],"sum_hessian":[1.943E3,1.8E3,1.43E2,3E1,1.77E3,1.17E2,2.6E1,1.2E1,1.8E1,1.1E2,1.66E3,9.1E1,2.6E1,2.1E1,5E0,7.5E1,3.5E1,1.396E3,2.64E2,3E1,6.1E1,6E1,1.5E1,1.351E3,4.5E1,1.45E2,1.19E2,2.4E1,6E0],"tree_param":{"num_deleted":"0","num_feature":"20","num_nodes":"29","size_leaf_vector":"1"}},{"base_weights":[4.1932577E-5,6.471076E-3,-2.0859493E-3,3.7174576E-3,2.417086E-2,-2.3338813E-2,-6.763022E-4,8.3792227E-4,3.584409E-4,5.6929225E-3,4.2430714E-2,-1.754822E-2,-3.5461956E-3,1.7637007E-2,-1.545005E-3,-1.5530554E-2,4.2033815E-3,1.2944726E-3,-1.2636414E-3,5.396764E-4,3.1383547E-3,-2.0184873E-3,-6.6119125E-3,3.125648E-2,2.5355981E-3,-1.74106E-2,-2.5775726E-4,-1.6153731E-3,6.1497634E-4,6.2951E-4,-2.4517093E-4,6.6261436E-4,-1.3356118E-3,2.6286847E-3,-2.3791183E-6,-4.121265E-4,1.8399569E-3,-5.1727175E-4,-2.6536528E-3,-5.5085355E-5,9.523537E-4],"categories":[],"categories_nodes":[],"categories_segments":[],"categories_sizes":[],"default_left":[0,0,0,0,0,0,0,0,0,0,0,0,0,0,0,0,0,0,0,0,0,0,0,0,0,0,0,0,0,0,0,0,0,0,0,0,0,0,0,0,0],"id":30,"left_children":[1,3,5,7,9,11,13,-1,15,17,19,21,-1,23,25,27,29,-1,-1,-1,-1,-1,31,33,35,37,39,-1,-1,-1,-1,-1,-1,-1,-1,-1,-1,-1,-1,-1,-1],"loss_changes":[2.688238E-2,2.246687E-2,4.248662E-2,1.7867748E-2,1.8898223E-2,1.9339908E-2,2.1012066E-2,0E0,2.0451464E-2,2.1308906E-2,1.56064965E-2,1.7608905E-2,0E0,1.0508327E-2,2.5899038E-2,3.13143E-2,2.1762602E-2,0E0,0E0,0E0,0E0,0E0,2.3409136E-2,2.2313362E-2,1.284304E-2,2.0616831E-2,1.893282E-2,0E0,0E0,0E0,0E0,0E0,0E0,0E0,0E0,0E0,0E0,0E0,0E0,0E0,0E0],"parents":[2147483647,0,0,1,1,2,2,3,3,4,4,5,5,6,6,8,8,9,9,10,10,11,11,13,13,14,14,15,15,16,16,22,22,23,23,24,24,25,25,26,26],"right_children":[2,4,6,8,10,12,14,-1,16,18,20,22,-1,24,26,28,30,-1,-1,-1,-1,-1,32,34,36,38,40,-1,-1,-1,-1,-1,-1,-1,-1,-1,-1,-1,-1,-1,-1],"split_conditions":[-7.100144E-1,2.2607923E0,-9.514113E-1,-1.8700252E-1,-6.934106E-1,4.392591E-3,-1.0950483E0,8.3792227E-4,-1.1807209E0,5.309588E-1,-4.961637E-2,-1.0596703E0,-3.5461956E-3,5.4806596E-1,-1.2400721E0,1.6601112E0,-1.2881979E0,1.2944726E-3,-1.2636414E-3,5.396764E-4,3.1383547E-3,-2.0184873E-3,-3.571409E-1,2.441179E-1,3.1278267E0,1.3855896E0,2.2414112E0,-1.6153731E-3,6.1497634E-4,6.2951E-4,-2.4517093E-4,6.6261436E-4,-1.3356118E-3,2.6286847E-3,-2.3791183E-6,-4.121265E-4,1.8399569E-3,-5.1727175E-4,-2.6536528E-3,-5.5085355E-5,9.523537E-4],"split_indices":[12,9,16,9,0,3,11,0,5,19,19,19,0,19,0,19,12,0,0,0,0,0,19,3,19,9,19,0,0,0,0,0,0,0,0,0,0,0,0,0,0],"split_type":[0,0,0,0,0,0,0,0,0,0,0,0,0,0,0,0,0,0,0,0,0,0,0,0,0,0,0,0,0,0,0,0,0,0,0,0,0,0,0,0,0],"sum_hessian":[1.948E3,4.9E2,1.458E3,4.27E2,6.3E1,8.8E1,1.37E3,8.4E1,3.43E2,3.3E1,3E1,8E1,8E0,5.9E1,1.311E3,6.4E1,2.79E2,2.1E1,1.2E1,1.3E1,1.7E1,2.4E1,5.6E1,2.9E1,3E1,9.5E1,1.216E3,4.1E1,2.3E1,1.48E2,1.31E2,2.7E1,2.9E1,1.8E1,1.1E1,2.2E1,8E0,8.1E1,1.4E1,1.168E3,4.8E1],"tree_param":{"num_deleted":"0","num_feature":"20","num_nodes":"41","size_leaf_vector":"1"}},{"base_weights":[4.7753268E-4,1.6761671E-3,-5.110132E-4,2.6268614E-3,-1.1631796E-2,-1.0644022E-2,3.7194355E-3,-1.629531E-2,1.528663E-3,-6.950286E-4,8.522651E-4,1.7717423E-2,2.0447276E-3,-4.0387944E-4,-3.844412E-2,4.8733718E-4,2.26186E-3,1.4812642E-4,-1.4667574E-3,-0E0,-2.3574387E-3],"categories":[],"categories_nodes":[],"categories_segments":[],"categories_sizes":[],"default_left":[0,0,0,0,0,0,0,0,0,0,0,0,0,0,0,0,0,0,0,0,0],"id":31,"left_children":[1,3,-1,5,7,9,11,13,-1,-1,-1,15,17,-1,19,-1,-1,-1,-1,-1,-1],"loss_changes":[2.4733182E-2,2.1939747E-2,0E0,2.3662861E-2,2.2071537E-2,1.1007259E-2,3.491947E-2,1.6538978E-2,0E0,0E0,0E0,3.2236233E-2,3.825347E-2,0E0,1.0851972E-2,0E0,0E0,0E0,0E0,0E0,0E0],"parents":[2147483647,0,0,1,1,3,3,4,4,5,5,6,6,7,7,11,11,12,12,14,14],"right_children":[2,4,-1,6,8,10,12,14,-1,-1,-1,16,18,-1,20,-1,-1,-1,-1,-1,-1],"split_conditions":[1.1986341E0,1.4150652E0,-5.110132E-4,-1.8202422E0,2.724613E-1,6.01524E-1,-7.9020864E-1,6.794905E-2,1.528663E-3,-6.950286E-4,8.522651E-4,4.5354936E-2,9.324632E-1,-4.0387944E-4,-1.3498183E0,4.8733718E-4,2.26186E-3,1.4812642E-4,-1.4667574E-3,-0E0,-2.3574387E-3],"split_indices":[15,10,0,10,1,15,9,17,0,0,0,7,2,0,0,0,0,0,0,0,0],"split_type":[0,0,0,0,0,0,0,0,0,0,0,0,0,0,0,0,0,0,0,0,0],"sum_hessian":[1.961E3,1.768E3,1.93E2,1.654E3,1.14E2,1.22E2,1.532E3,1.04E2,1E1,1.11E2,1.1E1,1.6E2,1.372E3,7.8E1,2.6E1,1.26E2,3.4E1,1.335E3,3.7E1,4E0,2.2E1],"tree_param":{"num_deleted":"0","num_feature":"20","num_nodes":"21","size_leaf_vector":"1"}},{"base_weights":[-0E0,-6.8881636E-4,8.060292E-4,4.985394E-4,3.975182E-3,-6.907262E-4,8.294035E-3,7.5688404E-3,-2.380328E-3,-8.813867E-5,2.1223122E-2,6.378625E-4,-4.0428268E-4,2.1087455E-4,-2.4292593E-4,2.6208806E-4,1.6111585E-3],"categories":[],"categories_nodes":[],"categories_segments":[],"categories_sizes":[],"default_left":[0,0,0,0,0,0,0,0,0,0,0,0,0,0,0,0,0],"id":32,"left_children":[1,-1,3,5,-1,7,9,11,13,-1,15,-1,-1,-1,-1,-1,-1],"loss_changes":[2.1023953E-2,0E0,4.03484E-2,1.7325627E-2,0E0,2.180606E-2,3.3172995E-2,2.1687128E-2,2.1584282E-2,0E0,1.7467726E-2,0E0,0E0,0E0,0E0,0E0,0E0],"parents":[2147483647,0,0,2,2,3,3,5,5,6,6,7,7,8,8,10,10],"right_children":[2,-1,4,6,-1,8,10,12,14,-1,16,-1,-1,-1,-1,-1,-1],"split_conditions":[-8.739224E-1,-6.8881636E-4,2.6010551E0,1.0356138E0,3.975182E-3,-1.1725612E0,-6.4953715E-1,1.4371471E0,-8.317554E-1,-8.813867E-5,-5.623193E-1,6.378625E-4,-4.0428268E-4,2.1087455E-4,-2.4292593E-4,2.6208806E-4,1.6111585E-3],"split_indices":[8,0,0,0,0,12,8,1,19,0,1,0,0,0,0,0,0],"split_type":[0,0,0,0,0,0,0,0,0,0,0,0,0,0,0,0,0],"sum_hessian":[1.937E3,1.04E2,1.833E3,1.827E3,6E0,1.58E3,2.47E2,2.63E2,1.317E3,1.37E2,1.1E2,2E2,6.3E1,3.54E2,9.63E2,4.7E1,6.3E1],"tree_param":{"num_deleted":"0","num_feature":"20","num_nodes":"17","size_leaf_vector":"1"}},{"base_weights":[5.8126246E-4,-1.1349978E-2,1.3037827E-3,-1.7133991E-3,-5.734603E-3,8.52228E-3,-8.07992E-4,-6.5255875E-4,7.060163E-4,-6.566978E-3,1.3066462E-2,9.250899E-3,-2.50091E-3,1.6206058E-2,-8.857129E-4,1.5706943E-2,-7.2471186E-4,-2.624762E-3,6.0913025E-4,9.893958E-3,-4.191133E-3,1.7588008E-3,-1.2455006E-4,1.2157947E-4,1.0847403E-3,2.1767768E-3,3.2922035E-4,-1.8854176E-4,-2.8926039E-3],"categories":[],"categories_nodes":[],"categories_segments":[],"categories_sizes":[],"default_left":[0,0,0,0,0,0,0,0,0,0,0,0,0,0,0,0,0,0,0,0,0,0,0,0,0,0,0,0,0],"id":33,"left_children":[1,3,5,-1,7,9,11,-1,-1,13,15,17,19,21,-1,23,-1,-1,-1,25,27,-1,-1,-1,-1,-1,-1,-1,-1],"loss_changes":[1.6474666E-2,1.1864823E-2,2.8750319E-2,0E0,1.3040353E-2,2.9612271E-2,2.4101993E-2,0E0,0E0,2.471619E-2,2.422611E-2,3.4960985E-2,2.5556581E-2,1.2495875E-2,0E0,2.2892818E-2,0E0,0E0,0E0,1.343909E-2,2.1359373E-2,0E0,0E0,0E0,0E0,0E0,0E0,0E0,0E0],"parents":[2147483647,0,0,1,1,2,2,4,4,5,5,6,6,9,9,10,10,11,11,12,12,13,13,15,15,19,19,20,20],"right_children":[2,4,6,-1,8,10,12,-1,-1,14,16,18,20,22,-1,24,-1,-1,-1,26,28,-1,-1,-1,-1,-1,-1,-1,-1],"split_conditions":[-8.739224E-1,-8.165775E-1,-5.291571E-1,-1.7133991E-3,1.4279863E0,-1.8202422E0,-1.2881979E0,-6.5255875E-4,7.060163E-4,9.47445E-1,-3.487684E-2,-2.405616E-1,-1.0738473E0,8.1418306E-1,-8.857129E-4,4.543366E-3,-7.2471186E-4,-2.624762E-3,6.0913025E-4,-1.4492121E0,2.4053695E0,1.7588008E-3,-1.2455006E-4,1.2157947E-4,1.0847403E-3,2.1767768E-3,3.2922035E-4,-1.8854176E-4,-2.8926039E-3],"split_indices":[8,15,10,0,2,10,12,0,0,12,9,10,11,3,0,17,0,0,0,0,9,0,0,0,0,0,0,0,0],"split_type":[0,0,0,0,0,0,0,0,0,0,0,0,0,0,0,0,0,0,0,0,0,0,0,0,0,0,0,0,0],"sum_hessian":[1.968E3,1.08E2,1.86E3,1.9E1,8.9E1,4.26E2,1.434E3,6.7E1,2.2E1,9.6E1,3.3E2,2.02E2,1.232E3,3E1,6.6E1,3.03E2,2.7E1,8E0,1.94E2,1.44E2,1.088E3,1.6E1,1.4E1,9.7E1,2.06E2,1.1E1,1.33E2,1.081E3,7E0],"tree_param":{"num_deleted":"0","num_feature":"20","num_nodes":"29","size_leaf_vector":"1"}},{"base_weights":[5.858116E-4,1.470776E-3,-1.2953243E-2,4.5504267E-4,9.563806E-3,-8.6591643E-4,5.471505E-3,1.7241413E-2,-9.057996E-5,3.5581312E-3,4.6816733E-2,-1.7285504E-3,1.3340601E-3,1.778937E-3,1.3713124E-4,-6.4129505E-4,2.0206286E-2,-1.2090359E-3,6.9680405E-3,6.269056E-2,-5.2003376E-4,-1.2319289E-5,-1.9454366E-3,-1.0010069E-3,1.3887811E-3,1.5884904E-3,1.7366548E-4,-1.4741211E-4,3.8058541E-3],"categories":[],"categories_nodes":[],"categories_segments":[],"categories_sizes":[],"default_left":[0,0,0,0,0,0,0,0,0,0,0,0,0,0,0,0,0,0,0,0,0,0,0,0,0,0,0,0,0],"id":34,"left_children":[1,3,5,7,9,-1,11,13,15,17,19,-1,-1,-1,-1,21,23,-1,25,27,-1,-1,-1,-1,-1,-1,-1,-1,-1],"loss_changes":[2.28534E-2,1.4610015E-2,1.0009302E-2,1.5874539E-2,4.20319E-2,0E0,1.7477144E-2,1.2525005E-2,1.6750615E-2,1.563445E-2,2.7009383E-2,0E0,0E0,0E0,0E0,2.1408413E-2,1.2693064E-2,0E0,1.1747386E-2,2.27186E-2,0E0,0E0,0E0,0E0,0E0,0E0,0E0,0E0,0E0],"parents":[2147483647,0,0,1,1,2,2,3,3,4,4,6,6,7,7,8,8,9,9,10,10,15,15,16,16,18,18,19,19],"right_children":[2,4,6,8,10,-1,12,14,16,18,20,-1,-1,-1,-1,22,24,-1,26,28,-1,-1,-1,-1,-1,-1,-1,-1,-1],"split_conditions":[2.0032706E0,1.156062E0,1.6962585E-1,-1.5638037E0,1.290065E0,-8.6591643E-4,-2.958388E-1,-1.6197902E0,2.7220495E0,2.5688611E-2,1.9411324E0,-1.7285504E-3,1.3340601E-3,1.778937E-3,1.3713124E-4,2.6466088E0,-1.3498183E0,-1.2090359E-3,1.4031346E-1,-7.199249E-1,-5.2003376E-4,-1.2319289E-5,-1.9454366E-3,-1.0010069E-3,1.3887811E-3,1.5884904E-3,1.7366548E-4,-1.4741211E-4,3.8058541E-3],"split_indices":[15,6,8,15,11,0,0,2,19,15,2,0,0,0,0,0,0,0,3,19,0,0,0,0,0,0,0,0,0],"split_type":[0,0,0,0,0,0,0,0,0,0,0,0,0,0,0,0,0,0,0,0,0,0,0,0,0,0,0,0,0],"sum_hessian":[1.954E3,1.838E3,1.16E2,1.639E3,1.99E2,9.6E1,2E1,5.4E1,1.585E3,1.73E2,2.6E1,6E0,1.4E1,2.2E1,3.2E1,1.546E3,3.9E1,1.7E1,1.56E2,2.1E1,5E0,1.532E3,1.4E1,5E0,3.4E1,1.7E1,1.39E2,3E0,1.8E1],"tree_param":{"num_deleted":"0","num_feature":"20","num_nodes":"29","size_leaf_vector":"1"}},{"base_weights":[-3.2177288E-4,-7.0010504E-4,4.4996E-4,1.985507E-4,3.2535454E-3,5.9247958E-3,-1.3867598E-3,1.2782165E-2,-1.992667E-3,8.2275765E-3,-3.0562899E-3,4.1148634E-4,2.0520075E-3,-1.0348943E-3,2.2369146E-4,-2.7109978E-3,5.0565193E-4,-2.5683353E-4,2.1586467E-4],"categories":[],"categories_nodes":[],"categories_segments":[],"categories_sizes":[],"default_left":[0,0,0,0,0,0,0,0,0,0,0,0,0,0,0,0,0,0,0],"id":35,"left_children":[1,-1,3,5,-1,7,9,11,13,15,17,-1,-1,-1,-1,-1,-1,-1,-1],"loss_changes":[2.1642791E-2,0E0,2.7216261E-2,1.7211176E-2,0E0,2.2948056E-2,2.316501E-2,2.6247926E-2,2.3657938E-2,2.2971332E-2,1.9188533E-2,0E0,0E0,0E0,0E0,0E0,0E0,0E0,0E0],"parents":[2147483647,0,0,2,2,3,3,5,5,6,6,7,7,8,8,9,9,10,10],"right_children":[2,-1,4,6,-1,8,10,12,14,16,18,-1,-1,-1,-1,-1,-1,-1,-1],"split_conditions":[-8.739224E-1,-7.0010504E-4,2.6010551E0,-5.291571E-1,3.2535454E-3,7.057904E-1,-1.2881979E0,5.9395695E-1,-4.848517E-1,-3.3169702E-1,4.9082178E-1,4.1148634E-4,2.0520075E-3,-1.0348943E-3,2.2369146E-4,-2.7109978E-3,5.0565193E-4,-2.5683353E-4,2.1586467E-4],"split_indices":[8,0,0,10,0,3,12,3,1,10,16,0,0,0,0,0,0,0,0],"split_type":[0,0,0,0,0,0,0,0,0,0,0,0,0,0,0,0,0,0,0],"sum_hessian":[1.985E3,1.09E2,1.876E3,1.87E3,6E0,4.12E2,1.458E3,2.24E2,1.88E2,2.11E2,1.247E3,1.95E2,2.9E1,5E1,1.38E2,5E0,2.06E2,9.78E2,2.69E2],"tree_param":{"num_deleted":"0","num_feature":"20","num_nodes":"19","size_leaf_vector":"1"}},{"base_weights":[-1.7244685E-4,-8.9767884E-4,1.3240027E-2,8.806619E-4,-1.2586521E-2,3.1158992E-3,7.886551E-3,2.0589838E-4,3.1997588E-2,-1.8851712E-2,-7.9220545E-4,-1.2433701E-3,1.2854363E-2,-1.021532E-3,1.5157019E-2,1.9649032E-3,-9.910193E-4,-6.309001E-5,-2.6193565E-2,4.210823E-3,-1.304236E-3,1.0886181E-3,-1.5845547E-4,-1.2746602E-3,-1.4179203E-5,2.6463246E-4,2.0426926E-3,-1.7076045E-3,-0E0,-2.2214655E-5,1.8462291E-3],"categories":[],"categories_nodes":[],"categories_segments":[],"categories_sizes":[],"default_left":[0,0,0,0,0,0,0,0,0,0,0,0,0,0,0,0,0,0,0,0,0,0,0,0,0,0,0,0,0,0,0],"id":36,"left_children":[1,3,5,7,9,-1,11,13,15,17,19,-1,21,23,25,-1,-1,-1,27,29,-1,-1,-1,-1,-1,-1,-1,-1,-1,-1,-1],"loss_changes":[1.8351914E-2,3.911907E-2,2.1598222E-2,3.209652E-2,1.7372902E-2,0E0,1.3959495E-2,2.959054E-2,1.3657954E-2,1.9208949E-2,1.247387E-2,0E0,1.2182097E-2,2.4919923E-2,2.863623E-2,0E0,0E0,0E0,2.3909874E-2,1.3025264E-2,0E0,0E0,0E0,0E0,0E0,0E0,0E0,0E0,0E0,0E0,0E0],"parents":[2147483647,0,0,1,1,2,2,3,3,4,4,6,6,7,7,8,8,9,9,10,10,12,12,13,13,14,14,18,18,19,19],"right_children":[2,4,6,8,10,-1,12,14,16,18,20,-1,22,24,26,-1,-1,-1,28,30,-1,-1,-1,-1,-1,-1,-1,-1,-1,-1,-1],"split_conditions":[2.1734447E0,7.034065E-1,-7.9020864E-1,2.3711302E0,8.2181895E-1,3.1158992E-3,-1.3498183E0,4.8378953E-1,5.4806596E-1,-5.7775337E-1,1.1787183E0,-1.2433701E-3,-1.4100294E-1,-5.193771E-2,1.3112661E0,1.9649032E-3,-9.910193E-4,-6.309001E-5,1.9370327E0,1.5265615E0,-1.304236E-3,1.0886181E-3,-1.5845547E-4,-1.2746602E-3,-1.4179203E-5,2.6463246E-4,2.0426926E-3,-1.7076045E-3,-0E0,-2.2214655E-5,1.8462291E-3],"split_indices":[19,19,9,9,16,0,0,19,19,16,12,0,11,7,11,0,0,0,19,5,0,0,0,0,0,0,0,0,0,0,0],"split_type":[0,0,0,0,0,0,0,0,0,0,0,0,0,0,0,0,0,0,0,0,0,0,0,0,0,0,0,0,0,0,0],"sum_hessian":[1.949E3,1.853E3,9.6E1,1.605E3,2.48E2,8E0,8.8E1,1.573E3,3.2E1,1.59E2,8.9E1,1E1,7.8E1,1.451E3,1.22E2,2.9E1,3E0,4.9E1,1.1E2,7.3E1,1.6E1,5.2E1,2.6E1,4E1,1.411E3,9E1,3.2E1,8.5E1,2.5E1,6.3E1,1E1],"tree_param":{"num_deleted":"0","num_feature":"20","num_nodes":"31","size_leaf_vector":"1"}},{"base_weights":[-3.927396E-4,3.3254956E-4,-1.3652338E-2,1.3640441E-3,-1.0568284E-2,9.574199E-4,-1.7023858E-2,-3.8818375E-3,3.8069426E-3,-2.0151325E-2,4.09337E-4,-2.7720548E-2,-1.6648331E-4,-1.9582275E-3,-2.1986496E-3,-7.65181E-4,5.333216E-3,-3.2817945E-2,6.23084E-5,-0E0,-1.7819783E-3,-8.608523E-4,9.2813854E-5,8.063335E-4,1.6443826E-4,-9.6164964E-4,-2.7569323E-3],"categories":[],"categories_nodes":[],"categories_segments":[],"categories_sizes":[],"default_left":[0,0,0,0,0,0,0,0,0,0,0,0,0,0,0,0,0,0,0,0,0,0,0,0,0,0,0],"id":37,"left_children":[1,3,5,7,9,-1,11,13,15,17,-1,19,-1,-1,21,-1,23,25,-1,-1,-1,-1,-1,-1,-1,-1,-1],"loss_changes":[1.9195493E-2,2.0050708E-2,1.150265E-2,2.1411361E-2,2.826929E-2,0E0,1.2390425E-2,2.9037494E-2,3.2983333E-2,2.9651046E-2,0E0,1.1868145E-2,0E0,0E0,3.1385507E-2,0E0,2.2492696E-2,1.5915677E-2,0E0,0E0,0E0,0E0,0E0,0E0,0E0,0E0,0E0],"parents":[2147483647,0,0,1,1,2,2,3,3,4,4,6,6,7,7,8,8,9,9,11,11,14,14,16,16,17,17],"right_children":[2,4,6,8,10,-1,12,14,16,18,-1,20,-1,-1,22,-1,24,26,-1,-1,-1,-1,-1,-1,-1,-1,-1],"split_conditions":[1.4150652E0,1.4831563E0,-1.3498183E0,3.0913274E-3,2.6155418E-1,9.574199E-4,1.5669575E0,-1.4595646E0,-1.8202422E0,1.9370327E0,4.09337E-4,-9.4485474E-1,-1.6648331E-4,-1.9582275E-3,-6.0138613E-1,-7.65181E-4,2.583993E-2,1.629774E-1,6.23084E-5,-0E0,-1.7819783E-3,-8.608523E-4,9.2813854E-5,8.063335E-4,1.6443826E-4,-9.6164964E-4,-2.7569323E-3],"split_indices":[10,5,0,17,17,0,10,0,10,19,0,6,0,0,4,0,17,7,0,0,0,0,0,0,0,0,0],"split_type":[0,0,0,0,0,0,0,0,0,0,0,0,0,0,0,0,0,0,0,0,0,0,0,0,0,0,0],"sum_hessian":[1.926E3,1.823E3,1.03E2,1.67E3,1.53E2,8E0,9.5E1,5.24E2,1.146E3,1.03E2,5E1,5.1E1,4.4E1,2.2E1,5.02E2,8.2E1,1.064E3,6.6E1,3.7E1,1.1E1,4E1,1.09E2,3.93E2,1.65E2,8.99E2,4.3E1,2.3E1],"tree_param":{"num_deleted":"0","num_feature":"20","num_nodes":"27","size_leaf_vector":"1"}},{"base_weights":[5.5081915E-4,-1.2514021E-4,1.4270731E-2,1.1954434E-3,-8.49818E-3,3.341327E-3,9.112973E-3,3.151481E-2,7.079936E-4,1.6613326E-3,-1.09993545E-2,-1.0268701E-3,1.4164251E-2,-3.9807646E-4,4.5101967E-2,-4.248999E-3,3.1106772E-3,-1.7203918E-2,-0E0,1.09165E-3,-1.2518502E-4,5.5712013E-4,3.5712295E-3,-4.4793618E-4,3.315071E-4,-5.494802E-4,2.543156E-4,-1.8023055E-5,-1.1061305E-3,2.3943516E-4,-1.2873822E-3],"categories":[],"categories_nodes":[],"categories_segments":[],"categories_sizes":[],"default_left":[0,0,0,0,0,0,0,0,0,0,0,0,0,0,0,0,0,0,0,0,0,0,0,0,0,0,0,0,0,0,0],"id":38,"left_children":[1,3,5,7,9,-1,11,13,15,-1,17,-1,19,-1,21,23,25,27,29,-1,-1,-1,-1,-1,-1,-1,-1,-1,-1,-1,-1],"loss_changes":[1.8686023E-2,2.0765405E-2,2.1514658E-2,2.1854416E-2,2.5839996E-2,0E0,1.2931868E-2,1.4641289E-2,1.8594932E-2,0E0,1.5972089E-2,0E0,1.0772204E-2,0E0,1.20109655E-2,2.5995579E-2,2.930299E-2,1.1588994E-2,1.200693E-2,0E0,0E0,0E0,0E0,0E0,0E0,0E0,0E0,0E0,0E0,0E0,0E0],"parents":[2147483647,0,0,1,1,2,2,3,3,4,4,6,6,7,7,8,8,10,10,12,12,14,14,15,15,16,16,17,17,18,18],"right_children":[2,4,6,8,10,-1,12,14,16,-1,18,-1,20,-1,22,24,26,28,30,-1,-1,-1,-1,-1,-1,-1,-1,-1,-1,-1,-1],"split_conditions":[2.1734447E0,6.6888326E-1,-1.5468359E0,-1.7416791E0,-1.225115E0,3.341327E-3,-1.3498183E0,-1.7235811E0,4.543366E-3,1.6613326E-3,8.2181895E-1,-1.0268701E-3,-1.4100294E-1,-3.9807646E-4,-4.961637E-2,8.1713796E-2,-6.6382945E-1,-5.7775337E-1,2.409317E0,1.09165E-3,-1.2518502E-4,5.5712013E-4,3.5712295E-3,-4.4793618E-4,3.315071E-4,-5.494802E-4,2.543156E-4,-1.8023055E-5,-1.1061305E-3,2.3943516E-4,-1.2873822E-3],"split_indices":[19,19,10,11,16,0,0,3,17,0,16,0,11,0,19,16,8,16,16,0,0,0,0,0,0,0,0,0,0,0,0],"split_type":[0,0,0,0,0,0,0,0,0,0,0,0,0,0,0,0,0,0,0,0,0,0,0,0,0,0,0,0,0,0,0],"sum_hessian":[1.938E3,1.844E3,9.4E1,1.588E3,2.56E2,7E0,8.7E1,2.3E1,1.565E3,1.3E1,2.43E2,1.1E1,7.6E1,5E0,1.8E1,5.04E2,1.061E3,1.53E2,9E1,5.4E1,2.2E1,9E0,9E0,3.55E2,1.49E2,1.27E2,9.34E2,3.7E1,1.16E2,7.5E1,1.5E1],"tree_param":{"num_deleted":"0","num_feature":"20","num_nodes":"31","size_leaf_vector":"1"}},{"base_weights":[5.8428047E-4,-5.2653713E-4,1.2708699E-3,9.981878E-4,4.0442203E-3,-4.8680892E-4,7.7646826E-3,4.1075055E-3,-3.3837415E-3,1.6186727E-2,-2.5087182E-4,2.6367718E-4,-1.371553E-3,-1.2630845E-3,-7.2248564E-5,1.7405286E-3,2.2599222E-4],"categories":[],"categories_nodes":[],"categories_segments":[],"categories_sizes":[],"default_left":[0,0,0,0,0,0,0,0,0,0,0,0,0,0,0,0,0],"id":39,"left_children":[1,-1,3,5,-1,7,9,11,13,15,-1,-1,-1,-1,-1,-1,-1],"loss_changes":[1.4062544E-2,0E0,3.4866046E-2,1.8367175E-2,0E0,1.9449096E-2,3.596262E-2,1.9540165E-2,3.7011974E-2,4.15199E-2,0E0,0E0,0E0,0E0,0E0,0E0,0E0],"parents":[2147483647,0,0,2,2,3,3,5,5,6,6,7,7,8,8,9,9],"right_children":[2,-1,4,6,-1,8,10,12,14,16,-1,-1,-1,-1,-1,-1,-1],"split_conditions":[-8.739224E-1,-5.2653713E-4,2.6010551E0,7.298333E-1,4.0442203E-3,-5.172866E-1,6.6888326E-1,5.1444376E-1,-9.514113E-1,6.252248E-1,-2.5087182E-4,2.6367718E-4,-1.371553E-3,-1.2630845E-3,-7.2248564E-5,1.7405286E-3,2.2599222E-4],"split_indices":[8,0,0,6,0,12,19,6,16,10,0,0,0,0,0,0,0],"split_type":[0,0,0,0,0,0,0,0,0,0,0,0,0,0,0,0,0],"sum_hessian":[1.902E3,1.06E2,1.796E3,1.791E3,5E0,1.463E3,3.28E2,5.59E2,9.04E2,2E2,1.28E2,5.41E2,1.8E1,7.1E1,8.33E2,7.5E1,1.25E2],"tree_param":{"num_deleted":"0","num_feature":"20","num_nodes":"17","size_leaf_vector":"1"}},{"base_weights":[3.5881743E-4,-4.294403E-4,1.0367255E-2,-9.5188426E-4,1.8300543E-2,1.7457673E-2,-1.964777E-2,-2.233515E-2,-2.2491031E-4,4.8314437E-4,2.7376905E-3,9.574564E-3,3.8406074E-2,-1.7464135E-3,2.3913349E-3,-1.0837893E-4,-4.3267533E-2,-2.3150451E-2,1.2790938E-4,1.9758234E-2,-5.777862E-4,2.4995683E-3,-0E0,-3.1399548E-3,-9.019457E-5,-2.0297193E-3,6.1737106E-4,8.6776505E-5,-2.7632946E-4,2.1566865E-3,3.8120427E-4],"categories":[],"categories_nodes":[],"categories_segments":[],"categories_sizes":[],"default_left":[0,0,0,0,0,0,0,0,0,0,0,0,0,0,0,0,0,0,0,0,0,0,0,0,0,0,0,0,0,0,0],"id":40,"left_children":[1,3,5,7,9,11,13,15,17,-1,-1,19,21,-1,-1,-1,23,25,27,29,-1,-1,-1,-1,-1,-1,-1,-1,-1,-1,-1],"loss_changes":[1.5610932E-2,1.6476054E-2,3.0814353E-2,2.570806E-2,1.0841245E-2,1.698602E-2,2.7512982E-2,2.0688815E-2,1.4680761E-2,0E0,0E0,1.9568056E-2,1.12422705E-2,0E0,0E0,0E0,1.7364375E-2,1.8691583E-2,1.4773312E-2,1.4741652E-2,0E0,0E0,0E0,0E0,0E0,0E0,0E0,0E0,0E0,0E0,0E0],"parents":[2147483647,0,0,1,1,2,2,3,3,4,4,5,5,6,6,7,7,8,8,11,11,12,12,16,16,17,17,18,18,19,19],"right_children":[2,4,6,8,10,12,14,16,18,-1,-1,20,22,-1,-1,-1,24,26,28,30,-1,-1,-1,-1,-1,-1,-1,-1,-1,-1,-1],"split_conditions":[2.2607923E0,2.3950648E0,-1.3554302E-1,-5.193771E-2,-1.0313135E0,-6.934106E-1,-1.0495692E0,-3.48768E-2,-1.5009793E0,4.8314437E-4,2.7376905E-3,-8.507833E-1,1.4371471E0,-1.7464135E-3,2.3913349E-3,-1.0837893E-4,1.20369956E-1,1.2637468E-1,9.3117714E-2,4.8378953E-1,-5.777862E-4,2.4995683E-3,-0E0,-3.1399548E-3,-9.019457E-5,-2.0297193E-3,6.1737106E-4,8.6776505E-5,-2.7632946E-4,2.1566865E-3,3.8120427E-4],"split_indices":[9,19,3,7,5,0,0,15,0,0,0,0,1,0,0,0,0,19,17,19,0,0,0,0,0,0,0,0,0,0,0],"split_type":[0,0,0,0,0,0,0,0,0,0,0,0,0,0,0,0,0,0,0,0,0,0,0,0,0,0,0,0,0,0,0],"sum_hessian":[1.915E3,1.771E3,1.44E2,1.726E3,4.5E1,1.18E2,2.6E1,5.4E1,1.672E3,3.8E1,7E0,8.8E1,3E1,2.2E1,4E0,2.9E1,2.5E1,2.7E1,1.645E3,6.1E1,2.7E1,2.2E1,8E0,1.6E1,9E0,1.9E1,8E0,1.288E3,3.57E2,1.9E1,4.2E1],"tree_param":{"num_deleted":"0","num_feature":"20","num_nodes":"31","size_leaf_vector":"1"}},{"base_weights":[6.705117E-5,-7.006454E-4,9.935223E-3,-1.2625292E-3,9.1677404E-4,1.4615951E-2,-1.1057218E-2,-2.5655648E-2,-5.4462807E-4,2.106953E-2,-0E0,-1.5181275E-3,7.8798784E-4,-7.4407566E-5,-2.225804E-3,1.1119171E-3,-1.0933923E-3,3.2677867E-2,-0E0,-1.03297755E-2,1.9468587E-3,1.8709926E-4,-1.2870049E-4,1.924063E-3,-1.8300359E-4,-1.141826E-3,1.3994606E-3],"categories":[],"categories_nodes":[],"categories_segments":[],"categories_sizes":[],"default_left":[0,0,0,0,0,0,0,0,0,0,0,0,0,0,0,0,0,0,0,0,0,0,0,0,0,0,0],"id":41,"left_children":[1,3,5,7,-1,9,11,13,15,17,19,-1,-1,-1,-1,-1,21,23,-1,25,-1,-1,-1,-1,-1,-1,-1],"loss_changes":[1.502961E-2,1.8191619E-2,1.4359042E-2,2.9004762E-2,0E0,1.1539437E-2,1.3653303E-2,1.9317605E-2,2.0015335E-2,1.8994011E-2,1.45185515E-2,0E0,0E0,0E0,0E0,0E0,1.1741434E-2,1.2882851E-2,0E0,1.4199706E-2,0E0,0E0,0E0,0E0,0E0,0E0,0E0],"parents":[2147483647,0,0,1,1,2,2,3,3,5,5,6,6,7,7,8,8,9,9,10,10,16,16,17,17,19,19],"right_children":[2,4,6,8,-1,10,12,14,16,18,20,-1,-1,-1,-1,-1,22,24,-1,26,-1,-1,-1,-1,-1,-1,-1],"split_conditions":[2.2607923E0,2.3950648E0,-1.3554302E-1,-5.193771E-2,9.1677404E-4,6.942616E-1,2.2414112E0,-3.48768E-2,-4.1288763E-2,1.0646908E0,1.0646908E0,-1.5181275E-3,7.8798784E-4,-7.4407566E-5,-2.225804E-3,1.1119171E-3,-8.317554E-1,1.4371471E0,-0E0,1.5319784E0,1.9468587E-3,1.8709926E-4,-1.2870049E-4,1.924063E-3,-1.8300359E-4,-1.141826E-3,1.3994606E-3],"split_indices":[9,19,3,7,0,17,19,15,7,19,19,0,0,0,0,0,19,1,0,1,0,0,0,0,0,0,0],"split_type":[0,0,0,0,0,0,0,0,0,0,0,0,0,0,0,0,0,0,0,0,0,0,0,0,0,0,0],"sum_hessian":[1.922E3,1.779E3,1.43E2,1.731E3,4.8E1,1.19E2,2.4E1,4.7E1,1.684E3,8.3E1,3.6E1,1.5E1,9E0,2.2E1,2.5E1,3.7E1,1.647E3,5.2E1,3.1E1,2.9E1,7E0,3.78E2,1.269E3,4.6E1,6E0,2.3E1,6E0],"tree_param":{"num_deleted":"0","num_feature":"20","num_nodes":"27","size_leaf_vector":"1"}},{"base_weights":[1.7394191E-4,8.996998E-4,-3.1467114E-4,3.278501E-4,-5.759257E-4,-4.5157536E-3,2.3148495E-3,-1.6234532E-3,-2.9399197E-3,3.386272E-3,-1.47084035E-2,-4.3159278E-4,2.7066836E-4,-5.983905E-4,2.2310158E-4,-9.991984E-4,1.2839377E-3],"categories":[],"categories_nodes":[],"categories_segments":[],"categories_sizes":[],"default_left":[0,0,0,0,0,0,0,0,0,0,0,0,0,0,0,0,0],"id":42,"left_children":[1,-1,3,5,-1,7,9,-1,11,13,15,-1,-1,-1,-1,-1,-1],"loss_changes":[1.777424E-2,0E0,1.4134582E-2,1.702151E-2,0E0,2.066923E-2,2.2613328E-2,0E0,2.3268048E-2,1.9430876E-2,1.541906E-2,0E0,0E0,0E0,0E0,0E0,0E0],"parents":[2147483647,0,0,2,2,3,3,5,5,6,6,8,8,9,9,10,10],"right_children":[2,-1,4,6,-1,8,10,-1,12,14,16,-1,-1,-1,-1,-1,-1],"split_conditions":[-7.2414674E-2,8.996998E-4,2.0032706E0,3.0913274E-3,-5.759257E-4,-1.4595646E0,1.4150652E0,-1.6234532E-3,1.3798808E-1,-1.8658098E0,8.54705E-2,-4.3159278E-4,2.7066836E-4,-5.983905E-4,2.2310158E-4,-9.991984E-4,1.2839377E-3],"split_indices":[17,0,15,17,0,0,10,0,12,10,1,0,0,0,0,0,0],"split_type":[0,0,0,0,0,0,0,0,0,0,0,0,0,0,0,0,0],"sum_hessian":[1.939E3,5.4E1,1.885E3,1.779E3,1.06E2,5.1E2,1.269E3,2.5E1,4.85E2,1.197E3,7.2E1,2.92E2,1.93E2,7.5E1,1.122E3,6.5E1,7E0],"tree_param":{"num_deleted":"0","num_feature":"20","num_nodes":"17","size_leaf_vector":"1"}},{"base_weights":[-0E0,7.54891E-4,-4.1514132E-4,3.657608E-3,-2.019058E-3,1.1469995E-2,-2.5154909E-3,-8.627327E-3,4.9559327E-5,7.1194344E-3,3.9098054E-2,-1.1228224E-2,5.5756536E-3,-1.4653308E-3,-3.2634004E-3,4.6570404E-4,-1.3911877E-3,4.864914E-4,-1.1067706E-3,-2.1024456E-4,2.4816028E-3,2.9547692E-3,-7.170667E-4,-1.2421222E-4,9.425715E-4,8.746551E-5,-9.247695E-4,4.2326245E-4,-1.5388883E-4],"categories":[],"categories_nodes":[],"categories_segments":[],"categories_sizes":[],"default_left":[0,0,0,0,0,0,0,0,0,0,0,0,0,0,0,0,0,0,0,0,0,0,0,0,0,0,0,0,0],"id":43,"left_children":[1,-1,3,5,7,9,11,13,15,17,19,21,23,-1,25,-1,27,-1,-1,-1,-1,-1,-1,-1,-1,-1,-1,-1,-1],"loss_changes":[1.22940885E-2,0E0,1.2316898E-2,2.5901703E-2,1.9163808E-2,2.5976662E-2,2.0863509E-2,3.5205312E-2,1.4264346E-2,1.5257126E-2,1.6288389E-2,2.9601805E-2,1.6731484E-2,0E0,2.1201706E-2,0E0,1.4613605E-2,0E0,0E0,0E0,0E0,0E0,0E0,0E0,0E0,0E0,0E0,0E0,0E0],"parents":[2147483647,0,0,2,2,3,3,4,4,5,5,6,6,7,7,8,8,9,9,10,10,11,11,12,12,14,14,16,16],"right_children":[2,-1,4,6,8,10,12,14,16,18,20,22,24,-1,26,-1,28,-1,-1,-1,-1,-1,-1,-1,-1,-1,-1,-1,-1],"split_conditions":[-1.5638037E0,7.54891E-4,-5.291571E-1,7.057904E-1,-1.0385848E-1,6.037064E-1,4.0726584E-1,-4.652878E-3,-1.2881979E0,7.940856E-1,-7.157343E-1,-7.8589183E-1,1.610438E0,-1.4653308E-3,-3.165078E-1,4.6570404E-4,-1.0738473E0,4.864914E-4,-1.1067706E-3,-2.1024456E-4,2.4816028E-3,2.9547692E-3,-7.170667E-4,-1.2421222E-4,9.425715E-4,8.746551E-5,-9.247695E-4,4.2326245E-4,-1.5388883E-4],"split_indices":[15,0,10,3,10,3,19,17,12,19,19,16,2,0,10,0,11,0,0,0,0,0,0,0,0,0,0,0,0],"split_type":[0,0,0,0,0,0,0,0,0,0,0,0,0,0,0,0,0,0,0,0,0,0,0,0,0,0,0,0,0],"sum_hessian":[1.949E3,5.2E1,1.897E3,5.27E2,1.37E3,2.36E2,2.91E2,3.32E2,1.038E3,2.06E2,3E1,1.43E2,1.48E2,6.6E1,2.66E2,1.44E2,8.94E2,1.91E2,1.5E1,5E0,2.5E1,5E0,1.38E2,9E1,5.8E1,1.98E2,6.8E1,1.26E2,7.68E2],"tree_param":{"num_deleted":"0","num_feature":"20","num_nodes":"29","size_leaf_vector":"1"}},{"base_weights":[-3.0123102E-4,-9.1085624E-4,1.1480743E-2,-3.4904983E-2,-5.1289756E-4,1.9098358E-2,-5.365374E-4,-3.7134667E-3,-5.47765E-4,6.946724E-4,-8.439004E-3,2.811695E-4,1.8633945E-3,3.2126673E-2,1.7814258E-4,-0E0,-1.346844E-2,-3.56773E-4,2.2816807E-3,-6.411714E-4,7.447038E-5,-9.472982E-4,-0E0],"categories":[],"categories_nodes":[],"categories_segments":[],"categories_sizes":[],"default_left":[0,0,0,0,0,0,0,0,0,0,0,0,0,0,0,0,0,0,0,0,0,0,0],"id":44,"left_children":[1,3,5,7,9,11,-1,-1,-1,13,15,-1,-1,17,19,-1,21,-1,-1,-1,-1,-1,-1],"loss_changes":[1.3127245E-2,2.2726594E-2,1.5664125E-2,1.3715841E-2,1.7546752E-2,1.4521768E-2,0E0,0E0,0E0,2.3555143E-2,1.05746575E-2,0E0,0E0,1.455003E-2,2.5484439E-2,0E0,1.1101298E-2,0E0,0E0,0E0,0E0,0E0,0E0],"parents":[2147483647,0,0,1,1,2,2,3,3,4,4,5,5,9,9,10,10,13,13,14,14,16,16],"right_children":[2,4,6,8,10,12,-1,-1,-1,14,16,-1,-1,18,20,-1,22,-1,-1,-1,-1,-1,-1],"split_conditions":[2.2414112E0,-1.6375165E-1,2.4606577E-1,2.9259168E-2,7.034065E-1,2.5362477E-1,-5.365374E-4,-3.7134667E-3,-5.47765E-4,-1.3980681E0,3.0820483E-1,2.811695E-4,1.8633945E-3,-1.6531606E0,-9.966162E-1,-0E0,9.043117E-1,-3.56773E-4,2.2816807E-3,-6.411714E-4,7.447038E-5,-9.472982E-4,-0E0],"split_indices":[19,7,17,0,19,12,0,0,0,5,6,0,0,10,5,0,16,0,0,0,0,0,0],"split_type":[0,0,0,0,0,0,0,0,0,0,0,0,0,0,0,0,0,0,0,0,0,0,0],"sum_hessian":[1.9E3,1.811E3,8.9E1,1.9E1,1.792E3,6.8E1,2.1E1,6E0,1.3E1,1.55E3,2.42E2,4.1E1,2.7E1,2.3E1,1.527E3,8.9E1,1.53E2,5E0,1.8E1,1.36E2,1.391E3,1.08E2,4.5E1],"tree_param":{"num_deleted":"0","num_feature":"20","num_nodes":"23","size_leaf_vector":"1"}},{"base_weights":[-0E0,-9.888362E-4,5.363876E-3,3.646509E-4,-1.0746423E-2,2.9774425E-3,3.7944086E-3,-1.0690646E-2,1.3274893E-3,-1.7818693E-3,-7.8155445E-3,1.0071216E-2,-5.9915795E-3,6.245233E-4,-2.796094E-2,2.6426655E-3,-7.316104E-3,-2.1309068E-3,-9.5932337E-4,3.7158118E-4,2.3971535E-3,-2.8501643E-2,-0E0,-3.2415506E-3,4.3051082E-4,-1.8821907E-3,8.4709405E-4,9.748373E-5,1.2832045E-3,-4.89819E-4,1.0114001E-3,-2.4742953E-4,1.5696958E-3,5.4901827E-4,-2.3110888E-3],"categories":[],"categories_nodes":[],"categories_segments":[],"categories_sizes":[],"default_left":[0,0,0,0,0,0,0,0,0,0,0,0,0,0,0,0,0,0,0,0,0,0,0,0,0,0,0,0,0,0,0,0,0,0,0],"id":45,"left_children":[1,3,5,7,9,-1,11,13,15,-1,17,19,21,23,25,27,29,31,-1,-1,-1,33,-1,-1,-1,-1,-1,-1,-1,-1,-1,-1,-1,-1,-1],"loss_changes":[1.02141965E-2,2.20943E-2,2.2189805E-2,1.4765845E-2,1.2533899E-2,0E0,1.8200897E-2,2.2969056E-2,1.4787238E-2,0E0,1.083969E-2,1.519699E-2,1.4274989E-2,3.1705424E-2,2.1136846E-2,1.6964907E-2,1.1157223E-2,1.0704898E-2,0E0,0E0,0E0,1.775743E-2,0E0,0E0,0E0,0E0,0E0,0E0,0E0,0E0,0E0,0E0,0E0,0E0,0E0],"parents":[2147483647,0,0,1,1,2,2,3,3,4,4,6,6,7,7,8,8,10,10,11,11,12,12,13,13,14,14,15,15,16,16,17,17,21,21],"right_children":[2,4,6,8,10,-1,12,14,16,-1,18,20,22,24,26,28,30,32,-1,-1,-1,34,-1,-1,-1,-1,-1,-1,-1,-1,-1,-1,-1,-1,-1],"split_conditions":[1.1370786E0,6.577488E-1,-7.8589183E-1,-1.0313135E0,-7.6133096E-1,2.9774425E-3,2.0227657E-1,-1.3219233E0,7.637559E-1,-1.7818693E-3,9.088994E-1,1.2303045E0,7.932627E-1,-3.0131856E-1,-3.8067108E-1,2.3711302E0,4.102666E-1,4.794868E-1,-9.5932337E-4,3.7158118E-4,2.3971535E-3,1.3574934E0,-0E0,-3.2415506E-3,4.3051082E-4,-1.8821907E-3,8.4709405E-4,9.748373E-5,1.2832045E-3,-4.89819E-4,1.0114001E-3,-2.4742953E-4,1.5696958E-3,5.4901827E-4,-2.3110888E-3],"split_indices":[0,2,16,5,1,0,4,4,19,0,12,19,12,10,1,9,0,1,0,0,0,2,0,0,0,0,0,0,0,0,0,0,0,0,0],"split_type":[0,0,0,0,0,0,0,0,0,0,0,0,0,0,0,0,0,0,0,0,0,0,0,0,0,0,0,0,0,0,0,0,0,0,0],"sum_hessian":[1.932E3,1.633E3,2.99E2,1.43E3,2.03E2,7E0,2.92E2,1.1E2,1.32E3,1.9E1,1.84E2,1.81E2,1.11E2,6.5E1,4.5E1,1.151E3,1.69E2,1.26E2,5.8E1,1.71E2,1E1,2.2E1,8.9E1,6E0,5.9E1,3.8E1,7E0,1.12E3,3.1E1,1.57E2,1.2E1,1.18E2,8E0,6E0,1.6E1],"tree_param":{"num_deleted":"0","num_feature":"20","num_nodes":"35","size_leaf_vector":"1"}}]},"name":"gbtree"},"learner_model_param":{"base_score":"[7.188984E-3]","boost_from_average":"1","num_class":"0","num_feature":"20","num_target":"1"},"objective":{"name":"reg:squarederror","reg_loss_param":{"scale_pos_weight":"1"}}},"version":[3,2,0]}